4.853147916634165636e-03
2.517071065696815588e-02
1.293727568830259703e-02
-4.508272904094829184e-03
-1.336513919728635723e-02
-1.754713603912284869e-02
-1.962714350092958568e-02
1.208655737952869444e-02
-2.728050371370473854e-04
-1.378973844567499892e-04
-8.995085882464756537e-05
-1.708983027347072325e-04
-2.304967777652114304e-04
-2.618435472350533807e-04
-2.728009063728348217e-04
1.436692814526251616e-03
5.867011124626394267e-05
2.084804056572558701e-03
9.363577062056393976e-04
-2.760768792647932349e-04
-8.722872431220109321e-04
-1.147744615146133705e-03
-1.343619041171396911e-03
5.598959046798723891e-04
7.390264554302962809e-04
1.804274392810257003e-03
6.422883697160045296e-04
-4.649003933926152744e-04
-9.495332774595910191e-04
-1.124542986633714475e-03
-1.280400807772818800e-03
6.337882473021814837e-04
-1.563750664264773485e-04
2.325706897911223973e-03
1.540332441672456797e-03
-2.336987189959045190e-04
-1.290313861192496836e-03
-1.842668321283446025e-03
-2.031786118364001595e-03
1.688802746678646095e-03
5.906826392047462423e-04
2.837836959335171896e-03
1.977736353461362513e-03
-2.665169621050413680e-04
-1.903220730069295989e-03
-2.409958837236865145e-03
-2.767530393845616960e-03
1.940970971255538864e-03
3.044613669189984509e-03
1.208087036854452526e-02
5.591372349960883892e-03
-2.736897534013034167e-03
-6.514678243844019938e-03
-8.352698844403910056e-03
-9.151171010462418737e-03
6.038589245027996613e-03
5.507697590583328292e-05
3.246108326423803071e-04
2.018431683187469326e-04
-4.559861847600016311e-05
-1.934635819973356066e-04
-1.886712713320992684e-04
-2.498938640753173204e-04
9.609635901379179519e-05
3.069344712271529735e-04
1.758092511486288598e-03
1.241691658730921868e-03
-1.917809633700747233e-04
-9.006544752761822068e-04
-1.231172923425570597e-03
-1.416475796054939788e-03
4.333655166824034138e-04
1.394513533388776577e-05
4.269912268833939270e-05
2.341728756254559321e-05
1.218676813729052963e-05
-2.020669839427016276e-05
-2.750355974347322858e-05
-2.476991680995065990e-05
-1.976813877436921820e-05
1.111546112111192874e-03
1.838381788765995270e-03
7.447664774347325951e-04
-5.143547961430996497e-04
-1.073991366155981238e-03
-1.438480873612541910e-03
-1.576235016845175477e-03
9.083676744448764516e-04
5.440966097102196118e-05
2.945508587032828816e-04
1.837727315797881922e-04
-4.936936307954248641e-05
-1.824225686746334886e-04
-1.753073811652135488e-04
-2.340974677846818178e-04
1.084635294499784557e-04
-2.685902675224129289e-05
8.870519086575741525e-05
3.782228454635471116e-05
-9.561586296106152196e-06
-2.051766220025036703e-05
-2.222214098852464569e-05
-3.708010506545880572e-05
-1.028695410953086965e-05
3.541248227626007961e-06
7.624284727458707149e-05
4.675869072213639526e-06
-7.435177610751991903e-06
-2.624468989388384005e-05
-2.294108327091847691e-05
-1.999453833171974590e-05
-7.844475467152665907e-06
-3.727179317219047369e-05
1.149151425788522417e-04
5.142315582631886101e-05
7.627666402702326401e-06
-2.698135346624265217e-05
-3.547960613230811305e-05
-9.068693576294699365e-05
1.645372372581478820e-05
3.690086669782498806e-05
1.379377417138461079e-04
3.542822160041145588e-05
-8.618595564444206475e-06
-7.782745440368247277e-05
-8.326419467038123612e-05
-1.152595950677484291e-04
7.470300969417380114e-05
6.673149348113367710e-07
3.005997393909745600e-05
1.807043673895879798e-05
3.770744603542347437e-06
-1.104101332270220607e-05
-1.336389016688558075e-05
-1.579639629063553640e-05
-1.236717043618661984e-05
3.656602866464500249e-07
9.262801419348524903e-05
5.379309634755871352e-05
-3.182190471681596881e-05
-1.849281075042404293e-05
-6.801354040292980339e-05
-5.448342927803520407e-05
2.602491432051460800e-05
1.323904239824603137e-05
1.414225913649533735e-05
2.949705022005299238e-05
7.669507671527431734e-06
-5.754754994956353932e-06
-3.545587663697173230e-05
-5.792745266034147073e-05
3.459022486594778107e-05
2.477698833082402237e-05
5.741958047548044084e-05
1.599212053498364486e-05
-1.207117336764217908e-05
-2.100768259123109060e-05
-3.061209056969970717e-05
-2.264640866166812741e-05
-1.185133415104700889e-05
5.050283391706514365e-07
7.659553349388212537e-06
2.867220696703784381e-06
7.509164303783898110e-07
3.525233482936305826e-06
-9.120225702433282553e-06
-3.961808532039285335e-06
-2.225918064104776739e-06
2.667562568899226695e-05
4.098011537163896625e-04
2.992754431261048713e-04
-5.733194608311477413e-05
-1.604123300486090704e-04
-2.415774558766776428e-04
-3.177646388828106981e-04
4.133414835972542542e-05
3.137562156508666260e-04
1.273621293762853407e-03
9.908789628693618744e-04
-1.681588638506690690e-04
-7.003371550955347089e-04
-1.002007718476061703e-03
-1.060834488366634108e-03
3.530817535058167049e-04
3.452396899804882945e-06
3.243834674663304690e-06
1.357201932181041902e-05
-4.094754989142402591e-06
-3.998215365998925270e-06
-3.951057467016579122e-06
-3.925388630959210795e-06
-4.298834443161480834e-06
1.274360426158031704e-05
7.789426228656826123e-05
2.922316498301346499e-05
-7.582295429163286203e-07
-2.979507426520657239e-05
-3.670870296025132345e-05
-3.632991603051176967e-05
-1.626910873227604436e-05
1.521427152420751524e-05
4.650519393054210584e-05
3.486076596310712459e-05
-1.458317104970242314e-05
-1.888816965760766419e-05
-2.106031582928638725e-05
-2.851810160863601552e-05
-1.353047327262428267e-05
2.262558768593345059e-05
6.459730477481365435e-05
3.643225605869928815e-05
-8.688696786525673216e-06
-1.977247523728355006e-05
-3.683532382378576118e-05
-5.682536149237239152e-05
-1.533291179478975403e-06
-2.026540134202335098e-06
-2.494774671319955203e-06
5.432353188086033017e-06
1.604668278406800515e-05
-1.589268014094990707e-06
-6.584601898672260751e-06
-3.977413864622902655e-06
-4.806437389241596927e-06
-2.581209028494137089e-06
1.800573646691800941e-04
4.769933076337764361e-05
-1.365981221427212385e-06
-6.669067423640866134e-05
-8.800310851242778025e-05
-1.024637015505678673e-04
3.334797911676791915e-05
1.829457717532149139e-05
2.673902129494472573e-03
1.336032917477339129e-03
-6.100919017511138810e-04
-1.430024114541304184e-03
-1.790737090913694903e-03
-1.931576047300614333e-03
1.734199530359594853e-03
1.697279954206073880e-05
2.864783251701603738e-05
1.656801944647535239e-05
-8.064276158985306985e-06
-1.528134194580797766e-05
-9.978491086397150357e-06
-1.497591171774078293e-05
-1.388863059662091403e-05
1.761733347809105305e-06
3.553955894391779496e-05
1.635488814617936927e-05
1.030932779322196079e-05
-1.185508986148165996e-05
-1.913640962272390128e-05
-1.639280557598750022e-05
-1.658120317093516674e-05
3.351707414937764860e-05
8.593265234026140206e-05
4.487310412294950212e-05
-8.124472219840267708e-06
-2.696452318590897187e-05
-3.898697061996194975e-05
-4.370958773575844261e-05
-4.653727685111889881e-05
1.430386580885789193e-03
4.491205266000753392e-03
1.743081198455798076e-03
-9.020241474342181225e-04
-2.406956444620481951e-03
-3.104429081257968799e-03
-3.503180319805585495e-03
2.251916947775914682e-03
5.824631668145244029e-04
1.257397183844453925e-03
4.086519297008668031e-04
-3.799814786554448626e-04
-7.232034071444023472e-04
-8.385786093237532169e-04
-9.239902506018375346e-04
6.172414653655928845e-04
9.991551004667688875e-06
6.810154695451031952e-05
3.087802538231809198e-05
-2.539461866982644559e-06
-7.752494470164949026e-06
-3.974756330673105811e-05
-6.209470577978401388e-05
3.163102082166551218e-06
2.642369022036889230e-04
1.539687291180143018e-03
9.746259363419700105e-04
-2.496280631563949927e-04
-1.024622718273741039e-03
-1.247454121562734759e-03
-1.491718937563500744e-03
1.234873710830571101e-03
1.146766201421711400e-05
1.640290085957425237e-04
8.306519111670930967e-05
-2.793752819334335228e-05
-9.360423084056409171e-05
-9.854451132599006393e-05
-1.328351999928133100e-04
9.435960862604196207e-05
5.159810140306738991e-05
3.988100287587445568e-04
1.163035178256334478e-04
-1.020472847584538169e-04
-1.704733805021548009e-04
-2.087999200070357142e-04
-2.495182652905020282e-04
1.641272025707007692e-04
-2.887831985431027785e-05
9.378046672974022120e-04
4.565308596120897563e-04
-1.684779803604877701e-04
-4.366607198821975374e-04
-5.766510319168811037e-04
-6.744527734660927957e-04
4.907852985704775706e-04
4.119598144125849823e-05
1.439958837359733498e-04
7.085434493284050589e-05
-3.066304066092448465e-05
-5.972532888490512406e-05
-9.348298052952618204e-05
-1.001085204584341738e-04
2.793366042371762072e-05
-4.722374388902681212e-05
3.385177338257737856e-04
3.483757214793436053e-04
-9.273095666855127729e-05
-2.009522646966051935e-04
-2.324850432771389467e-04
-3.232987555403792502e-04
2.097973087665842785e-04
5.599482173776827414e-06
2.519229282110026274e-06
2.841357351209327675e-06
7.578543525782584719e-07
-1.553331751333294864e-06
-1.438501919720342173e-06
-6.476790083711455265e-06
-2.249299404909349333e-06
-2.097781488571146260e-05
9.513232604115702767e-05
1.584197997710506237e-05
1.151667205871286956e-06
-2.529222092858797932e-05
-2.963220349912828135e-05
-4.198809460500445219e-05
5.764360694298807136e-06
5.187100520762449808e-05
1.574318351318736533e-04
4.585909785756588449e-05
-5.340358808587585796e-05
-4.947117705906168840e-05
-8.330459038870581957e-05
-1.027441716749802526e-04
3.376158901155956233e-05
2.401537861270188918e-05
4.365387087388378006e-05
1.237417663499299869e-04
-6.304305567817527729e-06
-4.707365932741564327e-05
-6.114302589774013650e-05
-6.815119400810777488e-05
-8.738831035434627121e-06
2.862149644501318663e-04
2.517064279725132227e-03
1.447138980346222327e-03
-6.177371674882040087e-04
-1.241788412125551314e-03
-1.577952088117883303e-03
-1.691398195803539822e-03
8.784576390136913764e-04
-9.537916936099797641e-06
1.703449241883538373e-04
8.408402926546779230e-05
-2.579646074062673042e-05
-7.042203854564396920e-05
-8.902094696752132325e-05
-1.033997758988916354e-04
4.374818563496179070e-05
1.981714345675466313e-04
5.603169045581651809e-04
3.203527762467927946e-04
-9.268952119639773302e-05
-3.619179064007019557e-04
-4.410997105018221167e-04
-4.487814307075042603e-04
2.656474534339213641e-04
-1.039620288896933906e-04
5.400713441553626690e-04
2.201015646930473669e-04
-7.167700326136928167e-05
-1.986563215494967628e-04
-2.573892861800759595e-04
-2.395493373130893049e-04
1.110610683453146366e-04
-1.110979842719706606e-07
1.503478140945898657e-04
5.571548874793481475e-05
-1.449826306443862840e-06
-4.659108881346245897e-05
-7.307577194259948347e-05
-9.520565827186492193e-05
1.037014047611804834e-05
-6.291185020794984767e-06
2.779127362486238668e-04
9.970776754268854502e-05
-6.227875473554873224e-05
-1.395510766888383776e-04
-1.949992298315290603e-04
-1.857216493111687897e-04
2.112213917965675091e-04
-4.516649844288144573e-06
1.057966935492129583e-05
8.150047871702759955e-06
-4.415167257865195674e-06
3.338330222412665155e-06
-4.263050984745493989e-06
-4.235308703132492727e-06
-4.637870659005386778e-06
-2.611337784800717759e-06
7.359503784504767870e-06
7.493321270291651418e-06
2.602524172511617727e-06
-2.387355480237810508e-06
-4.884074604194397612e-06
-2.303313735712620670e-06
-5.269267622362486231e-06
-2.040046597290805784e-06
1.378081754725866352e-04
1.198700951156284023e-04
2.216789923463349208e-05
-6.100934215811574228e-05
-7.975295039072765560e-05
-1.196843943576855193e-04
-1.735943631902882401e-05
2.657163281949107708e-05
1.010845010354646329e-04
6.819741741546147336e-05
-3.753794311546300769e-05
-4.830231874072399951e-05
-3.461023118145572890e-05
-5.196298353908160067e-05
-2.344007469369281942e-05
3.264457370010574277e-04
1.298149668155029095e-03
1.003110417119392611e-03
-1.688889894864640238e-05
-8.785980117955554921e-04
-1.162504715674129736e-03
-1.275811456282115999e-03
7.060972604249683053e-04
-1.076539210446421093e-05
9.017844987584423540e-05
2.868344641782602126e-05
-2.183422645079518279e-05
-1.012169717070230605e-05
-4.001131994113196467e-05
-4.729479037156227044e-05
1.116552974498567147e-05
-1.523216990668288763e-05
8.944335639746365564e-05
9.257045654709676163e-05
-7.856782791777343987e-06
-2.107339978361910852e-05
-5.580216337428370467e-05
-5.020795159003444731e-05
-3.184134549816288449e-05
3.787306226782266084e-05
6.989651700241503716e-05
5.753806369867918826e-05
-8.837135732957810538e-06
-5.599431660717934313e-05
-6.945743385930556058e-05
-8.380825915574701399e-05
5.278950238627283352e-05
4.693704646771338620e-05
1.455829485017006060e-04
8.355746321869366767e-05
-3.444313462455395194e-05
-3.984118308751913122e-05
-9.873683380722471955e-05
-1.153734291962959705e-04
1.231712252748619126e-05
4.680969964657421536e-05
1.180518770787990186e-04
3.466063037823923567e-05
-1.442973371459744728e-05
-3.007085953429101035e-05
-5.197981935854643627e-05
-6.418312243099270388e-05
-3.885867206518480067e-05
-8.298796811280972300e-05
8.335878284615555424e-04
4.626164359075256825e-04
2.501685476870131402e-05
-6.171032717924889366e-04
-9.406047562513756991e-04
-9.519191430923053298e-04
1.271394020111197339e-03
3.671208292902916483e-06
7.006218937819507257e-06
1.581116339972254983e-05
1.993422863998413698e-06
-1.768156829070324169e-05
-7.141561015707090487e-06
-6.966998481051328773e-06
3.308114293018273680e-06
5.934712447614762171e-06
2.908142673297757335e-06
6.476162717141479806e-07
-6.581453647474850584e-06
3.838536590133245619e-06
1.393332656866962941e-06
-6.200216363024796582e-06
-1.940670629127227292e-06
-1.293166580298004257e-06
1.270765264960056412e-05
5.818131785526130104e-06
1.465525840928323374e-05
-5.091438851607773751e-06
-2.219389568986545353e-06
-2.244621522343473815e-05
-2.130832620082866667e-06
-2.713829134235767914e-05
4.087596989961524304e-04
1.631031166931359215e-04
9.271909502089085910e-06
-1.365573305492257276e-04
-2.135780065085207940e-04
-2.367349893900080730e-04
3.287389259873483590e-05
0.000000000000000000e+00
0.000000000000000000e+00
0.000000000000000000e+00
0.000000000000000000e+00
0.000000000000000000e+00
0.000000000000000000e+00
0.000000000000000000e+00
0.000000000000000000e+00
1.394513533388776577e-05
4.269912268833939270e-05
2.341728756254559321e-05
1.218676813729052963e-05
-2.020669839427016276e-05
-2.750355974347322858e-05
-2.476991680995065990e-05
-1.976813877436921820e-05
3.822185404251888716e-05
1.216141162658135777e-04
1.244479213480367873e-04
-1.114154051907205888e-05
-7.636345130134824849e-05
-5.680668277824723478e-05
-1.094546748464720519e-04
-3.051754221122956155e-05
1.618780692850308418e-05
1.729367424374693039e-04
5.932481023175146590e-05
-3.822782256047044616e-05
-1.060591173732852266e-04
-1.185006983869663479e-04
-1.246427929382097795e-04
1.389810716612079088e-04
-2.685902675224129289e-05
8.870519086575741525e-05
3.782228454635471116e-05
-9.561586296106152196e-06
-2.051766220025036703e-05
-2.222214098852464569e-05
-3.708010506545880572e-05
-1.028695410953086965e-05
-9.507123091403363028e-06
-5.269143021502071340e-06
2.949700276656471337e-06
1.390498918378412646e-05
6.640166980784868820e-06
-8.481914594502966737e-06
-8.387769556318503523e-06
8.151093822501443096e-06
3.541248227626007961e-06
7.624284727458707149e-05
4.675869072213639526e-06
-7.435177610751991903e-06
-2.624468989388384005e-05
-2.294108327091847691e-05
-1.999453833171974590e-05
-7.844475467152665907e-06
-6.758785991388762807e-06
7.577458936236259332e-05
1.557294735350727590e-05
-8.581072147551103104e-06
-1.812087290591362401e-05
-1.526454766613852550e-05
-2.530669193963015352e-05
-1.731556606524770113e-05
-2.323245273213776988e-05
4.475197640219500311e-05
3.323139746960384136e-05
2.618604744088534914e-06
-1.519419201200676903e-05
-1.143066758723053266e-05
-5.669227127779306088e-05
2.594760499328074756e-05
2.226568642739416097e-06
-3.422801642032744915e-07
-3.308892734487230394e-07
-3.148553776192315495e-07
-3.064555291071217555e-07
-3.024762844360831729e-07
-3.002029892052827143e-07
-3.294090247196997974e-07
4.069495238044086165e-05
1.540659168135295775e-04
4.250557692664838215e-05
-5.924316196998465562e-06
-5.820603959418586528e-05
-9.467910306566153439e-05
-9.629268359932695808e-05
1.783569633555389953e-05
-3.794085682615881218e-06
-1.612817509968353399e-05
-7.077355326236922883e-06
-2.694279367445740067e-06
-1.962141480949659733e-05
1.141490839528024406e-05
-1.896691146842146764e-05
5.686731335861990499e-05
6.673149348113367710e-07
3.005997393909745600e-05
1.807043673895879798e-05
3.770744603542347437e-06
-1.104101332270220607e-05
-1.336389016688558075e-05
-1.579639629063553640e-05
-1.236717043618661984e-05
3.656602866464500249e-07
9.262801419348524903e-05
5.379309634755871352e-05
-3.182190471681596881e-05
-1.849281075042404293e-05
-6.801354040292980339e-05
-5.448342927803520407e-05
2.602491432051460800e-05
1.323904239824603137e-05
1.414225913649533735e-05
2.949705022005299238e-05
7.669507671527431734e-06
-5.754754994956353932e-06
-3.545587663697173230e-05
-5.792745266034147073e-05
3.459022486594778107e-05
2.477698833082402237e-05
5.741958047548044084e-05
1.599212053498364486e-05
-1.207117336764217908e-05
-2.100768259123109060e-05
-3.061209056969970717e-05
-2.264640866166812741e-05
-1.185133415104700889e-05
-6.774205923125446926e-07
4.266854067373252795e-06
-7.411281920342608672e-07
1.948250825645849778e-06
4.570932327522035504e-06
-3.045705364642997842e-06
-3.026506517538651100e-06
-3.295276554012681669e-06
8.960616929339007700e-07
6.700368552853277167e-07
8.126296818169070019e-07
-1.542958258628758566e-06
1.107593195971191013e-06
-3.945433479913022273e-06
-1.369789350033574808e-06
3.371859662568027769e-06
2.863872385492951474e-07
2.722662426729633825e-06
2.795719206921137082e-06
3.456238633612984935e-07
-2.153292040556920479e-06
-2.129086857877262437e-06
4.344873355329423728e-07
-2.302501172660124110e-06
-6.874699528325084885e-06
2.980168205343865988e-04
2.255588860164763304e-04
-3.369479237026286794e-05
-1.021598293290514460e-04
-1.569928320974674576e-04
-2.111083947354187482e-04
-1.274515849033731515e-05
5.152251517243893467e-05
1.183108195378892226e-04
3.449345442915442505e-05
-2.036589305589435076e-05
-4.403945729001121280e-05
-4.828645738665015229e-05
-5.805351493967907394e-05
-3.358146646724778579e-05
-1.336999484833882233e-05
3.993639296135261088e-05
5.589595137308418695e-05
-1.419760384993497965e-05
-4.913117881710217879e-05
-1.304858803396700940e-04
-1.086824175765678475e-04
2.200347310971771566e-04
3.734187402022927241e-05
2.629126825062456040e-04
1.558084724588324832e-04
-2.877150054601287810e-05
-1.082953455404484736e-04
-1.559216897519212692e-04
-1.822159151891778622e-04
1.914142204225327930e-05
-1.862528610553432627e-05
-8.892911709111793136e-06
8.238668062624373369e-06
1.852126968284087242e-05
9.630017524907692107e-06
-4.074402065410417451e-05
-3.787794729385145090e-05
6.975021049222881878e-05
-4.305329195018416420e-05
3.036784233273242465e-04
1.754319711357472391e-04
-3.064260851191154168e-06
-1.243348008384234952e-04
-1.520420283945511880e-04
-1.607845973267078691e-04
4.168584897986485009e-06
3.652734006659086514e-04
6.389015506874734735e-04
4.534028105653608101e-04
-1.294685576739869196e-04
-3.787495912684941827e-04
-4.669175497302039735e-04
-5.058277913689507646e-04
2.338572812289297997e-05
7.725211979789854517e-06
3.772785490290344636e-05
1.430460523782929724e-04
-1.489242694369525558e-05
-6.569707544358511326e-05
-5.927768512267023431e-05
-7.132302072954618019e-05
2.269108897851051685e-05
7.790342182735281876e-06
7.127138853070617277e-06
1.262328743295656707e-05
3.026909490506997599e-06
7.985809568353098211e-07
-1.179712100490149849e-05
-6.609628079883374154e-06
-1.295950983131989295e-05
1.545427538249924276e-06
1.366694058351122918e-06
1.422881304153653631e-05
-3.464533995613540058e-06
-3.382189987606325439e-06
-3.342246861215702448e-06
-3.320582193806397508e-06
-3.631381599895617414e-06
1.906969361554957823e-06
1.877140616312181560e-06
-6.567937197261234257e-07
-6.302209935288628515e-07
-6.160253783926011014e-07
-6.088106058008765679e-07
-6.048064371528139219e-07
-6.674528432658618318e-07
-2.486211399436363812e-06
2.598812847453267445e-05
2.988236858759539815e-05
-1.426881958374896609e-06
-1.326703908920515309e-05
-2.048940637912423287e-05
-2.282100109258064686e-05
4.620042856593236730e-06
1.522981566101668085e-05
5.190613381203560371e-05
-6.592036045819189643e-07
6.686524154585685176e-07
-1.652803517600142608e-05
-1.621929658112709058e-05
-1.350891493793111603e-05
-2.088915158886928787e-05
1.521427152420751524e-05
4.650519393054210584e-05
3.486076596310712459e-05
-1.458317104970242314e-05
-1.888816965760766419e-05
-2.106031582928638725e-05
-2.851810160863601552e-05
-1.353047327262428267e-05
2.262558768593345059e-05
6.459730477481365435e-05
3.643225605869928815e-05
-8.688696786525673216e-06
-1.977247523728355006e-05
-3.683532382378576118e-05
-5.682536149237239152e-05
-1.533291179478975403e-06
-2.026540134202335098e-06
-2.494774671319955203e-06
5.432353188086033017e-06
1.604668278406800515e-05
-1.589268014094990707e-06
-6.584601898672260751e-06
-3.977413864622902655e-06
-4.806437389241596927e-06
5.182419807574539154e-07
1.357303200764085503e-04
4.863147213890193138e-05
-3.811829203877320121e-06
-6.953188718703036549e-05
-7.317320915123005248e-05
-8.772691015668038965e-05
4.936380150275017099e-05
-6.510133710468245141e-07
4.403314292283513375e-06
-6.659691131674820633e-07
-6.275861251815323913e-07
-6.090652617048149526e-07
-6.006360249652185414e-07
-5.964397456852799232e-07
-6.526046505323609887e-07
-2.448437638204765643e-06
3.992373030048802871e-05
-2.661722623568096713e-07
3.073434107631642456e-06
3.450278212326501530e-06
-1.422926333623254216e-05
-1.414035164820216316e-05
-1.536321773544989752e-05
1.697279954206073880e-05
2.864783251701603738e-05
1.656801944647535239e-05
-8.064276158985306985e-06
-1.528134194580797766e-05
-9.978491086397150357e-06
-1.497591171774078293e-05
-1.388863059662091403e-05
1.761733347809105305e-06
3.553955894391779496e-05
1.635488814617936927e-05
1.030932779322196079e-05
-1.185508986148165996e-05
-1.913640962272390128e-05
-1.639280557598750022e-05
-1.658120317093516674e-05
-1.528822369654476415e-05
7.640073278967022543e-05
4.745275385785612980e-05
1.210001659442834163e-06
-2.061657793133477430e-05
-3.029244132299156942e-05
-3.001774080207931465e-05
-2.884850455401876624e-05
4.880529784592240936e-05
9.531919550591169850e-06
-2.579649734906645468e-06
-9.334473879283101237e-06
-6.347945254574209430e-06
-8.694529296970380329e-06
-1.369184693367911102e-05
-1.768877229710014612e-05
8.655901596497282907e-05
4.629987403545393946e-04
9.589293093721370598e-05
-4.867154136909967061e-05
-1.466772439342982760e-04
-1.742503561996706506e-04
-1.905600569753255721e-04
-8.529148877833201108e-05
2.774493356689772391e-04
3.747507481899185777e-04
1.127864393497948813e-04
-1.406687104224128620e-04
-2.214652898639931408e-04
-2.366754409259985595e-04
-2.619786776664394614e-04
9.580159567015327144e-05
2.086148945263187186e-04
2.247279981288040059e-04
1.137621277764650131e-04
-1.358462337050247472e-04
-2.655132041115654219e-04
-2.874003244729287157e-04
-3.199399638894590133e-04
4.615947057473902826e-04
0.000000000000000000e+00
0.000000000000000000e+00
0.000000000000000000e+00
0.000000000000000000e+00
0.000000000000000000e+00
0.000000000000000000e+00
0.000000000000000000e+00
0.000000000000000000e+00
9.839920654255749925e-06
1.949196971711917030e-04
8.621043163739310793e-05
-5.479499315890751498e-05
-8.954766923454531881e-05
-1.402524877251558333e-04
-1.515115520706131896e-04
1.451366527263813009e-04
9.991551004667688875e-06
6.810154695451031952e-05
3.087802538231809198e-05
-2.539461866982644559e-06
-7.752494470164949026e-06
-3.974756330673105811e-05
-6.209470577978401388e-05
3.163102082166551218e-06
1.790906211417196101e-05
4.298834807871464747e-06
1.907960363133451404e-05
-1.608299487652822547e-05
-3.739987198705618213e-05
-3.917584143214684900e-05
-4.639719720492096181e-05
9.776840494727431080e-05
7.661573121918731594e-05
4.856053301097415270e-04
2.006531133391309591e-04
-3.933619542120801499e-05
-2.510685454406003081e-04
-2.733490705655694346e-04
-3.340546589822616323e-04
1.349342957415798454e-04
2.212803870246991497e-06
5.210593462846269358e-05
2.692082814953048166e-05
-1.650600760765738755e-05
-6.875032195623504588e-05
-9.756537250411661481e-05
-6.092734576904400648e-05
1.625094811888129151e-04
-6.185679469681886806e-06
1.992738058296207246e-04
1.660671552362520426e-04
-4.663224956036977550e-05
-1.286488422572490040e-04
-1.405972193414393621e-04
-1.515686363024666727e-04
1.082916658653338017e-04
1.067561994487912694e-04
1.694561831012566350e-04
3.036988165091475376e-05
-4.692464570093373419e-05
-9.427059942172468952e-05
-1.423908121617597166e-04
-1.842577408553066351e-04
1.612615339387621816e-04
2.928597615401202803e-05
4.872807513838731271e-04
3.676944723039164155e-04
-5.758617273316611612e-05
-2.611362679836188856e-04
-3.470936432235463987e-04
-4.471614796391723025e-04
2.287163637377018341e-04
2.147390675934866670e-05
4.555064836340379410e-05
3.159246746002754682e-05
-5.767848970261549843e-06
-3.825499809933490122e-05
-3.417959466408210185e-05
-6.647883698474573529e-05
4.606425613564426788e-05
-2.201173065019228209e-05
1.763579203430349222e-05
2.489305775163905279e-05
5.350878724563012839e-06
-2.086031391057696226e-05
-1.998405100652812691e-05
-3.224500040320530162e-05
4.722136745999715060e-05
3.779444181429280367e-05
2.171363335992757088e-05
3.072039635865925629e-05
-1.770881526799806334e-05
-8.111289822277325157e-05
-1.014816217611745283e-04
-8.730351408188499946e-05
1.973783778009512830e-04
-6.042672794196149922e-06
-4.543271406323753796e-06
1.808562744500350633e-05
-9.390428542552790964e-06
-2.056237340639470988e-05
5.886171345651156784e-07
-2.962060137375063679e-05
5.148510294364939943e-05
-1.262430785290557530e-05
1.029154513221245158e-04
2.665094281163079946e-05
-5.411534053456711222e-06
-2.403051280685589017e-05
-4.870340411439925634e-05
-4.318458587092106410e-05
4.387950564783216627e-06
8.086023675799017162e-07
5.788699091353698953e-05
2.476037032253847986e-05
-1.244825875652961221e-05
-3.356910629653756114e-05
-3.525146782419488165e-05
-4.754318355008986996e-05
4.535605282369652516e-05
5.523920218308117583e-06
6.311264200946840300e-05
1.688644322039889353e-05
-3.011552577580568156e-06
-3.207725012579880770e-05
-3.899429327621686933e-05
-4.625668408473046419e-05
3.481677461615127875e-05
7.097369358185454677e-05
2.969029893260061929e-05
-8.432468134858763265e-07
-3.185293308202263689e-05
-4.092369467082004094e-05
-3.662064192780419155e-05
-6.373530814497912285e-05
7.331183212465667252e-05
-2.489951239709524311e-05
3.060070878166756022e-04
1.002603214187204345e-04
-6.718279909885061570e-05
-9.747243570553595904e-05
-1.331849848030146669e-04
-1.395262730607924344e-04
5.599859582989279085e-05
-8.299038819348393938e-05
2.836768050367907148e-04
1.716900976085059720e-04
-1.948489320378608597e-05
-1.151223416410795079e-04
-1.695496993883449936e-04
-1.851991642163807687e-04
1.169795839977784868e-04
6.023214621978477661e-05
3.002129637758004367e-04
8.419139572669327015e-05
-9.303394273349985483e-05
-1.586719521673139201e-04
-2.300117644712198247e-04
-2.604725710811055099e-04
2.975537247308607616e-04
-6.120077880611178615e-06
3.539148984848111690e-04
2.006493662768905548e-04
-5.595914442320194451e-05
-1.628664260738039602e-04
-1.770895680573163938e-04
-2.287810381686065985e-04
7.625198984183848483e-05
8.494956795453796269e-06
2.860064016701300443e-05
2.012928012965508505e-05
4.812480878385765452e-06
-1.429584822082738898e-05
-2.897310075478038208e-05
-2.354013819240267585e-05
4.771729197502795706e-06
1.381889527935432095e-05
-7.582801255875516182e-07
5.528334409360408136e-06
-1.072940312307417608e-05
-2.263319300720056907e-06
-1.462708393669376770e-05
-2.207471604603384631e-05
3.110557284339466889e-05
1.888212936645040303e-05
1.161535236945478752e-04
4.519673039382500338e-05
-2.474611841623608249e-05
-4.316616136335766631e-05
-4.988279583805204243e-05
-5.449366621999761432e-05
-7.943641617179854041e-06
3.896783558890904738e-05
8.805658418344514691e-05
8.471268526716244356e-05
-5.196603551806235820e-05
-5.650652275133083349e-05
-7.033560465502109035e-05
-7.976159467143478657e-05
4.683265255633241721e-05
-7.197449026489389373e-05
2.167022641882293305e-04
1.754100926779868154e-04
-4.968594316432377078e-05
-1.175594693326051187e-04
-1.185757482960500921e-04
-1.878193458400414855e-04
1.535026400316981269e-04
-1.515764643681985233e-05
2.608050019549283804e-05
7.326324923918586926e-05
-1.445113010871260539e-06
-1.585113155454738113e-05
-2.562864745453516486e-05
-2.795647862515471542e-05
-1.330473235275030041e-05
9.405572237778559627e-07
7.678385258606333004e-06
1.498969429500834834e-05
1.036613502470607538e-05
-1.103514105812184663e-05
-1.794504287153249775e-05
-2.776133640374830330e-05
2.276674853130406030e-05
5.599482173776827414e-06
2.519229282110026274e-06
2.841357351209327675e-06
7.578543525782584719e-07
-1.553331751333294864e-06
-1.438501919720342173e-06
-6.476790083711455265e-06
-2.249299404909349333e-06
-2.097781488571146260e-05
9.513232604115702767e-05
1.584197997710506237e-05
1.151667205871286956e-06
-2.529222092858797932e-05
-2.963220349912828135e-05
-4.198809460500445219e-05
5.764360694298807136e-06
-1.370844268991667776e-06
3.022458942015179297e-05
1.844485829509038034e-05
-1.080360755368150743e-05
-2.463265986604459921e-06
-1.233610692211467794e-05
-1.725984343571774736e-05
-4.435779548132102287e-06
5.324184947661617941e-05
1.272072457117218061e-04
2.741423956247552449e-05
-4.259998053219434205e-05
-4.700791107245724923e-05
-7.096848346659114502e-05
-8.548432823926242730e-05
3.819736855969167733e-05
2.401537861270188918e-05
4.365387087388378006e-05
1.237417663499299869e-04
-6.304305567817527729e-06
-4.707365932741564327e-05
-6.114302589774013650e-05
-6.815119400810777488e-05
-8.738831035434627121e-06
-3.668494963737812273e-05
3.505226761773385025e-05
5.837514990499141745e-05
1.428289183366270587e-06
-1.923949077850988968e-05
-4.364481928909299331e-05
-5.326564093665679510e-05
5.797919393554626697e-05
1.735470583104099779e-06
3.316450933596336905e-05
3.659054744788439432e-06
-5.027412459705330175e-06
-1.951184553989406554e-05
-1.401674490509506816e-05
-1.891208183484708685e-05
1.890905007568562425e-05
2.541156211817423717e-05
1.021281472346566180e-04
2.204982461568794007e-05
-2.219733746428767909e-05
-3.167070222724001398e-05
-3.135938277333324823e-05
-3.122205312738780424e-05
-3.314005837627007680e-05
-2.289280769343388444e-05
-2.141846728755352801e-05
-2.331547779839083449e-05
-1.984682152250151827e-05
-1.938867305350349920e-05
-6.419141774584331822e-06
-6.308951841389897919e-06
1.195903409713574840e-04
-7.071416804098957143e-05
2.345498917736957886e-04
1.393853446914515776e-04
-3.268090526829737548e-05
-8.182167768463052750e-05
-1.231088051310799984e-04
-1.016674254871319921e-04
3.605774514698218683e-05
-1.035505315526991952e-05
3.269399196692205473e-04
1.040316977999866915e-04
-1.914927647057041164e-05
-9.744597081136268193e-05
-1.278613392744116801e-04
-1.315729599845674453e-04
-4.458701777302506811e-05
-6.423443602585697629e-06
2.669727220443971909e-05
2.068908832862090464e-05
-4.641760627290066088e-08
-1.465077547616491685e-06
-1.878732287761688687e-05
-3.125634004310779400e-05
1.059224114413915158e-05
5.334224589417245723e-06
2.930785707129253048e-05
1.495667161629679764e-05
-4.114992182843595057e-06
-8.527427010440690299e-06
-1.330344189151779378e-05
-1.312636485878909040e-05
-1.052652733341541108e-05
8.836964447555807289e-07
-4.501417349829264680e-06
3.315683394267592933e-06
3.573572788819516174e-06
8.816320392501778130e-06
-1.315456691938936302e-06
-3.826162360185564314e-06
-6.946236618390707647e-06
-8.668483216317627604e-07
8.732100528347477495e-05
7.934543696633215696e-05
2.115029251697923883e-05
-5.890997169724907282e-05
-4.543409573920461519e-05
-7.056872048244011274e-05
-1.203709852626055694e-05
-9.676757072461688823e-07
-1.016541736791135886e-06
1.563214810110989756e-06
1.605443717951247214e-06
-9.231862953112347956e-07
-9.126331904494400937e-07
-9.068066131629571754e-07
1.558185014898700075e-06
-1.110979842719706606e-07
1.503478140945898657e-04
5.571548874793481475e-05
-1.449826306443862840e-06
-4.659108881346245897e-05
-7.307577194259948347e-05
-9.520565827186492193e-05
1.037014047611804834e-05
1.626398790584610726e-05
3.067937534301775964e-04
1.278854591629592543e-04
-4.278502618797883945e-05
-1.231470307866039979e-04
-1.839568140809030427e-04
-1.748149054885364160e-04
7.376057604503937187e-05
-2.255517292664109880e-05
-2.888101718155375338e-05
-2.817769162027067203e-05
-1.949372854756988602e-05
-1.640404590223436623e-05
-1.104241575062602098e-05
-1.090674382263231438e-05
1.374608157515281237e-04
-4.516649844288144573e-06
1.057966935492129583e-05
8.150047871702759955e-06
-4.415167257865195674e-06
3.338330222412665155e-06
-4.263050984745493989e-06
-4.235308703132492727e-06
-4.637870659005386778e-06
-2.611337784800717759e-06
7.359503784504767870e-06
7.493321270291651418e-06
2.602524172511617727e-06
-2.387355480237810508e-06
-4.884074604194397612e-06
-2.303313735712620670e-06
-5.269267622362486231e-06
2.424117681069930832e-05
7.910715817364062142e-05
6.104423495421728966e-05
-3.516635803184881936e-05
-4.373224952918694600e-05
-2.255759773420026851e-05
-4.510378129527547000e-05
-1.783258334804573248e-05
1.499282507000346917e-07
2.251528765303775249e-05
5.031905848719995036e-06
-7.193657959163174026e-06
-1.819790931949249026e-06
-9.340118622411608618e-06
-4.167311536999935336e-06
-5.176242701933827869e-06
2.180527758091730093e-06
-5.379447912137526024e-07
2.121276612524189508e-06
4.822072875548967909e-06
-2.750278279587814434e-06
-2.712514824843858966e-06
-2.691890706806213972e-06
-4.312486437132463708e-07
-5.191226564346609020e-06
2.217091644943678148e-05
1.445043611789662355e-05
-2.635364065359980135e-05
-5.023386758877202904e-05
-6.865839836505651034e-05
-6.757123508641242106e-05
1.813870156908539200e-04
4.998950110714201991e-05
7.659554958248328998e-05
6.380553475950242993e-05
-1.952578758964093551e-05
-4.333891494854949126e-05
-4.511601519312026688e-05
-4.981222051686837312e-05
-3.259764720094877129e-05
-6.634208151760923123e-06
1.941227253428161404e-05
3.058329111549055486e-07
2.044511403830399380e-06
-1.236594770335676221e-05
-1.450238158153574352e-05
-2.449176523969382298e-05
3.623168582708033371e-05
1.128710937469866604e-06
4.634014305938126985e-05
3.356561733358559899e-05
-7.261548216820400799e-06
-5.669091313383603563e-05
-7.260903040791482905e-05
-6.900271523825799824e-05
1.245297356663925363e-04
-2.215210611958142535e-05
8.301786691926308259e-05
6.866456292853560523e-05
6.134119819089031570e-05
-6.218472675392880573e-05
-1.139107670243042180e-04
-9.514361104226326288e-05
8.036758290138876269e-05
9.630940644817283659e-05
3.305037511355896030e-04
2.003751009041013773e-04
-3.036286278980880707e-05
-2.093536806499505317e-04
-2.190356427356561942e-04
-3.079246311847359894e-04
1.394885588722878070e-04
-3.955330283137451836e-05
1.518790641759746208e-04
1.485607829252160058e-04
5.436391027278876016e-05
-7.424703233295693202e-05
-1.222250105581131974e-04
-1.257446967012897934e-04
6.966285049755066331e-06
1.642083853041997573e-04
2.432777792132288211e-04
1.601110117519406468e-04
-9.235221700882303368e-05
-1.382327123669620640e-04
-1.755251385028921496e-04
-1.890431713567584666e-04
2.755606296606651583e-05
1.187907991146475849e-05
2.176628052753563024e-04
1.610157917432514479e-04
1.323769231655276013e-05
-1.241114912318919334e-04
-1.829750434993037301e-04
-2.059463443399040937e-04
1.092375098244746813e-04
6.751306053695017015e-05
4.403110434678557861e-05
9.336329617607282355e-05
2.456310418592659112e-05
-6.199643556158475897e-05
-5.310221356411790197e-05
-6.774229670011150395e-05
-4.662961941992093079e-05
8.948436422721562738e-06
6.325841546324831419e-05
5.889244956813546330e-05
3.416740940057767333e-06
-4.584228952376578052e-05
-9.484507424211464390e-05
-7.338876887582067342e-05
7.956009024753803009e-05
-1.076539210446421093e-05
9.017844987584423540e-05
2.868344641782602126e-05
-2.183422645079518279e-05
-1.012169717070230605e-05
-4.001131994113196467e-05
-4.729479037156227044e-05
1.116552974498567147e-05
-1.523216990668288763e-05
8.944335639746365564e-05
9.257045654709676163e-05
-7.856782791777343987e-06
-2.107339978361910852e-05
-5.580216337428370467e-05
-5.020795159003444731e-05
-3.184134549816288449e-05
-1.759925247913706972e-05
2.820121819547867983e-05
2.993220051769612680e-05
-2.396720094269320930e-05
-2.545157573872207553e-05
-1.985584717318568363e-05
-2.727319112399997927e-05
5.601364874456320404e-05
5.583293605426371277e-05
4.220566045699913584e-05
2.547499852048304062e-05
1.031340715572718628e-05
-3.033079043181008188e-05
-4.687455140415416042e-05
-5.637778427676690124e-05
-2.438760747419396470e-07
-3.606213073039862403e-07
-5.103616500627668638e-07
2.130864660500033116e-06
4.816658054008222646e-06
-2.119504366471901698e-07
-2.727035281965734319e-06
-1.572837549801565645e-07
-2.980270283548422452e-06
4.693704646771338620e-05
1.455829485017006060e-04
8.355746321869366767e-05
-3.444313462455395194e-05
-3.984118308751913122e-05
-9.873683380722471955e-05
-1.153734291962959705e-04
1.231712252748619126e-05
4.680969964657421536e-05
1.180518770787990186e-04
3.466063037823923567e-05
-1.442973371459744728e-05
-3.007085953429101035e-05
-5.197981935854643627e-05
-6.418312243099270388e-05
-3.885867206518480067e-05
-7.667797821450976563e-06
7.242397546035717699e-05
1.044618861703820988e-04
-4.546082567874391637e-06
-1.177765253347069747e-05
-5.625805218132463235e-05
-7.591057716741279079e-05
-2.072569935920576245e-05
8.555044342012680801e-05
2.145967506410193708e-04
7.098172162325445489e-05
2.951508452883380007e-05
-1.005824075959525478e-04
-1.390351381343326394e-04
-1.327611286492552418e-04
-2.826532583369401500e-05
-2.801562944205451396e-05
-2.423374852022584311e-05
-2.601843100614589785e-05
-2.234587897630341797e-05
-2.687368253402498350e-05
-2.659692948777414340e-05
-1.370385157495332720e-05
1.677881515414821490e-04
-8.829913514379319613e-06
-4.137747954376533032e-07
1.601348250217703785e-05
9.978049219871703565e-06
-1.464311454623574925e-05
1.081721398950249063e-06
-2.675448680750329631e-05
2.356803654255704118e-05
1.921253232450374342e-05
1.033650771352393009e-04
1.039196080619908064e-04
-2.951245987529742731e-05
-5.281917887112927673e-05
-6.709796616159866749e-05
-6.148180197267399570e-05
-1.558581064103445633e-05
-2.359422424249273329e-05
9.143481690243854927e-05
4.829634227782821136e-05
2.091257564797472800e-04
-1.493641225452889206e-05
-1.424226661751195027e-04
-1.794471513436937400e-04
1.154353835582072919e-05
-4.507644307870050629e-05
-3.968915390801243224e-05
-3.145678878304982053e-05
-1.761727868243947906e-06
-4.037526201441981661e-05
-5.975851960893141572e-05
-4.140073393677428060e-05
2.595186291981321585e-04
2.814971905930460302e-05
1.696769680087975563e-04
1.012828610176153839e-04
-2.132565061277193650e-05
-8.394349998325915973e-05
-1.051771605132187370e-04
-8.136100837603763860e-05
-7.302228600430116268e-06
4.692676010910288510e-06
1.161471055287393905e-04
7.023589526980960175e-05
1.103789985157486878e-05
-5.408494888426452352e-05
-7.018328422237723031e-05
-1.075484201749637861e-04
2.970307662057141240e-05
-2.691668496399197036e-05
1.481091418267234622e-04
1.153072706507553397e-05
-3.821166289352872174e-06
-5.985303520869768328e-05
-7.392627622687184398e-05
-7.331648906811867258e-05
7.819378286523398524e-05
-7.726550536409116057e-06
-8.042958929129636166e-06
-5.292263334466978906e-06
-7.581048189363660177e-06
-2.349919977828674022e-06
-4.838115555288763792e-06
-4.810428533028949669e-06
4.064128505551577836e-05
-3.421564958563014892e-05
3.897604734854502785e-05
9.063155367778370894e-05
-1.026091874664947538e-04
-1.212233208645190107e-04
-1.932474697359007722e-04
-2.063043682223219188e-04
5.279923948485377863e-04
3.671208292902916483e-06
7.006218937819507257e-06
1.581116339972254983e-05
1.993422863998413698e-06
-1.768156829070324169e-05
-7.141561015707090487e-06
-6.966998481051328773e-06
3.308114293018273680e-06
5.934712447614762171e-06
2.908142673297757335e-06
6.476162717141479806e-07
-6.581453647474850584e-06
3.838536590133245619e-06
1.393332656866962941e-06
-6.200216363024796582e-06
-1.940670629127227292e-06
4.130767487443374461e-05
3.770363370379258613e-04
1.941168054352646088e-04
-4.639522177963704627e-06
-1.856759880935573059e-04
-2.777752734823745666e-04
-2.678222140340725545e-04
1.234521804403438967e-04
1.512869927563439162e-04
1.305222666240316042e-04
-1.873129374221779851e-06
-6.991566237692231080e-05
-1.243623899081005299e-04
-1.415965902242640666e-04
-1.578859215917481705e-04
2.138244340948812071e-04
5.195259382245475972e-04
9.156132531615071828e-04
2.854891865061224394e-04
-2.575197095702341657e-04
-4.321463446439543859e-04
-6.286085889916595993e-04
-7.204513520996851193e-04
3.180976174133557798e-04
4.036559461416000137e-04
2.078359426020829671e-04
1.277478171994314918e-04
-1.224079461478965705e-04
-1.685086609268109949e-04
-2.007208711341023700e-04
-2.321566202904168136e-04
-1.544560744388763884e-05
-2.199939243263270935e-05
-2.095752085860657358e-05
-2.517810818082990001e-05
-1.874718667177245962e-05
-2.827341405586415154e-05
-2.539224801406387948e-05
-2.521447943792450724e-05
1.657623496516941978e-04
-1.857344426441251433e-06
1.258100751319532202e-04
1.010343698617639731e-04
-2.732811230808983578e-06
-8.644421992770534786e-05
-9.659130014853811470e-05
-1.080290106417374694e-04
6.881024138151393878e-05
1.962629697334221355e-05
1.025214350671006894e-04
6.342953598720166243e-05
-3.839195796750122231e-05
-4.858034859998857589e-05
-6.779600161753942156e-05
-6.467541874959062604e-05
3.386645890697525667e-05
-1.055908567912976426e-05
6.050579434489353670e-05
3.337401377798599085e-05
3.718588821981672499e-06
-7.744297785515432027e-05
-9.780865273963981461e-05
-1.092435067065062866e-04
1.974558260355690738e-04
-2.623960987446001631e-05
1.843126275061769909e-04
1.506291341807460200e-04
-3.894117422049580993e-05
-9.297137890689154127e-05
-8.828797485314153330e-05
-1.127451539470754978e-04
2.424353011514152664e-05
-1.062721854465435499e-05
-1.583650018006196907e-05
5.622059053476342384e-05
-5.410933499746688144e-06
-1.823838003643286576e-05
-3.489642322195876634e-05
-4.446298169368770070e-05
7.325184664177888136e-05
-4.876017837826798133e-05
5.124868109350529262e-05
2.850595185302527552e-05
-2.997396807890914937e-05
-3.242140360945695225e-05
-6.569062157286701862e-05
-9.249302052534414363e-05
1.895845592183147414e-04
9.182144190994761396e-05
1.634756731708016293e-04
8.509945023097334241e-06
-9.955172423665653646e-05
-1.422650699530770570e-04
-1.460760486080381966e-04
-1.722097604690224070e-04
2.962955431629476382e-04
-1.390779951236261987e-04
1.001124322923446384e-03
3.766777919866713524e-04
-1.474298226412288195e-04
-3.109193952852089119e-04
-3.907643774272750222e-04
-4.154953594735799637e-04
2.588483504080128127e-05
7.603042209544990315e-05
4.523068955671116559e-04
2.649075990896773789e-04
-1.273055024001779664e-04
-2.203071692691960888e-04
-3.182785504913745078e-04
-2.971373139787884419e-04
1.697836193872981618e-04
-4.271719814497982562e-05
-2.854745771591418390e-06
7.486474191934217178e-05
1.388191252675821046e-05
-2.927532598995989674e-05
-6.111483473470758225e-05
-5.279066246548848622e-05
1.000061126606268308e-04
-2.169262536239225666e-05
1.050303622356908572e-05
-1.123115445111346873e-05
-1.603733020819816935e-05
-5.144457390750087247e-05
-4.498759266968221281e-05
-4.682809336794947308e-05
1.817183337432673267e-04
1.906620215032749348e-04
1.569754997987310278e-04
5.679610533874766961e-05
-6.161564472010865197e-05
-9.525391259252527509e-05
-1.135108016823090272e-04
-1.098921750006733196e-04
-2.416109264513736175e-05
3.416637039356641519e-05
1.057844096118487685e-04
7.389802043486017361e-05
-3.248322213083162599e-05
-6.910354248594706569e-05
-1.028573292542073214e-04
-1.146397691579801708e-04
1.052350625886909079e-04
-4.683250174092577235e-05
1.309623106997163456e-04
6.164606482885948342e-05
-2.109914417669356951e-05
-6.257098586285086072e-05
-7.838518290706991784e-05
-1.054317272577507260e-04
1.217111664167150987e-04
-2.609707574293662941e-05
5.610014915149104554e-06
-7.888499375187143359e-06
2.320413587520980933e-05
-6.064047481698292753e-05
-7.970509169213249394e-05
-5.355513358953895150e-05
1.990721244264191268e-04
2.042907692931000721e-04
1.762373336653922317e-04
-2.820938398488688330e-05
-1.006875534928135057e-04
-1.969283565058540760e-04
-2.174075686904338291e-04
-2.557084811670051641e-04
4.184132408825013034e-04
-2.935688723403872820e-05
4.269246508496693732e-04
2.297605837929651645e-04
-6.814820740846319212e-05
-1.903038860964150034e-04
-2.785436232801737490e-04
-2.984475926170908409e-04
2.081149619935469624e-04
2.203842242544156382e-04
1.171773863174886660e-04
2.795337085236463036e-05
-2.854413157064118189e-05
-1.129080816323632875e-04
-1.182807763606664683e-04
-1.426460101017375508e-04
3.686401824113958781e-05
2.698715753490729770e-06
2.110153514123154234e-04
2.254556998594069476e-04
2.873194144045712644e-05
-8.903560948994903364e-05
-1.327709892214968353e-04
-1.240763803144349833e-04
-1.220187294397894238e-04
4.249651646919840845e-04
4.195636407082128515e-04
1.450359004792589038e-04
-7.819565493323804659e-05
-2.373698764618845114e-04
-2.779037516527677770e-04
-3.058024569321604949e-04
-9.029296589940519961e-05
-6.077638423047033399e-06
5.305294062535647400e-05
5.636739446197320126e-05
-1.236229469452879400e-05
-7.583854305271462792e-05
-1.128305156254501762e-04
-1.822174790930390924e-04
2.799061358014500681e-04
9.686528474198224600e-05
1.825681555220115670e-05
7.027590041759243106e-06
-4.328146055552214657e-05
-6.208079596752595554e-05
-5.250936889489835378e-05
-8.215871256874857618e-05
1.178806476507523668e-04
1.227118911742440576e-04
9.298216451696965845e-04
2.408449129965720213e-04
-2.490820034583142266e-04
-3.569615815186127092e-04
-5.097345585794862358e-04
-5.607444860988042854e-04
3.831441803147048208e-04
1.015562969486393141e-05
-1.979154295478579756e-07
-9.606787104444929032e-08
-2.515674761698946745e-06
-2.452480327763597790e-06
1.268115931518301961e-07
-2.410381723372284233e-06
-2.609921174588624090e-06
5.918668342049016094e-05
3.792193574962225960e-04
2.144437282133584359e-04
-1.102834955740914896e-04
-2.052078095238376416e-04
-2.683826083636273846e-04
-3.063472800522856147e-04
2.373714243837709648e-04
-2.571882738977743000e-06
-2.670875728274233865e-06
-2.610189387444013985e-06
-2.523214357736032803e-06
-2.477888862787635678e-06
-2.456605207965295532e-06
1.057878131547692023e-07
1.520486847003018494e-05
3.806280028530662011e-05
9.823384989588426937e-04
3.588043666437055242e-04
-1.195325345519940389e-04
-3.816638198564759163e-04
-4.958423904448973612e-04
-5.746623059473934857e-04
1.924953849129059302e-04
1.759702770101707805e-04
1.167685884786134887e-03
4.781133621076448753e-04
-2.053193211191236189e-04
-7.664365082926118903e-04
-9.362905759703781580e-04
-9.805114732144419067e-04
1.066788354692604652e-03
1.157815808981952838e-05
1.669489518836202266e-04
9.960098353989776802e-05
-4.846933322001127577e-05
-1.609659127017112478e-04
-1.728751782648610576e-04
-1.584620387451464430e-04
2.626443694183925519e-04
-6.615333472795371689e-05
2.330416050291282725e-04
1.727140392007133678e-04
-5.289637924369222578e-05
-6.149309835080413341e-05
-1.170289077423021881e-04
-1.588414744826071006e-04
5.065755031751775165e-05
1.818993084915728235e-04
2.464343172964741078e-04
1.564467127825402114e-04
-1.203498502632169937e-04
-1.773957713649951576e-04
-2.113176267137849360e-04
-2.142340330343771770e-04
1.385169428057871760e-04
3.425602043207873399e-04
1.220608841155639912e-03
5.807108953048451417e-04
-2.942080215392344931e-04
-5.185326592894673545e-04
-7.082955515089309250e-04
-7.726945966135356867e-04
1.498508881698961195e-04
5.090259003932057940e-05
1.990613817806918828e-04
1.026567622012999198e-04
-5.515829032108131264e-05
-1.086984599725066117e-04
-1.012289769401127375e-04
-1.204590254984814660e-04
3.292401871086976615e-05
-1.793890476913098718e-04
4.350113167560939152e-04
3.182100344092654532e-04
-8.082591382491051716e-05
-2.001371803961478606e-04
-2.282619775085828148e-04
-2.359574386986216371e-04
1.713502069542136312e-04
2.488258430667951849e-04
3.342326972828705027e-04
9.129126382124850203e-05
-3.458378510579471812e-05
-2.262913876098018320e-04
-3.238297071285372360e-04
-2.998796596288697751e-04
2.102347353020894325e-04
-5.065440849924865533e-05
2.260842072752950035e-04
2.290615124255442655e-04
-5.810573609060301490e-05
-1.356265187909001238e-04
-1.172700033732849756e-04
-1.489017710786344581e-04
5.541271813183185703e-05
-1.293166580298004257e-06
1.270765264960056412e-05
5.818131785526130104e-06
1.465525840928323374e-05
-5.091438851607773751e-06
-2.219389568986545353e-06
-2.244621522343473815e-05
-2.130832620082866667e-06
-2.029322682459522260e-05
4.161548899831558164e-04
1.675846372163573438e-04
1.585140731384597937e-05
-1.276511201149369598e-04
-2.047775534434772258e-04
-2.305334190510222590e-04
-1.633561507932755367e-05
-2.695495130791109905e-06
9.558110859739222298e-06
-3.078959807283189238e-07
-2.435915345724367666e-06
-2.223753295278353111e-06
-4.676383743268737960e-06
-7.177815796199839038e-06
9.959148432251508225e-06
0.000000000000000000e+00
0.000000000000000000e+00
0.000000000000000000e+00
0.000000000000000000e+00
0.000000000000000000e+00
0.000000000000000000e+00
0.000000000000000000e+00
0.000000000000000000e+00
1.394513533388776577e-05
4.269912268833939270e-05
2.341728756254559321e-05
1.218676813729052963e-05
-2.020669839427016276e-05
-2.750355974347322858e-05
-2.476991680995065990e-05
-1.976813877436921820e-05
-9.934872201852949273e-06
-8.473879678989270595e-06
-3.622550395147867812e-06
-2.338167885571393036e-05
-6.443989187639400081e-06
-1.332928536210771682e-05
-2.057817551017142768e-05
8.576443119162254229e-05
3.822185404251888716e-05
1.216141162658135777e-04
1.244479213480367873e-04
-1.114154051907205888e-05
-7.636345130134824849e-05
-5.680668277824723478e-05
-1.094546748464720519e-04
-3.051754221122956155e-05
2.612267913035603176e-05
1.814106221164585677e-04
6.294736062689933371e-05
-1.484614370475650394e-05
-9.961512818564584174e-05
-1.051714130248586446e-04
-1.040646174280383687e-04
5.321664046958541396e-05
-2.685902675224129289e-05
8.870519086575741525e-05
3.782228454635471116e-05
-9.561586296106152196e-06
-2.051766220025036703e-05
-2.222214098852464569e-05
-3.708010506545880572e-05
-1.028695410953086965e-05
3.541248227626007961e-06
7.624284727458707149e-05
4.675869072213639526e-06
-7.435177610751991903e-06
-2.624468989388384005e-05
-2.294108327091847691e-05
-1.999453833171974590e-05
-7.844475467152665907e-06
-6.758785991388762807e-06
7.577458936236259332e-05
1.557294735350727590e-05
-8.581072147551103104e-06
-1.812087290591362401e-05
-1.526454766613852550e-05
-2.530669193963015352e-05
-1.731556606524770113e-05
-1.046014508200581136e-05
-8.777892250660673738e-06
-5.384099719313967562e-07
-4.894216267554695948e-06
5.795985029043636254e-07
1.350288933031512841e-05
-1.711568328389889202e-06
1.229974406732297369e-05
-1.277230765013196360e-05
5.352986865285567516e-05
3.376980744153522488e-05
7.512821011643232133e-06
-1.577379051491113276e-05
-2.493355691754566616e-05
-5.498070294940315283e-05
1.364786092595776709e-05
2.226568642739416097e-06
-3.422801642032744915e-07
-3.308892734487230394e-07
-3.148553776192315495e-07
-3.064555291071217555e-07
-3.024762844360831729e-07
-3.002029892052827143e-07
-3.294090247196997974e-07
-9.507123091403363028e-06
-5.269143021502071340e-06
2.949700276656471337e-06
1.390498918378412646e-05
6.640166980784868820e-06
-8.481914594502966737e-06
-8.387769556318503523e-06
8.151093822501443096e-06
4.069495238044086165e-05
1.540659168135295775e-04
4.250557692664838215e-05
-5.924316196998465562e-06
-5.820603959418586528e-05
-9.467910306566153439e-05
-9.629268359932695808e-05
1.783569633555389953e-05
-3.794085682615881218e-06
-1.612817509968353399e-05
-7.077355326236922883e-06
-2.694279367445740067e-06
-1.962141480949659733e-05
1.141490839528024406e-05
-1.896691146842146764e-05
5.686731335861990499e-05
6.673149348113367710e-07
3.005997393909745600e-05
1.807043673895879798e-05
3.770744603542347437e-06
-1.104101332270220607e-05
-1.336389016688558075e-05
-1.579639629063553640e-05
-1.236717043618661984e-05
3.656602866464500249e-07
9.262801419348524903e-05
5.379309634755871352e-05
-3.182190471681596881e-05
-1.849281075042404293e-05
-6.801354040292980339e-05
-5.448342927803520407e-05
2.602491432051460800e-05
1.323904239824603137e-05
1.414225913649533735e-05
2.949705022005299238e-05
7.669507671527431734e-06
-5.754754994956353932e-06
-3.545587663697173230e-05
-5.792745266034147073e-05
3.459022486594778107e-05
2.477698833082402237e-05
5.741958047548044084e-05
1.599212053498364486e-05
-1.207117336764217908e-05
-2.100768259123109060e-05
-3.061209056969970717e-05
-2.264640866166812741e-05
-1.185133415104700889e-05
2.863872385492951474e-07
2.722662426729633825e-06
2.795719206921137082e-06
3.456238633612984935e-07
-2.153292040556920479e-06
-2.129086857877262437e-06
4.344873355329423728e-07
-2.302501172660124110e-06
-6.774205923125446926e-07
4.266854067373252795e-06
-7.411281920342608672e-07
1.948250825645849778e-06
4.570932327522035504e-06
-3.045705364642997842e-06
-3.026506517538651100e-06
-3.295276554012681669e-06
8.960616929339007700e-07
6.700368552853277167e-07
8.126296818169070019e-07
-1.542958258628758566e-06
1.107593195971191013e-06
-3.945433479913022273e-06
-1.369789350033574808e-06
3.371859662568027769e-06
-1.797218995512157521e-05
-6.526486355886297852e-06
3.922310268047423781e-05
-3.271260656957548223e-06
-1.421304342954642181e-05
-3.629816639256008029e-05
-4.860272920771286915e-05
8.766077331731052128e-05
-6.874699528325084885e-06
2.980168205343865988e-04
2.255588860164763304e-04
-3.369479237026286794e-05
-1.021598293290514460e-04
-1.569928320974674576e-04
-2.111083947354187482e-04
-1.274515849033731515e-05
5.152251517243893467e-05
1.183108195378892226e-04
3.449345442915442505e-05
-2.036589305589435076e-05
-4.403945729001121280e-05
-4.828645738665015229e-05
-5.805351493967907394e-05
-3.358146646724778579e-05
1.697339568801130240e-04
1.405808311748444857e-04
3.314452616002076509e-05
-4.357434134887437112e-05
-1.249166258806766396e-04
-1.746413562095797470e-04
-1.777582680684020044e-04
1.774312772925543992e-04
1.395254377069148381e-04
2.128003945093689887e-04
1.127260515724320933e-04
-5.450080300597218527e-05
-8.606998696836103450e-05
-1.351863746558548457e-04
-1.240907886155058915e-04
-6.520393054302187508e-05
-1.336999484833882233e-05
3.993639296135261088e-05
5.589595137308418695e-05
-1.419760384993497965e-05
-4.913117881710217879e-05
-1.304858803396700940e-04
-1.086824175765678475e-04
2.200347310971771566e-04
3.734187402022927241e-05
2.629126825062456040e-04
1.558084724588324832e-04
-2.877150054601287810e-05
-1.082953455404484736e-04
-1.559216897519212692e-04
-1.822159151891778622e-04
1.914142204225327930e-05
-1.862528610553432627e-05
-8.892911709111793136e-06
8.238668062624373369e-06
1.852126968284087242e-05
9.630017524907692107e-06
-4.074402065410417451e-05
-3.787794729385145090e-05
6.975021049222881878e-05
-3.555718280832904704e-05
3.140975962680268678e-04
1.254551462319726410e-04
5.489719067679143350e-06
-1.248355831298079022e-04
-1.353628412233780752e-04
-1.291640000808985569e-04
-2.012285432526518937e-05
9.630940644817283659e-05
3.305037511355896030e-04
2.003751009041013773e-04
-3.036286278980880707e-05
-2.093536806499505317e-04
-2.190356427356561942e-04
-3.079246311847359894e-04
1.394885588722878070e-04
7.725211979789854517e-06
3.772785490290344636e-05
1.430460523782929724e-04
-1.489242694369525558e-05
-6.569707544358511326e-05
-5.927768512267023431e-05
-7.132302072954618019e-05
2.269108897851051685e-05
7.790342182735281876e-06
7.127138853070617277e-06
1.262328743295656707e-05
3.026909490506997599e-06
7.985809568353098211e-07
-1.179712100490149849e-05
-6.609628079883374154e-06
-1.295950983131989295e-05
-7.496109141855118851e-06
-1.041917294070272289e-05
4.997682490377453035e-05
-8.553979918870301753e-06
5.007822913843289847e-07
-1.667918717117307557e-05
-3.162059724580932576e-05
2.429143922325167692e-05
1.545427538249924276e-06
1.366694058351122918e-06
1.422881304153653631e-05
-3.464533995613540058e-06
-3.382189987606325439e-06
-3.342246861215702448e-06
-3.320582193806397508e-06
-3.631381599895617414e-06
1.906969361554957823e-06
1.877140616312181560e-06
-6.567937197261234257e-07
-6.302209935288628515e-07
-6.160253783926011014e-07
-6.088106058008765679e-07
-6.048064371528139219e-07
-6.674528432658618318e-07
-2.486211399436363812e-06
2.598812847453267445e-05
2.988236858759539815e-05
-1.426881958374896609e-06
-1.326703908920515309e-05
-2.048940637912423287e-05
-2.282100109258064686e-05
4.620042856593236730e-06
1.522981566101668085e-05
5.190613381203560371e-05
-6.592036045819189643e-07
6.686524154585685176e-07
-1.652803517600142608e-05
-1.621929658112709058e-05
-1.350891493793111603e-05
-2.088915158886928787e-05
1.521427152420751524e-05
4.650519393054210584e-05
3.486076596310712459e-05
-1.458317104970242314e-05
-1.888816965760766419e-05
-2.106031582928638725e-05
-2.851810160863601552e-05
-1.353047327262428267e-05
2.433789654711992104e-05
7.183967611569438408e-05
4.083707797885996401e-05
-2.082713499660110914e-06
-1.333637378655012874e-05
-3.302919714674606332e-05
-5.305616305911213981e-05
-3.551020314960583142e-05
-1.712308861186467271e-06
-7.242371340880742434e-06
-4.404821920160682629e-06
-6.605983286865562302e-06
-6.436101450733416242e-06
-3.806126677039695318e-06
-3.769198433260272031e-06
3.397691197012683801e-05
-2.026540134202335098e-06
-2.494774671319955203e-06
5.432353188086033017e-06
1.604668278406800515e-05
-1.589268014094990707e-06
-6.584601898672260751e-06
-3.977413864622902655e-06
-4.806437389241596927e-06
5.182419807574539154e-07
1.357303200764085503e-04
4.863147213890193138e-05
-3.811829203877320121e-06
-6.953188718703036549e-05
-7.317320915123005248e-05
-8.772691015668038965e-05
4.936380150275017099e-05
-6.510133710468245141e-07
4.403314292283513375e-06
-6.659691131674820633e-07
-6.275861251815323913e-07
-6.090652617048149526e-07
-6.006360249652185414e-07
-5.964397456852799232e-07
-6.526046505323609887e-07
-2.448437638204765643e-06
3.992373030048802871e-05
-2.661722623568096713e-07
3.073434107631642456e-06
3.450278212326501530e-06
-1.422926333623254216e-05
-1.414035164820216316e-05
-1.536321773544989752e-05
1.697279954206073880e-05
2.864783251701603738e-05
1.656801944647535239e-05
-8.064276158985306985e-06
-1.528134194580797766e-05
-9.978491086397150357e-06
-1.497591171774078293e-05
-1.388863059662091403e-05
1.761733347809105305e-06
3.553955894391779496e-05
1.635488814617936927e-05
1.030932779322196079e-05
-1.185508986148165996e-05
-1.913640962272390128e-05
-1.639280557598750022e-05
-1.658120317093516674e-05
-1.528822369654476415e-05
7.640073278967022543e-05
4.745275385785612980e-05
1.210001659442834163e-06
-2.061657793133477430e-05
-3.029244132299156942e-05
-3.001774080207931465e-05
-2.884850455401876624e-05
4.880529784592240936e-05
9.531919550591169850e-06
-2.579649734906645468e-06
-9.334473879283101237e-06
-6.347945254574209430e-06
-8.694529296970380329e-06
-1.369184693367911102e-05
-1.768877229710014612e-05
8.655901596497282907e-05
4.629987403545393946e-04
9.589293093721370598e-05
-4.867154136909967061e-05
-1.466772439342982760e-04
-1.742503561996706506e-04
-1.905600569753255721e-04
-8.529148877833201108e-05
2.774493356689772391e-04
3.747507481899185777e-04
1.127864393497948813e-04
-1.406687104224128620e-04
-2.214652898639931408e-04
-2.366754409259985595e-04
-2.619786776664394614e-04
9.580159567015327144e-05
-7.146225262817700857e-06
-7.589927357124373220e-06
3.618956217931899498e-07
7.434621832068774138e-07
-1.615402321018654923e-06
-1.527045344389978949e-06
-4.032863165033994041e-06
2.080610564538463235e-05
2.086148945263187186e-04
2.247279981288040059e-04
1.137621277764650131e-04
-1.358462337050247472e-04
-2.655132041115654219e-04
-2.874003244729287157e-04
-3.199399638894590133e-04
4.615947057473902826e-04
0.000000000000000000e+00
0.000000000000000000e+00
0.000000000000000000e+00
0.000000000000000000e+00
0.000000000000000000e+00
0.000000000000000000e+00
0.000000000000000000e+00
0.000000000000000000e+00
1.698614591707345078e-05
2.025096245283160745e-04
8.584853601559991581e-05
-5.553845534211440563e-05
-8.793226691352671958e-05
-1.387254423807657787e-04
-1.474786889055792972e-04
1.243305470809967126e-04
-1.611409999083160528e-06
-1.691015263369868351e-06
-1.645108905696976128e-06
-1.576305008778000194e-06
-1.541626965624911127e-06
-1.524702588801494820e-06
1.034702395479378641e-06
8.555466335875031660e-06
1.160296100375084877e-05
6.979256221788021413e-05
3.252313428801506811e-05
-9.631568582046437302e-07
-6.210867504540037687e-06
-3.822286071792958150e-05
-6.312940817526336245e-05
-5.392364253708481289e-06
1.790906211417196101e-05
4.298834807871464747e-06
1.907960363133451404e-05
-1.608299487652822547e-05
-3.739987198705618213e-05
-3.917584143214684900e-05
-4.639719720492096181e-05
9.776840494727431080e-05
7.661573121918731594e-05
4.856053301097415270e-04
2.006531133391309591e-04
-3.933619542120801499e-05
-2.510685454406003081e-04
-2.733490705655694346e-04
-3.340546589822616323e-04
1.349342957415798454e-04
2.212803870246991497e-06
5.210593462846269358e-05
2.692082814953048166e-05
-1.650600760765738755e-05
-6.875032195623504588e-05
-9.756537250411661481e-05
-6.092734576904400648e-05
1.625094811888129151e-04
3.861909435120813638e-07
5.676637756168131964e-05
7.663496046056475746e-05
-8.434011742835051330e-06
-4.312005899457172013e-05
-5.163689490237149059e-05
-8.132452734049276145e-05
5.072796401451290770e-05
-6.185679469681886806e-06
1.992738058296207246e-04
1.660671552362520426e-04
-4.663224956036977550e-05
-1.286488422572490040e-04
-1.405972193414393621e-04
-1.515686363024666727e-04
1.082916658653338017e-04
1.067561994487912694e-04
1.694561831012566350e-04
3.036988165091475376e-05
-4.692464570093373419e-05
-9.427059942172468952e-05
-1.423908121617597166e-04
-1.842577408553066351e-04
1.612615339387621816e-04
2.331695499945471485e-05
4.865067069293128247e-04
3.015985304576929973e-04
-3.939615227001449583e-05
-2.467516997880869300e-04
-3.205438575083430978e-04
-4.362295065113149331e-04
2.314990236912985980e-04
5.969021154557312336e-06
7.740444545604039049e-07
6.609594184622347244e-05
-1.819002046315161352e-05
-1.438456819553194709e-05
-2.654978571520358549e-05
-1.093197312785732539e-05
-2.782659953596743975e-06
-2.201173065019228209e-05
1.763579203430349222e-05
2.489305775163905279e-05
5.350878724563012839e-06
-2.086031391057696226e-05
-1.998405100652812691e-05
-3.224500040320530162e-05
4.722136745999715060e-05
2.147390675934866670e-05
4.555064836340379410e-05
3.159246746002754682e-05
-5.767848970261549843e-06
-3.825499809933490122e-05
-3.417959466408210185e-05
-6.647883698474573529e-05
4.606425613564426788e-05
3.779444181429280367e-05
2.171363335992757088e-05
3.072039635865925629e-05
-1.770881526799806334e-05
-8.111289822277325157e-05
-1.014816217611745283e-04
-8.730351408188499946e-05
1.973783778009512830e-04
-6.042672794196149922e-06
-4.543271406323753796e-06
1.808562744500350633e-05
-9.390428542552790964e-06
-2.056237340639470988e-05
5.886171345651156784e-07
-2.962060137375063679e-05
5.148510294364939943e-05
-1.262430785290557530e-05
1.029154513221245158e-04
2.665094281163079946e-05
-5.411534053456711222e-06
-2.403051280685589017e-05
-4.870340411439925634e-05
-4.318458587092106410e-05
4.387950564783216627e-06
2.932604029373892660e-05
7.769837766404759472e-06
1.356825053753653757e-05
-6.873068408042466696e-07
-1.544223833077595424e-05
-1.517825652196105475e-05
-1.248682919805172900e-05
-6.869497706087241833e-06
8.086023675799017162e-07
5.788699091353698953e-05
2.476037032253847986e-05
-1.244825875652961221e-05
-3.356910629653756114e-05
-3.525146782419488165e-05
-4.754318355008986996e-05
4.535605282369652516e-05
5.523920218308117583e-06
6.311264200946840300e-05
1.688644322039889353e-05
-3.011552577580568156e-06
-3.207725012579880770e-05
-3.899429327621686933e-05
-4.625668408473046419e-05
3.481677461615127875e-05
7.097369358185454677e-05
2.969029893260061929e-05
-8.432468134858763265e-07
-3.185293308202263689e-05
-4.092369467082004094e-05
-3.662064192780419155e-05
-6.373530814497912285e-05
7.331183212465667252e-05
-2.489951239709524311e-05
3.060070878166756022e-04
1.002603214187204345e-04
-6.718279909885061570e-05
-9.747243570553595904e-05
-1.331849848030146669e-04
-1.395262730607924344e-04
5.599859582989279085e-05
-3.557668718112999182e-05
2.119664340830812303e-04
5.092047408300814834e-05
-3.726386489762034573e-05
-5.212685666159817382e-05
-7.623559560147818938e-05
-9.337553964300486259e-05
3.169163581874204921e-05
-8.299038819348393938e-05
2.836768050367907148e-04
1.716900976085059720e-04
-1.948489320378608597e-05
-1.151223416410795079e-04
-1.695496993883449936e-04
-1.851991642163807687e-04
1.169795839977784868e-04
9.580883340091479554e-05
8.824652969271912510e-05
3.327092164368512182e-05
-5.577007783587950232e-05
-1.065450955057157531e-04
-1.537761688697416489e-04
-1.670970314381005795e-04
2.658620889121185091e-04
2.370305745336740884e-06
3.656928124857516190e-04
2.093792161226481140e-04
-4.527061843261762829e-05
-1.550145545951603810e-04
-1.668206100853575097e-04
-2.211237017258143819e-04
1.078715048521335795e-05
8.494956795453796269e-06
2.860064016701300443e-05
2.012928012965508505e-05
4.812480878385765452e-06
-1.429584822082738898e-05
-2.897310075478038208e-05
-2.354013819240267585e-05
4.771729197502795706e-06
1.381889527935432095e-05
-7.582801255875516182e-07
5.528334409360408136e-06
-1.072940312307417608e-05
-2.263319300720056907e-06
-1.462708393669376770e-05
-2.207471604603384631e-05
3.110557284339466889e-05
1.888212936645040303e-05
1.161535236945478752e-04
4.519673039382500338e-05
-2.474611841623608249e-05
-4.316616136335766631e-05
-4.988279583805204243e-05
-5.449366621999761432e-05
-7.943641617179854041e-06
3.896783558890904738e-05
8.805658418344514691e-05
8.471268526716244356e-05
-5.196603551806235820e-05
-5.650652275133083349e-05
-7.033560465502109035e-05
-7.976159467143478657e-05
4.683265255633241721e-05
-7.197449026489389373e-05
2.167022641882293305e-04
1.754100926779868154e-04
-4.968594316432377078e-05
-1.175594693326051187e-04
-1.185757482960500921e-04
-1.878193458400414855e-04
1.535026400316981269e-04
-1.515764643681985233e-05
2.608050019549283804e-05
7.326324923918586926e-05
-1.445113010871260539e-06
-1.585113155454738113e-05
-2.562864745453516486e-05
-2.795647862515471542e-05
-1.330473235275030041e-05
9.405572237778559627e-07
7.678385258606333004e-06
1.498969429500834834e-05
1.036613502470607538e-05
-1.103514105812184663e-05
-1.794504287153249775e-05
-2.776133640374830330e-05
2.276674853130406030e-05
5.599482173776827414e-06
2.519229282110026274e-06
2.841357351209327675e-06
7.578543525782584719e-07
-1.553331751333294864e-06
-1.438501919720342173e-06
-6.476790083711455265e-06
-2.249299404909349333e-06
-1.828231975492035523e-05
8.557421518141775964e-05
1.614987595783337547e-05
3.587582551595653987e-06
-2.306846763330961181e-05
-2.495581975585953831e-05
-3.481027880880458944e-05
-4.194787737952699394e-06
-1.370844268991667776e-06
3.022458942015179297e-05
1.844485829509038034e-05
-1.080360755368150743e-05
-2.463265986604459921e-06
-1.233610692211467794e-05
-1.725984343571774736e-05
-4.435779548132102287e-06
5.324184947661617941e-05
1.272072457117218061e-04
2.741423956247552449e-05
-4.259998053219434205e-05
-4.700791107245724923e-05
-7.096848346659114502e-05
-8.548432823926242730e-05
3.819736855969167733e-05
2.401537861270188918e-05
4.365387087388378006e-05
1.237417663499299869e-04
-6.304305567817527729e-06
-4.707365932741564327e-05
-6.114302589774013650e-05
-6.815119400810777488e-05
-8.738831035434627121e-06
1.735470583104099779e-06
3.316450933596336905e-05
3.659054744788439432e-06
-5.027412459705330175e-06
-1.951184553989406554e-05
-1.401674490509506816e-05
-1.891208183484708685e-05
1.890905007568562425e-05
-3.668494963737812273e-05
3.505226761773385025e-05
5.837514990499141745e-05
1.428289183366270587e-06
-1.923949077850988968e-05
-4.364481928909299331e-05
-5.326564093665679510e-05
5.797919393554626697e-05
-2.289280769343388444e-05
-2.141846728755352801e-05
-2.331547779839083449e-05
-1.984682152250151827e-05
-1.938867305350349920e-05
-6.419141774584331822e-06
-6.308951841389897919e-06
1.195903409713574840e-04
-7.071416804098957143e-05
2.345498917736957886e-04
1.393853446914515776e-04
-3.268090526829737548e-05
-8.182167768463052750e-05
-1.231088051310799984e-04
-1.016674254871319921e-04
3.605774514698218683e-05
-1.035505315526991952e-05
3.269399196692205473e-04
1.040316977999866915e-04
-1.914927647057041164e-05
-9.744597081136268193e-05
-1.278613392744116801e-04
-1.315729599845674453e-04
-4.458701777302506811e-05
-6.423443602585697629e-06
2.669727220443971909e-05
2.068908832862090464e-05
-4.641760627290066088e-08
-1.465077547616491685e-06
-1.878732287761688687e-05
-3.125634004310779400e-05
1.059224114413915158e-05
5.334224589417245723e-06
2.930785707129253048e-05
1.495667161629679764e-05
-4.114992182843595057e-06
-8.527427010440690299e-06
-1.330344189151779378e-05
-1.312636485878909040e-05
-1.052652733341541108e-05
8.836964447555807289e-07
-4.501417349829264680e-06
3.315683394267592933e-06
3.573572788819516174e-06
8.816320392501778130e-06
-1.315456691938936302e-06
-3.826162360185564314e-06
-6.946236618390707647e-06
-8.668483216317627604e-07
8.732100528347477495e-05
7.934543696633215696e-05
2.115029251697923883e-05
-5.890997169724907282e-05
-4.543409573920461519e-05
-7.056872048244011274e-05
-1.203709852626055694e-05
-9.676757072461688823e-07
-1.016541736791135886e-06
1.563214810110989756e-06
1.605443717951247214e-06
-9.231862953112347956e-07
-9.126331904494400937e-07
-9.068066131629571754e-07
1.558185014898700075e-06
-1.110979842719706606e-07
1.503478140945898657e-04
5.571548874793481475e-05
-1.449826306443862840e-06
-4.659108881346245897e-05
-7.307577194259948347e-05
-9.520565827186492193e-05
1.037014047611804834e-05
2.809192312836840635e-05
1.224037033231654818e-04
5.995732685540897198e-05
-4.315943267180868449e-05
-6.908545060856998191e-05
-1.204219574925024849e-04
-1.141612487564079218e-04
1.363751362223461960e-04
-2.255517292664109880e-05
-2.888101718155375338e-05
-2.817769162027067203e-05
-1.949372854756988602e-05
-1.640404590223436623e-05
-1.104241575062602098e-05
-1.090674382263231438e-05
1.374608157515281237e-04
-1.182793522252231095e-05
1.843900501070121418e-04
6.792813230755025524e-05
3.744064838298452486e-07
-5.406158017803402950e-05
-6.353485658840053068e-05
-6.065365673212846036e-05
-6.261456017730682416e-05
-4.516649844288144573e-06
1.057966935492129583e-05
8.150047871702759955e-06
-4.415167257865195674e-06
3.338330222412665155e-06
-4.263050984745493989e-06
-4.235308703132492727e-06
-4.637870659005386778e-06
-2.611337784800717759e-06
7.359503784504767870e-06
7.493321270291651418e-06
2.602524172511617727e-06
-2.387355480237810508e-06
-4.884074604194397612e-06
-2.303313735712620670e-06
-5.269267622362486231e-06
2.424117681069930832e-05
7.910715817364062142e-05
6.104423495421728966e-05
-3.516635803184881936e-05
-4.373224952918694600e-05
-2.255759773420026851e-05
-4.510378129527547000e-05
-1.783258334804573248e-05
1.499282507000346917e-07
2.251528765303775249e-05
5.031905848719995036e-06
-7.193657959163174026e-06
-1.819790931949249026e-06
-9.340118622411608618e-06
-4.167311536999935336e-06
-5.176242701933827869e-06
2.180527758091730093e-06
-5.379447912137526024e-07
2.121276612524189508e-06
4.822072875548967909e-06
-2.750278279587814434e-06
-2.712514824843858966e-06
-2.691890706806213972e-06
-4.312486437132463708e-07
-5.191226564346609020e-06
2.217091644943678148e-05
1.445043611789662355e-05
-2.635364065359980135e-05
-5.023386758877202904e-05
-6.865839836505651034e-05
-6.757123508641242106e-05
1.813870156908539200e-04
4.998950110714201991e-05
7.659554958248328998e-05
6.380553475950242993e-05
-1.952578758964093551e-05
-4.333891494854949126e-05
-4.511601519312026688e-05
-4.981222051686837312e-05
-3.259764720094877129e-05
-6.634208151760923123e-06
1.941227253428161404e-05
3.058329111549055486e-07
2.044511403830399380e-06
-1.236594770335676221e-05
-1.450238158153574352e-05
-2.449176523969382298e-05
3.623168582708033371e-05
1.128710937469866604e-06
4.634014305938126985e-05
3.356561733358559899e-05
-7.261548216820400799e-06
-5.669091313383603563e-05
-7.260903040791482905e-05
-6.900271523825799824e-05
1.245297356663925363e-04
-2.215210611958142535e-05
8.301786691926308259e-05
6.866456292853560523e-05
6.134119819089031570e-05
-6.218472675392880573e-05
-1.139107670243042180e-04
-9.514361104226326288e-05
8.036758290138876269e-05
-3.955330283137451836e-05
1.518790641759746208e-04
1.485607829252160058e-04
5.436391027278876016e-05
-7.424703233295693202e-05
-1.222250105581131974e-04
-1.257446967012897934e-04
6.966285049755066331e-06
1.642083853041997573e-04
2.432777792132288211e-04
1.601110117519406468e-04
-9.235221700882303368e-05
-1.382327123669620640e-04
-1.755251385028921496e-04
-1.890431713567584666e-04
2.755606296606651583e-05
1.187907991146475849e-05
2.176628052753563024e-04
1.610157917432514479e-04
1.323769231655276013e-05
-1.241114912318919334e-04
-1.829750434993037301e-04
-2.059463443399040937e-04
1.092375098244746813e-04
6.751306053695017015e-05
4.403110434678557861e-05
9.336329617607282355e-05
2.456310418592659112e-05
-6.199643556158475897e-05
-5.310221356411790197e-05
-6.774229670011150395e-05
-4.662961941992093079e-05
8.948436422721562738e-06
6.325841546324831419e-05
5.889244956813546330e-05
3.416740940057767333e-06
-4.584228952376578052e-05
-9.484507424211464390e-05
-7.338876887582067342e-05
7.956009024753803009e-05
-1.076539210446421093e-05
9.017844987584423540e-05
2.868344641782602126e-05
-2.183422645079518279e-05
-1.012169717070230605e-05
-4.001131994113196467e-05
-4.729479037156227044e-05
1.116552974498567147e-05
-1.523216990668288763e-05
8.944335639746365564e-05
9.257045654709676163e-05
-7.856782791777343987e-06
-2.107339978361910852e-05
-5.580216337428370467e-05
-5.020795159003444731e-05
-3.184134549816288449e-05
-1.759925247913706972e-05
2.820121819547867983e-05
2.993220051769612680e-05
-2.396720094269320930e-05
-2.545157573872207553e-05
-1.985584717318568363e-05
-2.727319112399997927e-05
5.601364874456320404e-05
5.583293605426371277e-05
4.220566045699913584e-05
2.547499852048304062e-05
1.031340715572718628e-05
-3.033079043181008188e-05
-4.687455140415416042e-05
-5.637778427676690124e-05
-2.438760747419396470e-07
-3.606213073039862403e-07
-5.103616500627668638e-07
2.130864660500033116e-06
4.816658054008222646e-06
-2.119504366471901698e-07
-2.727035281965734319e-06
-1.572837549801565645e-07
-2.980270283548422452e-06
4.693704646771338620e-05
1.455829485017006060e-04
8.355746321869366767e-05
-3.444313462455395194e-05
-3.984118308751913122e-05
-9.873683380722471955e-05
-1.153734291962959705e-04
1.231712252748619126e-05
4.680969964657421536e-05
1.180518770787990186e-04
3.466063037823923567e-05
-1.442973371459744728e-05
-3.007085953429101035e-05
-5.197981935854643627e-05
-6.418312243099270388e-05
-3.885867206518480067e-05
-7.667797821450976563e-06
7.242397546035717699e-05
1.044618861703820988e-04
-4.546082567874391637e-06
-1.177765253347069747e-05
-5.625805218132463235e-05
-7.591057716741279079e-05
-2.072569935920576245e-05
8.555044342012680801e-05
2.145967506410193708e-04
7.098172162325445489e-05
2.951508452883380007e-05
-1.005824075959525478e-04
-1.390351381343326394e-04
-1.327611286492552418e-04
-2.826532583369401500e-05
-2.801562944205451396e-05
-2.423374852022584311e-05
-2.601843100614589785e-05
-2.234587897630341797e-05
-2.687368253402498350e-05
-2.659692948777414340e-05
-1.370385157495332720e-05
1.677881515414821490e-04
-5.652263569766748493e-05
-5.528890459338520029e-05
-5.274705595425415084e-05
-4.440799412258155369e-05
-4.785387995370403663e-05
-3.944306604014766307e-05
4.278573526719539979e-06
2.919849628350205495e-04
-8.829913514379319613e-06
-4.137747954376533032e-07
1.601348250217703785e-05
9.978049219871703565e-06
-1.464311454623574925e-05
1.081721398950249063e-06
-2.675448680750329631e-05
2.356803654255704118e-05
1.921253232450374342e-05
1.033650771352393009e-04
1.039196080619908064e-04
-2.951245987529742731e-05
-5.281917887112927673e-05
-6.709796616159866749e-05
-6.148180197267399570e-05
-1.558581064103445633e-05
-2.870510553642399039e-06
1.177781978077683031e-04
6.071266172322508118e-05
1.292967349266258902e-05
-4.012875018262269304e-05
-6.419084566790971610e-05
-8.386260907381702092e-05
-3.678175456641561607e-07
-1.282189297165491404e-05
-2.469315830696930079e-06
9.230745062368597156e-06
1.140517021679432213e-05
-1.547543786027400563e-05
-3.277206130966780264e-05
-2.228000805875804741e-05
6.518280075188877417e-05
-2.854918139689359015e-05
-4.386907365661913701e-05
-1.239866653396172716e-05
1.932151941287453588e-04
3.217256475907721451e-05
-7.646733053639077730e-05
-8.622693598729394798e-05
2.212342922333665032e-05
2.814971905930460302e-05
1.696769680087975563e-04
1.012828610176153839e-04
-2.132565061277193650e-05
-8.394349998325915973e-05
-1.051771605132187370e-04
-8.136100837603763860e-05
-7.302228600430116268e-06
4.692676010910288510e-06
1.161471055287393905e-04
7.023589526980960175e-05
1.103789985157486878e-05
-5.408494888426452352e-05
-7.018328422237723031e-05
-1.075484201749637861e-04
2.970307662057141240e-05
7.825467708043229217e-06
1.752569275128938991e-05
-1.765291143513519551e-08
2.980888858339419383e-06
-6.980226830983411835e-06
-1.764489970819000858e-06
-9.357606282582730411e-06
-1.021207332185175359e-05
-2.691668496399197036e-05
1.481091418267234622e-04
1.153072706507553397e-05
-3.821166289352872174e-06
-5.985303520869768328e-05
-7.392627622687184398e-05
-7.331648906811867258e-05
7.819378286523398524e-05
-3.225455010704556853e-05
-3.721983807731547633e-05
-4.068753384541842446e-05
-1.316689808503826453e-05
-2.489982415414581437e-05
-2.698645829926360292e-05
-1.912072587801621625e-05
1.943358284462434792e-04
-7.726550536409116057e-06
-8.042958929129636166e-06
-5.292263334466978906e-06
-7.581048189363660177e-06
-2.349919977828674022e-06
-4.838115555288763792e-06
-4.810428533028949669e-06
4.064128505551577836e-05
-1.624345963050855676e-05
4.550253370443132231e-05
5.140845099730945080e-05
-9.933792680953718480e-05
-1.070102774349724906e-04
-1.569493033433407665e-04
-1.577016390146091310e-04
4.403316215312272786e-04
3.671208292902916483e-06
7.006218937819507257e-06
1.581116339972254983e-05
1.993422863998413698e-06
-1.768156829070324169e-05
-7.141561015707090487e-06
-6.966998481051328773e-06
3.308114293018273680e-06
5.934712447614762171e-06
2.908142673297757335e-06
6.476162717141479806e-07
-6.581453647474850584e-06
3.838536590133245619e-06
1.393332656866962941e-06
-6.200216363024796582e-06
-1.940670629127227292e-06
-4.226325784244860310e-05
-2.044026941371229425e-05
-2.045472822175692791e-05
3.115172366327060438e-05
-3.103818335204389849e-05
-3.796312941021696041e-05
-4.782536326513717233e-05
1.688332078420452115e-04
1.512869927563439162e-04
1.305222666240316042e-04
-1.873129374221779851e-06
-6.991566237692231080e-05
-1.243623899081005299e-04
-1.415965902242640666e-04
-1.578859215917481705e-04
2.138244340948812071e-04
-6.386907025832169727e-05
2.971482989129940288e-04
1.224989071173314913e-04
-4.687086738681891536e-05
-9.475231277361363940e-05
-1.226943073598921641e-04
-1.265056620288445145e-04
3.504501377716539017e-05
4.651036231625493085e-04
2.564917075815403651e-04
3.604466218249149581e-07
-1.435849052849870965e-04
-1.693211834529764434e-04
-3.048708812737118833e-04
-3.445544619223045056e-04
2.403756545680655232e-04
4.036559461416000137e-04
2.078359426020829671e-04
1.277478171994314918e-04
-1.224079461478965705e-04
-1.685086609268109949e-04
-2.007208711341023700e-04
-2.321566202904168136e-04
-1.544560744388763884e-05
-2.199939243263270935e-05
-2.095752085860657358e-05
-2.517810818082990001e-05
-1.874718667177245962e-05
-2.827341405586415154e-05
-2.539224801406387948e-05
-2.521447943792450724e-05
1.657623496516941978e-04
-1.857344426441251433e-06
1.258100751319532202e-04
1.010343698617639731e-04
-2.732811230808983578e-06
-8.644421992770534786e-05
-9.659130014853811470e-05
-1.080290106417374694e-04
6.881024138151393878e-05
8.357093271688238159e-05
3.974766064516381623e-04
2.145715336570215028e-04
-3.579124584123430901e-05
-1.546378047415133939e-04
-2.398121440721574977e-04
-2.199968507689354703e-04
-4.538102740170127413e-05
1.962629697334221355e-05
1.025214350671006894e-04
6.342953598720166243e-05
-3.839195796750122231e-05
-4.858034859998857589e-05
-6.779600161753942156e-05
-6.467541874959062604e-05
3.386645890697525667e-05
-1.055908567912976426e-05
6.050579434489353670e-05
3.337401377798599085e-05
3.718588821981672499e-06
-7.744297785515432027e-05
-9.780865273963981461e-05
-1.092435067065062866e-04
1.974558260355690738e-04
-2.623960987446001631e-05
1.843126275061769909e-04
1.506291341807460200e-04
-3.894117422049580993e-05
-9.297137890689154127e-05
-8.828797485314153330e-05
-1.127451539470754978e-04
2.424353011514152664e-05
-1.062721854465435499e-05
-1.583650018006196907e-05
5.622059053476342384e-05
-5.410933499746688144e-06
-1.823838003643286576e-05
-3.489642322195876634e-05
-4.446298169368770070e-05
7.325184664177888136e-05
-4.876017837826798133e-05
5.124868109350529262e-05
2.850595185302527552e-05
-2.997396807890914937e-05
-3.242140360945695225e-05
-6.569062157286701862e-05
-9.249302052534414363e-05
1.895845592183147414e-04
9.182144190994761396e-05
1.634756731708016293e-04
8.509945023097334241e-06
-9.955172423665653646e-05
-1.422650699530770570e-04
-1.460760486080381966e-04
-1.722097604690224070e-04
2.962955431629476382e-04
1.190572057154389550e-05
3.633745553548803223e-04
2.009413478955172710e-04
-7.275037531275723812e-05
-1.793505623509546437e-04
-1.730585551264695546e-04
-2.145490168960020622e-04
6.348688586424191497e-05
-1.390779951236261987e-04
1.001124322923446384e-03
3.766777919866713524e-04
-1.474298226412288195e-04
-3.109193952852089119e-04
-3.907643774272750222e-04
-4.154953594735799637e-04
2.588483504080128127e-05
7.603042209544990315e-05
4.523068955671116559e-04
2.649075990896773789e-04
-1.273055024001779664e-04
-2.203071692691960888e-04
-3.182785504913745078e-04
-2.971373139787884419e-04
1.697836193872981618e-04
-2.609707574293662941e-05
5.610014915149104554e-06
-7.888499375187143359e-06
2.320413587520980933e-05
-6.064047481698292753e-05
-7.970509169213249394e-05
-5.355513358953895150e-05
1.990721244264191268e-04
-2.169262536239225666e-05
1.050303622356908572e-05
-1.123115445111346873e-05
-1.603733020819816935e-05
-5.144457390750087247e-05
-4.498759266968221281e-05
-4.682809336794947308e-05
1.817183337432673267e-04
1.906620215032749348e-04
1.569754997987310278e-04
5.679610533874766961e-05
-6.161564472010865197e-05
-9.525391259252527509e-05
-1.135108016823090272e-04
-1.098921750006733196e-04
-2.416109264513736175e-05
3.416637039356641519e-05
1.057844096118487685e-04
7.389802043486017361e-05
-3.248322213083162599e-05
-6.910354248594706569e-05
-1.028573292542073214e-04
-1.146397691579801708e-04
1.052350625886909079e-04
-5.640510885206820064e-05
3.554808464704438802e-06
4.304600635968831667e-05
1.558421517749903720e-05
-1.709428760912425318e-05
-5.642988866753079614e-05
-4.289303523671518157e-05
1.106372903635466067e-04
-2.135905747855431223e-05
2.914160774100564631e-04
1.532349204120771245e-04
-1.385120057938849518e-05
-1.115974296254577502e-04
-9.181754125979893542e-05
-1.342253400263154230e-04
-7.180042885261887320e-05
2.042907692931000721e-04
1.762373336653922317e-04
-2.820938398488688330e-05
-1.006875534928135057e-04
-1.969283565058540760e-04
-2.174075686904338291e-04
-2.557084811670051641e-04
4.184132408825013034e-04
2.704822161802947244e-05
4.233698423849647802e-04
1.867145774332767732e-04
-8.373242258596217172e-05
-1.732095984872907197e-04
-2.221137346126428444e-04
-2.555545573803756458e-04
9.747767163000039636e-05
2.203842242544156382e-04
1.171773863174886660e-04
2.795337085236463036e-05
-2.854413157064118189e-05
-1.129080816323632875e-04
-1.182807763606664683e-04
-1.426460101017375508e-04
3.686401824113958781e-05
3.555924337086510987e-05
1.260737680209536484e-04
5.120745642220766563e-06
-2.748666132020081125e-05
-5.031638431617371733e-05
-7.457138138721193369e-05
-7.142335959989669120e-05
5.704402958944358455e-05
2.698715753490729770e-06
2.110153514123154234e-04
2.254556998594069476e-04
2.873194144045712644e-05
-8.903560948994903364e-05
-1.327709892214968353e-04
-1.240763803144349833e-04
-1.220187294397894238e-04
4.249651646919840845e-04
4.195636407082128515e-04
1.450359004792589038e-04
-7.819565493323804659e-05
-2.373698764618845114e-04
-2.779037516527677770e-04
-3.058024569321604949e-04
-9.029296589940519961e-05
-6.077638423047033399e-06
5.305294062535647400e-05
5.636739446197320126e-05
-1.236229469452879400e-05
-7.583854305271462792e-05
-1.128305156254501762e-04
-1.822174790930390924e-04
2.799061358014500681e-04
9.686528474198224600e-05
1.825681555220115670e-05
7.027590041759243106e-06
-4.328146055552214657e-05
-6.208079596752595554e-05
-5.250936889489835378e-05
-8.215871256874857618e-05
1.178806476507523668e-04
1.347914161578567282e-04
8.542426560129403245e-04
2.222751415476883607e-04
-2.609367001126638845e-04
-3.285515184640824902e-04
-4.802686289725132903e-04
-5.014610324930298887e-04
3.599086663238042216e-04
1.968518157437381321e-04
3.519409362178277855e-04
5.995092286583981876e-05
4.276286927272384351e-06
-2.491416510276447493e-04
-3.062509749047917593e-04
-3.360473863470686659e-04
2.784200505248267074e-04
1.015562969486393141e-05
-1.979154295478579756e-07
-9.606787104444929032e-08
-2.515674761698946745e-06
-2.452480327763597790e-06
1.268115931518301961e-07
-2.410381723372284233e-06
-2.609921174588624090e-06
-9.402163657102393727e-06
4.928901755830089127e-04
1.527422731059675917e-04
-1.929549791903603355e-05
-1.519968731893475147e-04
-2.482124539312158457e-04
-2.886899294514951118e-04
7.196446945922045776e-05
8.878491477384334014e-05
3.893356529712408646e-04
1.898671734189823028e-04
-1.319107098502719354e-04
-2.686190914952856835e-04
-3.859742146579534959e-04
-4.154023236455892153e-04
5.339185984850342969e-04
5.746914275307536690e-05
3.503978730963650218e-04
2.133873518054250104e-04
-8.598223324745978967e-05
-1.493393756149587203e-04
-1.915505874999364974e-04
-2.382089189982833767e-04
4.382674770577314093e-05
1.717540667414784090e-06
2.882148439985784526e-05
1.056376407933330388e-06
-2.430126232663167618e-05
-5.586843390887899578e-05
-7.683202086369102278e-05
-6.813836105400196690e-05
1.935446766779976816e-04
-7.199267995219356007e-06
2.376354147982238493e-06
-2.301403504271109101e-06
7.904056624699053797e-07
-6.591497338692388231e-06
-6.468687706355805169e-06
-3.857453642780608721e-06
2.325155037686712611e-05
-2.571882738977743000e-06
-2.670875728274233865e-06
-2.610189387444013985e-06
-2.523214357736032803e-06
-2.477888862787635678e-06
-2.456605207965295532e-06
1.057878131547692023e-07
1.520486847003018494e-05
1.157815808981952838e-05
1.669489518836202266e-04
9.960098353989776802e-05
-4.846933322001127577e-05
-1.609659127017112478e-04
-1.728751782648610576e-04
-1.584620387451464430e-04
2.626443694183925519e-04
-6.615333472795371689e-05
2.330416050291282725e-04
1.727140392007133678e-04
-5.289637924369222578e-05
-6.149309835080413341e-05
-1.170289077423021881e-04
-1.588414744826071006e-04
5.065755031751775165e-05
1.818993084915728235e-04
2.464343172964741078e-04
1.564467127825402114e-04
-1.203498502632169937e-04
-1.773957713649951576e-04
-2.113176267137849360e-04
-2.142340330343771770e-04
1.385169428057871760e-04
1.055289349556655105e-04
4.857903946648934267e-04
2.352632853387747033e-04
-1.474431627340379736e-04
-2.117248456659536534e-04
-3.017341402234062454e-04
-3.289758547434262249e-04
1.632953884074903213e-04
5.090259003932057940e-05
1.990613817806918828e-04
1.026567622012999198e-04
-5.515829032108131264e-05
-1.086984599725066117e-04
-1.012289769401127375e-04
-1.204590254984814660e-04
3.292401871086976615e-05
-4.271719814497982562e-05
-2.854745771591418390e-06
7.486474191934217178e-05
1.388191252675821046e-05
-2.927532598995989674e-05
-6.111483473470758225e-05
-5.279066246548848622e-05
1.000061126606268308e-04
-1.793890476913098718e-04
4.350113167560939152e-04
3.182100344092654532e-04
-8.082591382491051716e-05
-2.001371803961478606e-04
-2.282619775085828148e-04
-2.359574386986216371e-04
1.713502069542136312e-04
4.957251360445928830e-05
1.453142991090640532e-04
1.643533403409385134e-04
-4.695662322126268161e-06
-8.296547080601582573e-05
-1.413958838557388123e-04
-1.425419233874145888e-04
1.235878731683360778e-05
-1.207952498361271126e-05
7.557898915675627350e-05
1.856977144888370465e-05
1.185469665434955283e-05
-2.841006305453006657e-05
-2.946592960697283031e-05
-5.928345360577445762e-05
2.323551399090052123e-05
-4.683250174092577235e-05
1.309623106997163456e-04
6.164606482885948342e-05
-2.109914417669356951e-05
-6.257098586285086072e-05
-7.838518290706991784e-05
-1.054317272577507260e-04
1.217111664167150987e-04
6.356765465327411863e-05
1.200873120592309006e-05
4.035136885152582048e-05
3.988149587997134188e-05
-5.336812026163451447e-05
-8.478567781746184880e-05
-7.625964200526300096e-05
5.860418949366496438e-05
-4.345514050402930610e-05
2.237078531273127633e-04
2.313629159298154843e-04
-5.889614175307290948e-05
-1.290350214522076864e-04
-1.108013156669291179e-04
-1.450443174358537961e-04
3.216116775496471059e-05
1.852581884135211883e-04
3.222239660769473431e-04
5.093989496972268832e-05
-7.446528098576608032e-05
-1.729232673481674056e-04
-2.390440293110755634e-04
-2.236200176236067063e-04
1.516305458084246172e-04
1.182913853203200808e-04
3.619732466669727347e-04
1.626298327669659452e-04
-6.706393689842821484e-05
-1.680728484173640456e-04
-2.010434003580553893e-04
-2.493912281485358281e-04
4.267694906812481893e-05
2.668796578514186276e-05
2.777504872368553022e-04
2.939639822953715124e-04
-3.070610647833613128e-05
-1.523207400886806119e-04
-1.419115623428084854e-04
-1.914919054869912820e-04
-8.197212092055225149e-05
1.870725648171503398e-04
5.327377698200015058e-04
1.044593091645668829e-04
-1.336351847402350763e-04
-1.807222838229262569e-04
-2.135286325274145258e-04
-2.198522911422022064e-04
-7.653125156894067659e-05
-3.178476033118893870e-05
1.902821227803946349e-04
1.278074013649998478e-04
-1.942570349415403163e-05
-8.922445619051984681e-05
-1.128047791076860671e-04
-9.911499672218785782e-05
3.426517170034228306e-05
-8.490383625947916534e-06
-1.177791400094052452e-05
-8.729849845757586390e-06
-1.068852599058432300e-05
-7.851871478643647029e-06
-1.026895797195888404e-05
-7.657336442792213180e-06
6.546483935662510655e-05
2.541156211817423717e-05
1.021281472346566180e-04
2.204982461568794007e-05
-2.219733746428767909e-05
-3.167070222724001398e-05
-3.135938277333324823e-05
-3.122205312738780424e-05
-3.314005837627007680e-05
-6.845064517762441294e-06
-7.395190987003502867e-06
-4.481520523221415480e-06
-6.579497811756894309e-06
-8.906210434288705153e-06
-8.800453065043646080e-06
-6.201570338985771676e-06
4.920950767806239973e-05
1.090873621748157126e-04
3.106726939742882011e-04
6.496715433929945490e-05
-8.956597257417241609e-05
-1.756444949310562902e-04
-2.764231373556539023e-04
-2.731644689929845870e-04
3.300708633654639355e-04
-1.293166580298004257e-06
1.270765264960056412e-05
5.818131785526130104e-06
1.465525840928323374e-05
-5.091438851607773751e-06
-2.219389568986545353e-06
-2.244621522343473815e-05
-2.130832620082866667e-06
1.522981566101668085e-05
5.190613381203560371e-05
-6.592036045819189643e-07
6.686524154585685176e-07
-1.652803517600142608e-05
-1.621929658112709058e-05
-1.350891493793111603e-05
-2.088915158886928787e-05
4.069495238044086165e-05
1.540659168135295775e-04
4.250557692664838215e-05
-5.924316196998465562e-06
-5.820603959418586528e-05
-9.467910306566153439e-05
-9.629268359932695808e-05
1.783569633555389953e-05
3.541248227626007961e-06
7.624284727458707149e-05
4.675869072213639526e-06
-7.435177610751991903e-06
-2.624468989388384005e-05
-2.294108327091847691e-05
-1.999453833171974590e-05
-7.844475467152665907e-06
-1.370844268991667776e-06
3.022458942015179297e-05
1.844485829509038034e-05
-1.080360755368150743e-05
-2.463265986604459921e-06
-1.233610692211467794e-05
-1.725984343571774736e-05
-4.435779548132102287e-06
2.042907692931000721e-04
1.762373336653922317e-04
-2.820938398488688330e-05
-1.006875534928135057e-04
-1.969283565058540760e-04
-2.174075686904338291e-04
-2.557084811670051641e-04
4.184132408825013034e-04
7.790342182735281876e-06
7.127138853070617277e-06
1.262328743295656707e-05
3.026909490506997599e-06
7.985809568353098211e-07
-1.179712100490149849e-05
-6.609628079883374154e-06
-1.295950983131989295e-05
-7.726550536409116057e-06
-8.042958929129636166e-06
-5.292263334466978906e-06
-7.581048189363660177e-06
-2.349919977828674022e-06
-4.838115555288763792e-06
-4.810428533028949669e-06
4.064128505551577836e-05
9.405572237778559627e-07
7.678385258606333004e-06
1.498969429500834834e-05
1.036613502470607538e-05
-1.103514105812184663e-05
-1.794504287153249775e-05
-2.776133640374830330e-05
2.276674853130406030e-05
8.357093271688238159e-05
3.974766064516381623e-04
2.145715336570215028e-04
-3.579124584123430901e-05
-1.546378047415133939e-04
-2.398121440721574977e-04
-2.199968507689354703e-04
-4.538102740170127413e-05
-4.226325784244860310e-05
-2.044026941371229425e-05
-2.045472822175692791e-05
3.115172366327060438e-05
-3.103818335204389849e-05
-3.796312941021696041e-05
-4.782536326513717233e-05
1.688332078420452115e-04
-1.055908567912976426e-05
6.050579434489353670e-05
3.337401377798599085e-05
3.718588821981672499e-06
-7.744297785515432027e-05
-9.780865273963981461e-05
-1.092435067065062866e-04
1.974558260355690738e-04
-5.191226564346609020e-06
2.217091644943678148e-05
1.445043611789662355e-05
-2.635364065359980135e-05
-5.023386758877202904e-05
-6.865839836505651034e-05
-6.757123508641242106e-05
1.813870156908539200e-04
-2.623960987446001631e-05
1.843126275061769909e-04
1.506291341807460200e-04
-3.894117422049580993e-05
-9.297137890689154127e-05
-8.828797485314153330e-05
-1.127451539470754978e-04
2.424353011514152664e-05
-6.758785991388762807e-06
7.577458936236259332e-05
1.557294735350727590e-05
-8.581072147551103104e-06
-1.812087290591362401e-05
-1.526454766613852550e-05
-2.530669193963015352e-05
-1.731556606524770113e-05
1.697339568801130240e-04
1.405808311748444857e-04
3.314452616002076509e-05
-4.357434134887437112e-05
-1.249166258806766396e-04
-1.746413562095797470e-04
-1.777582680684020044e-04
1.774312772925543992e-04
-2.199939243263270935e-05
-2.095752085860657358e-05
-2.517810818082990001e-05
-1.874718667177245962e-05
-2.827341405586415154e-05
-2.539224801406387948e-05
-2.521447943792450724e-05
1.657623496516941978e-04
-8.668483216317627604e-07
8.732100528347477495e-05
7.934543696633215696e-05
2.115029251697923883e-05
-5.890997169724907282e-05
-4.543409573920461519e-05
-7.056872048244011274e-05
-1.203709852626055694e-05
-2.448437638204765643e-06
3.992373030048802871e-05
-2.661722623568096713e-07
3.073434107631642456e-06
3.450278212326501530e-06
-1.422926333623254216e-05
-1.414035164820216316e-05
-1.536321773544989752e-05
-1.076539210446421093e-05
9.017844987584423540e-05
2.868344641782602126e-05
-2.183422645079518279e-05
-1.012169717070230605e-05
-4.001131994113196467e-05
-4.729479037156227044e-05
1.116552974498567147e-05
-1.523216990668288763e-05
8.944335639746365564e-05
9.257045654709676163e-05
-7.856782791777343987e-06
-2.107339978361910852e-05
-5.580216337428370467e-05
-5.020795159003444731e-05
-3.184134549816288449e-05
6.673149348113367710e-07
3.005997393909745600e-05
1.807043673895879798e-05
3.770744603542347437e-06
-1.104101332270220607e-05
-1.336389016688558075e-05
-1.579639629063553640e-05
-1.236717043618661984e-05
-6.423443602585697629e-06
2.669727220443971909e-05
2.068908832862090464e-05
-4.641760627290066088e-08
-1.465077547616491685e-06
-1.878732287761688687e-05
-3.125634004310779400e-05
1.059224114413915158e-05
1.381889527935432095e-05
-7.582801255875516182e-07
5.528334409360408136e-06
-1.072940312307417608e-05
-2.263319300720056907e-06
-1.462708393669376770e-05
-2.207471604603384631e-05
3.110557284339466889e-05
-9.676757072461688823e-07
-1.016541736791135886e-06
1.563214810110989756e-06
1.605443717951247214e-06
-9.231862953112347956e-07
-9.126331904494400937e-07
-9.068066131629571754e-07
1.558185014898700075e-06
-4.516649844288144573e-06
1.057966935492129583e-05
8.150047871702759955e-06
-4.415167257865195674e-06
3.338330222412665155e-06
-4.263050984745493989e-06
-4.235308703132492727e-06
-4.637870659005386778e-06
1.323904239824603137e-05
1.414225913649533735e-05
2.949705022005299238e-05
7.669507671527431734e-06
-5.754754994956353932e-06
-3.545587663697173230e-05
-5.792745266034147073e-05
3.459022486594778107e-05
4.880529784592240936e-05
9.531919550591169850e-06
-2.579649734906645468e-06
-9.334473879283101237e-06
-6.347945254574209430e-06
-8.694529296970380329e-06
-1.369184693367911102e-05
-1.768877229710014612e-05
-4.876017837826798133e-05
5.124868109350529262e-05
2.850595185302527552e-05
-2.997396807890914937e-05
-3.242140360945695225e-05
-6.569062157286701862e-05
-9.249302052534414363e-05
1.895845592183147414e-04
2.424117681069930832e-05
7.910715817364062142e-05
6.104423495421728966e-05
-3.516635803184881936e-05
-4.373224952918694600e-05
-2.255759773420026851e-05
-4.510378129527547000e-05
-1.783258334804573248e-05
2.477698833082402237e-05
5.741958047548044084e-05
1.599212053498364486e-05
-1.207117336764217908e-05
-2.100768259123109060e-05
-3.061209056969970717e-05
-2.264640866166812741e-05
-1.185133415104700889e-05
2.370305745336740884e-06
3.656928124857516190e-04
2.093792161226481140e-04
-4.527061843261762829e-05
-1.550145545951603810e-04
-1.668206100853575097e-04
-2.211237017258143819e-04
1.078715048521335795e-05
-8.490383625947916534e-06
-1.177791400094052452e-05
-8.729849845757586390e-06
-1.068852599058432300e-05
-7.851871478643647029e-06
-1.026895797195888404e-05
-7.657336442792213180e-06
6.546483935662510655e-05
0.000000000000000000e+00
0.000000000000000000e+00
0.000000000000000000e+00
0.000000000000000000e+00
0.000000000000000000e+00
0.000000000000000000e+00
0.000000000000000000e+00
0.000000000000000000e+00
2.932604029373892660e-05
7.769837766404759472e-06
1.356825053753653757e-05
-6.873068408042466696e-07
-1.544223833077595424e-05
-1.517825652196105475e-05
-1.248682919805172900e-05
-6.869497706087241833e-06
8.960616929339007700e-07
6.700368552853277167e-07
8.126296818169070019e-07
-1.542958258628758566e-06
1.107593195971191013e-06
-3.945433479913022273e-06
-1.369789350033574808e-06
3.371859662568027769e-06
-6.634208151760923123e-06
1.941227253428161404e-05
3.058329111549055486e-07
2.044511403830399380e-06
-1.236594770335676221e-05
-1.450238158153574352e-05
-2.449176523969382298e-05
3.623168582708033371e-05
-6.042672794196149922e-06
-4.543271406323753796e-06
1.808562744500350633e-05
-9.390428542552790964e-06
-2.056237340639470988e-05
5.886171345651156784e-07
-2.962060137375063679e-05
5.148510294364939943e-05
-3.606213073039862403e-07
-5.103616500627668638e-07
2.130864660500033116e-06
4.816658054008222646e-06
-2.119504366471901698e-07
-2.727035281965734319e-06
-1.572837549801565645e-07
-2.980270283548422452e-06
2.809192312836840635e-05
1.224037033231654818e-04
5.995732685540897198e-05
-4.315943267180868449e-05
-6.908545060856998191e-05
-1.204219574925024849e-04
-1.141612487564079218e-04
1.363751362223461960e-04
-1.182793522252231095e-05
1.843900501070121418e-04
6.792813230755025524e-05
3.744064838298452486e-07
-5.406158017803402950e-05
-6.353485658840053068e-05
-6.065365673212846036e-05
-6.261456017730682416e-05
1.157815808981952838e-05
1.669489518836202266e-04
9.960098353989776802e-05
-4.846933322001127577e-05
-1.609659127017112478e-04
-1.728751782648610576e-04
-1.584620387451464430e-04
2.626443694183925519e-04
-1.336999484833882233e-05
3.993639296135261088e-05
5.589595137308418695e-05
-1.419760384993497965e-05
-4.913117881710217879e-05
