1.890736709597084175e+00
1.090524265258223879e+00
2.641228784186656631e-01
-1.775154995052146689e-01
-4.744302244213634001e-01
-7.096849380131073914e-01
-1.107294134535403263e+00
-7.764590567988820524e-01
-1.030542204198566125e+01
-8.164286579219703910e+00
-4.930992196384010207e+00
-2.016434433975504703e+00
-4.134612392949432169e-01
3.536371939854370816e-01
8.984168097424658495e-01
2.457854248713161738e+01
1.888548571070667037e-01
1.779634822486314549e-01
1.155102274813825658e-01
1.043408416541683481e-01
-1.501259905496542084e-02
-1.131689053489602220e-01
-1.580174522658405190e-01
-3.004704518214795783e-01
1.307030993474208869e-01
1.440894281636705132e-01
-4.566793537106886985e-02
1.028875925006253467e-01
-4.079220754546310224e-02
-1.041756791346718086e-01
-1.053464123604808539e-01
-8.169788560003286848e-02
4.262268988629406424e-02
-4.985146692764746285e-02
6.621964391156574814e-02
-2.953324879392436875e-02
-1.134293566714328627e-01
1.353216217883895511e-01
-6.065778210144245723e-03
-4.528410498309562437e-02
1.413222180611361234e-01
-3.320937963063193277e-02
3.642816812390020642e-02
5.552192912372148903e-02
-8.970351602143587788e-02
-3.467727979847360503e-02
-5.727755241976658501e-02
-1.840458743845242370e-02
1.151756386051560610e-01
-7.454393355667271806e-03
2.937440746607854203e-02
7.568710966552156215e-04
-8.540701872057213095e-02
-2.071910859958018755e-02
-3.045952586146218142e-03
-2.868044390592125459e-02
1.038510009878105267e-01
9.937560298777579904e-02
8.865039810597094561e-02
4.841532257753147078e-02
-1.104692531121391208e-01
-5.267192154204851547e-03
-1.006086390610211323e-01
-1.239472403317236487e-01
1.509099820145273774e-01
1.286043386786207138e-02
7.369759933866704138e-02
2.867117582523923819e-02
-4.901590872519463044e-02
1.598748694217620551e-03
-1.185522808787545929e-01
-1.001697501365599596e-01
1.207351215449399690e-01
1.159308875542395673e-01
1.607262419775668666e-02
1.891120576115672414e-01
-7.244528433923876076e-02
-2.066545323210286222e-01
-3.029677627071741819e-02
-1.324540979775179483e-01
-5.613868015193022865e-02
-6.488743650070694091e-02
-7.417760135025329438e-02
-8.152542065358696355e-02
2.650876464780701266e-03
1.002007944834184677e-01
-7.384874627218689785e-03
1.812623423355016472e-01
6.342249656291043536e-02
5.369693939437487906e-03
-1.290726934075400213e-03
-4.400837939221308170e-02
-8.884539611692322814e-02
6.512334428721805457e-02
2.855974704188384006e-02
-2.833077938823655786e-02
-8.921894808437531854e-02
8.373588365386171184e-02
-5.865384890934292016e-03
-2.164750810060192196e-02
-1.843069738301958763e-03
5.830706855306122538e-02
4.404816470349018354e-02
-6.751620609619989055e-02
-3.304621343418814167e-02
-6.930083887595918715e-03
-5.160539624016113186e-02
-2.962052136624015314e-02
-6.042248340209759039e-02
1.558338015581764435e-02
1.553668144425945086e-01
1.067450373187107254e-02
-1.047795865596473502e-01
-7.456231493311811509e-02
-7.176721137129640771e-02
1.650957792711509747e-02
1.585149617573053116e-01
1.865156878892136327e-01
-2.100031588407659522e-02
-8.943079882550032667e-02
-5.553751072104305686e-02
-1.477287985303462337e-01
-1.043133820431588615e-01
4.946386581047038100e-02
-7.246449389956090281e-02
1.808918938092013706e-01
-4.771415365028883887e-02
1.974025792247274813e-01
4.042850442490040358e-02
9.400590904833741601e-02
8.994112504004549147e-02
9.242370196974469820e-02
-2.162385699521486224e-02
-7.039053644142276300e-02
-1.291683861029045144e-01
-9.561646094348570657e-02
2.266918255790807343e-02
-7.924732998132918982e-02
5.042722977005283450e-04
-3.367920766267717969e-02
6.055559049536381189e-02
-3.314763786109476557e-02
8.786035389410729035e-02
-2.551522373997945278e-02
6.057987611817909623e-02
-7.472143155152971561e-02
1.077196431471989790e-02
4.938436979240246744e-02
5.666409731495287982e-02
5.131977463741663886e-02
-2.262285252161995996e-01
7.222987459005841826e-02
1.087754981052482250e-01
-1.900676121731584636e-02
-7.924838000282723519e-03
-5.343961360870368160e-02
-2.990699766647329783e-02
-6.820036877595854474e-02
1.219180406451005061e-01
-5.221495948161503087e-02
-1.425459449186225747e-01
6.600768857550214086e-02
4.529378815204067148e-03
4.348237506317778611e-02
2.501988764075087635e-01
-2.134414377801315821e-01
1.362729837070973393e-01
-1.445039198697362359e-01
2.735693477142347452e-01
1.334561674037008094e-01
1.358998744299654837e-01
1.149462881746508847e-02
-6.105672150825501576e-02
-1.013012195369057504e-02
-2.922639572877520076e-01
-1.909692176156759791e-01
3.758272512643431179e-02
6.508761610524482766e-02
1.751023987351612299e-01
-3.211132000215132648e-02
1.097632757678984466e-01
-1.778763850294296789e-01
-1.339904231598545992e-01
-4.355788754330641721e-02
1.609639389290878075e-01
7.012437373962573939e-02
2.965014877671565130e-01
-1.600968458153698426e-01
-1.396432316128220497e-01
-8.444120651392626742e-02
-5.981208184511541126e-02
-8.359643464863689144e-02
1.830736495490361826e-01
1.333453437861440924e-02
3.707593536129309003e-02
1.577006915276141508e-01
-1.089504928956383789e-01
-5.512764794433471643e-02
1.078043009310995642e-01
-3.349109709076868446e-01
2.756534708625866803e-01
1.657718786624431950e-01
6.446837461006688086e-02
-7.973137973910907061e-02
-1.006236215099506753e-01
-2.858200325588160923e-02
-2.081751172334568301e-01
-8.878160239669925791e-02
2.069295608233444050e-01
-4.235914850596221408e-03
-5.501653289280863598e-03
-9.205141501133579096e-02
7.042358885053658264e-03
1.760763041181908836e-02
-2.826222866680798140e-01
1.528317196990759963e-01
-1.231996145754400002e-01
-1.332085290526415777e-01
5.602318359982261242e-02
2.371333396735604560e-01
3.614453672177798255e-02
-7.227496012832837491e-02
4.591736438594771347e-02
-4.653532062469887404e-02
8.292258191463118197e-03
1.605298880664639272e-01
-1.999257346033561922e-01
6.104490651640595567e-02
1.251639565463543713e-01
-7.702855870933435212e-02
-2.803515138078218130e-02
-5.004156462721664339e-02
-1.566010366452409153e-01
-1.810010203992261368e-01
5.193042367044018587e-02
-4.454948865870360375e-02
5.704885075172220349e-02
-6.356745337138150313e-03
1.277249706493489567e-01
1.518040459688023425e-01
2.950182927406764799e-01
7.101347964472581875e-02
1.029526279141965706e-01
-9.536884101997761265e-02
-2.174292744286256962e-01
4.219842302889485058e-02
-7.703218341452919282e-02
-1.213525244653595458e-01
-4.073829826414972211e-02
-9.998241193970945628e-02
-8.667460665770140849e-02
1.192695308965715101e-01
3.734935986743988939e-02
-2.299616836228588271e-02
1.360929078930259994e-01
-4.232031343319069688e-02
1.611548073378118173e-01
6.050885918081403553e-02
-7.703166186641415003e-03
-6.550660943965255778e-02
1.298749766303588238e-01
6.071353822191642019e-02
-2.715233956294459475e-02
-3.118900661816619846e-01
3.598075575294147899e-01
1.303238979801109310e-01
-5.937700046910257545e-02
4.647770371982390403e-02
1.037872417662687521e-02
-3.740390005238900667e-02
-1.737466728856725817e-01
-2.764603099988123258e-01
6.988881194851372103e-02
-7.817457360737861682e-02
-7.170481137888441714e-02
-3.071770851207958342e-02
5.641014521286785190e-03
2.574137544634177294e-02
-1.365330252944103873e-02
9.297919411163792225e-02
9.402391016440928007e-02
4.022537286665684581e-02
-1.793006242566488797e-03
7.606146666027580570e-03
3.143533227478059744e-02
3.343349032006578177e-03
-9.884503284841923698e-02
-7.599607191289563246e-02
3.974879261202225386e-03
-2.600300572821113293e-02
3.483153172605178965e-03
-1.931935295670789490e-02
-1.452872196373715397e-02
2.384763561763906733e-02
-2.085785420955594410e-02
4.940326680676831311e-02
4.983056726355157562e-02
2.107103456918578074e-02
3.367856635335203519e-02
-6.761677789090977941e-02
-1.588080336029419337e-01
-5.458530062332332677e-02
1.295964298796617731e-01
4.683351405142355262e-02
-1.241492942030999157e-02
3.942375789461725726e-03
-2.531315063684811545e-02
-1.012970311387723643e-01
1.647567273363192628e-02
-1.663907343017954205e-02
-8.150778618247439544e-02
2.167539222854915348e-01
-1.407317870705923901e-01
-7.391988697088797133e-02
2.629601582260251286e-02
-6.225472904993985951e-02
-1.774424844084400779e-02
-4.633479111885945717e-02
2.092878368043076269e-04
3.144801389917209478e-01
9.445215777742611840e-02
1.672386295001045175e-03
1.416683141345064997e-02
-3.522041656006624083e-02
2.601917740135252857e-02
-1.277733870971997088e-01
-5.169089037631465627e-02
7.837414114635060658e-02
5.490317287307229857e-03
1.696119151363460059e-02
1.384995740119662755e-01
6.146314281787025081e-03
-2.457630230516213293e-02
6.663180441542336518e-02
-3.905205569881695093e-02
-1.701008435061399926e-01
-1.127163049545516771e-02
-5.206855930423766321e-02
-3.963772955191974950e-02
-2.885980628236320053e-02
3.814581104678359952e-02
8.154035397484794834e-02
-1.697822508531924776e-02
2.912978569766349474e-02
-5.300150845173051684e-02
2.442581116856100409e-01
1.873148044318061547e-02
-5.090507651555287345e-03
-3.479402184067143661e-02
-5.576069352872912305e-02
-1.096705102259436099e-01
-4.672350430161886607e-03
4.173858159090758357e-02
8.913843890057761288e-02
-1.248524335494794954e-02
-1.517960465394102842e-01
3.041874033951585607e-02
-3.559744998446050766e-03
-3.222486843959385117e-02
3.877014250139661222e-02
1.529979160621982859e-01
5.731778781801121110e-03
1.384404808389770869e-01
2.039457214449150527e-02
-4.345480065068042796e-02
-6.659470321926921899e-02
-7.837862417514901425e-02
-1.291366197823697326e-01
-3.303163640757839775e-02
-2.034836695813329113e-02
1.494553811936706958e-02
-5.426063943205522433e-02
1.681745644373870002e-02
5.258316396416089222e-02
-5.262960859468614888e-03
2.855744512996821402e-02
4.406560348525051518e-01
3.221073137943676334e-01
-3.358515955691782767e-02
-1.166603793020261348e-01
-2.553848549454363348e-01
-1.114161649976121160e-01
-1.436555092289738267e-01
-1.020612806159048730e-01
1.139434280489346309e-03
1.284585325222903363e-01
9.605304749562558475e-02
1.346147161211787291e-01
-1.723029265574403113e-01
-1.297424216576312517e-01
5.562358513686635475e-02
-1.138439673413776249e-01
-3.083195665287017939e-01
-1.414417837931231936e-01
-1.987430282668997961e-01
-9.812501321411697119e-02
-7.844598027269465701e-02
2.464620256695682909e-01
3.112845578342096631e-01
2.673287885717561818e-01
2.978464485674135395e-02
5.409967449542994050e-02
-7.308977916174354619e-03
3.802565781688068552e-02
-1.586048810096907149e-03
-1.889704447940930912e-02
-1.023235375708355932e-01
8.205631607464108218e-03
-1.666844272532891080e-01
-3.172340945107874899e-01
-3.349690985287677170e-01
-8.786157901437871565e-03
5.920293068367716433e-02
3.833446673706387281e-02
2.619478513911736584e-01
4.681885293823683236e-01
-1.511294309649827139e-01
3.346216812638607707e-01
2.006738742090713179e-01
-1.872607234649937835e-01
2.202725648047025309e-01
-1.170317679519391613e-01
-1.105419277407216766e-01
-1.896042701549972564e-01
-1.519281906076546396e-01
2.156048075158709387e-01
1.338658763174588040e-01
1.186775578417277044e-01
-6.768601862302282834e-02
-1.334296721261852836e-01
4.215560796423288570e-02
-1.572599682824281919e-01
4.849926633341831300e-02
-1.528559182417441598e-01
1.243131141705329373e-01
1.703814466819667250e-01
1.905542042049995083e-02
1.485253495795434975e-01
-1.777942101372635697e-01
-1.801244688069562616e-01
1.558127950261155859e-01
2.393025506511171907e-01
1.304892257211346940e-01
-2.071442215283937280e-02
-2.258940992027400063e-01
-1.503734827588173173e-01
-3.811731623503745309e-02
-9.050525104893131223e-02
1.373473387999369077e-01
-7.206373902420403453e-03
3.294501495129648072e-02
7.484128208042933883e-02
-7.517479405769848799e-02
-5.852491541611314768e-02
-3.641969821020987069e-02
-6.780785424522037252e-02
7.028427930549775715e-02
1.366971615813598606e-01
-1.094585853591605214e-02
-1.086386429896577660e-02
9.178684928411422195e-02
-6.067515507881061226e-02
-2.002081955019251736e-01
-1.607521675535335259e-02
-7.049121264928509545e-02
2.363194725173756172e-02
7.966609119833643893e-02
4.835900205707650834e-02
1.856986367112281947e-02
-4.395115064374467695e-02
1.976322132764824976e-02
-7.554776221289079274e-02
1.081532247342008451e-01
8.014399649176938423e-02
1.317728369380467002e-01
2.715698208901517682e-02
-1.088968147155246341e-01
-1.035767856307221770e-02
1.362157707838914864e-02
-2.415941240528268474e-01
1.520435469753318170e-01
9.215589798779913466e-02
7.233252882733619618e-03
-4.444955305851647220e-02
2.587664255705981672e-02
-4.172436749603315037e-02
-8.306843615332026864e-02
-1.080669836950536311e-01
1.694724073745903781e-01
7.480109261120590491e-02
-2.246045160029967389e-02
4.012841201774460659e-02
4.512256211845118437e-02
-6.840171275013648411e-02
-1.109313236169852807e-01
-1.277309861545718739e-01
-2.595528286884334346e-01
-2.813999789067936907e-01
-2.687042355045721753e-01
1.426313138639860069e-02
1.112144134967666953e-01
-3.001454948176138227e-02
2.789309195408892772e-01
4.352631281575084499e-01
-5.889782760426703206e-02
-1.420981989267185996e-01
-2.838401084417344761e-02
6.533636757391791949e-02
-1.293859285017542049e-01
9.674422583905416262e-02
1.926911516061406426e-01
3.994220857800532577e-03
-1.107190731863754996e-01
-6.140562483208758526e-02
-3.903661714307010699e-02
-1.379992268409038214e-01
2.111202902713312790e-01
1.921654747044061473e-01
-2.148794180967422349e-02
-3.263728116362615839e-02
1.386442402378907091e-01
1.546134561399656882e-01
1.552452070471590367e-02
1.173852163253268216e-01
-1.929874752972998361e-02
9.392049918513752094e-02
-2.971059787921472295e-01
-2.036832062711607383e-01
-1.102330259199996582e-01
-8.554359763489270685e-02
-9.116304909934672129e-02
-4.734930629040814271e-02
-1.414920785831105532e-01
-1.033873427103882969e-01
4.519352960347394754e-02
5.339748706346735263e-01
0.000000000000000000e+00
0.000000000000000000e+00
0.000000000000000000e+00
0.000000000000000000e+00
0.000000000000000000e+00
0.000000000000000000e+00
0.000000000000000000e+00
0.000000000000000000e+00
1.207351215449399690e-01
1.159308875542395673e-01
1.607262419775668666e-02
1.891120576115672414e-01
-7.244528433923876076e-02
-2.066545323210286222e-01
-3.029677627071741819e-02
-1.324540979775179483e-01
2.596593776691699662e-02
6.404708302590651769e-02
9.117006972981368806e-02
3.190437490983016183e-02
-9.674954065536298109e-02
6.001002659951566037e-02
-1.250762890026849428e-01
-5.127166237393340764e-02
3.745655879599423671e-02
-5.867738908646875917e-02
-9.246079666388844209e-02
-7.591275430204394437e-02
7.904144538439378254e-03
5.113317687702215522e-03
1.536360360445693241e-01
2.294088298569666937e-02
-8.921894808437531854e-02
8.373588365386171184e-02
-5.865384890934292016e-03
-2.164750810060192196e-02
-1.843069738301958763e-03
5.830706855306122538e-02
4.404816470349018354e-02
-6.751620609619989055e-02
-1.153425862686582454e-01
-1.267875119220453206e-01
3.625867642337696900e-02
1.757485412956833193e-01
1.738694841902725385e-01
-1.206907675207637559e-01
2.417893383235290850e-02
-4.723477003021910037e-02
-3.304621343418814167e-02
-6.930083887595918715e-03
-5.160539624016113186e-02
-2.962052136624015314e-02
-6.042248340209759039e-02
1.558338015581764435e-02
1.553668144425945086e-01
1.067450373187107254e-02
1.278272493039775970e-01
2.370764140065055037e-01
-7.111507144522889734e-02
-9.433675562851782936e-02
-1.427225000198293070e-01
7.088848595851866830e-02
-1.006409682459746269e-01
-2.697685392945130267e-02
-2.654260571706172356e-01
-1.352210484479889618e-01
6.322414003888617885e-03
-4.143916568755592195e-02
1.411040636540953630e-01
2.501003109745760233e-01
5.807596985160213415e-02
-1.351648717799879169e-02
1.481618075756528929e-01
-4.963016856959013429e-02
-4.323323035333191677e-02
-2.346304205249373151e-02
-1.373608606723260642e-02
-1.378234152311648940e-02
-2.614251322057092528e-03
-1.702687687830857629e-03
2.172292468550537925e-02
8.974120843478218187e-03
-7.671519705545519485e-02
3.552277758401373164e-02
4.354269778921125711e-02
-9.215860726847648066e-02
-2.532378758831107385e-03
6.164366218055381680e-02
-7.726043540654882469e-02
-1.567029193738247728e-01
-2.759818498770322953e-02
1.394108822645676211e-02
-1.160071916887727150e-01
2.730505010776806407e-01
-4.518177489145783904e-02
1.357589170441716175e-01
4.042850442490040358e-02
9.400590904833741601e-02
8.994112504004549147e-02
9.242370196974469820e-02
-2.162385699521486224e-02
-7.039053644142276300e-02
-1.291683861029045144e-01
-9.561646094348570657e-02
2.266918255790807343e-02
-7.924732998132918982e-02
5.042722977005283450e-04
-3.367920766267717969e-02
6.055559049536381189e-02
-3.314763786109476557e-02
8.786035389410729035e-02
-2.551522373997945278e-02
6.057987611817909623e-02
-7.472143155152971561e-02
1.077196431471989790e-02
4.938436979240246744e-02
5.666409731495287982e-02
5.131977463741663886e-02
-2.262285252161995996e-01
7.222987459005841826e-02
1.087754981052482250e-01
-1.900676121731584636e-02
-7.924838000282723519e-03
-5.343961360870368160e-02
-2.990699766647329783e-02
-6.820036877595854474e-02
1.219180406451005061e-01
-5.221495948161503087e-02
-1.230474163860422743e-01
2.586385257653165889e-02
-8.168511071898573728e-02
9.724431000685689053e-02
2.608781103388868594e-01
-5.705736622176771355e-02
-4.859848485575254257e-02
-7.359789473972699891e-02
5.278606799729721605e-02
9.328710339131598278e-03
2.140322292894139902e-02
-7.561897261371373913e-02
6.348679494974039661e-02
-1.130468518612406104e-01
5.894281324866077615e-02
-1.728178498881688743e-02
-7.228459652987768991e-02
3.081512565983881430e-02
6.481126660524846872e-02
2.185703767003475614e-02
-7.416602888111825664e-02
-4.333721969712292510e-02
1.259286553141890086e-01
-5.362424014119215876e-02
2.949315641210959252e-02
4.710419563511149960e-02
3.608474232902342954e-02
2.162342848986583983e-03
-7.526435453622952292e-03
3.549823221814678992e-02
-4.673105548580918506e-02
-9.608517850394689142e-02
3.393828744613478499e-01
1.134116461044508556e-01
7.988622989952728209e-03
-3.829827058363892422e-02
-1.028604361243308368e-01
-1.473610826012863514e-02
-1.560756341447229745e-01
-1.488126944429326304e-01
-1.404297481763450706e-01
-6.680386330484486268e-02
-8.312461038173200867e-03
-5.007135728607477188e-02
3.694459217368432913e-02
-2.629806886205899186e-03
1.298985069309457618e-01
1.014041375870112088e-01
6.985425048526194836e-02
3.760942393462980704e-02
-1.885973928757102638e-02
-3.546241087256679636e-02
-1.938878831661720393e-04
2.924086203467091485e-02
-5.517911432624787033e-02
-2.700938408501036073e-02
-1.197649652712588220e-01
-3.434068450768856112e-02
-1.045209098787021167e-02
1.214684747605329906e-01
1.172701198623077590e-01
-1.407388278189859732e-01
-4.948761591246322172e-02
1.160455898754258197e-01
-1.176012289339735950e-01
-1.252048481974638305e-01
-1.432262559281344272e-02
-3.399203545814991068e-02
-7.576503289978658547e-04
1.237513477624909569e-01
3.563472279326697356e-02
1.324923179556398434e-01
5.287839129326137311e-01
2.321988417558112638e-01
7.872717588995201132e-02
-5.267640564620353072e-02
-2.056291045189035382e-01
-1.403929006819874259e-01
-1.741592090720888164e-01
-2.668523106591971228e-01
7.559891128623222323e-02
9.097993250751473804e-02
1.602671983707886494e-01
-5.033948690893664396e-02
-1.611945414729238080e-01
4.279265230635673732e-03
-7.260836729122016608e-02
-4.698291172209070193e-02
1.031647731868655382e-01
4.719682276503748414e-02
1.177956287987105416e-01
1.025054195300440785e-01
1.223608865780638072e-01
-2.372354692497491702e-01
6.902977440222582417e-02
-3.248178360111988461e-01
4.362289379276172718e-02
-3.261531172216242808e-02
3.718679681950614602e-01
-1.253483304396799947e-01
-9.902069965486307024e-02
-6.088831180206998733e-02
-4.245418056340832802e-02
-5.516402780563998270e-02
1.173410451363260942e-01
1.027396854617882022e-01
-7.536648042790519697e-02
-3.474851537568971610e-02
-4.062253195795881983e-02
-2.355289471185638070e-02
-1.735790128170704508e-02
-2.843240684299709262e-02
-1.650669863484602318e-01
-2.331744452845150584e-01
8.843584097758386275e-02
7.512084991192571892e-02
7.727584620802981086e-02
3.639932494065022811e-02
7.533508150519840907e-02
4.567448808958647632e-02
3.481406358974979409e-01
2.465089796631291796e-01
-5.135990561629096701e-02
8.257984161568789061e-02
-1.862263391036691473e-01
-9.152697288498498618e-02
3.246921942590116905e-02
-3.805854589972716417e-01
2.756534708625866803e-01
1.657718786624431950e-01
6.446837461006688086e-02
-7.973137973910907061e-02
-1.006236215099506753e-01
-2.858200325588160923e-02
-2.081751172334568301e-01
-8.878160239669925791e-02
2.069295608233444050e-01
-4.235914850596221408e-03
-5.501653289280863598e-03
-9.205141501133579096e-02
7.042358885053658264e-03
1.760763041181908836e-02
-2.826222866680798140e-01
1.528317196990759963e-01
-1.231996145754400002e-01
-1.332085290526415777e-01
5.602318359982261242e-02
2.371333396735604560e-01
3.614453672177798255e-02
-7.227496012832837491e-02
4.591736438594771347e-02
-4.653532062469887404e-02
4.309518285488360412e-02
-1.936122209016480633e-01
-6.657142078682254382e-02
-2.155281017792885431e-02
-1.545820350730912618e-01
1.056017659766901456e-01
9.046353514830411668e-02
1.971580029596119166e-01
-6.851583178575532118e-02
1.783457120742534541e-01
-4.893505910092821320e-02
-3.263005873192684897e-02
-1.269576912704652866e-02
-6.942107898039239638e-03
-4.352706847611789373e-03
-4.274178582945434984e-03
3.371290712233468434e-02
1.757963968938590638e-01
-8.441925471560429717e-02
1.152277754262617665e-01
2.924417607464921409e-01
-1.756882167879852408e-01
-1.141459796814744548e-01
-2.429253890038839403e-01
2.950182927406764799e-01
7.101347964472581875e-02
1.029526279141965706e-01
-9.536884101997761265e-02
-2.174292744286256962e-01
4.219842302889485058e-02
-7.703218341452919282e-02
-1.213525244653595458e-01
-4.073829826414972211e-02
-9.998241193970945628e-02
-8.667460665770140849e-02
1.192695308965715101e-01
3.734935986743988939e-02
-2.299616836228588271e-02
1.360929078930259994e-01
-4.232031343319069688e-02
-1.476116573904465157e-01
1.222747277709108904e-01
1.423306097535941561e-01
5.476612005674394434e-02
6.961381028435081539e-03
-8.113019413089610221e-02
-1.154045161346026367e-02
-8.605053547488049348e-02
3.087664647282574171e-01
-6.176586859009723651e-02
-1.500337759402354532e-01
-1.202727294963963911e-01
1.229135956019236503e-01
1.418437323528123906e-01
-1.561188794948453404e-02
-2.258395307067807833e-01
4.697392087523123705e-02
8.481050670877103570e-02
-6.343971844741315425e-02
3.282787863377305965e-02
-1.946399466454550378e-02
-2.898110763446346341e-02
-1.644703141194184953e-02
-3.628045405941054957e-02
1.712940799461262487e-01
6.804043646256643929e-02
-3.341285392958561612e-02
-5.838865189748899953e-02
-5.428878587935684341e-02
-2.626723709990296668e-02
-6.011275855565046712e-04
-6.637586001680173542e-02
2.280978203183334566e-02
-5.698818224777200264e-02
-1.443537518548996743e-02
-2.864016435316697404e-02
-3.612498479221698533e-02
3.571859573720342906e-02
7.104947669247406103e-03
7.055538114036292996e-02
0.000000000000000000e+00
0.000000000000000000e+00
0.000000000000000000e+00
0.000000000000000000e+00
0.000000000000000000e+00
0.000000000000000000e+00
0.000000000000000000e+00
0.000000000000000000e+00
-1.711889709046777730e-01
-1.740373345309416120e-01
3.958313618360560782e-02
2.348322910480372949e-02
1.155187798574073832e-01
4.527112444350429171e-02
-3.710091201189451814e-03
1.250801270474883320e-01
9.402391016440928007e-02
4.022537286665684581e-02
-1.793006242566488797e-03
7.606146666027580570e-03
3.143533227478059744e-02
3.343349032006578177e-03
-9.884503284841923698e-02
-7.599607191289563246e-02
1.813684803550343061e-01
6.805396588154727366e-02
9.252216712364079443e-02
3.162543749845211222e-02
-1.069452734243494657e-01
-1.022002634826781747e-01
-2.144520838986075373e-01
5.002756994696143378e-02
-4.147219933972502368e-03
1.580573389790034672e-02
-3.934198496803396200e-02
2.245981963940533316e-02
-1.893473648660434511e-03
1.674866996139344477e-02
-3.911911071392307898e-02
2.948756576589310271e-02
-4.056620896103657614e-02
-1.450671503347223945e-01
-1.395164436099409488e-01
1.495790827282810799e-02
2.538244323028795296e-02
-5.109432939857799089e-02
1.828675474224274178e-01
1.530362333787360085e-01
-7.666048234432373820e-02
-3.480340215657458380e-02
-7.254968301863111424e-03
-1.418144076335488973e-02
-1.930970147965796468e-02
3.735598163788365900e-02
4.361281417701028812e-02
7.124119923087909867e-02
6.745932103046674289e-02
5.645102605167773985e-02
-3.097962296603797017e-02
1.067573796813873696e-02
6.288115109320059626e-02
1.005221998628166684e-02
-1.611585887836881892e-01
-1.538124438004070775e-02
-1.863649693596164392e-02
-1.026000299655781406e-01
6.803112284547913058e-02
-7.057935500286081909e-02
8.954447859823500000e-02
-5.247008205839370776e-04
1.427112312817604423e-01
-1.079462500004926551e-01
5.569488060448427036e-02
5.531786846337059804e-02
-2.218518513539729370e-02
-2.762637815823111576e-02
-3.053166013986220034e-02
6.252844205865396021e-02
-1.674907822213925201e-02
-7.644888947087925823e-02
-1.073189792001695703e-01
4.018613113251640057e-02
3.587568430750854437e-02
1.902225076296806122e-02
-2.623657715702748180e-02
3.367565985127407568e-02
1.525779229385182227e-02
-1.046196199092185378e-02
5.763733495400207713e-02
1.194423674855429537e-02
-4.042942712022511847e-02
-1.068080224708395191e-02
-2.910290584411532461e-02
-6.759997695544472940e-02
3.771020337190830740e-02
4.052133709240449133e-02
-2.007627294802402651e-01
-2.934057414122292484e-01
-1.327633163016433415e-01
-9.423590131900309863e-02
5.544354579195858584e-02
3.221261448855404219e-01
9.899390578197905799e-02
2.446040920536372010e-01
-4.329513522132941855e-02
2.061373723174909356e-01
7.589131164148568698e-02
4.311668731511306835e-02
3.606878267518172365e-02
-2.229359990503217703e-01
7.004907595604794104e-03
-1.019879272732264336e-01
-6.813474841784428193e-02
-8.208605183833060648e-03
-3.919011640435502569e-02
-5.004108200781602622e-02
-4.935750071224611485e-02
3.207369812116264013e-02
6.478495817804553157e-03
1.763798587871265589e-01
7.940805860732058630e-02
2.716255875485780458e-02
-9.062558001808636646e-03
4.301738350262820226e-02
-5.809698980376674232e-02
-6.397245480292193531e-02
-1.838627639652470336e-01
1.654067657089384746e-01
-3.236030354494470046e-02
-1.185267148943917326e-01
-9.560369596218691590e-02
-6.954696909263172189e-02
5.206756445115424958e-02
1.044831075837310969e-01
1.200720023354683585e-01
3.941500912380126176e-02
-5.946268448268575424e-02
9.530653192899322945e-02
7.935310332714697046e-02
-7.476744554876915694e-02
2.250509808624447453e-02
-5.714972621098922401e-02
-1.771702455269601878e-02
1.193214745275333714e-02
-1.048274109162363743e-01
-2.435343665228657459e-02
-9.919545801506590363e-04
4.959436737202947004e-02
-1.119324263510631818e-03
9.472117991883858418e-03
9.048386912888214950e-02
-1.825822808061289618e-02
-2.824339947821613919e-02
1.043773230436215310e-01
5.256097363420976498e-02
1.899775696164140992e-02
2.988441685957379801e-02
-3.556523917163086773e-02
-8.029307681560637899e-02
-6.171875503359353088e-02
-7.660976676144615020e-03
-1.539437733622226745e-01
-2.527300323145654018e-02
-1.308468533836121550e-01
-4.650934103690702870e-02
-2.024166993911198295e-02
-9.981504476472256165e-03
3.944571221059239852e-01
-9.745497864011340005e-04
9.974172509331295788e-03
1.493241720925126206e-02
6.562917639210809340e-02
-1.338759637652628745e-02
-7.376850759262031099e-02
6.468872119012497590e-02
-6.709383354526728127e-02
1.735193746328453010e-02
-6.690223275811335579e-02
2.328512320470565652e-02
-6.177758070537862217e-02
1.110171191151365505e-01
9.713615306834678855e-04
-1.088547280459953998e-01
8.490900019567720891e-02
7.807477010054268696e-02
5.860044654378313012e-02
-2.405070900050612984e-02
-3.907201224679618390e-02
-7.161034533725815776e-02
-5.497624103526142086e-02
-7.524883520443830832e-03
6.055897449594015852e-02
1.533659574381579516e-01
-2.326775549602917020e-02
-3.926114176807802419e-02
-1.583301459779117015e-01
-5.706167434565724561e-02
1.708162655221487705e-02
1.970003883713974946e-02
8.777309476016308121e-02
-6.981198101724379879e-02
-2.309215777302367489e-02
-5.951332076441012697e-02
-4.610747347233246779e-02
-1.349662564228823393e-04
1.145807036844798260e-01
4.478091035413167553e-02
3.929828524482074925e-02
-8.674005190371869567e-02
9.830984334924858237e-02
3.025087364294343772e-01
1.287898033578747659e-01
4.190033911139076639e-02
-1.180448239685121803e-01
-1.415807003023972499e-01
-2.251431460733167023e-01
8.676392770110464767e-03
-3.498873856656091463e-02
-6.523469988497755667e-02
8.179413037415629584e-02
-9.280000814472380219e-03
5.301429814724119977e-02
3.804769541230985930e-02
-7.202907743780739835e-02
-1.127163049545516771e-02
-5.206855930423766321e-02
-3.963772955191974950e-02
-2.885980628236320053e-02
3.814581104678359952e-02
8.154035397484794834e-02
-1.697822508531924776e-02
2.912978569766349474e-02
-5.300150845173051684e-02
2.442581116856100409e-01
1.873148044318061547e-02
-5.090507651555287345e-03
-3.479402184067143661e-02
-5.576069352872912305e-02
-1.096705102259436099e-01
-4.672350430161886607e-03
-1.348105594335478330e-01
6.816858687715821215e-03
1.066090904974023243e-02
-1.237669599919357377e-01
5.145202339385908374e-02
3.228409347161248499e-02
4.046556185177968556e-02
1.168980729707770200e-01
1.765491410244562631e-01
8.232158021286180294e-02
-2.314615240468846993e-02
-2.802908654747435918e-02
-2.103328305434341849e-02
-3.584383847005861295e-02
-7.269043029137362000e-02
-7.812793046937986652e-02
1.529979160621982859e-01
5.731778781801121110e-03
1.384404808389770869e-01
2.039457214449150527e-02
-4.345480065068042796e-02
-6.659470321926921899e-02
-7.837862417514901425e-02
-1.291366197823697326e-01
-1.268220992680568204e-01
5.579004218472606580e-02
9.192600417150204040e-02
4.451563818843271708e-02
8.449444474020945117e-02
-3.744630629132707222e-02
-6.890626036379370045e-02
-4.355146336169203602e-02
3.099734799673656976e-02
1.470405223162356001e-01
-7.038542178308937469e-02
-6.440796316905013363e-02
-1.648250988341119216e-01
3.400468893218927535e-02
1.153304353129890568e-02
7.604288100978939813e-02
5.364807861238247710e-01
1.192767492934039553e-01
-5.512574194533067379e-02
-9.676805432140880847e-02
-1.750542008515340309e-01
-1.079745476384738057e-01
-8.628229239647924875e-02
-1.345526982640022629e-01
-5.096494614948313684e-01
-3.864294157265743546e-01
-4.142745198534218964e-01
-2.086011332525880835e-01
-9.555093708459469481e-02
4.659672057630646624e-01
3.832328970717098215e-01
7.653053645772323055e-01
3.441510482256397718e-02
1.536577858869129509e-01
1.735479251066340267e-01
4.493232086659110225e-02
6.836155594500369949e-03
-1.832345840785946367e-01
-4.491659975111976510e-02
-1.852381084474922501e-01
1.669147901435604486e-01
9.132984604653650307e-02
4.198356647988639445e-02
6.554379917188050964e-02
1.026880121740051180e-02
-3.627059601490094376e-02
-2.703173948638008459e-02
-3.127384675579869544e-01
-1.594559052010002462e-02
4.752948951139329692e-02
-1.695181067041540146e-02
-2.386898917733162179e-02
1.242053105906736343e-01
1.203037314763937167e-02
-6.090963457087444216e-02
-6.608914831098527953e-02
4.109703417180783115e-03
-3.574970338366694617e-02
-1.041461692259824240e-01
-1.063674079757988833e-01
-1.682794139887673276e-02
1.001816384429557189e-03
2.611148953715399235e-01
-3.135193188824942322e-03
-8.142700971082727363e-03
-2.705828421559193786e-01
6.208570571957010460e-03
5.498496806031664269e-02
2.967740514248655148e-01
8.813548892463547724e-02
4.574073626512182439e-02
-2.131182721198945917e-01
1.905324786718872732e-01
2.028708027210912035e-01
1.845018377719324365e-01
1.538544016891500998e-01
-3.500865297689161326e-01
7.155819187430063899e-02
-4.068944512335042618e-01
-4.633673172594462292e-02
-1.220546242644671431e-01
-9.692366493464411870e-02
5.470068572304178506e-02
9.177847408563170883e-02
-3.500947042724911196e-02
-2.420052075146164952e-02
-1.684575596954562479e-02
1.485548765386942582e-01
2.978464485674135395e-02
5.409967449542994050e-02
-7.308977916174354619e-03
3.802565781688068552e-02
-1.586048810096907149e-03
-1.889704447940930912e-02
-1.023235375708355932e-01
8.205631607464108218e-03
1.880046327122219807e-01
1.402320939321286541e-01
4.249961315186575467e-02
9.489070444675819227e-02
-5.770663452991310789e-03
-2.660508044176935205e-01
-4.296565107721572047e-02
-1.508399252950732849e-01
-3.546890599655117549e-01
-4.574661884429143122e-01
-3.774687116806296761e-01
-1.036768623481970769e-01
6.497359413666775607e-02
3.043852711547583856e-01
3.049135024683867212e-01
6.190284546774409424e-01
-1.511294309649827139e-01
3.346216812638607707e-01
2.006738742090713179e-01
-1.872607234649937835e-01
2.202725648047025309e-01
-1.170317679519391613e-01
-1.105419277407216766e-01
-1.896042701549972564e-01
-1.519281906076546396e-01
2.156048075158709387e-01
1.338658763174588040e-01
1.186775578417277044e-01
-6.768601862302282834e-02
-1.334296721261852836e-01
4.215560796423288570e-02
-1.572599682824281919e-01
1.983615326172626925e-01
7.915152408528453032e-02
4.864290430506484214e-02
-1.335819856793581950e-01
-2.027729328790164320e-01
1.399258303154495009e-01
-8.942507416600777026e-02
-4.030179859867635134e-02
-8.950266317208731282e-02
2.862394806437797423e-01
2.477176046150880023e-02
-1.653220936396490592e-01
8.436810363761526599e-02
-2.073420972406554708e-01
1.125789538893958996e-01
-4.579144457990757394e-02
4.695392558094122620e-02
-1.260884540779480534e-01
5.707456095456081568e-02
2.781896571661677808e-01
-1.074892699613386321e-01
-8.295721583361082008e-02
-6.127119595842485389e-02
-4.412007870347329705e-03
-8.218069376632076983e-02
-1.969084230081135853e-02
-2.167061121603306231e-02
-7.595429590816835108e-02
7.108281850349422101e-03
-1.002945848073288730e-02
5.482062495478592229e-02
1.475969948669323961e-01
3.166763588513009653e-01
1.752640639176371584e-01
1.459550039617987793e-01
-2.849460725379066375e-02
-1.523336295628794912e-01
-8.251361792861677813e-02
-1.240498378890485254e-01
-2.505037340963983117e-01
3.820607377585168857e-02
2.101401494886975529e-01
-5.411609522943085920e-02
-5.579384453297570046e-02
-1.023173709592792163e-01
2.063855208272465450e-02
-2.230329538374664355e-01
1.662754892118774031e-01
-1.239672545626018391e-01
-4.464368286031919486e-02
2.855778620075781309e-03
-1.118911451091429352e-02
3.007603287987330870e-02
7.693019581778325761e-03
5.453096896854857378e-02
8.464425188355857721e-02
-5.974466611711837238e-02
-7.317929722960206385e-02
-1.908996364918173066e-02
1.707416033931806187e-01
7.949003061514109403e-02
-1.652245705976658763e-01
3.099442578556700634e-02
3.601243779967745751e-02
7.030659359925728324e-02
3.800888872532539459e-02
8.865097968813684393e-03
2.020433135456067841e-02
-1.616736790955941236e-02
6.879715464122081181e-02
-8.945103873397952654e-02
-1.005636596456388615e-01
-1.324723114252034650e-01
-7.053276733066286830e-02
3.580292391209441427e-02
1.001205049099040678e-01
5.013239753655703013e-02
2.126209896325988516e-02
4.184400381504737448e-02
-4.615685038099420767e-02
1.026823498478188490e-01
-4.637199432957079398e-02
-3.687991251362061212e-02
-1.170709805296072104e-01
2.971307657502071653e-02
7.926717198550323543e-03
1.813367693983133216e-02
4.186706681157773696e-02
-1.574333355952605429e-01
-1.296512534915851556e-01
-4.969939338326263140e-02
-1.138491854536141309e-02
5.852200945078020466e-02
9.727062171375064348e-02
8.825849837307836454e-02
1.041177714778582786e-01
2.108463248277422930e-01
1.222627041223483917e-02
2.849403984349326360e-02
7.684506006906854925e-02
-1.023310132701336500e-01
5.816758401205581602e-02
3.821667926012610461e-02
-3.224649451545858470e-01
-4.557210063552705887e-02
-5.877590890376745841e-02
-7.571853363451231701e-03
6.817543634534013568e-03
4.293275873643212504e-02
-8.251301660243821889e-02
7.331525415329995243e-02
7.136732298091806592e-02
7.028427930549775715e-02
1.366971615813598606e-01
-1.094585853591605214e-02
-1.086386429896577660e-02
9.178684928411422195e-02
-6.067515507881061226e-02
-2.002081955019251736e-01
-1.607521675535335259e-02
-7.049121264928509545e-02
2.363194725173756172e-02
7.966609119833643893e-02
4.835900205707650834e-02
1.856986367112281947e-02
-4.395115064374467695e-02
1.976322132764824976e-02
-7.554776221289079274e-02
-9.672892723147592797e-03
2.555060429829229540e-01
2.298514365368575507e-01
-1.606165800390991771e-01
-9.192281786740259808e-02
5.157655307920287757e-02
-1.369940844319960938e-01
-1.377276575373370948e-01
1.695258645737254266e-01
-8.799113305616675096e-02
-7.172235339530141918e-02
-1.028156388756756683e-02
-3.202863644362160395e-02
1.403145107609384164e-02
3.773983571546122434e-02
-1.927346458262358883e-02
-5.169974711637629478e-02
-8.737091343498537555e-02
-2.635624620350945913e-02
1.980551260156821203e-01
1.505463959549975354e-02
-7.596568271836912078e-02
1.128758257949239868e-01
-8.459300193286546643e-02
1.520435469753318170e-01
9.215589798779913466e-02
7.233252882733619618e-03
-4.444955305851647220e-02
2.587664255705981672e-02
-4.172436749603315037e-02
-8.306843615332026864e-02
-1.080669836950536311e-01
1.694724073745903781e-01
7.480109261120590491e-02
-2.246045160029967389e-02
4.012841201774460659e-02
4.512256211845118437e-02
-6.840171275013648411e-02
-1.109313236169852807e-01
-1.277309861545718739e-01
1.756841804417283992e-01
1.032054572175863938e-01
1.778238898355051500e-01
1.267381953574127189e-02
9.505841767575687329e-02
-2.085436155905188993e-02
-1.795390040035049484e-01
-3.640523991437618068e-01
2.851938111320974634e-01
8.733942747680632779e-02
-2.417768332359192945e-02
1.160946111400058128e-02
7.065861944787073766e-03
-6.490391293154258723e-02
-1.012611431228462588e-01
-2.008658222897144463e-01
-4.469132255031730838e-01
-1.864800044602886731e-01
-2.837205453541032374e-01
-7.187466427764653554e-02
-2.281072460314658434e-01
-1.796206546637446888e-01
4.292347641917859113e-01
9.674815760986331670e-01
-1.684708467050773095e-01
-1.152553432553787838e-01
1.143963115770011141e-01
7.926932773736140858e-02
1.029610493567518700e-02
3.187729452936172714e-01
-1.519512817808580107e-01
-8.705721780234228213e-02
1.711707510967082901e-01
1.463455259198837843e-01
2.640431842655156514e-01
-6.762348313794748489e-02
5.745097080156408645e-04
-9.657600903677104887e-02
-5.321297482622591030e-02
-3.647215039891841815e-01
2.076098367757684693e-01
1.408050623889333663e-01
-9.778812169487317851e-02
2.702032145707988220e-01
1.561639738163046187e-01
-5.653670246679047377e-03
-3.583346172548730890e-01
-3.130056783553801791e-01
-4.206056937996494605e-01
-4.181143287008791676e-01
-3.817134014420067167e-01
9.954846159341650125e-02
1.383287125715487176e-01
2.573373724523141115e-02
3.874884253993848837e-01
5.693340871329465314e-01
2.321728880093373859e-01
1.264592819787017930e-01
1.176331591627355344e-01
-9.124798318262789323e-03
-9.587663820385868008e-02
-1.714978939176524664e-01
2.136984386274859080e-02
-2.211358425737455502e-01
5.995580748385340858e-02
-3.828128992861225266e-02
3.114544544572203297e-02
9.182808468722608239e-03
-4.000958357799265508e-02
7.347091773211696097e-02
-1.188386827614646285e-01
2.337457713765475273e-02
1.650272512029199445e-01
2.196382492044924306e-01
-9.017914458409350548e-03
3.994037284387981501e-02
-3.993491115876474790e-02
-8.139373542067722400e-02
-1.329787498342973606e-01
-1.612805623791434273e-01
-2.697317786115738802e-01
-1.642438245050115986e-01
-1.970898922355550018e-02
-1.339455797234686829e-01
1.715691960356149903e-01
7.765975435283482831e-02
2.218873372433673857e-02
3.162124879508230735e-01
-5.895251787350614531e-02
-4.860977153460004085e-02
9.613809046730056873e-02
-4.980849118329773451e-02
7.230551887648742349e-02
4.441890053631881996e-02
-2.926515730804527676e-02
-2.622657198065631717e-02
-5.889782760426703206e-02
-1.420981989267185996e-01
-2.838401084417344761e-02
6.533636757391791949e-02
-1.293859285017542049e-01
9.674422583905416262e-02
1.926911516061406426e-01
3.994220857800532577e-03
-1.107190731863754996e-01
-6.140562483208758526e-02
-3.903661714307010699e-02
-1.379992268409038214e-01
2.111202902713312790e-01
1.921654747044061473e-01
-2.148794180967422349e-02
-3.263728116362615839e-02
-8.721905331027088315e-02
1.569995386496166878e-01
1.184823723629816750e-01
2.261916547134254496e-01
4.133679322924866881e-03
-9.553999378288094424e-02
-1.560233941398620205e-01
-1.670248038159354576e-01
1.773760103666015830e-01
-2.747342270288297833e-02
-9.152940882187075855e-02
-6.941921746375372126e-02
-2.105457687906177149e-03
4.429425825516971477e-02
3.956314183755897662e-02
-7.070590378291571887e-02
1.728934459521700440e-01
7.540132684579216316e-02
-3.627630509232802197e-02
-1.077850107480958497e-01
5.067650903693299291e-02
6.709575921389016040e-02
5.691074833693743340e-02
-2.789164735453031896e-01
2.916238088713857812e-01
5.660303627195171876e-03
5.645476616175009593e-02
-9.110176430738685383e-02
-2.827528270032096669e-02
-2.785213474155366284e-02
-1.917586661644579693e-01
-1.475103074660978793e-02
-6.503366919847108907e-01
-2.372825547111857836e-01
-2.040201491883416041e-01
6.875192674037718110e-02
-9.619363119891785607e-02
9.106132558388753406e-02
1.247840972800327575e-01
9.032356774788545817e-01
-5.501168141376024112e-02
-2.882081107766388053e-02
5.496747851986678868e-02
-5.529859899392408455e-03
1.300812666695898810e-02
5.334078582296165882e-02
6.921716484111004042e-02
-1.011712034600801002e-01
9.453548136664995105e-02
-9.371817131580245999e-03
2.774364470768915861e-02
-1.026331496887566697e-01
6.140693302510859958e-02
-3.219920586805689183e-02
4.992203338146210256e-02
-8.940391979251692545e-02
-1.783898983321795251e-02
-2.548574645849941561e-02
-3.181778991406977036e-02
7.170833562504272396e-02
1.208641692524192388e-02
-1.202227757556304649e-02
4.329233656257119867e-03
-9.591824251919590536e-04
-6.110966118272452390e-03
2.277431214777977247e-02
3.661506357257739153e-02
-3.866984754757624154e-02
-3.635230579182222033e-02
1.072102175820994346e-01
6.496523916570048907e-02
-1.504317130104866618e-01
-1.344976573368927841e-01
-1.632976597360915605e-01
9.555060266433913763e-02
-1.939736388858384272e-02
5.481588646262023495e-02
3.697006710336353530e-02
3.492610792782342970e-03
1.263635139384662875e-01
-1.819132318360694445e-01
-1.446398134528597557e-01
-1.129549716077071636e-01
-3.840167561233562288e-02
1.251227096109776282e-01
1.154066315142218829e-01
1.163461431991523187e-01
1.210342081846208229e-01
1.015391926944198969e-01
-2.925557913593619663e-02
-1.100444170165441604e-01
-5.711517760197785260e-02
4.618651069011467207e-03
3.845880191142642124e-02
4.175631989334917943e-02
1.004220818625175225e-02
1.036102952836583241e-01
1.468575285473902037e-01
7.860311057814692304e-02
3.348621821965527823e-02
-1.884692906826043388e-02
-8.016728760964304812e-02
-1.363284595942609034e-01
-1.272144763566894210e-01
1.180738499817782505e-01
5.348285256497527229e-02
2.983286967085140018e-02
-1.513593100137637926e-01
1.015404850195939790e-01
-1.022696156789943689e-01
-1.911709845609932401e-02
-3.018403308834474719e-02
-2.022558243745830875e-01
-1.276074165486121015e-01
1.019753485047786706e-01
1.057342613942302834e-01
8.416277439849864650e-02
1.929879100591029226e-02
-2.962940251111102069e-02
4.832146813088773751e-02
-1.764819085167900620e-02
2.693795928965662251e-02
-4.513358803048644202e-02
8.273367218249250490e-03
-5.029769432961892633e-02
3.396496947454478998e-02
2.429172234822691082e-02
1.961145488110683371e-02
2.351688216505583573e-01
2.746671445257405433e-02
-2.708182175893370305e-02
-1.009338905480053478e-01
-4.402475337509362957e-02
2.303155592095399492e-03
-2.448231354964731585e-02
-6.841591246354983280e-02
5.434312793942458475e-02
1.789019045574951131e-02
8.116892987766865381e-03
-1.352097903822224376e-02
3.376979496781914308e-02
-4.478811283614213962e-02
-5.938787531004070114e-02
3.576960833644531566e-03
-8.935658983299063496e-02
1.393873207666943698e-02
-4.695382394136016907e-02
9.452093851655213319e-03
4.240726800656263035e-02
7.041770123639785883e-02
-8.310166170981478015e-03
8.404784774048391569e-03
-2.021710968065817682e-01
-1.336312653472594703e-01
2.869435048651310452e-02
1.877828334967638069e-01
-1.082942555877806634e-01
-1.718337274986973251e-01
2.280497831654108853e-01
1.714033780916287275e-01
-1.278647687632746520e-02
-3.787320529548980630e-02
-4.646543029756542570e-02
-2.405178808978714403e-02
-1.234503479188047391e-02
-9.250951530050573191e-03
1.622075666321426066e-02
1.265521302178860552e-01
-1.213745679887723861e-01
5.351102527478460158e-02
6.717401194177831381e-02
-3.664421759817064906e-03
2.345582244537127575e-02
-2.393364563473959067e-02
-1.215402385750458114e-02
1.698579957890115205e-02
1.641605544660547922e-01
1.666321435840072140e-02
-6.745847843827912187e-03
3.719035573307698239e-02
-9.453024107898028161e-02
-1.121317537806708516e-02
-1.316884924066181184e-01
2.616363214996128908e-02
-1.668423674589528671e-01
-3.765740420806152483e-02
-1.436610448467674599e-02
1.810560662307947599e-01
6.065091257848116701e-02
-1.025896226280239160e-01
8.735479090663850199e-02
-7.606270936199659508e-03
5.952990748866189563e-02
-2.789300619781644869e-02
-2.634321672916756923e-02
3.059277074304261532e-03
-2.474977030898868960e-02
-2.426743537051012645e-02
3.273290103168535747e-02
7.931343011833107831e-03
-4.919769317093510702e-02
8.841800569537226762e-02
5.805158054269741325e-02
4.866520465036767995e-02
2.502815650386695095e-02
-1.460849382704695887e-02
-7.739235369567382117e-02
-7.896440669864704387e-02
3.361769522872229410e-02
-1.633090887094023336e-01
-8.296495528447729584e-02
-6.744803037854402161e-02
5.280497310778181630e-02
1.552662659659375111e-01
1.126820624152547745e-01
-4.064892234527243270e-02
-6.281381556565694690e-02
1.425300516192084810e-01
-4.216584347026646612e-02
-1.301119248324800193e-02
3.746030726196261131e-03
5.275948345118904037e-02
-2.355021043975271192e-02
-5.749450383767045619e-02
1.020015759483065554e-01
-2.307375175461014172e-02
4.763229559014418857e-02
-8.163524253691398225e-02
-5.402269359317314612e-02
1.251079617932214505e-01
-4.358263579281367039e-02
-7.242750965416126785e-02
8.729143570779826500e-02
5.829672488316138546e-02
3.764978168204254072e-02
-5.177203515718509924e-02
-2.755958569770055114e-02
-1.574319767068295059e-02
-5.225351340252002569e-02
-3.590961034491491066e-02
-1.044787186809501417e-01
-4.917196925674512109e-02
-4.564332847154767975e-02
-4.128725864624840231e-02
-3.715815184051712156e-02
-3.525398744116376576e-02
1.427127419007744313e-01
1.702806724363979674e-01
3.728673219080588363e-03
2.196067199308334231e-02
-9.724611045563641420e-02
3.721024771097390660e-02
2.434585632030779323e-02
5.874364886171372369e-03
2.559588033273568070e-02
-2.146958400671725858e-02
-8.883211954734411553e-02
7.065527599450793089e-03
-1.757539024405891867e-02
-5.615572598185805675e-04
-9.905501538150074392e-02
2.570465302257871065e-02
1.403914355980314943e-01
3.286246621266685625e-02
3.072193163377468644e-02
-9.543179612533585210e-02
-8.465453636420054717e-02
-1.411561604424156451e-02
-6.029091073648897015e-02
-6.306371662459053611e-03
1.022290137705638147e-01
1.278482855283890329e-01
-1.882719338696270950e-01
-1.088494308817227335e-01
-3.031600481865575833e-02
-4.132964292331324507e-02
1.361136494534226082e-01
1.338526973383739882e-01
4.119442874124806808e-02
5.760623696027299123e-02
1.375831693653675747e-01
2.153859433020399727e-02
5.200919377048705827e-02
-6.688255148047192455e-02
-5.300304413099130724e-02
-9.929633814847531326e-02
-2.149103889109162460e-02
2.954201518497553969e-02
6.461507436495135537e-02
8.278501824959964839e-02
8.161591103469804931e-02
-1.404849118509940908e-03
9.815080925292453407e-02
-7.171713339735691362e-02
-1.300901040711354983e-01
-1.239547263151732359e-01
1.703133741803954382e-01
4.994010961247576791e-02
2.733240768617293398e-02
-7.152945321987903837e-02
-1.122139700535849660e-01
2.086916890893629820e-02
-1.432598962732636698e-02
-7.038564748719147723e-02
-4.758928033192753176e-02
9.153493008945862153e-02
4.994938068754883886e-02
-1.008094439357891826e-03
-3.103736592764229016e-02
-4.937918322250999664e-03
-8.811134440859257067e-03
-4.810051731496883115e-02
1.065985614828233174e-01
-5.892391791004480267e-02
-2.199036700542339462e-02
6.591912806727730223e-02
-5.992132175429656232e-02
-1.265008380352646289e-01
6.330865097597285218e-02
3.151010417895627053e-02
-1.054591272023341353e-01
1.873824504323348683e-01
1.180434145010496733e-01
6.869558805389962275e-02
-1.123816048031447412e-01
-3.241583622366730772e-03
-7.685065839106509575e-03
-1.453540715203358868e-01
1.386442402378907091e-01
1.546134561399656882e-01
1.552452070471590367e-02
1.173852163253268216e-01
-1.929874752972998361e-02
9.392049918513752094e-02
-2.971059787921472295e-01
-2.036832062711607383e-01
1.784437728088449360e-01
1.811503964051746629e-01
-5.094826512248978173e-02
3.016753794811291231e-02
2.013596627336010705e-02
1.185011522177020077e-02
-3.484838786052417425e-02
-3.359511356742477250e-01
-1.496598454662297246e-02
2.957386837187220840e-01
8.952344782020506264e-02
-3.091011647009443697e-02
2.204570221875035586e-03
-1.122770770996248113e-01
-2.096896166600003553e-01
-1.962390698446028064e-02
0.000000000000000000e+00
0.000000000000000000e+00
0.000000000000000000e+00
0.000000000000000000e+00
0.000000000000000000e+00
0.000000000000000000e+00
0.000000000000000000e+00
0.000000000000000000e+00
1.207351215449399690e-01
1.159308875542395673e-01
1.607262419775668666e-02
1.891120576115672414e-01
-7.244528433923876076e-02
-2.066545323210286222e-01
-3.029677627071741819e-02
-1.324540979775179483e-01
-9.825134256615394857e-02
-1.830127694533085769e-01
-1.340144704513621110e-01
-1.282612074924200929e-01
1.550154235935037039e-01
1.629710821441233692e-01
1.674280921285886681e-01
5.812519209702830814e-02
2.596593776691699662e-02
6.404708302590651769e-02
9.117006972981368806e-02
3.190437490983016183e-02
-9.674954065536298109e-02
6.001002659951566037e-02
-1.250762890026849428e-01
-5.127166237393340764e-02
1.357079013621475816e-01
1.243353803668396512e-01
4.155367378747269053e-02
5.234845319037604444e-02
-1.471112790550656579e-01
-1.578577644564204685e-01
-1.379205608401931800e-02
-3.518430911133112182e-02
-8.921894808437531854e-02
8.373588365386171184e-02
-5.865384890934292016e-03
-2.164750810060192196e-02
-1.843069738301958763e-03
5.830706855306122538e-02
4.404816470349018354e-02
-6.751620609619989055e-02
-3.304621343418814167e-02
-6.930083887595918715e-03
-5.160539624016113186e-02
-2.962052136624015314e-02
-6.042248340209759039e-02
1.558338015581764435e-02
1.553668144425945086e-01
1.067450373187107254e-02
1.278272493039775970e-01
2.370764140065055037e-01
-7.111507144522889734e-02
-9.433675562851782936e-02
-1.427225000198293070e-01
7.088848595851866830e-02
-1.006409682459746269e-01
-2.697685392945130267e-02
-1.921590652017813317e-01
-1.018656306557515767e-01
1.534629573648414735e-01
-3.943478721372678519e-02
1.782465542832013250e-01
2.811830187831484973e-01
2.728171687843891635e-02
-3.067147642383697970e-01
-7.326699196883854071e-02
-3.335541779223748227e-02
-1.471405433609529467e-01
-2.004378473829415176e-03
-3.714249062910565669e-02
-3.108270780857087107e-02
3.079425297316335311e-02
2.931982770603719923e-01
1.481618075756528929e-01
-4.963016856959013429e-02
-4.323323035333191677e-02
-2.346304205249373151e-02
-1.373608606723260642e-02
-1.378234152311648940e-02
-2.614251322057092528e-03
-1.702687687830857629e-03
-1.153425862686582454e-01
-1.267875119220453206e-01
3.625867642337696900e-02
1.757485412956833193e-01
1.738694841902725385e-01
-1.206907675207637559e-01
2.417893383235290850e-02
-4.723477003021910037e-02
2.172292468550537925e-02
8.974120843478218187e-03
-7.671519705545519485e-02
3.552277758401373164e-02
4.354269778921125711e-02
-9.215860726847648066e-02
-2.532378758831107385e-03
6.164366218055381680e-02
-7.726043540654882469e-02
-1.567029193738247728e-01
-2.759818498770322953e-02
1.394108822645676211e-02
-1.160071916887727150e-01
2.730505010776806407e-01
-4.518177489145783904e-02
1.357589170441716175e-01
4.042850442490040358e-02
9.400590904833741601e-02
8.994112504004549147e-02
9.242370196974469820e-02
-2.162385699521486224e-02
-7.039053644142276300e-02
-1.291683861029045144e-01
-9.561646094348570657e-02
2.266918255790807343e-02
-7.924732998132918982e-02
5.042722977005283450e-04
-3.367920766267717969e-02
6.055559049536381189e-02
-3.314763786109476557e-02
8.786035389410729035e-02
-2.551522373997945278e-02
6.057987611817909623e-02
-7.472143155152971561e-02
1.077196431471989790e-02
4.938436979240246744e-02
5.666409731495287982e-02
5.131977463741663886e-02
-2.262285252161995996e-01
7.222987459005841826e-02
1.087754981052482250e-01
-1.900676121731584636e-02
-7.924838000282723519e-03
-5.343961360870368160e-02
-2.990699766647329783e-02
-6.820036877595854474e-02
1.219180406451005061e-01
-5.221495948161503087e-02
-7.228459652987768991e-02
3.081512565983881430e-02
6.481126660524846872e-02
2.185703767003475614e-02
-7.416602888111825664e-02
-4.333721969712292510e-02
1.259286553141890086e-01
-5.362424014119215876e-02
-1.230474163860422743e-01
2.586385257653165889e-02
-8.168511071898573728e-02
9.724431000685689053e-02
2.608781103388868594e-01
-5.705736622176771355e-02
-4.859848485575254257e-02
-7.359789473972699891e-02
5.278606799729721605e-02
9.328710339131598278e-03
2.140322292894139902e-02
-7.561897261371373913e-02
6.348679494974039661e-02
-1.130468518612406104e-01
5.894281324866077615e-02
-1.728178498881688743e-02
-9.530668315922694034e-02
-2.705967433585999837e-02
9.182650911098802493e-02
4.763055655211751588e-02
4.933015006969893035e-02
-3.089224591170851991e-02
-8.945726765721277729e-02
5.392865533120381333e-02
2.949315641210959252e-02
4.710419563511149960e-02
3.608474232902342954e-02
2.162342848986583983e-03
-7.526435453622952292e-03
3.549823221814678992e-02
-4.673105548580918506e-02
-9.608517850394689142e-02
3.393828744613478499e-01
1.134116461044508556e-01
7.988622989952728209e-03
-3.829827058363892422e-02
-1.028604361243308368e-01
-1.473610826012863514e-02
-1.560756341447229745e-01
-1.488126944429326304e-01
-6.572213048505142971e-03
3.567811770758182871e-02
-1.478952287850095471e-01
-4.392884092815954600e-02
6.747845817583439029e-03
5.130565926100633112e-02
1.874690275956663807e-02
8.591775721593802873e-02
4.568673880068625098e-02
-2.813375896608368704e-02
-5.757243258080174675e-02
-9.596126637225980971e-02
1.504551312602495916e-01
-1.491564360359512731e-01
1.108611983495429026e-01
2.382082554461869769e-02
-1.404297481763450706e-01
-6.680386330484486268e-02
-8.312461038173200867e-03
-5.007135728607477188e-02
3.694459217368432913e-02
-2.629806886205899186e-03
1.298985069309457618e-01
1.014041375870112088e-01
6.985425048526194836e-02
3.760942393462980704e-02
-1.885973928757102638e-02
-3.546241087256679636e-02
-1.938878831661720393e-04
2.924086203467091485e-02
-5.517911432624787033e-02
-2.700938408501036073e-02
-1.197649652712588220e-01
-3.434068450768856112e-02
-1.045209098787021167e-02
1.214684747605329906e-01
1.172701198623077590e-01
-1.407388278189859732e-01
-4.948761591246322172e-02
1.160455898754258197e-01
5.919005647589068581e-02
2.149251618954748366e-01
-4.876871029317540046e-02
9.729080261203176816e-02
-1.822682511551490525e-01
-8.545887781705606423e-02
1.261303247710097303e-02
-6.752321419511847500e-02
7.030659359925728324e-02
3.800888872532539459e-02
8.865097968813684393e-03
2.020433135456067841e-02
-1.616736790955941236e-02
6.879715464122081181e-02
-8.945103873397952654e-02
-1.005636596456388615e-01
7.559891128623222323e-02
9.097993250751473804e-02
1.602671983707886494e-01
-5.033948690893664396e-02
-1.611945414729238080e-01
4.279265230635673732e-03
-7.260836729122016608e-02
-4.698291172209070193e-02
1.031647731868655382e-01
4.719682276503748414e-02
1.177956287987105416e-01
1.025054195300440785e-01
1.223608865780638072e-01
-2.372354692497491702e-01
6.902977440222582417e-02
-3.248178360111988461e-01
-1.767912854098631914e-01
-3.401300100929392500e-01
3.444608470036190223e-02
-1.312828380701821784e-01
1.815106008261510584e-01
2.092102255795468546e-01
2.302169031616623646e-02
2.000155321507577078e-01
4.362289379276172718e-02
-3.261531172216242808e-02
3.718679681950614602e-01
-1.253483304396799947e-01
-9.902069965486307024e-02
-6.088831180206998733e-02
-4.245418056340832802e-02
-5.516402780563998270e-02
1.173410451363260942e-01
1.027396854617882022e-01
-7.536648042790519697e-02
-3.474851537568971610e-02
-4.062253195795881983e-02
-2.355289471185638070e-02
-1.735790128170704508e-02
-2.843240684299709262e-02
-1.650669863484602318e-01
-2.331744452845150584e-01
8.843584097758386275e-02
7.512084991192571892e-02
7.727584620802981086e-02
3.639932494065022811e-02
7.533508150519840907e-02
4.567448808958647632e-02
3.481406358974979409e-01
2.465089796631291796e-01
-5.135990561629096701e-02
8.257984161568789061e-02
-1.862263391036691473e-01
-9.152697288498498618e-02
3.246921942590116905e-02
-3.805854589972716417e-01
2.756534708625866803e-01
1.657718786624431950e-01
6.446837461006688086e-02
-7.973137973910907061e-02
-1.006236215099506753e-01
-2.858200325588160923e-02
-2.081751172334568301e-01
-8.878160239669925791e-02
2.310146066885737093e-01
2.193246275045768467e-01
1.100694373899939321e-01
1.238267156961403853e-01
1.689392405917600481e-01
-3.101060717508618073e-02
-3.942439939937055216e-01
-4.279200267022514326e-01
-2.408504586522986629e-02
-2.235605423551729198e-01
-1.155710906792748738e-01
-2.158781307074760791e-01
-1.618968817067062693e-01
4.861823758690512337e-02
1.116217073256251940e-01
5.807517464013295383e-01
-1.231996145754400002e-01
-1.332085290526415777e-01
5.602318359982261242e-02
2.371333396735604560e-01
3.614453672177798255e-02
-7.227496012832837491e-02
4.591736438594771347e-02
-4.653532062469887404e-02
4.309518285488360412e-02
-1.936122209016480633e-01
-6.657142078682254382e-02
-2.155281017792885431e-02
-1.545820350730912618e-01
1.056017659766901456e-01
9.046353514830411668e-02
1.971580029596119166e-01
-6.851583178575532118e-02
1.783457120742534541e-01
-4.893505910092821320e-02
-3.263005873192684897e-02
-1.269576912704652866e-02
-6.942107898039239638e-03
-4.352706847611789373e-03
-4.274178582945434984e-03
3.371290712233468434e-02
1.757963968938590638e-01
-8.441925471560429717e-02
1.152277754262617665e-01
2.924417607464921409e-01
-1.756882167879852408e-01
-1.141459796814744548e-01
-2.429253890038839403e-01
2.950182927406764799e-01
7.101347964472581875e-02
1.029526279141965706e-01
-9.536884101997761265e-02
-2.174292744286256962e-01
4.219842302889485058e-02
-7.703218341452919282e-02
-1.213525244653595458e-01
-4.073829826414972211e-02
-9.998241193970945628e-02
-8.667460665770140849e-02
1.192695308965715101e-01
3.734935986743988939e-02
-2.299616836228588271e-02
1.360929078930259994e-01
-4.232031343319069688e-02
-1.476116573904465157e-01
1.222747277709108904e-01
1.423306097535941561e-01
5.476612005674394434e-02
6.961381028435081539e-03
-8.113019413089610221e-02
-1.154045161346026367e-02
-8.605053547488049348e-02
3.087664647282574171e-01
-6.176586859009723651e-02
-1.500337759402354532e-01
-1.202727294963963911e-01
1.229135956019236503e-01
1.418437323528123906e-01
-1.561188794948453404e-02
-2.258395307067807833e-01
4.697392087523123705e-02
8.481050670877103570e-02
-6.343971844741315425e-02
3.282787863377305965e-02
-1.946399466454550378e-02
-2.898110763446346341e-02
-1.644703141194184953e-02
-3.628045405941054957e-02
1.712940799461262487e-01
6.804043646256643929e-02
-3.341285392958561612e-02
-5.838865189748899953e-02
-5.428878587935684341e-02
-2.626723709990296668e-02
-6.011275855565046712e-04
-6.637586001680173542e-02
-3.375595084257383416e-01
-2.878834783514296891e-01
1.243369189624753263e-01
1.096850546218508249e-01
8.795949872951572268e-02
1.224909162251977962e-01
-4.035782934166301517e-03
1.850063811722950924e-01
2.280978203183334566e-02
-5.698818224777200264e-02
-1.443537518548996743e-02
-2.864016435316697404e-02
-3.612498479221698533e-02
3.571859573720342906e-02
7.104947669247406103e-03
7.055538114036292996e-02
0.000000000000000000e+00
0.000000000000000000e+00
0.000000000000000000e+00
0.000000000000000000e+00
0.000000000000000000e+00
0.000000000000000000e+00
0.000000000000000000e+00
0.000000000000000000e+00
1.663705375210616233e-01
1.138461438204869114e-01
-8.475378277886978784e-02
-8.620182551704737295e-02
2.755928112789090070e-02
-7.721979178169373348e-02
3.256917329769406675e-04
-5.992625412480696856e-02
-1.660802716030747306e-02
-1.473250540518384819e-02
-1.770006831660315277e-02
-4.140352237456327439e-02
-5.238765084202526984e-02
-3.777621110952540662e-02
1.009507077837505790e-01
7.965727742445787019e-02
1.106319373247167392e-01
5.495787827184090563e-02
1.590706207403677630e-02
4.900966904059086970e-02
8.382298311680551339e-02
4.111956014153210492e-02
-1.997957406321707596e-01
-1.556533493373528643e-01
1.813684803550343061e-01
6.805396588154727366e-02
9.252216712364079443e-02
3.162543749845211222e-02
-1.069452734243494657e-01
-1.022002634826781747e-01
-2.144520838986075373e-01
5.002756994696143378e-02
-4.147219933972502368e-03
1.580573389790034672e-02
-3.934198496803396200e-02
2.245981963940533316e-02
-1.893473648660434511e-03
1.674866996139344477e-02
-3.911911071392307898e-02
2.948756576589310271e-02
-4.056620896103657614e-02
-1.450671503347223945e-01
-1.395164436099409488e-01
1.495790827282810799e-02
2.538244323028795296e-02
-5.109432939857799089e-02
1.828675474224274178e-01
1.530362333787360085e-01
-1.108557503073225731e-01
8.708614553096381133e-03
8.676181099747737324e-02
5.007469073029343493e-03
2.168279680821061720e-02
8.490593277943736528e-02
-1.153858113815683060e-02
-8.467229276577135921e-02
-7.666048234432373820e-02
-3.480340215657458380e-02
-7.254968301863111424e-03
-1.418144076335488973e-02
-1.930970147965796468e-02
3.735598163788365900e-02
4.361281417701028812e-02
7.124119923087909867e-02
6.745932103046674289e-02
5.645102605167773985e-02
-3.097962296603797017e-02
1.067573796813873696e-02
6.288115109320059626e-02
1.005221998628166684e-02
-1.611585887836881892e-01
-1.538124438004070775e-02
-5.290616682868883730e-02
3.228332261025972788e-02
-6.226994743048836628e-02
7.535703778002424136e-02
2.693062179868961972e-02
5.736235052787531929e-02
-1.425289300677944904e-01
6.577171161012036749e-02
3.426966989272826891e-02
-1.348833525758370011e-01
1.303010702759656858e-01
-1.459363927828863650e-01
6.261385679954589722e-02
-5.788705134845937433e-02
2.852401613495549326e-01
-1.737179616106121205e-01
-1.073189792001695703e-01
4.018613113251640057e-02
3.587568430750854437e-02
1.902225076296806122e-02
-2.623657715702748180e-02
3.367565985127407568e-02
1.525779229385182227e-02
-1.046196199092185378e-02
5.569488060448427036e-02
5.531786846337059804e-02
-2.218518513539729370e-02
-2.762637815823111576e-02
-3.053166013986220034e-02
6.252844205865396021e-02
-1.674907822213925201e-02
-7.644888947087925823e-02
5.763733495400207713e-02
1.194423674855429537e-02
-4.042942712022511847e-02
-1.068080224708395191e-02
-2.910290584411532461e-02
-6.759997695544472940e-02
3.771020337190830740e-02
4.052133709240449133e-02
-2.007627294802402651e-01
-2.934057414122292484e-01
-1.327633163016433415e-01
-9.423590131900309863e-02
5.544354579195858584e-02
3.221261448855404219e-01
9.899390578197905799e-02
2.446040920536372010e-01
-4.329513522132941855e-02
2.061373723174909356e-01
7.589131164148568698e-02
4.311668731511306835e-02
3.606878267518172365e-02
-2.229359990503217703e-01
7.004907595604794104e-03
-1.019879272732264336e-01
3.620231803829640493e-01
1.165480088477545417e-01
1.297406874178635428e-01
3.354351812079672118e-02
-2.009628613578357537e-01
-1.858491445797040842e-01
1.711912068427378156e-02
-2.721625095161137597e-01
-6.813474841784428193e-02
-8.208605183833060648e-03
-3.919011640435502569e-02
-5.004108200781602622e-02
-4.935750071224611485e-02
3.207369812116264013e-02
6.478495817804553157e-03
1.763798587871265589e-01
7.940805860732058630e-02
2.716255875485780458e-02
-9.062558001808636646e-03
4.301738350262820226e-02
-5.809698980376674232e-02
-6.397245480292193531e-02
-1.838627639652470336e-01
1.654067657089384746e-01
-3.236030354494470046e-02
-1.185267148943917326e-01
-9.560369596218691590e-02
-6.954696909263172189e-02
5.206756445115424958e-02
1.044831075837310969e-01
1.200720023354683585e-01
3.941500912380126176e-02
-5.946268448268575424e-02
9.530653192899322945e-02
7.935310332714697046e-02
-7.476744554876915694e-02
2.250509808624447453e-02
-5.714972621098922401e-02
-1.771702455269601878e-02
1.193214745275333714e-02
-4.754332114595949399e-02
1.883761815855010124e-01
5.487396264664898271e-02
2.493765426061642781e-02
3.430618584594198606e-02
-4.576546465756237830e-02
-2.041344075914002798e-01
-5.050790943785105069e-03
-1.048274109162363743e-01
-2.435343665228657459e-02
-9.919545801506590363e-04
4.959436737202947004e-02
-1.119324263510631818e-03
9.472117991883858418e-03
9.048386912888214950e-02
-1.825822808061289618e-02
1.929992166774296622e-02
-8.399885854187820466e-02
-2.312989012438982674e-03
-5.939897298975017025e-03
-4.421768986368263508e-03
1.020022548593171874e-02
1.238413307757931792e-01
-5.666796408980841887e-02
2.805047901261936705e-02
3.484011848306876880e-02
1.870325305216874456e-02
8.017581046496077835e-02
-1.392154360576515829e-02
9.459834616306371513e-02
-6.117041049461539870e-02
-1.812760530755015420e-01
-9.745497864011340005e-04
9.974172509331295788e-03
1.493241720925126206e-02
6.562917639210809340e-02
-1.338759637652628745e-02
-7.376850759262031099e-02
6.468872119012497590e-02
-6.709383354526728127e-02
1.735193746328453010e-02
-6.690223275811335579e-02
2.328512320470565652e-02
-6.177758070537862217e-02
1.110171191151365505e-01
9.713615306834678855e-04
-1.088547280459953998e-01
8.490900019567720891e-02
7.807477010054268696e-02
5.860044654378313012e-02
-2.405070900050612984e-02
-3.907201224679618390e-02
-7.161034533725815776e-02
-5.497624103526142086e-02
-7.524883520443830832e-03
6.055897449594015852e-02
1.533659574381579516e-01
-2.326775549602917020e-02
-3.926114176807802419e-02
-1.583301459779117015e-01
-5.706167434565724561e-02
1.708162655221487705e-02
1.970003883713974946e-02
8.777309476016308121e-02
-6.981198101724379879e-02
-2.309215777302367489e-02
-5.951332076441012697e-02
-4.610747347233246779e-02
-1.349662564228823393e-04
1.145807036844798260e-01
4.478091035413167553e-02
3.929828524482074925e-02
-8.674005190371869567e-02
9.830984334924858237e-02
3.025087364294343772e-01
1.287898033578747659e-01
4.190033911139076639e-02
-1.180448239685121803e-01
-1.415807003023972499e-01
-2.251431460733167023e-01
8.676392770110464767e-03
-3.498873856656091463e-02
-6.523469988497755667e-02
8.179413037415629584e-02
-9.280000814472380219e-03
5.301429814724119977e-02
3.804769541230985930e-02
-7.202907743780739835e-02
-1.127163049545516771e-02
-5.206855930423766321e-02
-3.963772955191974950e-02
-2.885980628236320053e-02
3.814581104678359952e-02
8.154035397484794834e-02
-1.697822508531924776e-02
2.912978569766349474e-02
-3.803552390510771958e-02
-5.148057203311186963e-02
-7.079196737702443676e-02
2.581960881853921294e-02
-3.699859206254647870e-02
5.651638357089561193e-02
1.000191064340569952e-01
1.495155655429848338e-02
-1.348105594335478330e-01
6.816858687715821215e-03
1.066090904974023243e-02
-1.237669599919357377e-01
5.145202339385908374e-02
3.228409347161248499e-02
4.046556185177968556e-02
1.168980729707770200e-01
1.765491410244562631e-01
8.232158021286180294e-02
-2.314615240468846993e-02
-2.802908654747435918e-02
-2.103328305434341849e-02
-3.584383847005861295e-02
-7.269043029137362000e-02
-7.812793046937986652e-02
1.529979160621982859e-01
5.731778781801121110e-03
1.384404808389770869e-01
2.039457214449150527e-02
-4.345480065068042796e-02
-6.659470321926921899e-02
-7.837862417514901425e-02
-1.291366197823697326e-01
3.099734799673656976e-02
1.470405223162356001e-01
-7.038542178308937469e-02
-6.440796316905013363e-02
-1.648250988341119216e-01
3.400468893218927535e-02
1.153304353129890568e-02
7.604288100978939813e-02
-1.268220992680568204e-01
5.579004218472606580e-02
9.192600417150204040e-02
4.451563818843271708e-02
8.449444474020945117e-02
-3.744630629132707222e-02
-6.890626036379370045e-02
-4.355146336169203602e-02
-5.096494614948313684e-01
-3.864294157265743546e-01
-4.142745198534218964e-01
-2.086011332525880835e-01
-9.555093708459469481e-02
4.659672057630646624e-01
3.832328970717098215e-01
7.653053645772323055e-01
3.441510482256397718e-02
1.536577858869129509e-01
1.735479251066340267e-01
4.493232086659110225e-02
6.836155594500369949e-03
-1.832345840785946367e-01
-4.491659975111976510e-02
-1.852381084474922501e-01
1.669147901435604486e-01
9.132984604653650307e-02
4.198356647988639445e-02
6.554379917188050964e-02
1.026880121740051180e-02
-3.627059601490094376e-02
-2.703173948638008459e-02
-3.127384675579869544e-01
-1.594559052010002462e-02
4.752948951139329692e-02
-1.695181067041540146e-02
-2.386898917733162179e-02
1.242053105906736343e-01
1.203037314763937167e-02
-6.090963457087444216e-02
-6.608914831098527953e-02
4.109703417180783115e-03
-3.574970338366694617e-02
-1.041461692259824240e-01
-1.063674079757988833e-01
-1.682794139887673276e-02
1.001816384429557189e-03
2.611148953715399235e-01
-3.135193188824942322e-03
-8.142700971082727363e-03
-2.705828421559193786e-01
6.208570571957010460e-03
5.498496806031664269e-02
2.967740514248655148e-01
8.813548892463547724e-02
4.574073626512182439e-02
-2.131182721198945917e-01
1.905324786718872732e-01
2.028708027210912035e-01
1.845018377719324365e-01
1.538544016891500998e-01
-3.500865297689161326e-01
7.155819187430063899e-02
-4.068944512335042618e-01
-4.633673172594462292e-02
-1.220546242644671431e-01
-9.692366493464411870e-02
5.470068572304178506e-02
9.177847408563170883e-02
-3.500947042724911196e-02
-2.420052075146164952e-02
-1.684575596954562479e-02
1.485548765386942582e-01
2.978464485674135395e-02
5.409967449542994050e-02
-7.308977916174354619e-03
3.802565781688068552e-02
-1.586048810096907149e-03
-1.889704447940930912e-02
-1.023235375708355932e-01
8.205631607464108218e-03
-1.223119130900047619e-01
9.684793284879505970e-02
1.241379844219452494e-01
-6.047337650888079397e-02
6.639205850918693252e-02
-6.267119150028180319e-02
-5.143827491453339951e-02
9.516780233772659942e-03
-3.546890599655117549e-01
-4.574661884429143122e-01
-3.774687116806296761e-01
-1.036768623481970769e-01
6.497359413666775607e-02
3.043852711547583856e-01
3.049135024683867212e-01
6.190284546774409424e-01
3.103165458022271728e-01
4.338416108333292137e-02
-8.163837127007793348e-02
1.553640809556396940e-01
-7.216272196217822510e-02
-2.033796129174132439e-01
8.472623837317809145e-03
-1.603567055288457055e-01
-1.511294309649827139e-01
3.346216812638607707e-01
2.006738742090713179e-01
-1.872607234649937835e-01
2.202725648047025309e-01
-1.170317679519391613e-01
-1.105419277407216766e-01
-1.896042701549972564e-01
-1.519281906076546396e-01
2.156048075158709387e-01
1.338658763174588040e-01
1.186775578417277044e-01
-6.768601862302282834e-02
-1.334296721261852836e-01
4.215560796423288570e-02
-1.572599682824281919e-01
1.983615326172626925e-01
7.915152408528453032e-02
4.864290430506484214e-02
-1.335819856793581950e-01
-2.027729328790164320e-01
1.399258303154495009e-01
-8.942507416600777026e-02
-4.030179859867635134e-02
-8.950266317208731282e-02
2.862394806437797423e-01
2.477176046150880023e-02
-1.653220936396490592e-01
8.436810363761526599e-02
-2.073420972406554708e-01
1.125789538893958996e-01
-4.579144457990757394e-02
4.695392558094122620e-02
-1.260884540779480534e-01
5.707456095456081568e-02
2.781896571661677808e-01
-1.074892699613386321e-01
-8.295721583361082008e-02
-6.127119595842485389e-02
-4.412007870347329705e-03
-8.218069376632076983e-02
-1.969084230081135853e-02
-2.167061121603306231e-02
-7.595429590816835108e-02
7.108281850349422101e-03
-1.002945848073288730e-02
5.482062495478592229e-02
1.475969948669323961e-01
3.166763588513009653e-01
1.752640639176371584e-01
1.459550039617987793e-01
-2.849460725379066375e-02
-1.523336295628794912e-01
-8.251361792861677813e-02
-1.240498378890485254e-01
-2.505037340963983117e-01
3.820607377585168857e-02
2.101401494886975529e-01
-5.411609522943085920e-02
-5.579384453297570046e-02
-1.023173709592792163e-01
2.063855208272465450e-02
-2.230329538374664355e-01
1.662754892118774031e-01
-1.239672545626018391e-01
-4.464368286031919486e-02
2.855778620075781309e-03
-1.118911451091429352e-02
3.007603287987330870e-02
7.693019581778325761e-03
5.453096896854857378e-02
8.464425188355857721e-02
-5.974466611711837238e-02
-7.317929722960206385e-02
-1.908996364918173066e-02
1.707416033931806187e-01
7.949003061514109403e-02
-1.652245705976658763e-01
3.099442578556700634e-02
3.601243779967745751e-02
-1.324723114252034650e-01
-7.053276733066286830e-02
3.580292391209441427e-02
1.001205049099040678e-01
5.013239753655703013e-02
2.126209896325988516e-02
4.184400381504737448e-02
-4.615685038099420767e-02
1.026823498478188490e-01
-4.637199432957079398e-02
-3.687991251362061212e-02
-1.170709805296072104e-01
2.971307657502071653e-02
7.926717198550323543e-03
1.813367693983133216e-02
4.186706681157773696e-02
-1.574333355952605429e-01
-1.296512534915851556e-01
-4.969939338326263140e-02
-1.138491854536141309e-02
5.852200945078020466e-02
9.727062171375064348e-02
8.825849837307836454e-02
1.041177714778582786e-01
2.108463248277422930e-01
1.222627041223483917e-02
2.849403984349326360e-02
7.684506006906854925e-02
-1.023310132701336500e-01
5.816758401205581602e-02
3.821667926012610461e-02
-3.224649451545858470e-01
-4.557210063552705887e-02
-5.877590890376745841e-02
-7.571853363451231701e-03
6.817543634534013568e-03
4.293275873643212504e-02
-8.251301660243821889e-02
7.331525415329995243e-02
7.136732298091806592e-02
7.028427930549775715e-02
1.366971615813598606e-01
-1.094585853591605214e-02
-1.086386429896577660e-02
9.178684928411422195e-02
-6.067515507881061226e-02
-2.002081955019251736e-01
-1.607521675535335259e-02
-7.049121264928509545e-02
2.363194725173756172e-02
7.966609119833643893e-02
4.835900205707650834e-02
1.856986367112281947e-02
-4.395115064374467695e-02
1.976322132764824976e-02
-7.554776221289079274e-02
-9.672892723147592797e-03
2.555060429829229540e-01
2.298514365368575507e-01
-1.606165800390991771e-01
-9.192281786740259808e-02
5.157655307920287757e-02
-1.369940844319960938e-01
-1.377276575373370948e-01
1.695258645737254266e-01
-8.799113305616675096e-02
-7.172235339530141918e-02
-1.028156388756756683e-02
-3.202863644362160395e-02
1.403145107609384164e-02
3.773983571546122434e-02
-1.927346458262358883e-02
-5.169974711637629478e-02
-8.737091343498537555e-02
-2.635624620350945913e-02
1.980551260156821203e-01
1.505463959549975354e-02
-7.596568271836912078e-02
1.128758257949239868e-01
-8.459300193286546643e-02
1.520435469753318170e-01
9.215589798779913466e-02
7.233252882733619618e-03
-4.444955305851647220e-02
2.587664255705981672e-02
-4.172436749603315037e-02
-8.306843615332026864e-02
-1.080669836950536311e-01
1.694724073745903781e-01
7.480109261120590491e-02
-2.246045160029967389e-02
4.012841201774460659e-02
4.512256211845118437e-02
-6.840171275013648411e-02
-1.109313236169852807e-01
-1.277309861545718739e-01
1.756841804417283992e-01
1.032054572175863938e-01
1.778238898355051500e-01
1.267381953574127189e-02
9.505841767575687329e-02
-2.085436155905188993e-02
-1.795390040035049484e-01
-3.640523991437618068e-01
2.851938111320974634e-01
8.733942747680632779e-02
-2.417768332359192945e-02
1.160946111400058128e-02
7.065861944787073766e-03
-6.490391293154258723e-02
-1.012611431228462588e-01
-2.008658222897144463e-01
-4.469132255031730838e-01
-1.864800044602886731e-01
-2.837205453541032374e-01
-7.187466427764653554e-02
-2.281072460314658434e-01
-1.796206546637446888e-01
4.292347641917859113e-01
9.674815760986331670e-01
-2.869999754971025441e-01
-1.612680950442881012e-01
-1.619311516508272486e-01
-1.281567612847782922e-01
-8.688935302564637642e-02
1.953718722253184464e-02
4.545734955975336278e-01
3.511346536825799003e-01
-1.684708467050773095e-01
-1.152553432553787838e-01
1.143963115770011141e-01
7.926932773736140858e-02
1.029610493567518700e-02
3.187729452936172714e-01
-1.519512817808580107e-01
-8.705721780234228213e-02
1.711707510967082901e-01
1.463455259198837843e-01
2.640431842655156514e-01
-6.762348313794748489e-02
5.745097080156408645e-04
-9.657600903677104887e-02
-5.321297482622591030e-02
-3.647215039891841815e-01
1.465198730918454706e-01
5.633367161348489666e-02
-7.747800878614522282e-03
-1.155704910684867692e-01
8.569407339559218656e-03
-3.378739078821359123e-03
8.635775420643694578e-02
-1.710836752254046855e-01
-3.559453467020308459e-02
5.214516428765907097e-03
1.287627928674465738e-01
3.118421529740037640e-02
6.331742808529722266e-02
-2.073351658844165279e-01
8.153650924599183114e-02
-6.708576137028265940e-02
-1.699493481494634417e-01
-2.651171736423183489e-01
-3.643181932692395042e-02
3.664202404118102607e-01
3.230424744642160784e-01
-2.172383082714683666e-01
-3.106325471872388166e-01
3.099064817013899020e-01
2.321728880093373859e-01
1.264592819787017930e-01
1.176331591627355344e-01
-9.124798318262789323e-03
-9.587663820385868008e-02
-1.714978939176524664e-01
2.136984386274859080e-02
-2.211358425737455502e-01
5.995580748385340858e-02
-3.828128992861225266e-02
3.114544544572203297e-02
9.182808468722608239e-03
-4.000958357799265508e-02
7.347091773211696097e-02
-1.188386827614646285e-01
2.337457713765475273e-02
2.310393118333861628e-01
3.495885644177670892e-01
-5.360850148933475612e-02
1.935346522747431394e-02
-1.754479079874681213e-01
2.149633771036116581e-01
-1.340598242740715929e-01
-4.518284848313642854e-01
1.650272512029199445e-01
2.196382492044924306e-01
-9.017914458409350548e-03
3.994037284387981501e-02
-3.993491115876474790e-02
-8.139373542067722400e-02
-1.329787498342973606e-01
-1.612805623791434273e-01
-3.850111591294430036e-01
-4.233288451296441934e-01
-5.104761943094507926e-01
6.836424629601649261e-02
7.501128448625309086e-02
2.330689031296477032e-01
3.059519161533940101e-01
6.364198485032305230e-01
-2.697317786115738802e-01
-1.642438245050115986e-01
-1.970898922355550018e-02
-1.339455797234686829e-01
1.715691960356149903e-01
7.765975435283482831e-02
2.218873372433673857e-02
3.162124879508230735e-01
3.635416528571882439e-02
-2.155009719874022289e-02
4.311581356312738957e-03
-9.743904773541564590e-02
2.297536880678888518e-02
7.531114644802711089e-02
6.019211034916772257e-02
-8.015522731186103256e-02
-5.889782760426703206e-02
-1.420981989267185996e-01
-2.838401084417344761e-02
6.533636757391791949e-02
-1.293859285017542049e-01
9.674422583905416262e-02
1.926911516061406426e-01
3.994220857800532577e-03
-1.107190731863754996e-01
-6.140562483208758526e-02
-3.903661714307010699e-02
-1.379992268409038214e-01
2.111202902713312790e-01
1.921654747044061473e-01
-2.148794180967422349e-02
-3.263728116362615839e-02
-1.824180943065845939e-01
1.203205166311268615e-01
6.477898293776444827e-02
3.422025269321017915e-01
1.473137308268632206e-02
3.296430052679483972e-03
-3.090508423174149755e-01
-5.386089301236154925e-02
1.773760103666015830e-01
-2.747342270288297833e-02
-9.152940882187075855e-02
-6.941921746375372126e-02
-2.105457687906177149e-03
4.429425825516971477e-02
3.956314183755897662e-02
-7.070590378291571887e-02
-1.116747835997626698e-01
1.070811428186447534e-01
-1.203861856658095669e-02
-2.536442559693630888e-02
2.764223195954719579e-03
6.249623892327987873e-02
1.182008630098487084e-01
-1.414646401844493195e-01
1.126519980281112943e-01
-5.707452755144856033e-02
-1.820073856988968161e-02
-5.069276270110684157e-02
7.051222393985917547e-02
-3.852190150677396729e-02
-4.510944234492481053e-02
2.643515070617557736e-02
2.916238088713857812e-01
5.660303627195171876e-03
5.645476616175009593e-02
-9.110176430738685383e-02
-2.827528270032096669e-02
-2.785213474155366284e-02
-1.917586661644579693e-01
-1.475103074660978793e-02
-6.503366919847108907e-01
-2.372825547111857836e-01
-2.040201491883416041e-01
6.875192674037718110e-02
-9.619363119891785607e-02
9.106132558388753406e-02
1.247840972800327575e-01
9.032356774788545817e-01
-5.501168141376024112e-02
-2.882081107766388053e-02
5.496747851986678868e-02
-5.529859899392408455e-03
1.300812666695898810e-02
5.334078582296165882e-02
6.921716484111004042e-02
-1.011712034600801002e-01
9.519904099631229522e-02
3.667902201849110311e-02
5.370338942521823977e-02
-1.160108722186807967e-01
-1.059769375976124528e-02
-9.883642383555991950e-02
1.530274481775510953e-01
-1.131639108035739777e-01
9.453548136664995105e-02
-9.371817131580245999e-03
2.774364470768915861e-02
-1.026331496887566697e-01
6.140693302510859958e-02
-3.219920586805689183e-02
4.992203338146210256e-02
-8.940391979251692545e-02
-1.783898983321795251e-02
-2.548574645849941561e-02
-3.181778991406977036e-02
7.170833562504272396e-02
1.208641692524192388e-02
-1.202227757556304649e-02
4.329233656257119867e-03
-9.591824251919590536e-04
-6.110966118272452390e-03
2.277431214777977247e-02
3.661506357257739153e-02
-3.866984754757624154e-02
-3.635230579182222033e-02
1.072102175820994346e-01
6.496523916570048907e-02
-1.504317130104866618e-01
-1.344976573368927841e-01
-1.632976597360915605e-01
9.555060266433913763e-02
-1.939736388858384272e-02
5.481588646262023495e-02
3.697006710336353530e-02
3.492610792782342970e-03
1.263635139384662875e-01
-1.819132318360694445e-01
-1.446398134528597557e-01
-1.129549716077071636e-01
-3.840167561233562288e-02
1.251227096109776282e-01
1.154066315142218829e-01
1.163461431991523187e-01
1.210342081846208229e-01
1.015391926944198969e-01
-2.925557913593619663e-02
-1.100444170165441604e-01
-5.711517760197785260e-02
4.618651069011467207e-03
3.845880191142642124e-02
4.175631989334917943e-02
1.004220818625175225e-02
1.266964783864002186e-01
8.605667536103581150e-02
1.416099847759616226e-01
-8.997163916043573323e-03
-1.413352497809005348e-01
2.952034860680739434e-02
-1.823605408195717870e-01
-5.119053261368384372e-02
1.036102952836583241e-01
1.468575285473902037e-01
7.860311057814692304e-02
3.348621821965527823e-02
-1.884692906826043388e-02
-8.016728760964304812e-02
-1.363284595942609034e-01
-1.272144763566894210e-01
1.180738499817782505e-01
5.348285256497527229e-02
2.983286967085140018e-02
-1.513593100137637926e-01
1.015404850195939790e-01
-1.022696156789943689e-01
-1.911709845609932401e-02
-3.018403308834474719e-02
-2.021710968065817682e-01
-1.336312653472594703e-01
2.869435048651310452e-02
1.877828334967638069e-01
-1.082942555877806634e-01
-1.718337274986973251e-01
2.280497831654108853e-01
1.714033780916287275e-01
-1.764819085167900620e-02
2.693795928965662251e-02
-4.513358803048644202e-02
8.273367218249250490e-03
-5.029769432961892633e-02
3.396496947454478998e-02
2.429172234822691082e-02
1.961145488110683371e-02
2.351688216505583573e-01
2.746671445257405433e-02
-2.708182175893370305e-02
-1.009338905480053478e-01
-4.402475337509362957e-02
2.303155592095399492e-03
-2.448231354964731585e-02
-6.841591246354983280e-02
5.434312793942458475e-02
1.789019045574951131e-02
8.116892987766865381e-03
-1.352097903822224376e-02
3.376979496781914308e-02
-4.478811283614213962e-02
-5.938787531004070114e-02
3.576960833644531566e-03
-2.464960799657779367e-01
-8.009592116441541232e-02
6.893961203387918152e-03
7.314307109643486404e-02
8.183882662337195468e-02
-2.952761715905733927e-02
7.448037232907374350e-02
1.197633870369820275e-01
1.998755808171883419e-01
1.502401467456196404e-01
1.259749190476243952e-01
5.397139820289402479e-02
-1.694481374936546159e-01
1.420177056794402481e-01
-3.186194037731435724e-01
-1.840122092259693920e-01
-1.278647687632746520e-02
-3.787320529548980630e-02
-4.646543029756542570e-02
-2.405178808978714403e-02
-1.234503479188047391e-02
-9.250951530050573191e-03
1.622075666321426066e-02
1.265521302178860552e-01
1.251215119770031636e-01
1.336069464391993478e-01
6.028005073839011463e-02
-7.680749285625232403e-02
-5.838300417800004055e-02
5.593971524317831005e-03
-8.663439618657799157e-02
-1.027775874580809101e-01
1.641605544660547922e-01
1.666321435840072140e-02
-6.745847843827912187e-03
3.719035573307698239e-02
-9.453024107898028161e-02
-1.121317537806708516e-02
-1.316884924066181184e-01
2.616363214996128908e-02
1.296272780716901940e-01
7.278254319310428766e-02
-2.136702929672703033e-01
-4.544749831606457319e-02
1.017166104410381286e-02
-1.235095197698243691e-01
5.812452679165246161e-02
1.119213019526097280e-01
-1.668423674589528671e-01
-3.765740420806152483e-02
-1.436610448467674599e-02
1.810560662307947599e-01
6.065091257848116701e-02
-1.025896226280239160e-01
8.735479090663850199e-02
-7.606270936199659508e-03
5.952990748866189563e-02
-2.789300619781644869e-02
-2.634321672916756923e-02
3.059277074304261532e-03
-2.474977030898868960e-02
-2.426743537051012645e-02
3.273290103168535747e-02
7.931343011833107831e-03
-4.919769317093510702e-02
8.841800569537226762e-02
5.805158054269741325e-02
4.866520465036767995e-02
2.502815650386695095e-02
-1.460849382704695887e-02
-7.739235369567382117e-02
-7.896440669864704387e-02
3.361769522872229410e-02
-1.633090887094023336e-01
-8.296495528447729584e-02
-6.744803037854402161e-02
5.280497310778181630e-02
1.552662659659375111e-01
1.126820624152547745e-01
-4.064892234527243270e-02
4.619008211759515620e-02
6.807981275031134427e-02
5.403850791371522105e-02
-5.429396795576515999e-02
2.712771973038555912e-02
-9.296671756973011458e-02
-6.767289547183780174e-02
1.949745848532881062e-02
1.016264222636237280e-01
-4.545119041165045573e-03
-7.369332836528720565e-02
1.115295479139524759e-01
3.625858585789653449e-02
-1.982804168622037330e-02
-3.296347302548553043e-02
-1.183845939173134854e-01
1.020015759483065554e-01
-2.307375175461014172e-02
4.763229559014418857e-02
-8.163524253691398225e-02
-5.402269359317314612e-02
1.251079617932214505e-01
-4.358263579281367039e-02
-7.242750965416126785e-02
-2.525950832390100320e-01
-1.368785465610557750e-01
-2.518580226432612715e-02
9.165490994308202188e-02
1.555094450571048170e-01
9.986353604918615789e-02
1.498318943606553044e-01
-8.220035334564193552e-02
-4.085508762423881862e-02
-2.110119765685663021e-02
1.807480065477405293e-02
-3.168970435601716276e-03
1.328055753240684200e-01
-2.635665301774753333e-03
-4.753068680844699245e-02
-3.558876815192580506e-02
1.551979822700453870e-01
6.521449238137129456e-02
4.025476935507599219e-02
-6.629806342349474357e-02
-3.263763060419729023e-02
1.819883589407684729e-02
-1.524608999382733032e-01
-2.746948593460559265e-02
-6.790654656224665020e-02
-6.917767498209921248e-03
-2.604987673033433253e-03
1.452602826630859136e-02
5.078044906496546537e-03
-3.394203356475947869e-02
1.002073865357544086e-01
-8.440124410309375255e-03
-8.457693616453028362e-02
3.342542399952997401e-01
8.712466623542169941e-02
2.115650627724955102e-01
-6.894471645411952287e-02
-1.783728266214059111e-01
-8.128210909706977405e-02
-2.197673806660929985e-01
-1.044787186809501417e-01
-4.917196925674512109e-02
-4.564332847154767975e-02
-4.128725864624840231e-02
-3.715815184051712156e-02
-3.525398744116376576e-02
1.427127419007744313e-01
1.702806724363979674e-01
3.072193163377468644e-02
-9.543179612533585210e-02
-8.465453636420054717e-02
-1.411561604424156451e-02
-6.029091073648897015e-02
-6.306371662459053611e-03
1.022290137705638147e-01
1.278482855283890329e-01
-1.882719338696270950e-01
-1.088494308817227335e-01
-3.031600481865575833e-02
-4.132964292331324507e-02
1.361136494534226082e-01
1.338526973383739882e-01
4.119442874124806808e-02
5.760623696027299123e-02
1.375831693653675747e-01
2.153859433020399727e-02
5.200919377048705827e-02
-6.688255148047192455e-02
-5.300304413099130724e-02
-9.929633814847531326e-02
-2.149103889109162460e-02
2.954201518497553969e-02
-6.208962539885442417e-02
-1.683827151424346913e-02
-1.042812782734048038e-01
-1.006821425983911306e-01
6.986981787234362862e-02
6.867618406775738427e-02
6.650020125518166236e-02
7.884511458961020181e-02
1.703133741803954382e-01
4.994010961247576791e-02
2.733240768617293398e-02
-7.152945321987903837e-02
-1.122139700535849660e-01
2.086916890893629820e-02
-1.432598962732636698e-02
-7.038564748719147723e-02
-2.022558243745830875e-01
-1.276074165486121015e-01
1.019753485047786706e-01
1.057342613942302834e-01
8.416277439849864650e-02
1.929879100591029226e-02
-2.962940251111102069e-02
4.832146813088773751e-02
-4.758928033192753176e-02
9.153493008945862153e-02
4.994938068754883886e-02
-1.008094439357891826e-03
-3.103736592764229016e-02
-4.937918322250999664e-03
-8.811134440859257067e-03
-4.810051731496883115e-02
6.169005042877698242e-02
-6.843764226825350960e-02
5.934079742963416226e-02
9.567092632095504368e-02
-8.798177707970979491e-03
-9.931848642928164939e-02
3.865671620619243187e-02
-7.880418398005301084e-02
-1.090038976832501533e-01
7.445023886889613751e-02
-9.620435138398215902e-02
4.128277547251856666e-02
-2.338168900418859802e-02
1.457262010209184055e-01
4.412268503208615494e-02
-7.699196232299779230e-02
-8.935658983299063496e-02
1.393873207666943698e-02
-4.695382394136016907e-02
9.452093851655213319e-03
4.240726800656263035e-02
7.041770123639785883e-02
-8.310166170981478015e-03
8.404784774048391569e-03
1.787451364412127527e-02
-3.699392143327415172e-02
8.372361509168858851e-02
1.171564500097545258e-01
-7.545438057142003774e-02
-1.345203363031153565e-01
1.011491262684477421e-02
1.809914693539963274e-02
-2.088219103780402514e-02
-1.468717895629655101e-01
3.091874826562776915e-02
-1.428694747185952907e-01
-4.343688834902555834e-02
1.751312429990397879e-01
7.359704325796316560e-02
7.441330914575960964e-02
8.872404783870237177e-02
-2.192999647677120606e-02
-1.057139820971117750e-01
-5.123732194247716809e-02
1.553305881712306255e-02
8.019498267851057210e-03
5.319373834912830695e-02
1.341095724355626483e-02
1.719162315238259298e-01
2.539471157859648359e-02
-6.036947955857017642e-03
-3.172782245005335150e-02
-2.259993809888144467e-02
4.312142179738431835e-02
-1.618067232798653388e-02
-1.638869840670273692e-01
1.276462067974680759e-01
1.081064741665606344e-01
1.544541498379003730e-01
5.367018353341927728e-02
-1.618692202389035439e-01
1.433070206726635432e-01
-3.208864308654736930e-01
-1.044283839036403427e-01
1.758703996423490457e-01
1.593523174790008601e-01
3.979458088098931229e-02
-1.401101914104270875e-03
1.539637228034113244e-02
-1.259807638152680709e-01
-2.237084403943548905e-01
-3.932336415895656273e-02
-6.247905950681537784e-02
4.373979259614334952e-02
7.399937006966003650e-02
-3.473677165628373531e-02
-1.178168604416946624e-02
-1.133865328914000353e-01
8.493150360756675232e-02
1.971338382529777902e-02
-3.571145568876345211e-02
-1.887838918452918457e-01
-4.397625628362538536e-02
-2.110226638485737938e-01
-3.258779743114155469e-02
-1.148400161021762012e-01
5.118890601814277824e-02
5.757331751814298570e-01
5.364807861238247710e-01
1.192767492934039553e-01
-5.512574194533067379e-02
-9.676805432140880847e-02
-1.750542008515340309e-01
-1.079745476384738057e-01
-8.628229239647924875e-02
-1.345526982640022629e-01
-2.886767987288441639e-01
-2.666939940400679387e-01
-4.021478397685692568e-02
-7.751684423852159278e-02
-1.616280448564721972e-01
-1.152374579321583242e-01
8.004191746399794138e-02
8.699260063089231387e-01
-1.194102405004790826e-02
-9.870329922206123874e-02
-2.560681569017784209e-01
-7.235084090671306534e-02
6.175393643907194086e-02
5.524113293776451716e-02
1.645219287885937576e-01
1.575463229151733702e-01
1.386442402378907091e-01
1.546134561399656882e-01
1.552452070471590367e-02
1.173852163253268216e-01
-1.929874752972998361e-02
9.392049918513752094e-02
-2.971059787921472295e-01
-2.036832062711607383e-01
3.481406358974979409e-01
2.465089796631291796e-01
-5.135990561629096701e-02
8.257984161568789061e-02
-1.862263391036691473e-01
-9.152697288498498618e-02
3.246921942590116905e-02
-3.805854589972716417e-01
2.172292468550537925e-02
8.974120843478218187e-03
-7.671519705545519485e-02
3.552277758401373164e-02
4.354269778921125711e-02
-9.215860726847648066e-02
-2.532378758831107385e-03
6.164366218055381680e-02
-3.304621343418814167e-02
-6.930083887595918715e-03
-5.160539624016113186e-02
-2.962052136624015314e-02
-6.042248340209759039e-02
1.558338015581764435e-02
1.553668144425945086e-01
1.067450373187107254e-02
-1.348105594335478330e-01
6.816858687715821215e-03
1.066090904974023243e-02
-1.237669599919357377e-01
5.145202339385908374e-02
3.228409347161248499e-02
4.046556185177968556e-02
1.168980729707770200e-01
-1.278647687632746520e-02
-3.787320529548980630e-02
-4.646543029756542570e-02
-2.405178808978714403e-02
-1.234503479188047391e-02
-9.250951530050573191e-03
1.622075666321426066e-02
1.265521302178860552e-01
1.031647731868655382e-01
4.719682276503748414e-02
1.177956287987105416e-01
1.025054195300440785e-01
1.223608865780638072e-01
-2.372354692497491702e-01
6.902977440222582417e-02
-3.248178360111988461e-01
-2.697317786115738802e-01
-1.642438245050115986e-01
-1.970898922355550018e-02
-1.339455797234686829e-01
1.715691960356149903e-01
7.765975435283482831e-02
2.218873372433673857e-02
3.162124879508230735e-01
8.676392770110464767e-03
-3.498873856656091463e-02
-6.523469988497755667e-02
8.179413037415629584e-02
-9.280000814472380219e-03
5.301429814724119977e-02
3.804769541230985930e-02
-7.202907743780739835e-02
9.519904099631229522e-02
3.667902201849110311e-02
5.370338942521823977e-02
-1.160108722186807967e-01
-1.059769375976124528e-02
-9.883642383555991950e-02
1.530274481775510953e-01
-1.131639108035739777e-01
-1.824180943065845939e-01
1.203205166311268615e-01
6.477898293776444827e-02
3.422025269321017915e-01
1.473137308268632206e-02
3.296430052679483972e-03
-3.090508423174149755e-01
-5.386089301236154925e-02
-1.783898983321795251e-02
-2.548574645849941561e-02
-3.181778991406977036e-02
7.170833562504272396e-02
1.208641692524192388e-02
-1.202227757556304649e-02
4.329233656257119867e-03
-9.591824251919590536e-04
-8.218069376632076983e-02
-1.969084230081135853e-02
-2.167061121603306231e-02
-7.595429590816835108e-02
7.108281850349422101e-03
-1.002945848073288730e-02
5.482062495478592229e-02
1.475969948669323961e-01
-6.110966118272452390e-03
2.277431214777977247e-02
3.661506357257739153e-02
-3.866984754757624154e-02
-3.635230579182222033e-02
1.072102175820994346e-01
6.496523916570048907e-02
-1.504317130104866618e-01
1.278272493039775970e-01
2.370764140065055037e-01
-7.111507144522889734e-02
-9.433675562851782936e-02
-1.427225000198293070e-01
7.088848595851866830e-02
-1.006409682459746269e-01
-2.697685392945130267e-02
-6.572213048505142971e-03
3.567811770758182871e-02
-1.478952287850095471e-01
-4.392884092815954600e-02
6.747845817583439029e-03
5.130565926100633112e-02
1.874690275956663807e-02
8.591775721593802873e-02
-6.503366919847108907e-01
-2.372825547111857836e-01
-2.040201491883416041e-01
6.875192674037718110e-02
-9.619363119891785607e-02
9.106132558388753406e-02
1.247840972800327575e-01
9.032356774788545817e-01
1.905324786718872732e-01
2.028708027210912035e-01
1.845018377719324365e-01
1.538544016891500998e-01
-3.500865297689161326e-01
7.155819187430063899e-02
-4.068944512335042618e-01
-4.633673172594462292e-02
3.371290712233468434e-02
1.757963968938590638e-01
-8.441925471560429717e-02
1.152277754262617665e-01
2.924417607464921409e-01
-1.756882167879852408e-01
-1.141459796814744548e-01
-2.429253890038839403e-01
7.028427930549775715e-02
1.366971615813598606e-01
-1.094585853591605214e-02
-1.086386429896577660e-02
9.178684928411422195e-02
-6.067515507881061226e-02
-2.002081955019251736e-01
-1.607521675535335259e-02
-7.049121264928509545e-02
2.363194725173756172e-02
7.966609119833643893e-02
4.835900205707650834e-02
1.856986367112281947e-02
-4.395115064374467695e-02
1.976322132764824976e-02
-7.554776221289079274e-02
4.042850442490040358e-02
9.400590904833741601e-02
8.994112504004549147e-02
9.242370196974469820e-02
-2.162385699521486224e-02
-7.039053644142276300e-02
-1.291683861029045144e-01
-9.561646094348570657e-02
-1.594559052010002462e-02
4.752948951139329692e-02
-1.695181067041540146e-02
-2.386898917733162179e-02
1.242053105906736343e-01
1.203037314763937167e-02
-6.090963457087444216e-02
-6.608914831098527953e-02
1.735193746328453010e-02
-6.690223275811335579e-02
2.328512320470565652e-02
-6.177758070537862217e-02
1.110171191151365505e-01
9.713615306834678855e-04
-1.088547280459953998e-01
8.490900019567720891e-02
-1.220546242644671431e-01
-9.692366493464411870e-02
5.470068572304178506e-02
9.177847408563170883e-02
-3.500947042724911196e-02
-2.420052075146164952e-02
-1.684575596954562479e-02
1.485548765386942582e-01
-1.511294309649827139e-01
3.346216812638607707e-01
2.006738742090713179e-01
-1.872607234649937835e-01
2.202725648047025309e-01
-1.170317679519391613e-01
-1.105419277407216766e-01
-1.896042701549972564e-01
6.057987611817909623e-02
-7.472143155152971561e-02
1.077196431471989790e-02
4.938436979240246744e-02
5.666409731495287982e-02
5.131977463741663886e-02
-2.262285252161995996e-01
7.222987459005841826e-02
3.087664647282574171e-01
-6.176586859009723651e-02
-1.500337759402354532e-01
-1.202727294963963911e-01
1.229135956019236503e-01
1.418437323528123906e-01
-1.561188794948453404e-02
-2.258395307067807833e-01
-1.819132318360694445e-01
-1.446398134528597557e-01
-1.129549716077071636e-01
-3.840167561233562288e-02
1.251227096109776282e-01
1.154066315142218829e-01
1.163461431991523187e-01
1.210342081846208229e-01
1.983615326172626925e-01
7.915152408528453032e-02
4.864290430506484214e-02
-1.335819856793581950e-01
-2.027729328790164320e-01
1.399258303154495009e-01
-8.942507416600777026e-02
-4.030179859867635134e-02
1.087754981052482250e-01
-1.900676121731584636e-02
-7.924838000282723519e-03
-5.343961360870368160e-02
-2.990699766647329783e-02
-6.820036877595854474e-02
1.219180406451005061e-01
-5.221495948161503087e-02
2.805047901261936705e-02
3.484011848306876880e-02
1.870325305216874456e-02
8.017581046496077835e-02
-1.392154360576515829e-02
9.459834616306371513e-02
-6.117041049461539870e-02
-1.812760530755015420e-01
-3.571145568876345211e-02
-1.887838918452918457e-01
-4.397625628362538536e-02
-2.110226638485737938e-01
-3.258779743114155469e-02
-1.148400161021762012e-01
5.118890601814277824e-02
5.757331751814298570e-01
0.000000000000000000e+00
0.000000000000000000e+00
0.000000000000000000e+00
0.000000000000000000e+00
0.000000000000000000e+00
0.000000000000000000e+00
0.000000000000000000e+00
0.000000000000000000e+00
3.620231803829640493e-01
1.165480088477545417e-01
1.297406874178635428e-01
3.354351812079672118e-02
-2.009628613578357537e-01
-1.858491445797040842e-01
1.711912068427378156e-02
-2.721625095161137597e-01
5.278606799729721605e-02
9.328710339131598278e-03
2.140322292894139902e-02
-7.561897261371373913e-02
6.348679494974039661e-02
-1.130468518612406104e-01
5.894281324866077615e-02
-1.728178498881688743e-02
3.820607377585168857e-02
2.101401494886975529e-01
-5.411609522943085920e-02
-5.579384453297570046e-02
-1.023173709592792163e-01
2.063855208272465450e-02
-2.230329538374664355e-01
1.662754892118774031e-01
-2.007627294802402651e-01
-2.934057414122292484e-01
-1.327633163016433415e-01
-9.423590131900309863e-02
5.544354579195858584e-02
3.221261448855404219e-01
9.899390578197905799e-02
2.446040920536372010e-01
-5.169974711637629478e-02
-8.737091343498537555e-02
-2.635624620350945913e-02
1.980551260156821203e-01
1.505463959549975354e-02
-7.596568271836912078e-02
1.128758257949239868e-01
-8.459300193286546643e-02
-1.223119130900047619e-01
9.684793284879505970e-02
1.241379844219452494e-01
-6.047337650888079397e-02
6.639205850918693252e-02
-6.267119150028180319e-02
-5.143827491453339951e-02
9.516780233772659942e-03
3.103165458022271728e-01
4.338416108333292137e-02
-8.163837127007793348e-02
1.553640809556396940e-01
-7.216272196217822510e-02
-2.033796129174132439e-01
8.472623837317809145e-03
-1.603567055288457055e-01
3.072193163377468644e-02
-9.543179612533585210e-02
-8.465453636420054717e-02
-1.411561604424156451e-02
-6.029091073648897015e-02
-6.306371662459053611e-03
1.022290137705638147e-01
1.278482855283890329e-01
-1.404297481763450706e-01
-6.680386330484486268e-02
-8.312461038173200867e-03
-5.007135728607477188e-02
3.694459217368432913e-02
-2.629806886205899186e-03
1.298985069309457618e-01
1.014041375870112088e-01
7.807477010054268696e-02
5.860044654378313012e-02
-2.405070900050612984e-02
-3.907201224679618390e-02
-7.161034533725815776e-02
-5.497624103526142086e-02
-7.524883520443830832e-03
