3.650023068615601551e-02
1.430377407168486326e-01
1.027358422064147542e-01
-9.285834424966700473e-03
-8.648908976304840734e-02
-1.336778881066442159e-01
-1.593024272819357212e-01
1.064814259671699459e-01
-1.361945201666256607e-02
-1.522654092291708325e-02
-9.483666902356694545e-03
-4.729573020144346197e-03
-2.786102047147731402e-03
-2.041658682976389867e-03
-1.477277048864227265e-03
4.936427064106926194e-02
-6.642540581962987079e-03
2.495003893416712637e-02
9.364085892451710913e-03
-1.416117017810854294e-04
-5.562977286323518046e-03
-8.311621722138699472e-03
-1.212142464126152001e-02
-1.533948893150719004e-03
2.026491640956929949e-02
2.033335416594908573e-02
4.661324457416384935e-04
-8.422804229679552168e-03
-1.052799249318929140e-02
-9.667362313829957338e-03
-1.206645799439403158e-02
-3.797859901672250645e-04
-2.023804717696336963e-02
8.769920996148332717e-03
1.888238834742945668e-02
6.090063971232981786e-03
-6.882609471945767658e-03
-1.607281238639225729e-02
-1.728995832134426133e-02
2.674105404183424808e-02
9.428321017660006844e-04
2.255692358092504114e-03
1.760634633077690081e-02
1.063769533911845290e-02
-1.224638232164022671e-02
-1.420517679899292729e-02
-1.919442222923567129e-02
1.420341522011399522e-02
4.162472740426354650e-02
4.928508211070254524e-02
3.028731029981872672e-02
-1.955295987416869746e-02
-4.393315217769876158e-02
-6.345620768235393783e-02
-7.068509971503145195e-02
7.643029963446842934e-02
3.718655592617601982e-04
2.815368465951196848e-03
3.104704943019148677e-03
1.494800982288250427e-04
-2.346256498606567615e-03
-4.783878824041370493e-04
-2.192037686279559201e-03
-1.424736999170822050e-03
2.613851492967835758e-03
1.367472775265249872e-02
2.000419635215707273e-02
3.031785607453655901e-03
-6.011480575690398599e-03
-1.061152950036572777e-02
-1.387314214063720651e-02
-8.828408988538073709e-03
5.403047117537510121e-04
7.822689443003331576e-04
5.275776761143296644e-04
6.870807929127373823e-04
-3.921673585558575455e-04
-5.701953463335663295e-04
-3.864789971345148722e-04
-1.188390423057207644e-03
2.598804652162824483e-02
6.752929548574026879e-03
-1.500067107163270772e-03
-6.665282512869064729e-03
-7.239666171567096971e-03
-1.242800800442538794e-02
-1.366277747982686669e-02
8.754825205648948325e-03
4.124104002500696771e-04
2.216866777261939335e-03
2.632754316031320208e-03
-1.298430562774488572e-04
-2.173833143094611696e-03
-2.836614186131344384e-04
-1.933155195234998944e-03
-7.415386803232026404e-04
-1.376900160001706674e-03
1.665178037646179374e-03
6.062668257869746613e-04
-8.298480811951296134e-06
1.660142977522305861e-04
3.820146511435681741e-04
-9.972659746237287008e-05
-1.334548574052902073e-03
-8.149376585209087899e-05
1.407910325255154688e-03
-6.242020523016462204e-04
2.691270709354545793e-05
-2.040698127584718801e-04
1.954664331749930695e-04
4.539753508617384967e-04
-1.174499185473239053e-03
-2.304683133417266463e-03
7.788540579414800040e-04
1.875683133773023968e-04
1.029011809148869467e-03
9.272243746864408751e-04
1.164353411189931195e-03
-8.611088124956856093e-04
-9.212200204310879662e-04
4.910738623583490829e-04
2.183418142301639126e-04
-1.059493597137140626e-03
6.846496841919906713e-04
-5.276484761252403901e-04
-9.265506513093019325e-06
-9.782175073891269997e-04
1.180559726384096180e-03
-4.054484098831228429e-05
5.985016886892887376e-04
4.719506269878368724e-04
2.793231545062757159e-04
-1.724233555119777657e-04
-1.947264637910147539e-04
-2.588824910445192205e-04
-6.831983188475843896e-04
-5.708271126313687379e-04
6.948835031621324911e-04
6.762648760076521480e-04
-7.291713392037192870e-04
9.604989223509710497e-04
-6.154453737354827203e-04
2.244976217738416308e-04
-6.407010977240209636e-04
2.050228261461837338e-04
-1.022084762452368095e-03
3.185051647663531362e-04
6.458486965072318545e-04
7.570525069056594034e-04
-1.761984992452854620e-04
-9.597281748108907763e-04
2.315822421831243100e-04
8.867727539372372665e-04
8.964810782170908694e-04
1.628799416383406557e-05
-2.306125527548998967e-04
-1.570530416933677139e-04
-3.553628788890068370e-04
9.161247915163082381e-05
-1.148125832132528088e-03
-3.277263358607558998e-05
1.249179517688275387e-04
2.684979172431356570e-06
6.438018702836434339e-05
2.682511835733582869e-04
-2.275350715493902826e-04
1.333020888523900370e-05
-2.132568052927532904e-04
-7.148766437161306695e-04
4.434642337593012497e-03
5.964345400262314849e-03
-4.983259510971937696e-05
-1.142763112311402808e-04
-1.585413948891386399e-03
-3.842401140573380690e-03
-4.092187098333504268e-03
5.678921468280522834e-03
9.389030607988577484e-03
1.752269373936893998e-02
1.123659557494996724e-03
-5.819567361770341431e-03
-1.159756565912906622e-02
-1.072320284402441919e-02
-5.573969508209753593e-03
1.280343664782968341e-04
7.101801095109483853e-05
5.293677269007823934e-04
-1.604916802690744345e-04
-1.208217210228949140e-04
-1.003438544247817519e-04
-8.915689115942401701e-05
-2.576059574539960213e-04
1.974479309679777928e-04
1.484237454947406366e-03
3.026904512871812260e-04
3.037394469692650126e-04
-3.439982471590546519e-04
-3.763148815355199712e-04
-2.335496712165371816e-04
-1.334252484260725884e-03
5.982967582233151942e-04
1.078566496995572287e-03
1.012820353849735316e-03
-4.667381432788146101e-04
-3.410491616456798130e-04
-2.871477243235793803e-04
-5.312671613685285461e-04
-1.063481418452021316e-03
7.153724538401910488e-04
8.402835725733698389e-04
6.127913506389322858e-04
-2.033946592994314261e-05
1.163387199485345282e-04
-3.305301924462899100e-04
-1.037359612100049750e-03
-8.965568265247235132e-04
-1.148489386941505490e-04
-2.611396320798646531e-04
1.233474044671364564e-04
7.071791319991597036e-04
4.242999884881688659e-05
-1.276313226099798121e-04
5.486895416676890530e-06
-3.748235373477949890e-04
-4.934019698485030223e-04
2.803201181216457161e-03
-7.928864625822807462e-05
7.117678547401768340e-04
-6.782613168106392358e-04
-9.800192918554407988e-04
-1.292425906295747041e-03
8.428095111943019975e-06
-1.314051806568535506e-02
9.649272621628081012e-03
1.166375733405634364e-02
-4.427562083310431808e-03
-9.126074973983197558e-03
-1.155264985710464237e-02
-1.152627803540242149e-02
2.846005305980173206e-02
6.710953030220365243e-04
5.682845497530972755e-04
4.400429576200170015e-04
-2.414108439437701004e-04
-3.811579112710788021e-04
-8.312578862366042174e-05
-2.586859611040045765e-04
-7.150423054526411967e-04
-5.786493056090048542e-05
4.669972954500478646e-04
2.393164748458878675e-04
6.194117272265293713e-04
-3.665252209844545767e-05
-2.191747937956538684e-04
-3.859949644667395229e-05
-9.734337546207997693e-04
1.138596048781778279e-03
1.703092742695998469e-03
9.549267139036660395e-04
-3.060622299716660844e-05
-2.272941060518192727e-04
-4.734897982206494695e-04
-5.401035689347812334e-04
-2.525121809177072098e-03
2.795486985677233388e-02
1.793267349415186840e-02
-1.762770496180825252e-03
-2.289260245370678196e-03
-1.632050077886329151e-02
-2.474714220122878686e-02
-3.205345805944336685e-02
3.128558843016330387e-02
1.648858146438158395e-02
1.286738283285985066e-02
-1.836742224279010009e-03
-7.801606609851549461e-03
-9.021073908628744406e-03
-7.943859107938596592e-03
-8.551609320979083537e-03
5.798926874435587561e-03
-7.897138005837179100e-05
3.069181671897101469e-04
5.077951331097914041e-05
3.702609579733478064e-04
1.036060800851607358e-03
9.207295961304627423e-05
-6.470104265717002180e-04
-1.130110592308624599e-03
-1.043350147222971624e-03
5.253602299684819073e-03
7.184735781049081567e-03
9.858462934249159499e-04
-7.769979922095692111e-03
-6.995082131055768357e-03
-1.187042951283451449e-02
1.425465733905018073e-02
-7.892572044159011126e-04
9.463634337687929984e-04
3.000503507109257431e-04
-1.003539578523282219e-04
-7.468850821685923264e-04
-5.166369667604266921e-07
-9.758553501659837474e-04
1.366454447089896808e-03
1.413322656458753138e-04
4.997913409104363762e-03
-8.000717638663586932e-04
-2.056911802061007696e-03
-1.161331821227562554e-03
-1.059712565891423978e-03
-1.910193560792216401e-03
1.848975839088285713e-03
-6.009669134564493698e-03
7.428577643665411345e-03
3.702204001055162640e-03
-1.045238109431622818e-03
-2.427348803349956615e-03
-3.882292787011969344e-03
-5.794733117775535680e-03
8.028500307413026504e-03
8.914385765262908311e-04
1.942888998791667899e-03
8.581245711495025155e-04
-4.854344095484738300e-04
-2.436740611045645896e-04
-9.873149071746168803e-04
-9.164724127522415548e-04
-1.059556355887570842e-03
-4.431358927276095143e-03
3.756712053785791626e-04
6.906721917573996165e-03
-1.239173603794074298e-03
-6.032458889236702159e-04
4.443255984536201818e-04
-2.172412750149320566e-03
7.194724487369426498e-04
1.864040808921024913e-04
-9.260568073682297514e-05
-1.300664468224200514e-05
6.452043242317484896e-05
5.745221725283469142e-05
1.054207430888295542e-04
-8.483178425430192287e-05
-2.233533639835741304e-04
-1.078477708710089958e-03
2.299844853197924744e-03
-1.658416632746751058e-04
3.723494470236852756e-04
-1.495653834029145551e-04
-5.998365874575169117e-05
-4.448320919588199932e-04
-7.734937941293105849e-04
1.440691319400066745e-03
2.297859807922584922e-03
-2.569575998736929145e-04
-1.475928316375183695e-03
1.507803783225161536e-04
-5.996619135968719047e-04
-1.088950861881965307e-03
-4.678328139174819716e-04
6.062531156276770947e-04
-5.391307423821397812e-04
3.835479965627650902e-03
2.221728061019131659e-04
-5.592231970312221438e-04
-7.147775798966375356e-04
-7.909862134405406652e-04
-2.059788154606721419e-03
-2.696236503116511852e-03
1.540486200409444360e-02
1.949200493678910837e-02
-7.314932278173462248e-03
-8.470008853536109203e-03
-1.183688956602642166e-02
-1.172541069171399372e-02
7.146610951682626223e-03
-1.061806182212050777e-03
2.918872406615125557e-03
1.542305205668060382e-03
-3.886229667623347715e-04
-7.829734806023272084e-04
-8.938202913869918234e-04
-1.170387660797671519e-03
-1.635670305218011385e-04
3.518565594664721085e-03
-4.546555577464283507e-04
2.394385632317136761e-03
1.144077245554803125e-03
-2.776901399749400704e-03
-2.891518053568589708e-03
-1.717175448643376611e-03
7.832219871710033223e-04
-5.493611006668604711e-03
8.353161330014300182e-03
3.077211254345108178e-03
-4.068841195533097325e-04
-1.924816411252828867e-03
-2.705334978688365803e-03
-1.134993605699250027e-03
2.352675375027718063e-04
-7.190252443784282818e-04
2.783709927614003935e-03
5.632893970416652995e-04
5.925620450883810906e-04
-1.030760271118973088e-04
-6.707377215090682288e-04
-1.325925911873145936e-03
-1.120796464871507683e-03
-1.448630184994778190e-03
2.831364640403484425e-03
1.523159921543297839e-04
-9.879152637727211302e-04
-1.703041541802450968e-03
-2.917434570077068884e-03
-1.967224317330061156e-03
6.040565245419283330e-03
-2.045689894061328664e-04
3.954630327742626110e-04
3.027283416730731274e-04
-1.786290383564716720e-04
1.896643403851660495e-04
-1.124562196691440084e-04
-9.970884005230223055e-05
-2.924926273484494384e-04
-1.313485510718374850e-04
2.375467279412552804e-04
2.549241029203511296e-04
1.190606711739284349e-04
-4.767510638037542888e-05
-1.311465788241330816e-04
-8.403365779348529005e-06
-2.929578999798385856e-04
-7.091294528291483849e-04
2.023760168666963958e-03
3.124618935147263892e-03
1.545549549962324824e-03
-5.837079874080599792e-04
-7.481930823751991883e-04
-2.109379877228873077e-03
-2.543518253935255890e-03
7.770701035691993715e-04
2.232046111336601513e-03
1.822295756801975072e-03
-1.197885404730051652e-03
-9.295725954244120695e-04
-1.688458446084502637e-05
-5.767237021548224721e-04
-2.110345684937665629e-03
1.986182248989101437e-03
-2.997909941592352689e-03
1.042161054972718347e-02
9.651849045693831203e-03
-4.476402399544461737e-03
-7.210094667936905663e-03
-7.323992716400415208e-03
-5.124211893601600583e-05
-6.676969029517103218e-04
2.034405664987610531e-03
3.663108956467109388e-04
-5.959772169566499413e-04
4.467650364442541993e-04
-5.727322617159773992e-04
-7.613547827248959678e-04
-2.497204327293141746e-04
-9.933159828516054807e-04
1.082112614474239377e-03
2.672062011795461531e-03
9.940913858851159414e-05
3.643828988016159336e-04
-7.372769810906272840e-04
-3.221452826015846842e-04
-2.165228417116024390e-03
8.448013245939045481e-04
-7.013823531639576739e-04
4.199956732269558382e-04
3.205580866968775716e-04
-2.561854917671768130e-04
-1.677155904229796343e-04
-4.546374973701372947e-04
-5.434151793486183714e-06
1.150891685014907668e-03
1.647000652295798565e-03
1.074207590109823836e-03
-5.734400849685469944e-04
9.235548498090424049e-04
-7.400115408302734149e-04
-1.025486034745717086e-03
-2.456717116684997790e-03
1.592431323303131717e-03
2.405391985447413120e-03
2.596360957169504169e-04
-1.170020341236654434e-04
1.745480575492499053e-06
-5.719448143077473286e-04
-9.088199821226905202e-04
-2.661438054488856481e-03
-1.038155813657266023e-02
-5.187446446278801311e-03
-1.687676759253317485e-03
7.839200613848018584e-03
-3.871627208183982521e-03
-1.077116362523072336e-02
-8.133172331386360338e-03
3.219344389305697079e-02
-3.631072396383054472e-05
-6.346452208293646476e-04
2.602547408419944325e-04
2.565049200680963727e-04
-3.198903828357201854e-04
2.354895290874469446e-04
2.954218570001279566e-04
-5.682471936873994753e-05
2.135345610639075248e-04
-3.724160010799316967e-05
-7.192873427689414989e-05
-2.439978540182669410e-04
2.765586959969341756e-04
2.122279791848168064e-04
-8.761220677034783336e-05
-2.615408410721542444e-04
-1.264232296004837457e-04
2.526613003995052372e-04
7.287509403901432385e-06
6.820581094270256354e-04
9.717749642722966780e-05
3.498685262610762531e-04
-4.343028209632357776e-04
-8.283268913550217993e-04
-2.853992890156485922e-03
5.781648283090972014e-03
1.235328119456279234e-03
2.434654916703209940e-03
-1.237284407659778392e-04
-1.769530035006844923e-03
-1.970244460317378734e-03
-2.734135493003734142e-03
0.000000000000000000e+00
0.000000000000000000e+00
0.000000000000000000e+00
0.000000000000000000e+00
0.000000000000000000e+00
0.000000000000000000e+00
0.000000000000000000e+00
0.000000000000000000e+00
5.403047117537510121e-04
7.822689443003331576e-04
5.275776761143296644e-04
6.870807929127373823e-04
-3.921673585558575455e-04
-5.701953463335663295e-04
-3.864789971345148722e-04
-1.188390423057207644e-03
7.633585171593042099e-04
1.332872985202958414e-03
3.323919261515460161e-03
2.374918520627950153e-04
-1.182156760015807412e-03
2.434841862365589996e-04
-1.672222677088231520e-03
-3.046747365072969508e-03
-3.509481169092329607e-04
8.839937920589874265e-04
-6.911649454840247024e-04
-3.673349083402434388e-04
-9.916763830787940926e-04
-5.271456048496757927e-04
-2.609325181467205858e-04
2.305208684749770337e-03
-1.376900160001706674e-03
1.665178037646179374e-03
6.062668257869746613e-04
-8.298480811951296134e-06
1.660142977522305861e-04
3.820146511435681741e-04
-9.972659746237287008e-05
-1.334548574052902073e-03
-5.399480925019050628e-04
-6.017783932935375727e-04
-8.569117673862074441e-05
6.497432154093135855e-04
4.928997162556037490e-04
-8.458382243388085856e-05
-4.913577206402688994e-05
2.184943253670573922e-04
-8.149376585209087899e-05
1.407910325255154688e-03
-6.242020523016462204e-04
2.691270709354545793e-05
-2.040698127584718801e-04
1.954664331749930695e-04
4.539753508617384967e-04
-1.174499185473239053e-03
-3.683522010424322810e-04
2.267516865317874882e-03
2.244587568886451275e-04
-2.133074264980981867e-04
-3.626033397324684190e-04
-1.293594755696815415e-04
-4.957339896092172096e-04
-9.226191897546211522e-04
-1.488555344941247137e-03
-8.647618812536090639e-04
6.787511221767334184e-05
6.052325480239218510e-04
8.057848510510055287e-04
1.385461643595328231e-03
-3.100567398426830627e-04
-2.009801888504131621e-04
9.217250506829575073e-05
-2.212253282924161776e-05
-1.907437899039308521e-05
-1.265652778628398184e-05
-8.856852887706844493e-06
-7.164934401813801687e-06
-6.182310979758598678e-06
-1.611496719309774567e-05
9.386860481021442205e-04
1.880431847739284052e-03
-2.843911787772765605e-04
6.127141113684569798e-04
-2.259967722383988064e-04
-1.171368867009674230e-03
-9.257094905005036406e-04
-8.243656986840306334e-04
-4.476121857438034317e-04
-1.662090033509154184e-03
-7.751024183598634147e-04
7.193557282353745907e-05
-3.016517038868345092e-04
1.162103360496597902e-03
-5.250801688862506678e-05
2.004925425068135487e-03
-4.054484098831228429e-05
5.985016886892887376e-04
4.719506269878368724e-04
2.793231545062757159e-04
-1.724233555119777657e-04
-1.947264637910147539e-04
-2.588824910445192205e-04
-6.831983188475843896e-04
-5.708271126313687379e-04
6.948835031621324911e-04
6.762648760076521480e-04
-7.291713392037192870e-04
9.604989223509710497e-04
-6.154453737354827203e-04
2.244976217738416308e-04
-6.407010977240209636e-04
2.050228261461837338e-04
-1.022084762452368095e-03
3.185051647663531362e-04
6.458486965072318545e-04
7.570525069056594034e-04
-1.761984992452854620e-04
-9.597281748108907763e-04
2.315822421831243100e-04
8.867727539372372665e-04
8.964810782170908694e-04
1.628799416383406557e-05
-2.306125527548998967e-04
-1.570530416933677139e-04
-3.553628788890068370e-04
9.161247915163082381e-05
-1.148125832132528088e-03
-4.207185864399913414e-05
1.234527688992854652e-04
-7.206612294770964138e-05
9.067126137719885577e-05
2.305092988884362972e-04
-7.860997743884236754e-05
-6.994150639545947373e-05
-1.819438637389096626e-04
1.356559345360670942e-05
-6.418670499314290941e-05
-1.684568187614426181e-05
-4.980708211879200387e-05
1.006098669207592717e-04
-9.595341455977371057e-05
2.261159842709237907e-05
9.000582474639506924e-05
-4.266368395683454951e-06
6.565188786268437307e-05
9.159678399628504207e-05
2.351600776995763380e-05
-6.286798223583716012e-05
-5.297167955077312028e-05
6.066011685360651510e-05
-1.213187663002398490e-04
-1.460409371980385049e-03
3.785465437974849974e-03
4.933151522446110882e-03
2.584007327856822781e-04
2.774951452434450908e-04
-6.994547973431682313e-04
-2.320450330869227792e-03
-4.774198338257289696e-03
1.925773062161933351e-03
2.345188550668938186e-03
2.780800514908210409e-04
-4.018543821353341640e-04
-7.498976924298685629e-04
-6.475640335509073820e-04
-9.273725587505883159e-04
-1.822352997455000279e-03
-2.344915893088574815e-03
-3.587771329497085881e-03
-8.364101191273662795e-04
3.841932434993911277e-04
1.144994275602062095e-03
-1.290543745167592460e-03
8.305949550098269804e-05
6.447394072278288778e-03
5.603023320308988045e-04
3.205376761442016442e-03
2.521085056817963695e-03
2.835231053445908412e-04
-4.635462782409748126e-04
-1.309259841463548697e-03
-1.827854412781633377e-03
-2.969626723149275654e-03
-1.078475174244957402e-03
-1.649134949941887321e-03
-5.124299824250121193e-04
9.923707102495590501e-04
1.144443821694835850e-03
-7.344259508764249380e-04
-4.967976554876257604e-04
2.334449181031499846e-03
-2.488189511161634747e-03
4.297265531379347407e-03
3.445592339976207268e-03
1.377534000694598162e-03
-1.459535366951114545e-03
-1.648304477267128554e-03
-1.545942366791499753e-03
-1.978420149878867395e-03
1.197664026861958338e-02
6.991797400816293466e-03
8.162751224799593211e-03
-1.802811128809132064e-03
-5.394609796274599939e-03
-5.999629990270457028e-03
-6.158976442721100265e-03
-7.775161536159565581e-03
-1.038739797970898563e-04
-3.710886676882825877e-05
4.642024714408091515e-03
-2.359449769764367382e-04
-1.356323499318776854e-03
-5.946157599457805101e-04
-8.434071797041096767e-04
-1.470750451896985595e-03
2.751398356755111406e-04
1.178603093844441296e-04
3.930605208790240840e-04
1.648292563153151268e-04
1.889793081738993846e-04
-2.865929119673647535e-04
-3.384698393454260766e-05
-8.194293345262850274e-04
4.593455849966914428e-05
-4.991615246430841852e-06
5.614482519778615181e-04
-1.356717239741885375e-04
-1.013777787234689025e-04
-8.415234189805591769e-05
-7.480963037313939732e-05
-2.063797202622467877e-04
8.209980797862724263e-05
7.600962619752575492e-05
-3.208052507708163869e-05
-2.481995629488575804e-05
-1.944394229942594715e-05
-1.619151252672611541e-05
-1.434726078628454007e-05
-5.122623719174898294e-05
-3.389753639793024131e-04
8.144371124520472622e-05
7.073006253036591201e-04
1.301961535060226565e-04
-2.533425613686226426e-05
-1.766505955072056517e-04
-2.010516890351585434e-04
-1.769285853963516164e-04
5.364232949472764111e-04
1.402793743702199268e-03
-4.046101740164660763e-04
1.735432934632477771e-04
-3.186639910221990453e-04
-1.996642860283173010e-04
-3.249798218137911249e-05
-1.157323898864372072e-03
5.982967582233151942e-04
1.078566496995572287e-03
1.012820353849735316e-03
-4.667381432788146101e-04
-3.410491616456798130e-04
-2.871477243235793803e-04
-5.312671613685285461e-04
-1.063481418452021316e-03
7.153724538401910488e-04
8.402835725733698389e-04
6.127913506389322858e-04
-2.033946592994314261e-05
1.163387199485345282e-04
-3.305301924462899100e-04
-1.037359612100049750e-03
-8.965568265247235132e-04
-1.148489386941505490e-04
-2.611396320798646531e-04
1.233474044671364564e-04
7.071791319991597036e-04
4.242999884881688659e-05
-1.276313226099798121e-04
5.486895416676890530e-06
-3.748235373477949890e-04
-3.176901738483698116e-04
1.569225028930711172e-03
2.288298856016642957e-04
5.032033519775119422e-04
-1.048161071052018146e-03
-6.609529681221516968e-04
-1.007078298158250920e-03
7.326242446709453670e-04
-3.478922359568044516e-05
1.577084778508197334e-04
-4.037319073491132574e-05
-2.192279554011631785e-05
-1.438181960486613995e-05
-1.150665757102775284e-05
-1.023003396756518736e-05
-2.450475683665239167e-05
-1.409225724044509630e-04
1.076267674434922732e-03
-2.677453411249821084e-04
2.304872983027796986e-04
3.842815738462467142e-04
-3.075596661622554589e-04
-2.751175741699212591e-04
-6.996913927223326335e-04
6.710953030220365243e-04
5.682845497530972755e-04
4.400429576200170015e-04
-2.414108439437701004e-04
-3.811579112710788021e-04
-8.312578862366042174e-05
-2.586859611040045765e-04
-7.150423054526411967e-04
-5.786493056090048542e-05
4.669972954500478646e-04
2.393164748458878675e-04
6.194117272265293713e-04
-3.665252209844545767e-05
-2.191747937956538684e-04
-3.859949644667395229e-05
-9.734337546207997693e-04
-7.876054124590997846e-04
1.820401308647966046e-03
1.371389550668434881e-03
2.725695232688687855e-04
-2.162196365209904545e-04
-4.335740727087784982e-04
-3.218012930546925777e-04
-1.705159967841739406e-03
1.926201461240889664e-03
-1.173085659519665071e-04
-4.164628367647699799e-04
-3.031757462660366882e-04
-1.107446953082689709e-05
-3.991572551186705470e-05
-2.183022758800883033e-04
-8.199618413353334514e-04
2.531056891024547392e-03
1.013901512492424231e-02
7.366738718156291821e-05
-3.034142766715641369e-04
-2.097244471188243215e-03
-2.253435975495408222e-03
-2.449118531533981021e-03
-5.640526148241200438e-03
9.059458690265548980e-03
4.752906547703271943e-03
-6.908710648931565149e-04
-3.534971180524685511e-03
-3.075224794880898182e-03
-1.947835224694350340e-03
-2.096058528100738089e-03
-2.467404444874692071e-03
5.512787966377052061e-03
-4.124988626919394441e-03
-1.763088316025814570e-03
-2.956376193675358012e-03
-3.549241405343536802e-03
-2.287689750666435998e-03
-2.587284087780004210e-03
1.175588041403370643e-02
0.000000000000000000e+00
0.000000000000000000e+00
0.000000000000000000e+00
0.000000000000000000e+00
0.000000000000000000e+00
0.000000000000000000e+00
0.000000000000000000e+00
0.000000000000000000e+00
-6.147220832854743836e-04
2.100449787151577319e-03
5.435497694584069802e-04
-1.006844958980007395e-03
-2.993632372159878196e-04
-1.454898157082282987e-03
-1.419148173564100442e-03
2.150977053517899844e-03
-7.897138005837179100e-05
3.069181671897101469e-04
5.077951331097914041e-05
3.702609579733478064e-04
1.036060800851607358e-03
9.207295961304627423e-05
-6.470104265717002180e-04
-1.130110592308624599e-03
5.049629598083664331e-04
-7.648894026540611771e-04
7.828773158036089774e-05
-4.581128196837007914e-04
-7.503199609004893283e-04
-5.451839534528870376e-04
-6.905295412449417164e-04
2.625784986547388417e-03
8.902630385475900033e-04
5.636504879492547013e-03
1.187267720943528280e-03
1.039029526708951101e-03
-3.177799857623109063e-03
-2.211351877264598493e-03
-3.774231207371444522e-03
4.103177765667956724e-04
-5.632999005824343257e-04
-1.650266783059320787e-03
-9.361889956584483908e-04
4.889980034914856205e-05
-7.097391962605243548e-04
-1.307840915337149610e-03
5.635321078316112052e-04
4.554903882717173565e-03
-1.598684298238137918e-03
1.240659710142743514e-03
3.084405284408403645e-03
-5.728528360109950198e-04
-1.376681240385153882e-03
-7.538213347746476785e-04
-6.257193487861496513e-04
6.026940636439380742e-04
2.869027914289393882e-03
9.370340633595698699e-04
-1.927795660518940267e-03
-8.907530369941053577e-04
-4.681590088465541872e-04
-1.474661029314360558e-03
-2.740323040031312704e-03
3.695629798056372477e-03
-2.218090538547601298e-03
1.307718982997732506e-03
4.800765239915796671e-03
1.145717344333075163e-03
-5.705693511324658141e-04
-1.368833899305809147e-03
-4.083827752688770629e-03
9.871199744280333317e-04
3.650166077686053706e-04
2.520325714447059690e-04
-1.899362874907901179e-05
1.393720703632043241e-04
-3.949122693302274618e-05
6.789834125620325790e-04
-3.722042038546908888e-04
-1.004715602601772943e-03
-1.153578231771479118e-03
-8.699561404353177701e-05
3.004598884815666841e-04
4.304806807426728014e-04
1.195450894034531107e-05
3.706603958752974735e-04
3.836373904545136782e-05
8.865463272967439527e-05
7.239579865326123366e-04
-1.705328680240106960e-03
-9.986417007677192252e-04
-2.592866499861851861e-05
-6.994823892112775419e-04
-6.380402379987069883e-04
4.850231405561374293e-04
2.858440546127703676e-03
-5.689039067946523309e-04
-1.759529566496880783e-03
-1.233220007489403615e-04
-1.170079226906093689e-04
-2.754433227245126870e-06
1.160047889172131745e-03
1.667435727171377654e-05
1.394795583514429156e-03
-9.870885282714926372e-04
2.077343767380870811e-03
5.277148901412637274e-05
1.797035866962949234e-04
4.680977383579049556e-05
-7.201612301163329765e-04
-3.577939230647374604e-04
-2.915849354745012533e-04
-3.509711791027032607e-04
6.792949840593046290e-04
7.762084648639396521e-05
-2.030842746809615655e-04
-4.149102492327959649e-04
-1.745962781931273140e-04
-5.341730824777628835e-04
9.208192331416498871e-04
7.628304924900574020e-05
1.064685008871086051e-03
-6.364253237455065105e-05
1.829684540949139745e-04
-5.017455760146845734e-04
-5.372854345655788105e-04
-7.115935422203624157e-04
4.903305729601618217e-04
1.948633135958919432e-03
-1.841716642545635158e-03
-1.884904570671190605e-03
-7.100252081297107106e-04
2.351689685136705576e-04
1.029866969264497164e-03
2.008841732899738111e-04
1.022093174319491527e-03
-1.883583919562055497e-03
5.774945042778909833e-03
1.148475339179368983e-03
-1.529855048026199874e-03
-8.947552137265678100e-04
-1.552294100590342332e-03
-1.399484191861798035e-03
3.365520918086472722e-04
-4.937330344396054400e-03
2.412916846152092162e-03
2.296086701452655209e-03
1.029813188338581358e-03
1.925396278101927563e-04
-6.451882552328874407e-04
-5.752853311523660864e-04
2.264475670277799632e-04
8.908654384236187147e-05
1.514835659480369585e-03
-2.149477657614401634e-03
-1.757561823487395394e-03
-6.075701908618640588e-04
-1.828213864773370508e-03
-2.226992579142346614e-03
6.965893912556512906e-03
-1.161425334010729449e-03
3.500825138033044574e-03
3.555594957217061286e-03
-3.174894742828403326e-04
-2.012318240298279458e-03
-1.408890667005648512e-03
-2.992455207480846074e-03
8.361588278285171476e-04
1.086376690560188359e-04
2.009448637016793423e-04
1.829233573247069158e-04
4.131305628098896725e-04
7.901749286796229627e-05
-3.117241555627510343e-04
3.854951527999532810e-05
-7.114793054775059170e-04
3.445998251070275819e-04
-7.813967997276444156e-04
-1.576571684499820838e-04
-3.083465796652125096e-04
3.500495269387472025e-04
-3.563829966719494840e-05
-2.817568927814989338e-04
8.701463882457739904e-04
4.382010823632433291e-04
2.523340934817620666e-03
8.328583822748111039e-04
-5.902183926931564139e-04
-6.727410809112867058e-04
-6.399524519446695694e-04
-6.732650352507438783e-04
-1.218223438655817014e-03
1.101380732365165368e-03
6.438920516333752767e-04
1.822590663278448025e-03
-1.619659893086415441e-03
-6.305791753671004338e-04
-6.629708879727992709e-04
-7.699481018359477773e-04
1.152946109852448172e-04
-4.445643719523723579e-03
6.256229600518094756e-04
2.651952978513690169e-03
-4.384717574262663028e-04
-1.722398116954129796e-04
1.207578830231542536e-03
-9.889156016068822996e-04
1.560116121455146134e-03
-7.268457526353506873e-04
1.236426399374842221e-04
2.570393346785632138e-03
1.232722520214790251e-04
-1.625894955320022160e-04
-4.288553057138942627e-04
-4.516135335305248959e-04
-1.047404151332818716e-03
-3.602501874822128074e-04
-1.017486446244095233e-03
-1.382150710038375385e-04
6.956857946970854047e-04
3.621625936708346800e-04
3.285729619087743238e-04
3.806448682413237771e-05
9.146586762934378332e-05
1.864040808921024913e-04
-9.260568073682297514e-05
-1.300664468224200514e-05
6.452043242317484896e-05
5.745221725283469142e-05
1.054207430888295542e-04
-8.483178425430192287e-05
-2.233533639835741304e-04
-1.078477708710089958e-03
2.299844853197924744e-03
-1.658416632746751058e-04
3.723494470236852756e-04
-1.495653834029145551e-04
-5.998365874575169117e-05
-4.448320919588199932e-04
-7.734937941293105849e-04
-2.039231897754438733e-04
6.214718639219014244e-04
4.137143483921819961e-04
-3.440411668633827657e-04
2.639300970721404757e-04
-3.595437620417983663e-05
-1.819718964508722030e-04
-5.332256800923431371e-04
1.644614509175518560e-03
1.676387944000678944e-03
-6.706719482658690017e-04
-1.131887149511783637e-03
-1.131497187496316675e-04
-5.637075373926737519e-04
-9.069789654310881711e-04
6.539286617486348297e-05
6.062531156276770947e-04
-5.391307423821397812e-04
3.835479965627650902e-03
2.221728061019131659e-04
-5.592231970312221438e-04
-7.147775798966375356e-04
-7.909862134405406652e-04
-2.059788154606721419e-03
-1.999736932929049773e-03
-5.812168227728616959e-05
1.449529470838580546e-03
3.423149233519112906e-04
3.611247193586278889e-04
-2.439872972564365407e-04
-4.293659996488805660e-04
5.782427985625025529e-04
-1.408192909802459287e-04
7.741066398294605636e-04
-2.070817418869894686e-04
-1.189212506263167331e-04
-4.062640603578761256e-04
-1.923341739989870922e-05
-1.500179054179655205e-04
2.682310268398172752e-04
1.078750041697252486e-03
2.202887449062990513e-03
2.998574767164448557e-04
-6.120166394879177551e-04
-7.378341396030908437e-04
-6.305995767306504579e-04
-5.910037557308502878e-04
-1.010040855924137365e-03
-1.054281574688667759e-03
-1.402020468250138882e-03
-1.283291899245760743e-03
-7.600032739115670198e-04
-5.551024649566218411e-04
8.318532465332857759e-05
1.306546352233715295e-04
4.840859721176064487e-03
-3.400383834221938368e-03
4.039470793930085603e-03
3.359752576666440865e-03
-2.906146090075421699e-04
-7.863885724713946769e-04
-1.831399948056491866e-03
-5.903056801573103090e-04
-5.001307266817956810e-04
-1.038945597758004005e-03
5.715711004334429572e-03
1.000750576924622128e-03
6.437337633658016256e-04
-5.833253738248182036e-04
-9.571203552851948165e-04
-6.753425607652910811e-04
-4.105461456991563868e-03
-5.149543534716395209e-04
8.939395810323067006e-06
3.091713450348475473e-04
2.104674475979442393e-04
5.646733398160189848e-04
1.305561282066457476e-05
-4.184016106830534365e-04
-1.729511769251030587e-04
9.764388409895837634e-05
5.910521693540074940e-04
2.866057190194240220e-04
-5.802045632847861549e-05
1.095869903010499214e-05
-7.539838452840209274e-05
-3.102079435481359464e-06
-8.497395512101238403e-04
2.323494505259799471e-05
-2.539018676194021657e-04
8.578362697129688957e-05
1.615623558110657195e-04
4.387188472448759241e-04
3.888015180030306807e-05
-4.958986738656457396e-05
-4.446881918741732291e-04
-2.711748481711386319e-04
1.736131138048661177e-03
2.386867001118055717e-03
1.160213447390062063e-03
-1.570227800818814034e-03
-7.014208559180974819e-04
-1.617538883197930334e-03
-1.122849198450821297e-03
-4.387908033792314719e-05
-5.846066692661359797e-05
5.619124300358802065e-05
7.132675549174750484e-05
-2.783107268025280230e-05
-2.330960654966997714e-05
-2.074743652583094442e-05
4.670986452495478090e-05
-7.190252443784282818e-04
2.783709927614003935e-03
5.632893970416652995e-04
5.925620450883810906e-04
-1.030760271118973088e-04
-6.707377215090682288e-04
-1.325925911873145936e-03
-1.120796464871507683e-03
-4.853219607114267367e-04
4.478493557531383097e-03
1.618387698302123368e-03
-2.439426410644266981e-04
-1.306317256594968562e-03
-2.859949016109277625e-03
-1.973676758014816443e-03
7.723263766615441226e-04
-9.633082242833485801e-04
-1.647128917127804563e-03
-1.466071706147765909e-03
-7.439726227082986334e-04
-3.967242852074769305e-04
-5.748555396774778208e-05
6.452440684741376631e-06
5.268238868757725221e-03
-2.045689894061328664e-04
3.954630327742626110e-04
3.027283416730731274e-04
-1.786290383564716720e-04
1.896643403851660495e-04
-1.124562196691440084e-04
-9.970884005230223055e-05
-2.924926273484494384e-04
-1.313485510718374850e-04
2.375467279412552804e-04
2.549241029203511296e-04
1.190606711739284349e-04
-4.767510638037542888e-05
-1.311465788241330816e-04
-8.403365779348529005e-06
-2.929578999798385856e-04
7.751762870774098375e-04
1.567171527962932720e-03
1.684271925082811991e-03
-1.147161841486847491e-03
-9.136038030603041557e-04
2.570254454493964714e-04
-5.553028844543019286e-04
-1.667576656571057763e-03
-6.610016823262733997e-05
7.491652333764866343e-04
8.231389770087940770e-05
-2.667554336569837796e-04
6.054035103341576815e-05
-2.121230149986927057e-04
3.235275979841779025e-05
-3.793936250208947451e-04
6.799398472441801238e-05
-8.429065000280579233e-05
5.570993401828616031e-05
2.160318704137919243e-04
-7.650914339753097325e-05
-6.178701491154732159e-05
-5.377357749893505400e-05
-6.337540334567754537e-05
-9.056240584191508659e-04
-1.033932968557694761e-03
-9.144383352167210826e-04
-6.134026220138453578e-04
-7.320212353076365657e-05
-1.438963336892331115e-04
3.015993752401464607e-04
3.382897066187233806e-03
1.797583983427267305e-03
1.198239649944534638e-03
1.702074325024150857e-03
-4.734499582497072581e-04
-8.506694242180594129e-04
-6.687691955724804583e-04
-7.370209470721081433e-04
-1.967988433283612924e-03
-5.502321517323590988e-04
-5.511803245463714582e-05
-4.707938773184352967e-04
2.335618010261739075e-04
-3.555504854436821962e-05
1.237493106205799477e-05
-3.457670613337530431e-04
1.211529439295328447e-03
-8.017015823981548089e-04
-4.481889480467790739e-04
-2.894666006497826206e-04
1.981135964663538257e-04
-3.258012872505077428e-04
-3.115130754138755809e-04
2.269236664353898876e-04
1.751634230857324320e-03
-1.707297231711135286e-03
-1.545131365063849094e-03
4.602360448006789979e-04
3.413780667807460312e-03
-2.886044516844213956e-04
-1.868533825508679773e-03
-7.948203891389075222e-04
2.330370550498795431e-03
1.767023385000927134e-03
5.768299177761255538e-04
1.468672378477399237e-03
1.140791875473221202e-03
-1.808786895406216564e-03
-3.467992189346264073e-04
-3.174809403731732298e-03
3.770779613448605643e-04
-2.802508584347319226e-03
-4.116446607264073613e-04
2.724469636682896271e-03
3.524882010803292737e-03
4.904640966995099704e-04
-5.462200481407611646e-04
-1.992107258334035113e-04
-2.780231725137788552e-03
5.162396639048184681e-03
1.263448307293161535e-03
2.012774024301758682e-03
-2.350521518249840125e-03
-1.343384538915537397e-03
-1.724884538919717759e-03
-1.722705057157668078e-03
-1.297123317400389894e-03
-1.654329504369771598e-03
-1.182147255552884555e-03
1.031059128758180518e-03
2.342599983060253323e-03
5.656174494165415543e-04
-2.504030798127602499e-04
-3.995793285490954316e-04
-4.528173929504586285e-04
2.151123043684573331e-03
-3.110679448849535864e-04
2.389695055119277472e-03
1.409399052081185483e-03
-1.158043518704256723e-03
-3.219580953600079316e-04
-6.952984570478174626e-04
-3.463849134887972501e-03
-4.702516891939522684e-04
-1.049196641318905386e-03
3.073287697477935501e-04
8.260941574891744613e-04
3.515633425936385659e-04
-1.039492187646921589e-03
2.166956117885276186e-04
8.572586365406490317e-04
-6.676969029517103218e-04
2.034405664987610531e-03
3.663108956467109388e-04
-5.959772169566499413e-04
4.467650364442541993e-04
-5.727322617159773992e-04
-7.613547827248959678e-04
-2.497204327293141746e-04
-9.933159828516054807e-04
1.082112614474239377e-03
2.672062011795461531e-03
9.940913858851159414e-05
3.643828988016159336e-04
-7.372769810906272840e-04
-3.221452826015846842e-04
-2.165228417116024390e-03
-1.056575783622777046e-03
-2.553957538946265799e-04
5.453808520025486307e-04
-7.619965850598137743e-04
-4.098674672845457044e-04
-2.183121578444495928e-07
-2.455463099393955157e-04
2.184219359956487624e-03
1.930990181187296987e-03
-3.795459993934826963e-04
-1.823904803592649724e-04
8.716652415818267920e-04
1.282446681938916163e-04
-1.002117100690757965e-04
-2.583275524884536228e-04
-2.010424348652771823e-03
-2.961307297063529447e-05
-6.644059987585354760e-05
5.700530158367360281e-05
2.108894301748608677e-04
2.543730732347512021e-05
-6.728556819605795679e-05
4.923636505772234023e-05
-1.792291630971853760e-04
1.150891685014907668e-03
1.647000652295798565e-03
1.074207590109823836e-03
-5.734400849685469944e-04
9.235548498090424049e-04
-7.400115408302734149e-04
-1.025486034745717086e-03
-2.456717116684997790e-03
1.592431323303131717e-03
2.405391985447413120e-03
2.596360957169504169e-04
-1.170020341236654434e-04
1.745480575492499053e-06
-5.719448143077473286e-04
-9.088199821226905202e-04
-2.661438054488856481e-03
-6.194176332469762680e-04
5.913205808411702968e-04
2.983233579109728119e-03
3.257568754537036333e-04
1.099194118121219138e-03
-2.716024319288261129e-04
-8.434146280629583161e-04
-3.265070460287141860e-03
2.941459124872224540e-03
3.920708366091562626e-03
3.411123631140274221e-04
2.079967520093414790e-03
-1.334889796869508658e-03
-2.064959342390695982e-03
-1.378406082889277462e-03
-4.504992152021681032e-03
-1.222761939732573168e-03
-1.513622732946445565e-03
-1.432137083471860277e-03
-8.603924450331626363e-04
-8.240167650315070088e-04
-6.983727643910792428e-04
-9.653378027777650570e-05
6.647837510884423498e-03
-6.162088333920352117e-04
-6.126304901336861002e-04
2.846006511048432513e-04
5.132881364478743573e-04
-1.654028728361832802e-04
6.719854156649311292e-04
-4.233061618597534943e-04
3.476741550040133330e-04
5.734205751546781653e-04
1.766945791286357635e-03
3.097032444593758940e-03
-8.200569237946461363e-04
-9.244172878490461084e-04
-1.138912122048115708e-03
-7.081312762939123099e-04
-1.845881201049064070e-03
-2.121140556643604999e-03
-2.368887533115397823e-03
-1.149612586145559766e-03
9.629729826427067471e-03
2.536544113963598926e-03
-1.824441452535332554e-03
-2.961576512057258626e-03
-1.740615299893532144e-03
-2.555269389395408049e-03
-3.747564777734430346e-03
-2.428535187480188821e-03
3.036975302532712124e-04
-4.467070602902965359e-04
-8.907730890081123811e-04
5.949927402009836075e-05
9.705652699634964922e-03
6.781454218885443969e-04
2.529730506547584693e-03
2.077133308003686028e-03
-5.976286784513567450e-05
-1.350275406861131764e-03
-1.666040192184740270e-03
-3.859774838513816168e-04
-1.822953285697419918e-03
-2.299622267628137723e-04
1.030954288663997595e-03
9.381129175835569399e-04
1.071698385782842355e-03
-1.743567530629452499e-04
-1.874963885361463395e-04
-1.448854368507186208e-03
-1.000095855161278269e-03
-1.427682067248939052e-03
3.330455314281979742e-03
-9.812261473968173810e-04
3.027199826139353816e-04
-1.005040661532529073e-03
-1.136198455623392903e-03
-8.980794519423623097e-04
1.815051486848151671e-03
-3.541847762003847919e-04
-4.891153446001054311e-04
-3.042728282627341313e-04
-2.940374096281678424e-04
-1.619692143100205767e-05
-9.394647790320627791e-05
-8.264592776802752948e-05
1.634399685793627537e-03
-3.763829923323079238e-03
-7.182094118146000773e-03
-1.239955602408494882e-03
-2.698640116756426122e-03
1.455283387572402427e-04
-1.272978533531909972e-03
-1.086448342775541516e-03
1.709841829818436673e-02
-3.631072396383054472e-05
-6.346452208293646476e-04
2.602547408419944325e-04
2.565049200680963727e-04
-3.198903828357201854e-04
2.354895290874469446e-04
2.954218570001279566e-04
-5.682471936873994753e-05
2.135345610639075248e-04
-3.724160010799316967e-05
-7.192873427689414989e-05
-2.439978540182669410e-04
2.765586959969341756e-04
2.122279791848168064e-04
-8.761220677034783336e-05
-2.615408410721542444e-04
-1.859067801606286612e-03
3.921145729085240977e-03
2.590106109988031275e-03
2.150831646773096201e-03
-1.731470542625288597e-03
-4.008889986952382523e-03
-2.913014343067068905e-03
1.850359188404682251e-03
4.229791386491988693e-03
-1.927712990833339466e-03
-3.532223940890735249e-03
-1.367897270614134480e-03
-1.254879252472551523e-03
-9.426376349566818183e-04
-1.166348866322193881e-03
5.961908569597540279e-03
1.217789761613335964e-02
5.689499003895581546e-03
-3.520466248893310349e-03
-3.609950389651395142e-03
1.359128084581629056e-04
-3.106958090188833340e-03
-4.678956430696491232e-03
-3.086978269057129212e-03
1.414533379083599864e-02
1.836325467878904437e-05
1.473836348482159648e-03
-3.349887464888847213e-03
-2.649754190433562841e-03
-2.877595634668510174e-03
-3.703483983408404224e-03
-3.056812120597793368e-03
-9.462194653176325037e-04
-1.237497953180795741e-03
-1.340016218525892557e-03
-6.602679395317710394e-04
-8.262518821243817471e-04
-5.722174513343869376e-04
-4.915475125901179769e-04
6.074018422604941965e-03
-1.875305022848828803e-03
-4.277448925098013377e-04
1.585455573413152835e-03
1.087121147873245037e-03
-4.658146228572078635e-04
-3.094690204665504797e-05
-1.109593639323174207e-04
2.381940829084621628e-04
1.156160179400911027e-04
7.168773974382102593e-04
1.243241269263357669e-03
-9.152322428292364092e-04
-4.474084895122604211e-04
-8.887623042781463796e-04
-5.984669798102059237e-04
7.741353317882150803e-04
-1.791302142671575550e-03
-3.183374523887987344e-03
-1.329338099667817406e-03
1.421126882449779468e-03
-7.259670871179433628e-05
-1.059968253409586148e-04
-1.973155441934334163e-04
5.258796962023850816e-03
-1.720819030575425172e-03
1.851979735815734206e-03
3.630616686903942718e-03
-5.137512685030599631e-04
-1.041604941904899356e-03
-8.966710409027320555e-05
-7.778267630456757063e-04
-1.338927314600377606e-03
-8.329022432086428430e-04
-2.054434472698124514e-03
1.452783172795252742e-03
1.734703732036345044e-04
5.012355360693854364e-04
2.152551572279647225e-04
2.658611318852470754e-05
5.180063634220230528e-04
-3.087017453176214062e-03
-3.160449089677554082e-03
-1.277084441477837956e-03
-8.898876527668797608e-05
1.596651521434296062e-03
9.568427786124710042e-04
2.011730428482787106e-04
4.858872406713256147e-03
1.716377633959277485e-03
-2.929963962882441153e-03
-3.952500038520206406e-03
-2.164421759316806186e-03
-1.107172523776613678e-03
-8.766361195519164356e-05
-6.571914951938527235e-04
9.182535757685933442e-03
-6.656218458855563992e-03
1.720650465181838493e-02
6.948509626616792591e-03
-1.392974928797997662e-03
-3.217244852790953052e-03
-4.500318515486212423e-03
-4.618461347259893504e-03
-3.769796175244642319e-03
1.404072180145989404e-03
2.257706099727177420e-03
3.886898673938812051e-03
-1.798998505185697748e-03
-8.567722575815391083e-04
-2.870394178771423950e-03
-9.805128940282917260e-04
-1.041999118244974409e-03
-2.239905020007476513e-03
-2.319321057339891138e-03
1.938887482132445762e-03
1.123344157872200200e-03
3.008093690238875374e-04
-5.657824397608660939e-04
2.390279025213162879e-05
1.738064717827569623e-03
-1.362860915978043007e-03
-1.251183906233366240e-03
-1.534729735561783008e-03
-1.691101506693406501e-04
-6.405906171246565162e-04
1.145876549064812650e-04
2.831738812036602875e-04
4.560713789457007672e-03
6.986477697492844349e-03
1.456210246192921618e-03
-4.372709365183699063e-06
-1.616397146916631090e-03
-1.303500553365961314e-03
-1.328335274908942331e-03
-8.271874788442375431e-04
-3.362894780284888738e-03
6.425259635305321810e-04
-3.507993981856178875e-04
8.041463437035908110e-04
-4.412347107702933543e-04
-4.344022068520871820e-04
-1.192271664411607068e-03
-1.381152789475594131e-03
2.353188462461115824e-03
-2.985010007496736485e-03
-1.550702659074130226e-04
1.807577076764762885e-04
2.493933420713293674e-04
4.527312142709235811e-05
2.587233224525636680e-06
-8.589857457068640319e-04
3.521054614711628845e-03
-1.994525968518910501e-03
-2.586788393475454063e-03
-1.743976807547105521e-03
1.536415948870608998e-03
-8.735123215659719919e-04
-1.182003420331051045e-03
1.435175531915558922e-04
6.700873409376230383e-03
4.563292739912168036e-03
-4.657229287383160381e-03
-6.438274258150292716e-03
-1.616204947563193266e-03
-1.910663637543612032e-03
-1.260862430192898195e-03
-2.205801076163669411e-03
1.352574289708477831e-02
-3.429435785200249213e-03
3.636984455435976048e-03
3.147686886503024434e-03
1.580486981901537108e-04
-3.216552549959264019e-04
-1.960399710306867400e-03
-1.827760970787614897e-03
5.965316811615135580e-04
7.554508452055744110e-03
-5.227795154272128634e-04
-1.298208318421349098e-03
-7.301547920379967960e-05
-1.892901363280981471e-03
-1.395032424295058115e-03
-2.097286034155329028e-03
-2.752853172720214309e-04
-1.245063452503041143e-03
3.772780254326820772e-03
6.031437842085213795e-03
2.334161452587034218e-03
-9.471539318642271162e-04
-2.084076301233987651e-03
-1.420034730166416619e-03
-6.442051133231513349e-03
1.432827454656953985e-02
2.433990583854701590e-03
-5.172022594263452327e-04
-1.654604360276837446e-04
-2.833533981000963247e-03
-2.895991891794718470e-03
-3.303604597901087497e-03
-7.046471964273455686e-03
-2.021801299257132249e-03
-3.421458679787764759e-03
-1.133880545241687608e-03
8.502010711824492311e-04
1.038666882640799580e-03
8.477348819357492012e-04
-1.380014734496404390e-03
5.220552423024132915e-03
2.599104608572739596e-03
-3.975042142499641239e-03
-1.797165485522804126e-03
-8.455754540052236009e-04
-1.629801683500860840e-04
8.427343862871698255e-04
-1.437945784579656766e-04
3.482718833975820792e-03
1.372756301002091023e-03
1.088777568567745983e-02
-1.645608992395801830e-03
-4.445176087809307036e-03
-1.298493319320063403e-03
-4.307484373914157762e-03
-4.948057374040501326e-03
4.384288160800161455e-03
4.023379759356926727e-04
-9.475392747228432249e-05
-4.715178768929253160e-05
-9.050717514195079371e-05
-6.286482469236137063e-05
5.643824651953003360e-05
-4.738729970754620090e-05
-1.161112077517889845e-04
2.295029201904634584e-04
1.133523860164533130e-03
2.532004317019825347e-03
-1.576993693435121014e-03
-1.225690353560950898e-03
-1.998138018147809641e-03
-2.712433466754567927e-03
3.618224434523538858e-03
-1.088721221349380652e-04
-1.317860944881962674e-04
-1.200145466964601761e-04
-9.377536521630122786e-05
-7.663175185652924338e-05
-6.813284230644650586e-05
4.557358464740913817e-05
5.536391380514644415e-04
-3.027486341100130152e-03
7.224744205361862022e-03
1.424799848753323514e-03
1.873474126201357280e-03
-1.319471131598910817e-03
-2.940620055437109456e-03
-4.836464112706793071e-03
1.601023460526339965e-03
-7.657194733952329448e-04
1.180748807127726761e-03
-1.001201070295712351e-03
1.270909975543082484e-03
-7.657905351514809021e-03
-8.604140696131948665e-03
-7.634787680303964721e-03
2.321209548897095951e-02
-1.177605572841133657e-03
-2.283361931487629896e-03
-9.678201008894112597e-05
-1.657819892491992574e-04
-2.315131312182739081e-03
-1.750314384109649462e-03
-6.648806003601783095e-04
8.453857800319415292e-03
-4.170657823696965159e-03
3.663172280701599355e-04
3.259222645539952643e-03
-3.452726028446928227e-04
1.534531805656814052e-03
1.233593795198523625e-04
-1.231200626118933612e-03
4.636999938738403030e-04
5.048593447940742315e-03
-3.333753905567365407e-04
1.606088862901682924e-03
-2.772427104701587729e-03
-2.037773698196996414e-03
-2.118301278031615043e-03
-1.614580804409631361e-03
2.221775965054366767e-03
7.830961683514789037e-03
1.067904077749799209e-02
6.106897745264866333e-03
-4.255268987651793233e-03
-2.826333973454672657e-03
-6.180155921470031899e-03
-6.798115718016365522e-03
-4.557025605684901677e-03
9.378796119820227532e-04
1.883572823091280704e-03
1.388356449980026643e-03
-1.043275590797412486e-03
-1.501668232613324926e-03
-4.321069455204375252e-04
-9.049808734207693021e-04
-3.277772427014264095e-04
-8.588639295686711569e-03
6.373575368980621478e-03
7.486509729059800944e-03
-7.788410832537087831e-04
-2.038659789983309194e-03
-1.558846635500863104e-03
-1.103643662541280157e-03
2.085453689252971074e-04
6.886101087556670622e-03
-1.136970605325252114e-03
-3.349102898146999983e-03
1.816557203299677768e-03
-1.139933333408159463e-03
-2.990429320236455586e-03
-9.179349238801389746e-04
8.317127901407141101e-04
-3.367535492891883184e-03
6.823150475788064160e-04
5.743488530464226950e-03
-6.724799577448692216e-04
-1.636968066341147133e-03
9.891126666793270586e-05
-7.992405247632382867e-04
-4.849080296967423658e-05
-1.264232296004837457e-04
2.526613003995052372e-04
7.287509403901432385e-06
6.820581094270256354e-04
9.717749642722966780e-05
3.498685262610762531e-04
-4.343028209632357776e-04
-8.283268913550217993e-04
-2.489212488451615288e-03
6.400263289405203580e-03
1.576529452119517080e-03
2.670445368858168425e-03
1.165514027352281174e-04
-1.574207372787467989e-03
-1.900245934318805759e-03
-4.800123717560191711e-03
-1.887991505429200279e-04
1.624540919238452448e-04
-1.247139163427223604e-04
-5.880949295886382541e-05
2.964809313283496529e-05
-4.250145693712748391e-05
-1.343944064462038158e-04
3.571162381711585638e-04
0.000000000000000000e+00
0.000000000000000000e+00
0.000000000000000000e+00
0.000000000000000000e+00
0.000000000000000000e+00
0.000000000000000000e+00
0.000000000000000000e+00
0.000000000000000000e+00
5.403047117537510121e-04
7.822689443003331576e-04
5.275776761143296644e-04
6.870807929127373823e-04
-3.921673585558575455e-04
-5.701953463335663295e-04
-3.864789971345148722e-04
-1.188390423057207644e-03
-8.340199172935213855e-04
-1.817030090651925930e-03
-1.001653234473445352e-03
-7.085421477650835284e-04
6.274657627956763519e-04
6.064137923655889230e-04
4.385330256116405320e-04
2.688832809411081503e-03
7.633585171593042099e-04
1.332872985202958414e-03
3.323919261515460161e-03
2.374918520627950153e-04
-1.182156760015807412e-03
2.434841862365589996e-04
-1.672222677088231520e-03
-3.046747365072969508e-03
4.830718003842805102e-04
2.701023882710896443e-03
3.104882889894272093e-04
3.412072394248385717e-04
-1.619142145874459494e-03
-1.133559397215280328e-03
-6.994655437583575941e-04
-3.836241246613497093e-04
-1.376900160001706674e-03
1.665178037646179374e-03
6.062668257869746613e-04
-8.298480811951296134e-06
1.660142977522305861e-04
3.820146511435681741e-04
-9.972659746237287008e-05
-1.334548574052902073e-03
-8.149376585209087899e-05
1.407910325255154688e-03
-6.242020523016462204e-04
2.691270709354545793e-05
-2.040698127584718801e-04
1.954664331749930695e-04
4.539753508617384967e-04
-1.174499185473239053e-03
-3.683522010424322810e-04
2.267516865317874882e-03
2.244587568886451275e-04
-2.133074264980981867e-04
-3.626033397324684190e-04
-1.293594755696815415e-04
-4.957339896092172096e-04
-9.226191897546211522e-04
-5.748392406717034355e-04
-7.559410201902418310e-04
-2.019339993415283181e-04
-1.268192665057560147e-04
2.373856120908890194e-04
8.380974079876021398e-04
2.179068548371034171e-04
3.661436517936380317e-04
-9.137161042695408821e-04
-1.088208610633745242e-04
2.698091115591966997e-04
7.320518145296740168e-04
5.683992389601222285e-04
5.473642356077394267e-04
-5.279635946797828477e-04
-5.671238406440398368e-04
9.217250506829575073e-05
-2.212253282924161776e-05
-1.907437899039308521e-05
-1.265652778628398184e-05
-8.856852887706844493e-06
-7.164934401813801687e-06
-6.182310979758598678e-06
-1.611496719309774567e-05
-5.399480925019050628e-04
-6.017783932935375727e-04
-8.569117673862074441e-05
6.497432154093135855e-04
4.928997162556037490e-04
-8.458382243388085856e-05
-4.913577206402688994e-05
2.184943253670573922e-04
9.386860481021442205e-04
1.880431847739284052e-03
-2.843911787772765605e-04
6.127141113684569798e-04
-2.259967722383988064e-04
-1.171368867009674230e-03
-9.257094905005036406e-04
-8.243656986840306334e-04
-4.476121857438034317e-04
-1.662090033509154184e-03
-7.751024183598634147e-04
7.193557282353745907e-05
-3.016517038868345092e-04
1.162103360496597902e-03
-5.250801688862506678e-05
2.004925425068135487e-03
-4.054484098831228429e-05
5.985016886892887376e-04
4.719506269878368724e-04
2.793231545062757159e-04
-1.724233555119777657e-04
-1.947264637910147539e-04
-2.588824910445192205e-04
-6.831983188475843896e-04
-5.708271126313687379e-04
6.948835031621324911e-04
6.762648760076521480e-04
-7.291713392037192870e-04
9.604989223509710497e-04
-6.154453737354827203e-04
2.244976217738416308e-04
-6.407010977240209636e-04
2.050228261461837338e-04
-1.022084762452368095e-03
3.185051647663531362e-04
6.458486965072318545e-04
7.570525069056594034e-04
-1.761984992452854620e-04
-9.597281748108907763e-04
2.315822421831243100e-04
8.867727539372372665e-04
8.964810782170908694e-04
1.628799416383406557e-05
-2.306125527548998967e-04
-1.570530416933677139e-04
-3.553628788890068370e-04
9.161247915163082381e-05
-1.148125832132528088e-03
-4.266368395683454951e-06
6.565188786268437307e-05
9.159678399628504207e-05
2.351600776995763380e-05
-6.286798223583716012e-05
-5.297167955077312028e-05
6.066011685360651510e-05
-1.213187663002398490e-04
-4.207185864399913414e-05
1.234527688992854652e-04
-7.206612294770964138e-05
9.067126137719885577e-05
2.305092988884362972e-04
-7.860997743884236754e-05
-6.994150639545947373e-05
-1.819438637389096626e-04
1.356559345360670942e-05
-6.418670499314290941e-05
-1.684568187614426181e-05
-4.980708211879200387e-05
1.006098669207592717e-04
-9.595341455977371057e-05
2.261159842709237907e-05
9.000582474639506924e-05
-1.180240333897709113e-03
-1.696011651050843101e-03
7.531138263253366310e-04
9.362105423993189910e-05
3.581262359552981668e-04
-2.383951179972833550e-04
-5.945782509535749898e-04
2.504364237378841219e-03
-1.460409371980385049e-03
3.785465437974849974e-03
4.933151522446110882e-03
2.584007327856822781e-04
2.774951452434450908e-04
-6.994547973431682313e-04
-2.320450330869227792e-03
-4.774198338257289696e-03
1.925773062161933351e-03
2.345188550668938186e-03
2.780800514908210409e-04
-4.018543821353341640e-04
-7.498976924298685629e-04
-6.475640335509073820e-04
-9.273725587505883159e-04
-1.822352997455000279e-03
5.413236997003609101e-03
8.346522309936189443e-04
-2.473398926783615479e-03
-7.138924668598925841e-04
-1.140936141962265457e-03
-1.783868524558079567e-03
-1.200051614574562837e-03
1.064258446741192868e-03
4.927353263907279478e-03
1.813731384835773992e-03
1.635787801143894805e-03
-1.161298924418537873e-03
-9.248011703324145660e-04
-2.388906037628744840e-03
-1.670657732994913118e-03
-2.231208584512286812e-03
-2.344915893088574815e-03
-3.587771329497085881e-03
-8.364101191273662795e-04
3.841932434993911277e-04
1.144994275602062095e-03
-1.290543745167592460e-03
8.305949550098269804e-05
6.447394072278288778e-03
5.603023320308988045e-04
3.205376761442016442e-03
2.521085056817963695e-03
2.835231053445908412e-04
-4.635462782409748126e-04
-1.309259841463548697e-03
-1.827854412781633377e-03
-2.969626723149275654e-03
-1.078475174244957402e-03
-1.649134949941887321e-03
-5.124299824250121193e-04
9.923707102495590501e-04
1.144443821694835850e-03
-7.344259508764249380e-04
-4.967976554876257604e-04
2.334449181031499846e-03
-1.907259417536347418e-03
5.646374519607468175e-03
2.031218676847708956e-03
1.550392776392026887e-03
-2.198295195324000313e-03
-1.906543497843085242e-03
-1.302080472811263396e-03
-1.913807389332646642e-03
1.767023385000927134e-03
5.768299177761255538e-04
1.468672378477399237e-03
1.140791875473221202e-03
-1.808786895406216564e-03
-3.467992189346264073e-04
-3.174809403731732298e-03
3.770779613448605643e-04
-1.038739797970898563e-04
-3.710886676882825877e-05
4.642024714408091515e-03
-2.359449769764367382e-04
-1.356323499318776854e-03
-5.946157599457805101e-04
-8.434071797041096767e-04
-1.470750451896985595e-03
2.751398356755111406e-04
1.178603093844441296e-04
3.930605208790240840e-04
1.648292563153151268e-04
1.889793081738993846e-04
-2.865929119673647535e-04
-3.384698393454260766e-05
-8.194293345262850274e-04
-5.809300936252733425e-04
-1.349108988228148306e-03
1.414373663128518479e-03
-1.728587756974031108e-04
7.387598283728732994e-04
2.582390205759283364e-04
-2.438618939802291742e-04
-6.461276054625617895e-05
4.593455849966914428e-05
-4.991615246430841852e-06
5.614482519778615181e-04
-1.356717239741885375e-04
-1.013777787234689025e-04
-8.415234189805591769e-05
-7.480963037313939732e-05
-2.063797202622467877e-04
8.209980797862724263e-05
7.600962619752575492e-05
-3.208052507708163869e-05
-2.481995629488575804e-05
-1.944394229942594715e-05
-1.619151252672611541e-05
-1.434726078628454007e-05
-5.122623719174898294e-05
-3.389753639793024131e-04
8.144371124520472622e-05
7.073006253036591201e-04
1.301961535060226565e-04
-2.533425613686226426e-05
-1.766505955072056517e-04
-2.010516890351585434e-04
-1.769285853963516164e-04
5.364232949472764111e-04
1.402793743702199268e-03
-4.046101740164660763e-04
1.735432934632477771e-04
-3.186639910221990453e-04
-1.996642860283173010e-04
-3.249798218137911249e-05
-1.157323898864372072e-03
5.982967582233151942e-04
1.078566496995572287e-03
1.012820353849735316e-03
-4.667381432788146101e-04
-3.410491616456798130e-04
-2.871477243235793803e-04
-5.312671613685285461e-04
-1.063481418452021316e-03
8.482904220226857028e-04
1.408733195495427259e-03
9.179682418473145448e-04
2.214309067191977160e-04
2.821439566058809873e-04
-3.046686060576265739e-04
-1.023897380931851342e-03
-2.350000735701010621e-03
-1.329179681824886367e-04
-5.684496229220309654e-04
-3.051768912083857284e-04
-2.417703726491405604e-04
-1.658052366573452936e-04
-2.586158638866180128e-05
-1.346223116819708850e-05
1.453443909176247535e-03
-1.148489386941505490e-04
-2.611396320798646531e-04
1.233474044671364564e-04
7.071791319991597036e-04
4.242999884881688659e-05
-1.276313226099798121e-04
5.486895416676890530e-06
-3.748235373477949890e-04
-3.176901738483698116e-04
1.569225028930711172e-03
2.288298856016642957e-04
5.032033519775119422e-04
-1.048161071052018146e-03
-6.609529681221516968e-04
-1.007078298158250920e-03
7.326242446709453670e-04
-3.478922359568044516e-05
1.577084778508197334e-04
-4.037319073491132574e-05
-2.192279554011631785e-05
-1.438181960486613995e-05
-1.150665757102775284e-05
-1.023003396756518736e-05
-2.450475683665239167e-05
-1.409225724044509630e-04
1.076267674434922732e-03
-2.677453411249821084e-04
2.304872983027796986e-04
3.842815738462467142e-04
-3.075596661622554589e-04
-2.751175741699212591e-04
-6.996913927223326335e-04
6.710953030220365243e-04
5.682845497530972755e-04
4.400429576200170015e-04
-2.414108439437701004e-04
-3.811579112710788021e-04
-8.312578862366042174e-05
-2.586859611040045765e-04
-7.150423054526411967e-04
-5.786493056090048542e-05
4.669972954500478646e-04
2.393164748458878675e-04
6.194117272265293713e-04
-3.665252209844545767e-05
-2.191747937956538684e-04
-3.859949644667395229e-05
-9.734337546207997693e-04
-7.876054124590997846e-04
1.820401308647966046e-03
1.371389550668434881e-03
2.725695232688687855e-04
-2.162196365209904545e-04
-4.335740727087784982e-04
-3.218012930546925777e-04
-1.705159967841739406e-03
1.926201461240889664e-03
-1.173085659519665071e-04
-4.164628367647699799e-04
-3.031757462660366882e-04
-1.107446953082689709e-05
-3.991572551186705470e-05
-2.183022758800883033e-04
-8.199618413353334514e-04
2.531056891024547392e-03
1.013901512492424231e-02
7.366738718156291821e-05
-3.034142766715641369e-04
-2.097244471188243215e-03
-2.253435975495408222e-03
-2.449118531533981021e-03
-5.640526148241200438e-03
9.059458690265548980e-03
4.752906547703271943e-03
-6.908710648931565149e-04
-3.534971180524685511e-03
-3.075224794880898182e-03
-1.947835224694350340e-03
-2.096058528100738089e-03
-2.467404444874692071e-03
-3.715090405175428901e-04
-5.275500551927382945e-04
-7.713732050456329544e-05
7.477063497095875143e-05
4.368697089238074828e-05
7.568957256454553954e-05
-1.741178470670728362e-05
7.994610224936628652e-04
5.512787966377052061e-03
-4.124988626919394441e-03
-1.763088316025814570e-03
-2.956376193675358012e-03
-3.549241405343536802e-03
-2.287689750666435998e-03
-2.587284087780004210e-03
1.175588041403370643e-02
0.000000000000000000e+00
0.000000000000000000e+00
0.000000000000000000e+00
0.000000000000000000e+00
0.000000000000000000e+00
0.000000000000000000e+00
0.000000000000000000e+00
0.000000000000000000e+00
-2.432130427679194318e-04
2.627999842344335563e-03
6.206870899629716174e-04
-1.081615593950961294e-03
-3.430502081083714816e-04
-1.530587729646845033e-03
-1.401736388857399837e-03
1.351516031024165313e-03
-7.127149353794791202e-05
-1.004669381488742152e-04
-9.071818305337021285e-05
-6.200051798312834338e-05
-4.700151995233879291e-05
-3.929756216985926150e-05
7.283462920391770164e-05
3.379215856416011650e-04
-7.699886520423863736e-06
4.073851053385831966e-04
1.414976963643474559e-04
4.322614759564780878e-04
1.083062320803941225e-03
1.313705217829043025e-04
-7.198450557756149110e-04
-1.468032177950237636e-03
5.049629598083664331e-04
-7.648894026540611771e-04
7.828773158036089774e-05
-4.581128196837007914e-04
-7.503199609004893283e-04
-5.451839534528870376e-04
-6.905295412449417164e-04
2.625784986547388417e-03
8.902630385475900033e-04
5.636504879492547013e-03
1.187267720943528280e-03
1.039029526708951101e-03
-3.177799857623109063e-03
-2.211351877264598493e-03
-3.774231207371444522e-03
4.103177765667956724e-04
-5.632999005824343257e-04
-1.650266783059320787e-03
-9.361889956584483908e-04
4.889980034914856205e-05
-7.097391962605243548e-04
-1.307840915337149610e-03
5.635321078316112052e-04
4.554903882717173565e-03
-8.629256850299195716e-04
8.713257224470210942e-05
1.615169901413802392e-03
1.299942286152727926e-04
1.030780025653166807e-05
2.550073079550079229e-04
-6.705134062904317136e-04
-5.641727191649757722e-04
-1.598684298238137918e-03
1.240659710142743514e-03
3.084405284408403645e-03
-5.728528360109950198e-04
-1.376681240385153882e-03
-7.538213347746476785e-04
-6.257193487861496513e-04
6.026940636439380742e-04
2.869027914289393882e-03
9.370340633595698699e-04
-1.927795660518940267e-03
-8.907530369941053577e-04
-4.681590088465541872e-04
-1.474661029314360558e-03
-2.740323040031312704e-03
3.695629798056372477e-03
-2.219791455523736825e-03
2.152237981918400309e-03
2.711427805406941855e-03
1.734557352579171223e-03
-6.263506339783615805e-04
-1.119182073515107446e-03
-4.609333349980909017e-03
1.976434373093468883e-03
1.700916976143639267e-06
-8.445189989206840653e-04
2.089337434508794968e-03
-5.888400082460947590e-04
5.578128284589942555e-05
-2.496518257907472376e-04
5.255055972921086806e-04
-9.893143986654060612e-04
-1.153578231771479118e-03
-8.699561404353177701e-05
3.004598884815666841e-04
4.304806807426728014e-04
1.195450894034531107e-05
3.706603958752974735e-04
3.836373904545136782e-05
8.865463272967439527e-05
3.650166077686053706e-04
2.520325714447059690e-04
-1.899362874907901179e-05
1.393720703632043241e-04
-3.949122693302274618e-05
6.789834125620325790e-04
-3.722042038546908888e-04
-1.004715602601772943e-03
7.239579865326123366e-04
-1.705328680240106960e-03
-9.986417007677192252e-04
-2.592866499861851861e-05
-6.994823892112775419e-04
-6.380402379987069883e-04
4.850231405561374293e-04
2.858440546127703676e-03
-5.689039067946523309e-04
-1.759529566496880783e-03
-1.233220007489403615e-04
-1.170079226906093689e-04
-2.754433227245126870e-06
1.160047889172131745e-03
1.667435727171377654e-05
1.394795583514429156e-03
-9.870885282714926372e-04
2.077343767380870811e-03
5.277148901412637274e-05
1.797035866962949234e-04
4.680977383579049556e-05
-7.201612301163329765e-04
-3.577939230647374604e-04
-2.915849354745012533e-04
1.117706409752968312e-03
-5.074575117451643821e-05
2.929800159593323565e-04
4.003465282294959161e-05
-3.760301735443379338e-04
-2.658070178294638826e-04
-1.005627018952197382e-04
-6.575754340917119899e-04
-3.509711791027032607e-04
6.792949840593046290e-04
7.762084648639396521e-05
-2.030842746809615655e-04
-4.149102492327959649e-04
-1.745962781931273140e-04
-5.341730824777628835e-04
9.208192331416498871e-04
7.628304924900574020e-05
1.064685008871086051e-03
-6.364253237455065105e-05
1.829684540949139745e-04
-5.017455760146845734e-04
-5.372854345655788105e-04
-7.115935422203624157e-04
4.903305729601618217e-04
1.948633135958919432e-03
-1.841716642545635158e-03
-1.884904570671190605e-03
-7.100252081297107106e-04
2.351689685136705576e-04
1.029866969264497164e-03
2.008841732899738111e-04
1.022093174319491527e-03
-1.883583919562055497e-03
5.774945042778909833e-03
1.148475339179368983e-03
-1.529855048026199874e-03
-8.947552137265678100e-04
-1.552294100590342332e-03
-1.399484191861798035e-03
3.365520918086472722e-04
-1.953661461942741637e-03
4.812415429339356177e-03
3.227064041220173408e-04
-8.273382500839771263e-04
-3.875046550238138302e-04
-9.452279424975824559e-04
-1.448086828457459873e-03
4.266973045441873648e-04
-4.937330344396054400e-03
2.412916846152092162e-03
2.296086701452655209e-03
1.029813188338581358e-03
1.925396278101927563e-04
-6.451882552328874407e-04
-5.752853311523660864e-04
2.264475670277799632e-04
2.042748005785095973e-03
-3.297579769859019117e-03
-2.472184061736437243e-03
-9.302235734033767424e-04
-2.200655358380397119e-04
-8.829859222757721138e-04
-7.789057506848428300e-04
6.539196608012266126e-03
-7.017014569131085813e-04
4.467625137098264407e-03
4.124736700426315412e-03
6.712091872846524712e-05
-1.862289349748341444e-03
-1.201922408832335623e-03
-2.913123601922780817e-03
-1.980445938836430421e-03
1.086376690560188359e-04
2.009448637016793423e-04
1.829233573247069158e-04
4.131305628098896725e-04
7.901749286796229627e-05
-3.117241555627510343e-04
3.854951527999532810e-05
-7.114793054775059170e-04
3.445998251070275819e-04
-7.813967997276444156e-04
-1.576571684499820838e-04
-3.083465796652125096e-04
3.500495269387472025e-04
-3.563829966719494840e-05
-2.817568927814989338e-04
8.701463882457739904e-04
4.382010823632433291e-04
2.523340934817620666e-03
8.328583822748111039e-04
-5.902183926931564139e-04
-6.727410809112867058e-04
-6.399524519446695694e-04
-6.732650352507438783e-04
-1.218223438655817014e-03
1.101380732365165368e-03
6.438920516333752767e-04
1.822590663278448025e-03
-1.619659893086415441e-03
-6.305791753671004338e-04
-6.629708879727992709e-04
-7.699481018359477773e-04
1.152946109852448172e-04
-4.445643719523723579e-03
6.256229600518094756e-04
2.651952978513690169e-03
-4.384717574262663028e-04
-1.722398116954129796e-04
1.207578830231542536e-03
-9.889156016068822996e-04
1.560116121455146134e-03
-7.268457526353506873e-04
1.236426399374842221e-04
2.570393346785632138e-03
1.232722520214790251e-04
-1.625894955320022160e-04
-4.288553057138942627e-04
-4.516135335305248959e-04
-1.047404151332818716e-03
-3.602501874822128074e-04
-1.017486446244095233e-03
-1.382150710038375385e-04
6.956857946970854047e-04
3.621625936708346800e-04
3.285729619087743238e-04
3.806448682413237771e-05
9.146586762934378332e-05
1.864040808921024913e-04
-9.260568073682297514e-05
-1.300664468224200514e-05
6.452043242317484896e-05
5.745221725283469142e-05
1.054207430888295542e-04
-8.483178425430192287e-05
-2.233533639835741304e-04
-8.896785581671739140e-04
2.137390761274062748e-03
-4.112774693195136305e-05
4.311589399825489452e-04
-1.792134765357467692e-04
-1.748220180862698213e-05
-3.104376855126184001e-04
-1.130610032300459391e-03
-2.039231897754438733e-04
6.214718639219014244e-04
4.137143483921819961e-04
-3.440411668633827657e-04
2.639300970721404757e-04
-3.595437620417983663e-05
-1.819718964508722030e-04
-5.332256800923431371e-04
1.644614509175518560e-03
1.676387944000678944e-03
-6.706719482658690017e-04
-1.131887149511783637e-03
-1.131497187496316675e-04
-5.637075373926737519e-04
-9.069789654310881711e-04
6.539286617486348297e-05
6.062531156276770947e-04
-5.391307423821397812e-04
3.835479965627650902e-03
2.221728061019131659e-04
-5.592231970312221438e-04
-7.147775798966375356e-04
-7.909862134405406652e-04
-2.059788154606721419e-03
-1.408192909802459287e-04
7.741066398294605636e-04
-2.070817418869894686e-04
-1.189212506263167331e-04
-4.062640603578761256e-04
-1.923341739989870922e-05
-1.500179054179655205e-04
2.682310268398172752e-04
-1.999736932929049773e-03
-5.812168227728616959e-05
1.449529470838580546e-03
3.423149233519112906e-04
3.611247193586278889e-04
-2.439872972564365407e-04
-4.293659996488805660e-04
5.782427985625025529e-04
-1.054281574688667759e-03
-1.402020468250138882e-03
-1.283291899245760743e-03
-7.600032739115670198e-04
-5.551024649566218411e-04
8.318532465332857759e-05
1.306546352233715295e-04
4.840859721176064487e-03
-3.400383834221938368e-03
4.039470793930085603e-03
3.359752576666440865e-03
-2.906146090075421699e-04
-7.863885724713946769e-04
-1.831399948056491866e-03
-5.903056801573103090e-04
-5.001307266817956810e-04
-1.038945597758004005e-03
5.715711004334429572e-03
1.000750576924622128e-03
6.437337633658016256e-04
-5.833253738248182036e-04
-9.571203552851948165e-04
-6.753425607652910811e-04
-4.105461456991563868e-03
-5.149543534716395209e-04
8.939395810323067006e-06
3.091713450348475473e-04
2.104674475979442393e-04
5.646733398160189848e-04
1.305561282066457476e-05
-4.184016106830534365e-04
-1.729511769251030587e-04
9.764388409895837634e-05
5.910521693540074940e-04
2.866057190194240220e-04
-5.802045632847861549e-05
1.095869903010499214e-05
-7.539838452840209274e-05
-3.102079435481359464e-06
-8.497395512101238403e-04
2.323494505259799471e-05
-2.539018676194021657e-04
8.578362697129688957e-05
1.615623558110657195e-04
4.387188472448759241e-04
3.888015180030306807e-05
-4.958986738656457396e-05
-4.446881918741732291e-04
-2.711748481711386319e-04
1.736131138048661177e-03
2.386867001118055717e-03
1.160213447390062063e-03
-1.570227800818814034e-03
-7.014208559180974819e-04
-1.617538883197930334e-03
-1.122849198450821297e-03
-4.387908033792314719e-05
-5.846066692661359797e-05
5.619124300358802065e-05
7.132675549174750484e-05
-2.783107268025280230e-05
-2.330960654966997714e-05
-2.074743652583094442e-05
4.670986452495478090e-05
-7.190252443784282818e-04
2.783709927614003935e-03
5.632893970416652995e-04
5.925620450883810906e-04
-1.030760271118973088e-04
-6.707377215090682288e-04
-1.325925911873145936e-03
-1.120796464871507683e-03
3.698215791682637040e-05
1.176693700915005213e-03
2.059223169267043469e-04
-9.944953239048250244e-04
-3.310758326825911837e-04
-1.683877379307313930e-03
-9.950359383637820930e-04
2.584886298500010515e-03
-9.633082242833485801e-04
-1.647128917127804563e-03
-1.466071706147765909e-03
-7.439726227082986334e-04
-3.967242852074769305e-04
-5.748555396774778208e-05
6.452440684741376631e-06
5.268238868757725221e-03
-5.223041186282593616e-04
3.301799856616223494e-03
1.412465381375382781e-03
7.505526828404055634e-04
-9.752414239123702224e-04
-1.176071636802005329e-03
-9.786408196510135334e-04
-1.812559921838460862e-03
-2.045689894061328664e-04
3.954630327742626110e-04
3.027283416730731274e-04
-1.786290383564716720e-04
1.896643403851660495e-04
-1.124562196691440084e-04
-9.970884005230223055e-05
-2.924926273484494384e-04
-1.313485510718374850e-04
2.375467279412552804e-04
2.549241029203511296e-04
1.190606711739284349e-04
-4.767510638037542888e-05
-1.311465788241330816e-04
-8.403365779348529005e-06
-2.929578999798385856e-04
7.751762870774098375e-04
1.567171527962932720e-03
1.684271925082811991e-03
-1.147161841486847491e-03
-9.136038030603041557e-04
2.570254454493964714e-04
-5.553028844543019286e-04
-1.667576656571057763e-03
-6.610016823262733997e-05
7.491652333764866343e-04
8.231389770087940770e-05
-2.667554336569837796e-04
6.054035103341576815e-05
-2.121230149986927057e-04
3.235275979841779025e-05
-3.793936250208947451e-04
6.799398472441801238e-05
-8.429065000280579233e-05
5.570993401828616031e-05
2.160318704137919243e-04
-7.650914339753097325e-05
-6.178701491154732159e-05
-5.377357749893505400e-05
-6.337540334567754537e-05
-9.056240584191508659e-04
-1.033932968557694761e-03
-9.144383352167210826e-04
-6.134026220138453578e-04
-7.320212353076365657e-05
-1.438963336892331115e-04
3.015993752401464607e-04
3.382897066187233806e-03
1.797583983427267305e-03
1.198239649944534638e-03
1.702074325024150857e-03
-4.734499582497072581e-04
-8.506694242180594129e-04
-6.687691955724804583e-04
-7.370209470721081433e-04
-1.967988433283612924e-03
-5.502321517323590988e-04
-5.511803245463714582e-05
-4.707938773184352967e-04
2.335618010261739075e-04
-3.555504854436821962e-05
1.237493106205799477e-05
-3.457670613337530431e-04
1.211529439295328447e-03
-8.017015823981548089e-04
-4.481889480467790739e-04
-2.894666006497826206e-04
1.981135964663538257e-04
-3.258012872505077428e-04
-3.115130754138755809e-04
2.269236664353898876e-04
1.751634230857324320e-03
-1.707297231711135286e-03
-1.545131365063849094e-03
4.602360448006789979e-04
3.413780667807460312e-03
-2.886044516844213956e-04
-1.868533825508679773e-03
-7.948203891389075222e-04
2.330370550498795431e-03
-2.802508584347319226e-03
-4.116446607264073613e-04
2.724469636682896271e-03
3.524882010803292737e-03
4.904640966995099704e-04
-5.462200481407611646e-04
-1.992107258334035113e-04
-2.780231725137788552e-03
5.162396639048184681e-03
1.263448307293161535e-03
2.012774024301758682e-03
-2.350521518249840125e-03
-1.343384538915537397e-03
-1.724884538919717759e-03
-1.722705057157668078e-03
-1.297123317400389894e-03
-1.654329504369771598e-03
-1.182147255552884555e-03
1.031059128758180518e-03
2.342599983060253323e-03
5.656174494165415543e-04
-2.504030798127602499e-04
-3.995793285490954316e-04
-4.528173929504586285e-04
2.151123043684573331e-03
-3.110679448849535864e-04
2.389695055119277472e-03
1.409399052081185483e-03
-1.158043518704256723e-03
-3.219580953600079316e-04
-6.952984570478174626e-04
-3.463849134887972501e-03
-4.702516891939522684e-04
-1.049196641318905386e-03
3.073287697477935501e-04
8.260941574891744613e-04
3.515633425936385659e-04
-1.039492187646921589e-03
2.166956117885276186e-04
8.572586365406490317e-04
-6.676969029517103218e-04
2.034405664987610531e-03
3.663108956467109388e-04
-5.959772169566499413e-04
4.467650364442541993e-04
-5.727322617159773992e-04
-7.613547827248959678e-04
-2.497204327293141746e-04
-9.933159828516054807e-04
1.082112614474239377e-03
2.672062011795461531e-03
9.940913858851159414e-05
3.643828988016159336e-04
-7.372769810906272840e-04
-3.221452826015846842e-04
-2.165228417116024390e-03
-1.056575783622777046e-03
-2.553957538946265799e-04
5.453808520025486307e-04
-7.619965850598137743e-04
-4.098674672845457044e-04
-2.183121578444495928e-07
-2.455463099393955157e-04
2.184219359956487624e-03
1.930990181187296987e-03
-3.795459993934826963e-04
-1.823904803592649724e-04
8.716652415818267920e-04
1.282446681938916163e-04
-1.002117100690757965e-04
-2.583275524884536228e-04
-2.010424348652771823e-03
-2.961307297063529447e-05
-6.644059987585354760e-05
5.700530158367360281e-05
2.108894301748608677e-04
2.543730732347512021e-05
-6.728556819605795679e-05
4.923636505772234023e-05
-1.792291630971853760e-04
1.150891685014907668e-03
1.647000652295798565e-03
1.074207590109823836e-03
-5.734400849685469944e-04
9.235548498090424049e-04
-7.400115408302734149e-04
-1.025486034745717086e-03
-2.456717116684997790e-03
1.592431323303131717e-03
2.405391985447413120e-03
2.596360957169504169e-04
-1.170020341236654434e-04
1.745480575492499053e-06
-5.719448143077473286e-04
-9.088199821226905202e-04
-2.661438054488856481e-03
-6.194176332469762680e-04
5.913205808411702968e-04
2.983233579109728119e-03
3.257568754537036333e-04
1.099194118121219138e-03
-2.716024319288261129e-04
-8.434146280629583161e-04
-3.265070460287141860e-03
2.941459124872224540e-03
3.920708366091562626e-03
3.411123631140274221e-04
2.079967520093414790e-03
-1.334889796869508658e-03
-2.064959342390695982e-03
-1.378406082889277462e-03
-4.504992152021681032e-03
-1.222761939732573168e-03
-1.513622732946445565e-03
-1.432137083471860277e-03
-8.603924450331626363e-04
-8.240167650315070088e-04
-6.983727643910792428e-04
-9.653378027777650570e-05
6.647837510884423498e-03
-2.844366246439771016e-03
-4.139657948366122324e-03
-3.120048761272007504e-03
-1.561146825926616613e-03
-1.053464017306655291e-03
-4.358229088112042867e-04
1.526124159925559354e-03
1.162838254819689894e-02
-6.162088333920352117e-04
-6.126304901336861002e-04
2.846006511048432513e-04
5.132881364478743573e-04
-1.654028728361832802e-04
6.719854156649311292e-04
-4.233061618597534943e-04
3.476741550040133330e-04
5.734205751546781653e-04
1.766945791286357635e-03
3.097032444593758940e-03
-8.200569237946461363e-04
-9.244172878490461084e-04
-1.138912122048115708e-03
-7.081312762939123099e-04
-1.845881201049064070e-03
-3.922643115097853845e-04
1.877456546768202766e-03
9.559339785026975530e-04
1.026758890405747408e-03
2.039464214888113910e-05
-4.377915869318733120e-04
-1.002876706090741199e-03
-2.047611453293087923e-03
-8.204492865962909748e-04
-8.677175933042404268e-04
-1.174187280754510770e-04
6.358149666094498791e-04
-4.116269920128792233e-05
-5.665543056559083903e-04
-1.625794627134498005e-05
1.793745592495084263e-03
-1.995339598990170452e-03
-4.797351492047219855e-03
-1.975639575972051257e-03
8.451750346940791261e-03
2.686066588142692075e-03
-1.483488268852797701e-03
-1.754434985821182744e-03
8.684369865999678377e-04
6.781454218885443969e-04
2.529730506547584693e-03
2.077133308003686028e-03
-5.976286784513567450e-05
-1.350275406861131764e-03
-1.666040192184740270e-03
-3.859774838513816168e-04
-1.822953285697419918e-03
-2.299622267628137723e-04
1.030954288663997595e-03
9.381129175835569399e-04
1.071698385782842355e-03
-1.743567530629452499e-04
-1.874963885361463395e-04
-1.448854368507186208e-03
-1.000095855161278269e-03
2.664633538563543065e-04
5.510074121636385647e-04
-1.299069886761925635e-04
1.512205890806038824e-04
-1.699171163279674204e-04
9.683840324936796257e-05
-2.042648201453668569e-04
-5.614408332004420903e-04
-1.427682067248939052e-03
3.330455314281979742e-03
-9.812261473968173810e-04
3.027199826139353816e-04
-1.005040661532529073e-03
-1.136198455623392903e-03
-8.980794519423623097e-04
1.815051486848151671e-03
-1.734820102799164345e-03
-2.879847184430190353e-03
-2.311116459404728880e-03
-3.321174363561706978e-04
-4.055443610890164131e-04
-3.242187833521984071e-04
7.575722029144548548e-05
7.911907107139917739e-03
-3.541847762003847919e-04
-4.891153446001054311e-04
-3.042728282627341313e-04
-2.940374096281678424e-04
-1.619692143100205767e-05
-9.394647790320627791e-05
-8.264592776802752948e-05
1.634399685793627537e-03
-2.583589589425444935e-03
-5.486082467095321387e-03
-1.993069428733861437e-03
-2.792261170996378390e-03
-2.125978971980607159e-04
-1.034583415534627050e-03
-4.918700918219441913e-04
1.459405406080550166e-02
-3.631072396383054472e-05
-6.346452208293646476e-04
2.602547408419944325e-04
2.565049200680963727e-04
-3.198903828357201854e-04
2.354895290874469446e-04
2.954218570001279566e-04
-5.682471936873994753e-05
2.135345610639075248e-04
-3.724160010799316967e-05
-7.192873427689414989e-05
-2.439978540182669410e-04
2.765586959969341756e-04
2.122279791848168064e-04
-8.761220677034783336e-05
-2.615408410721542444e-04
-2.418687774330719863e-03
-2.632567012293604222e-03
-1.690529832054849793e-03
1.685606116740517293e-03
-3.551634722712042141e-04
-4.076350732670254722e-04
-7.320908194902403347e-04
6.551067866967145471e-03
4.229791386491988693e-03
-1.927712990833339466e-03
-3.532223940890735249e-03
-1.367897270614134480e-03
-1.254879252472551523e-03
-9.426376349566818183e-04
-1.166348866322193881e-03
5.961908569597540279e-03
-3.903962473383336407e-03
5.151820037992064887e-03
1.907705384417735482e-03
-4.657431285967269792e-04
-5.094848682693568472e-04
-8.281002101278405999e-04
-6.156871840573812770e-04
-7.365475579751502898e-04
1.385937313397743627e-02
-1.690967156243795497e-03
-6.540636673320087899e-03
-3.082170399362905554e-03
1.155077736482789915e-03
-2.074406572414777463e-03
-2.599931375980352958e-03
9.736613068618617814e-04
1.414533379083599864e-02
1.836325467878904437e-05
1.473836348482159648e-03
-3.349887464888847213e-03
-2.649754190433562841e-03
-2.877595634668510174e-03
-3.703483983408404224e-03
-3.056812120597793368e-03
-9.462194653176325037e-04
-1.237497953180795741e-03
-1.340016218525892557e-03
-6.602679395317710394e-04
-8.262518821243817471e-04
-5.722174513343869376e-04
-4.915475125901179769e-04
6.074018422604941965e-03
-1.875305022848828803e-03
-4.277448925098013377e-04
1.585455573413152835e-03
1.087121147873245037e-03
-4.658146228572078635e-04
-3.094690204665504797e-05
-1.109593639323174207e-04
2.381940829084621628e-04
5.596199727244244694e-04
6.553712741378848669e-03
4.280635942042906004e-03
4.652255300326390815e-04
-1.376307070354058741e-03
-3.601254913685384643e-03
-2.180923523576845484e-03
-4.700708678562455847e-03
1.156160179400911027e-04
7.168773974382102593e-04
1.243241269263357669e-03
-9.152322428292364092e-04
-4.474084895122604211e-04
-8.887623042781463796e-04
-5.984669798102059237e-04
7.741353317882150803e-04
-1.791302142671575550e-03
-3.183374523887987344e-03
-1.329338099667817406e-03
1.421126882449779468e-03
-7.259670871179433628e-05
-1.059968253409586148e-04
-1.973155441934334163e-04
5.258796962023850816e-03
-1.720819030575425172e-03
1.851979735815734206e-03
3.630616686903942718e-03
-5.137512685030599631e-04
-1.041604941904899356e-03
-8.966710409027320555e-05
-7.778267630456757063e-04
-1.338927314600377606e-03
-8.329022432086428430e-04
-2.054434472698124514e-03
1.452783172795252742e-03
1.734703732036345044e-04
5.012355360693854364e-04
2.152551572279647225e-04
2.658611318852470754e-05
5.180063634220230528e-04
-3.087017453176214062e-03
-3.160449089677554082e-03
-1.277084441477837956e-03
-8.898876527668797608e-05
1.596651521434296062e-03
9.568427786124710042e-04
2.011730428482787106e-04
4.858872406713256147e-03
1.716377633959277485e-03
-2.929963962882441153e-03
-3.952500038520206406e-03
-2.164421759316806186e-03
-1.107172523776613678e-03
-8.766361195519164356e-05
-6.571914951938527235e-04
9.182535757685933442e-03
-8.001629435963900300e-04
3.887449641109142189e-03
3.893852639330474576e-03
-7.495778271227870057e-04
-2.543342495968718437e-03
-1.179996913742346540e-03
-2.435189326947622118e-03
-7.303277306178123057e-05
-6.656218458855563992e-03
1.720650465181838493e-02
6.948509626616792591e-03
-1.392974928797997662e-03
-3.217244852790953052e-03
-4.500318515486212423e-03
-4.618461347259893504e-03
-3.769796175244642319e-03
1.404072180145989404e-03
2.257706099727177420e-03
3.886898673938812051e-03
-1.798998505185697748e-03
-8.567722575815391083e-04
-2.870394178771423950e-03
-9.805128940282917260e-04
-1.041999118244974409e-03
-1.994525968518910501e-03
-2.586788393475454063e-03
-1.743976807547105521e-03
1.536415948870608998e-03
-8.735123215659719919e-04
-1.182003420331051045e-03
1.435175531915558922e-04
6.700873409376230383e-03
-1.362860915978043007e-03
-1.251183906233366240e-03
-1.534729735561783008e-03
-1.691101506693406501e-04
-6.405906171246565162e-04
1.145876549064812650e-04
2.831738812036602875e-04
4.560713789457007672e-03
6.986477697492844349e-03
1.456210246192921618e-03
-4.372709365183699063e-06
-1.616397146916631090e-03
-1.303500553365961314e-03
-1.328335274908942331e-03
-8.271874788442375431e-04
-3.362894780284888738e-03
6.425259635305321810e-04
-3.507993981856178875e-04
8.041463437035908110e-04
-4.412347107702933543e-04
-4.344022068520871820e-04
-1.192271664411607068e-03
-1.381152789475594131e-03
2.353188462461115824e-03
-2.659152376736661095e-03
-1.338513740087452636e-03
7.081943152308832696e-04
1.127486432653545178e-03
8.215043267289835228e-04
-3.052751720380812977e-04
5.530947588608265677e-04
1.092661455387905749e-03
-1.444392248253645577e-03
5.415558921129893719e-03
3.904533665933183992e-03
6.968754204731532689e-04
-1.947803294176721082e-03
-5.269929273022019292e-04
-2.058946016244677345e-03
-4.038833521559032427e-03
4.563292739912168036e-03
-4.657229287383160381e-03
-6.438274258150292716e-03
-1.616204947563193266e-03
-1.910663637543612032e-03
-1.260862430192898195e-03
-2.205801076163669411e-03
1.352574289708477831e-02
-7.702834084635958164e-04
4.975498195523473353e-03
2.439492571272155151e-03
-9.694377344633916573e-04
-1.143159581724914262e-03
-1.655124538268740566e-03
-2.380855729648456969e-03
-4.961297742264275364e-04
7.554508452055744110e-03
-5.227795154272128634e-04
-1.298208318421349098e-03
-7.301547920379967960e-05
-1.892901363280981471e-03
-1.395032424295058115e-03
-2.097286034155329028e-03
-2.752853172720214309e-04
7.346322951162426781e-04
2.365800239697737721e-03
-1.648719608391280593e-03
-4.976165763706390287e-04
-4.799942508634147029e-04
-1.085535014129024875e-03
-7.770811746811311007e-04
1.388514089621513750e-03
-1.245063452503041143e-03
3.772780254326820772e-03
6.031437842085213795e-03
2.334161452587034218e-03
-9.471539318642271162e-04
-2.084076301233987651e-03
-1.420034730166416619e-03
-6.442051133231513349e-03
1.432827454656953985e-02
2.433990583854701590e-03
-5.172022594263452327e-04
-1.654604360276837446e-04
-2.833533981000963247e-03
-2.895991891794718470e-03
-3.303604597901087497e-03
-7.046471964273455686e-03
-2.021801299257132249e-03
-3.421458679787764759e-03
-1.133880545241687608e-03
8.502010711824492311e-04
1.038666882640799580e-03
8.477348819357492012e-04
-1.380014734496404390e-03
5.220552423024132915e-03
2.599104608572739596e-03
-3.975042142499641239e-03
-1.797165485522804126e-03
-8.455754540052236009e-04
-1.629801683500860840e-04
8.427343862871698255e-04
-1.437945784579656766e-04
3.482718833975820792e-03
2.572545520353669742e-03
9.762228927594080938e-03
-1.063602925808901844e-03
-5.497761238877463263e-03
-1.723018097790568600e-03
-5.207750340716126893e-03
-4.845632770651112260e-03
6.002990925896727059e-03
5.325956889353486434e-03
-9.542445133950339846e-04
-4.511528580853821531e-03
3.506581572379424607e-03
-2.036248343458930618e-03
-2.276171833394558669e-03
-2.506059493940999798e-03
3.451714303310330668e-03
4.023379759356926727e-04
-9.475392747228432249e-05
-4.715178768929253160e-05
-9.050717514195079371e-05
-6.286482469236137063e-05
5.643824651953003360e-05
-4.738729970754620090e-05
-1.161112077517889845e-04
-2.961955692620014784e-03
9.714943245550587648e-04
-8.203331821858329560e-04
3.120668529694819743e-03
1.703865615233158409e-03
-6.750881275657407516e-04
-1.624193611078061103e-03
2.855421439666022687e-04
2.052072492526971247e-04
-1.994859922428054815e-03
-4.064156302186308395e-04
-1.579867801600506015e-03
-1.408725991277444889e-03
-3.800063258538265674e-03
-3.902710674414909108e-03
1.288743602922537597e-02
9.743339227317328972e-04
2.316817380204804367e-03
3.979990939429972271e-03
-1.282843841328524951e-03
-1.098119239042684133e-03
-1.714302533304795737e-03
-3.176623266032951257e-03
7.466373424543805681e-07
-7.448310025412541516e-04
-1.183293520040297258e-03
-1.447986622410134131e-03
-2.941498521065629953e-04
-1.275711145183015685e-04
-2.838354848429399074e-04
4.641897992783412092e-04
3.617477797181150537e-03
-3.954961091174958644e-04
-1.618016139422056860e-04
-2.258122757035061802e-04
9.749412831055969916e-05
-1.198861105890774027e-04
-7.695955891622415423e-05
5.054613835843362415e-05
8.319154015995142972e-04
-1.088721221349380652e-04
-1.317860944881962674e-04
-1.200145466964601761e-04
-9.377536521630122786e-05
-7.663175185652924338e-05
-6.813284230644650586e-05
4.557358464740913817e-05
5.536391380514644415e-04
-1.177605572841133657e-03
-2.283361931487629896e-03
-9.678201008894112597e-05
-1.657819892491992574e-04
-2.315131312182739081e-03
-1.750314384109649462e-03
-6.648806003601783095e-04
8.453857800319415292e-03
-4.170657823696965159e-03
3.663172280701599355e-04
3.259222645539952643e-03
-3.452726028446928227e-04
1.534531805656814052e-03
1.233593795198523625e-04
-1.231200626118933612e-03
4.636999938738403030e-04
5.048593447940742315e-03
-3.333753905567365407e-04
1.606088862901682924e-03
-2.772427104701587729e-03
-2.037773698196996414e-03
-2.118301278031615043e-03
-1.614580804409631361e-03
2.221775965054366767e-03
1.108587876196929101e-03
2.881937156908032354e-03
5.909980375637290595e-04
-2.569584403792591135e-03
8.291339519997766635e-05
-1.404717640885848502e-03
-1.535476825995779181e-03
8.453424048056473478e-04
9.378796119820227532e-04
1.883572823091280704e-03
1.388356449980026643e-03
-1.043275590797412486e-03
-1.501668232613324926e-03
-4.321069455204375252e-04
-9.049808734207693021e-04
-3.277772427014264095e-04
-2.239905020007476513e-03
-2.319321057339891138e-03
1.938887482132445762e-03
1.123344157872200200e-03
3.008093690238875374e-04
-5.657824397608660939e-04
2.390279025213162879e-05
1.738064717827569623e-03
-8.588639295686711569e-03
6.373575368980621478e-03
7.486509729059800944e-03
-7.788410832537087831e-04
-2.038659789983309194e-03
-1.558846635500863104e-03
-1.103643662541280157e-03
2.085453689252971074e-04
8.663112539801068367e-04
-3.343268418651507493e-04
3.713403732169591118e-03
1.235398786915535519e-03
-4.335284406951500099e-05
-1.606773882439209954e-03
-1.222507026915065293e-03
-2.608153177776247056e-03
-1.199789219351596282e-03
1.125546758083500109e-03
-5.820060665869089848e-04
1.052585151068156661e-03
4.245247784705185874e-04
9.002659668021729608e-04
-1.024246033893714338e-04
-1.618702765096520502e-03
-2.985010007496736485e-03
-1.550702659074130226e-04
1.807577076764762885e-04
2.493933420713293674e-04
4.527312142709235811e-05
2.587233224525636680e-06
-8.589857457068640319e-04
3.521054614711628845e-03
1.514206238303432905e-03
-2.806622593409771344e-03
-3.178632167190932080e-05
2.383442824253411557e-03
-2.500274944794572143e-04
-1.012014407815209002e-03
-3.928087219458832537e-04
5.956104767654133878e-04
-2.972039383774384771e-03
8.441166615209792778e-04
5.969300806167736166e-03
-7.699740860554282838e-04
-1.517081955752085532e-03
1.758708255841554371e-04
-8.497866631216684143e-04
-8.804062045691859453e-04
5.371894849253266990e-03
1.669651988084494294e-03
-3.317316576475130493e-03
-5.668856209536904216e-04
-8.899058389287509835e-04
-1.978414912421207119e-03
-5.251262019342777844e-04
2.361023133753217828e-04
2.222486955539395084e-03
2.228646122147441393e-03
1.112465040009059198e-03
-6.203686169180960830e-05
-5.096800597552839313e-04
-2.044513076462164155e-04
-1.463337870658770875e-03
-3.324092017943787794e-03
5.183435979554432919e-04
4.394159536161303635e-03
8.707382334479873975e-03
3.234560964635642427e-05
-2.952842310435527338e-03
-1.561048410254170689e-03
-3.187704393256525839e-03
-5.950635964296967055e-03
6.718988238367708775e-03
8.044297890210428542e-03
1.873260741176066937e-04
-3.051077599389916736e-03
-2.876202324841654889e-03
-3.423671706099894359e-03
-3.369618458814940907e-03
-2.230042113549330750e-03
-2.008125117308063364e-03
2.853952270187056633e-03
3.132258236115556538e-03
2.084676102175977194e-04
-1.211663705295060612e-03
-1.565089768085753397e-03
-6.931956556289315362e-04
-7.166038702023615680e-04
-4.597238770976368053e-04
-9.667999990653728141e-04
-5.691417432092509823e-04
-3.846103930113164353e-04
-1.500288905499544661e-04
-2.069682581733134038e-04
-7.933160555807807737e-05
2.816604766664925451e-03
1.078750041697252486e-03
2.202887449062990513e-03
2.998574767164448557e-04
-6.120166394879177551e-04
-7.378341396030908437e-04
-6.305995767306504579e-04
-5.910037557308502878e-04
-1.010040855924137365e-03
-3.647804017048814225e-04
-6.186150063141731279e-04
-3.412013326632524286e-04
-2.357904521549552591e-04
-2.402798435012041135e-04
-1.953226622193799701e-04
-6.999852599857125381e-05
2.065988224556417237e-03
9.392584380467365775e-04
-6.934809404943475565e-04
-4.492940025909414326e-03
-1.210051162081198471e-03
1.574092035302277837e-04
-1.830093609147336172e-03
-5.747691513201924184e-04
7.704667247375559386e-03
-1.264232296004837457e-04
2.526613003995052372e-04
7.287509403901432385e-06
6.820581094270256354e-04
9.717749642722966780e-05
3.498685262610762531e-04
-4.343028209632357776e-04
-8.283268913550217993e-04
5.364232949472764111e-04
1.402793743702199268e-03
-4.046101740164660763e-04
1.735432934632477771e-04
-3.186639910221990453e-04
-1.996642860283173010e-04
-3.249798218137911249e-05
-1.157323898864372072e-03
9.386860481021442205e-04
1.880431847739284052e-03
-2.843911787772765605e-04
6.127141113684569798e-04
-2.259967722383988064e-04
-1.171368867009674230e-03
-9.257094905005036406e-04
-8.243656986840306334e-04
-8.149376585209087899e-05
1.407910325255154688e-03
-6.242020523016462204e-04
2.691270709354545793e-05
-2.040698127584718801e-04
1.954664331749930695e-04
4.539753508617384967e-04
-1.174499185473239053e-03
-2.039231897754438733e-04
6.214718639219014244e-04
4.137143483921819961e-04
-3.440411668633827657e-04
2.639300970721404757e-04
-3.595437620417983663e-05
-1.819718964508722030e-04
-5.332256800923431371e-04
4.563292739912168036e-03
-4.657229287383160381e-03
-6.438274258150292716e-03
-1.616204947563193266e-03
-1.910663637543612032e-03
-1.260862430192898195e-03
-2.205801076163669411e-03
1.352574289708477831e-02
2.751398356755111406e-04
1.178603093844441296e-04
3.930605208790240840e-04
1.648292563153151268e-04
1.889793081738993846e-04
-2.865929119673647535e-04
-3.384698393454260766e-05
-8.194293345262850274e-04
-3.541847762003847919e-04
-4.891153446001054311e-04
-3.042728282627341313e-04
-2.940374096281678424e-04
-1.619692143100205767e-05
-9.394647790320627791e-05
-8.264592776802752948e-05
1.634399685793627537e-03
-3.602501874822128074e-04
-1.017486446244095233e-03
-1.382150710038375385e-04
6.956857946970854047e-04
3.621625936708346800e-04
3.285729619087743238e-04
3.806448682413237771e-05
9.146586762934378332e-05
5.596199727244244694e-04
6.553712741378848669e-03
4.280635942042906004e-03
4.652255300326390815e-04
-1.376307070354058741e-03
-3.601254913685384643e-03
-2.180923523576845484e-03
-4.700708678562455847e-03
-2.418687774330719863e-03
-2.632567012293604222e-03
-1.690529832054849793e-03
1.685606116740517293e-03
-3.551634722712042141e-04
-4.076350732670254722e-04
-7.320908194902403347e-04
6.551067866967145471e-03
-1.791302142671575550e-03
-3.183374523887987344e-03
-1.329338099667817406e-03
1.421126882449779468e-03
-7.259670871179433628e-05
-1.059968253409586148e-04
-1.973155441934334163e-04
5.258796962023850816e-03
-9.056240584191508659e-04
-1.033932968557694761e-03
-9.144383352167210826e-04
-6.134026220138453578e-04
-7.320212353076365657e-05
-1.438963336892331115e-04
3.015993752401464607e-04
3.382897066187233806e-03
-1.720819030575425172e-03
1.851979735815734206e-03
3.630616686903942718e-03
-5.137512685030599631e-04
-1.041604941904899356e-03
-8.966710409027320555e-05
-7.778267630456757063e-04
-1.338927314600377606e-03
-3.683522010424322810e-04
2.267516865317874882e-03
2.244587568886451275e-04
-2.133074264980981867e-04
-3.626033397324684190e-04
-1.293594755696815415e-04
-4.957339896092172096e-04
-9.226191897546211522e-04
5.413236997003609101e-03
8.346522309936189443e-04
-2.473398926783615479e-03
-7.138924668598925841e-04
-1.140936141962265457e-03
-1.783868524558079567e-03
-1.200051614574562837e-03
1.064258446741192868e-03
-9.462194653176325037e-04
-1.237497953180795741e-03
-1.340016218525892557e-03
-6.602679395317710394e-04
-8.262518821243817471e-04
-5.722174513343869376e-04
-4.915475125901179769e-04
6.074018422604941965e-03
-2.711748481711386319e-04
1.736131138048661177e-03
2.386867001118055717e-03
1.160213447390062063e-03
-1.570227800818814034e-03
-7.014208559180974819e-04
-1.617538883197930334e-03
-1.122849198450821297e-03
-1.409225724044509630e-04
1.076267674434922732e-03
-2.677453411249821084e-04
2.304872983027796986e-04
3.842815738462467142e-04
-3.075596661622554589e-04
-2.751175741699212591e-04
-6.996913927223326335e-04
-6.676969029517103218e-04
2.034405664987610531e-03
3.663108956467109388e-04
-5.959772169566499413e-04
4.467650364442541993e-04
-5.727322617159773992e-04
-7.613547827248959678e-04
-2.497204327293141746e-04
-9.933159828516054807e-04
1.082112614474239377e-03
2.672062011795461531e-03
9.940913858851159414e-05
3.643828988016159336e-04
-7.372769810906272840e-04
-3.221452826015846842e-04
-2.165228417116024390e-03
-4.054484098831228429e-05
5.985016886892887376e-04
4.719506269878368724e-04
2.793231545062757159e-04
-1.724233555119777657e-04
-1.947264637910147539e-04
-2.588824910445192205e-04
-6.831983188475843896e-04
-5.149543534716395209e-04
8.939395810323067006e-06
3.091713450348475473e-04
2.104674475979442393e-04
5.646733398160189848e-04
1.305561282066457476e-05
-4.184016106830534365e-04
-1.729511769251030587e-04
3.445998251070275819e-04
-7.813967997276444156e-04
-1.576571684499820838e-04
-3.083465796652125096e-04
3.500495269387472025e-04
-3.563829966719494840e-05
-2.817568927814989338e-04
8.701463882457739904e-04
-4.387908033792314719e-05
-5.846066692661359797e-05
5.619124300358802065e-05
7.132675549174750484e-05
-2.783107268025280230e-05
-2.330960654966997714e-05
-2.074743652583094442e-05
4.670986452495478090e-05
-2.045689894061328664e-04
3.954630327742626110e-04
3.027283416730731274e-04
-1.786290383564716720e-04
1.896643403851660495e-04
-1.124562196691440084e-04
-9.970884005230223055e-05
-2.924926273484494384e-04
2.050228261461837338e-04
-1.022084762452368095e-03
3.185051647663531362e-04
6.458486965072318545e-04
7.570525069056594034e-04
-1.761984992452854620e-04
-9.597281748108907763e-04
2.315822421831243100e-04
1.926201461240889664e-03
-1.173085659519665071e-04
-4.164628367647699799e-04
-3.031757462660366882e-04
-1.107446953082689709e-05
-3.991572551186705470e-05
-2.183022758800883033e-04
-8.199618413353334514e-04
-3.087017453176214062e-03
-3.160449089677554082e-03
-1.277084441477837956e-03
-8.898876527668797608e-05
1.596651521434296062e-03
9.568427786124710042e-04
2.011730428482787106e-04
4.858872406713256147e-03
7.751762870774098375e-04
1.567171527962932720e-03
1.684271925082811991e-03
-1.147161841486847491e-03
-9.136038030603041557e-04
2.570254454493964714e-04
-5.553028844543019286e-04
-1.667576656571057763e-03
8.867727539372372665e-04
8.964810782170908694e-04
1.628799416383406557e-05
-2.306125527548998967e-04
-1.570530416933677139e-04
-3.553628788890068370e-04
9.161247915163082381e-05
-1.148125832132528088e-03
-7.017014569131085813e-04
4.467625137098264407e-03
4.124736700426315412e-03
6.712091872846524712e-05
-1.862289349748341444e-03
-1.201922408832335623e-03
-2.913123601922780817e-03
-1.980445938836430421e-03
-4.597238770976368053e-04
-9.667999990653728141e-04
-5.691417432092509823e-04
-3.846103930113164353e-04
-1.500288905499544661e-04
-2.069682581733134038e-04
-7.933160555807807737e-05
2.816604766664925451e-03
0.000000000000000000e+00
0.000000000000000000e+00
0.000000000000000000e+00
0.000000000000000000e+00
0.000000000000000000e+00
0.000000000000000000e+00
0.000000000000000000e+00
0.000000000000000000e+00
1.117706409752968312e-03
-5.074575117451643821e-05
2.929800159593323565e-04
4.003465282294959161e-05
-3.760301735443379338e-04
-2.658070178294638826e-04
-1.005627018952197382e-04
-6.575754340917119899e-04
1.356559345360670942e-05
-6.418670499314290941e-05
-1.684568187614426181e-05
-4.980708211879200387e-05
1.006098669207592717e-04
-9.595341455977371057e-05
2.261159842709237907e-05
9.000582474639506924e-05
-5.502321517323590988e-04
-5.511803245463714582e-05
-4.707938773184352967e-04
2.335618010261739075e-04
-3.555504854436821962e-05
1.237493106205799477e-05
-3.457670613337530431e-04
1.211529439295328447e-03
-5.689039067946523309e-04
-1.759529566496880783e-03
-1.233220007489403615e-04
-1.170079226906093689e-04
-2.754433227245126870e-06
1.160047889172131745e-03
1.667435727171377654e-05
1.394795583514429156e-03
-2.961307297063529447e-05
-6.644059987585354760e-05
5.700530158367360281e-05
2.108894301748608677e-04
2.543730732347512021e-05
-6.728556819605795679e-05
4.923636505772234023e-05
-1.792291630971853760e-04
3.698215791682637040e-05
1.176693700915005213e-03
2.059223169267043469e-04
-9.944953239048250244e-04
-3.310758326825911837e-04
-1.683877379307313930e-03
-9.950359383637820930e-04
2.584886298500010515e-03
-5.223041186282593616e-04
3.301799856616223494e-03
1.412465381375382781e-03
7.505526828404055634e-04
-9.752414239123702224e-04
-1.176071636802005329e-03
-9.786408196510135334e-04
-1.812559921838460862e-03
-1.177605572841133657e-03
-2.283361931487629896e-03
-9.678201008894112597e-05
-1.657819892491992574e-04
-2.315131312182739081e-03
-1.750314384109649462e-03
-6.648806003601783095e-04
8.453857800319415292e-03
-2.344915893088574815e-03
-3.587771329497085881e-03
-8.364101191273662795e-04
