1.788416441688566172e-01
1.687904736100448444e-01
9.079725356599016584e-02
-5.660994191083452282e-02
-1.644746921926992789e-01
-2.164425116871500632e-01
-2.202818554775141935e-01
2.193796299233068403e-01
-1.770271032277591916e-01
-1.624520400253834373e-01
-1.124655192923403046e-01
-5.505809469279734220e-02
-2.340126720978493932e-02
-5.768199849872365954e-03
6.439199197944263028e-03
5.297330250999933154e-01
3.341780047362189615e-03
7.543479384299722756e-02
1.885779204333381046e-02
8.150663060323469142e-03
-2.289460653636293461e-02
-2.038945819938504239e-02
-3.556826233039400709e-02
-2.693270192787471790e-02
1.386847861332982934e-01
6.136086773384161891e-02
-1.507963925490230991e-02
-4.179435283894070846e-02
-5.510111832988248692e-02
-2.852337509355126755e-02
-4.027936600871551143e-02
-1.926780234114758295e-02
-6.301972903711526575e-02
-1.918086919898049497e-02
3.998052222895095292e-02
8.703479384554849846e-03
-1.107779331965348842e-02
-3.846299722032393842e-02
-1.833890547591648587e-02
1.013962926384840146e-01
9.197078289803364923e-04
-4.203694392009969111e-02
1.889322757995936033e-02
2.808430325249259077e-02
-4.470526511510770212e-02
-1.923577760891738778e-02
-1.397105421886385250e-02
7.205180220155635307e-02
7.167055741113709244e-02
-3.806161287074499855e-02
-1.783207935422417671e-03
-5.840911874244633650e-02
-4.616265489086403273e-02
-3.337691641180703245e-02
-1.504404004380168781e-02
1.211669934839496032e-01
1.436725871541081473e-02
9.623158027450572777e-03
2.184512307786349097e-02
3.693458819843513114e-03
-2.273384414911384585e-02
7.038570126797215158e-03
-1.023551557969026686e-02
-2.359820903856149968e-02
3.538785609329274384e-02
3.365226913121407287e-02
5.705209060219531420e-02
2.306129142639691890e-02
-1.723720035765175657e-02
-2.725012277487916940e-02
-5.180388267570303767e-02
-5.286230144486511739e-02
1.090422445930300070e-02
1.544252495088669578e-03
9.296325338749617147e-04
1.084132861370668173e-02
-4.030292383965011251e-03
-6.527831297170872543e-03
-3.122406097029141545e-03
-1.053890832380829576e-02
8.072104419383530072e-02
1.922392819736035499e-02
-1.650109384569451929e-02
-4.573160894786636871e-02
-2.105064371515652510e-02
-2.835586332389839273e-02
-2.676184991125013166e-02
3.845608735267031647e-02
1.352607476453619381e-02
5.157701747481967594e-03
1.823679912409866335e-02
-8.602883774912959943e-04
-2.095530773134850200e-02
9.079702986368854908e-03
-7.505119319874592292e-03
-1.667956319377127822e-02
-1.425797722801997944e-02
1.666075943725441391e-02
2.604676863074634110e-03
-6.893276366515760714e-04
3.131843151853645583e-03
8.008313122420807409e-03
2.481726202102131542e-03
-1.794001391203409179e-02
2.496842210012786226e-03
1.211146692407693778e-02
-1.008440537325107182e-02
-9.024387330606523636e-05
-3.095846971308657391e-03
4.517748315892316895e-03
1.016126209500538280e-02
-1.601682332712161747e-02
-2.425390194646444286e-02
2.139774834052985200e-03
-9.300843456656399805e-03
1.068493336370496261e-02
1.680101219279603667e-02
2.326464147753579473e-02
-3.932421452345052221e-03
-1.540319501262388951e-02
-7.177989271840913565e-03
-2.031799964190831448e-02
-2.103094325856635569e-02
1.321484538746886366e-02
5.332506861985175824e-04
1.055940752236188968e-02
-1.674809039807533765e-03
2.589423761609385005e-02
8.411839508746186403e-04
4.465456279968606050e-03
3.608323953764824149e-03
4.553747197334810301e-03
-1.778536417765331709e-03
-2.041132859571633679e-03
-2.730396259815676737e-03
-6.918645844790218859e-03
-6.373003970316481158e-03
-8.520237268223338021e-04
4.938136088359732813e-03
-1.114717885411944595e-02
1.509927408681488621e-02
-6.030365550645046258e-03
9.209786212604639810e-03
-4.844624285875944077e-03
5.112091826665836510e-03
-1.695479574177019902e-02
7.999461274477803578e-04
8.458598411295837130e-03
1.047577313515225816e-02
-1.543578625192162891e-03
-1.179388863088670115e-02
5.445853497287349819e-03
1.980301127711942000e-02
2.548608691829442208e-03
-3.158792153922901445e-03
-3.307037400549806948e-03
-1.527802517499576591e-03
-4.067047962225871748e-03
4.292935198015047395e-03
-1.458387513276574940e-02
-1.918097340548721285e-03
1.744640538190929315e-03
-2.910783257120291866e-04
5.876679204543838785e-04
4.312446247810962016e-03
-3.361219292155315057e-03
7.590989170171371812e-04
-1.833458665057345399e-03
1.839177251081925910e-02
2.732431594730554830e-02
2.934649543310195383e-02
-4.730423587359055583e-03
4.310657425041610272e-03
-1.106274859017890863e-03
-2.647339178251597105e-02
-4.706315108737546549e-02
5.836912813770432640e-02
1.716989263272332422e-02
7.074901170065579781e-02
7.413809137141762727e-03
-2.271683092468135615e-02
-6.579547287009991641e-02
-4.066751192023088796e-02
-2.452202589321300641e-02
1.770298438198168517e-03
9.230998884663672421e-04
8.203400257725493305e-03
-2.664081847463872950e-03
-2.061198229266401200e-03
-1.581124270641292304e-03
-1.311198145249088979e-03
-3.279196091769377968e-03
4.815077090732491905e-03
1.470797409865845853e-02
-1.056912517889706509e-03
4.804569550874098795e-03
-3.977089180663476858e-03
-2.502528890200050784e-03
1.054728464768933411e-03
-1.784581861628074459e-02
1.289358527194378774e-02
9.010125367542665478e-03
9.046424595595441848e-03
-7.884386174694632196e-03
-4.467264866660829344e-03
-2.484080102878063329e-03
-6.023886371308525590e-03
-1.009051771953984981e-02
1.530531714892334819e-02
3.541264593953645946e-03
8.563361190060115018e-04
-1.975703341512349311e-03
2.726146804323270785e-03
-2.357907432965785852e-03
-1.207434386731130391e-02
-6.021110024416838867e-03
-2.154982322810851999e-03
-4.420290747675172972e-03
1.512296963213078738e-03
1.091118552862383601e-02
5.272562764123132125e-04
-1.883560827345442208e-03
4.148085243724466313e-04
-4.906713394790211853e-03
4.938590534975383084e-03
-2.655991576242782565e-03
-1.846747911608370013e-02
1.017563268318942560e-02
-1.363470826022487046e-03
-3.581567721555684470e-03
-6.046086863472247691e-03
1.700037288521209777e-02
-6.800819690697838815e-02
-6.180153590451636231e-02
2.080445534879345887e-02
-1.795595493040060345e-02
-2.414963784617037146e-03
5.450586058020348394e-03
3.348178393505530509e-02
9.044382618464327783e-02
1.158113818709116845e-02
2.963516733261891659e-04
4.226252440095823286e-03
-3.540994946387898603e-03
-4.887701504313445543e-03
1.693044155338459158e-04
-2.305155470905563813e-03
-5.539194794440119481e-03
-7.412896133665461493e-04
-1.457216088587858296e-03
-6.694829418708076905e-04
1.012145580859663552e-02
5.644749626114942348e-04
-1.793593555206874409e-03
1.886069275725083590e-03
-7.910417847901127231e-03
1.819989893516196777e-02
7.865626105816314606e-03
4.556089160501733577e-03
-8.887822555278198939e-04
-1.540363296994532859e-04
-2.974736791569014289e-03
-2.778191970954467169e-03
-2.382586685372926893e-02
1.049176443964892486e-01
2.424474740155069599e-02
-4.275787927328691257e-02
1.739637663136811563e-02
-3.747928088897597813e-03
-8.199141352118148943e-03
-6.047790557458987415e-02
-3.137591414051543737e-02
9.859398575211877902e-02
2.450577624584510117e-02
-1.959185890722047255e-02
-3.923877280318486399e-02
-4.588117367090423920e-02
-2.482698623739893612e-02
-2.060161384722516975e-02
2.704064346796977714e-02
3.231627483676609118e-03
6.707069405026757107e-04
-1.459387500592325762e-03
3.744989571434602111e-03
1.445151147002196254e-02
3.464134131256576144e-03
-5.575626740574923627e-03
-1.852795535572517027e-02
-1.157572016690173837e-02
-4.262287127724796905e-03
-4.242973580649825674e-03
-4.944656732877504741e-03
-2.679672692512466425e-02
2.787588134699555027e-04
-2.204417408798246478e-02
7.358777980779103445e-02
-1.098733267746106190e-02
6.678072860978104958e-03
-1.066062513031033714e-02
-8.269431068616238389e-03
-9.810090865018959716e-03
8.961617265454999842e-03
-5.707693402910082045e-04
2.465855895526448960e-02
1.046294394361332696e-02
2.443867926383265499e-02
-1.805353653566401165e-02
-2.248028682841736806e-02
-9.620109898275205906e-03
-4.060469790997607077e-04
-3.977704085403108505e-03
1.963606111941343726e-02
-4.046676586126212588e-02
-1.803990640776810843e-03
4.774418527862701357e-03
-7.046012920123243158e-03
-8.081377292749554464e-03
-5.990985902116504648e-03
-1.385719261444609031e-02
7.247190670361167153e-02
1.042836410657682969e-02
1.403415481349901996e-02
8.471389852257581524e-03
-6.211651915620222328e-03
-2.818807061231361558e-03
-1.093871910263616819e-02
-5.968522352211813944e-03
-6.996208340633866887e-03
-2.024104621909867882e-02
-1.042431781925127338e-02
4.118183051806908329e-02
-2.173905114531765950e-02
-4.637547785861463254e-03
2.382957297709583852e-02
-1.031376571779525067e-03
-6.938063953856353668e-03
2.214359130231734196e-03
-1.606927943517620335e-03
-1.029359967871367777e-03
5.099969648190644592e-04
7.232946696388985620e-04
1.849664599380589211e-03
-8.542034265357636253e-04
-1.806824026145532631e-03
-9.654906577439729271e-03
2.762303187182717570e-02
-6.171712059869055231e-03
4.253077635043474476e-03
-1.145021067262949740e-03
1.662857010490407595e-03
-3.240046896710883396e-03
-1.332727991607846399e-02
1.556010674163646641e-02
1.764053152376049080e-02
-9.359537895346941791e-03
-2.148856296724673681e-02
4.731510813669221813e-03
-1.044876301427248751e-03
-6.080855609327537672e-03
4.168369428231318680e-05
1.644081594202558352e-02
-7.209186378081072766e-03
4.419116654578580244e-02
3.258082386765512664e-03
-7.723832534302381772e-03
-7.466548887493494428e-03
-7.100715556556391750e-03
-3.438978151814353623e-02
-4.790405732897601299e-02
-5.509897763539359054e-03
2.830499296902976372e-02
-2.723747974360127971e-02
7.473087853733397347e-04
2.576007670730960306e-03
2.053525386746474918e-02
2.848787154351785020e-02
-6.212835605123135513e-03
2.498535483565644116e-02
1.187602420049742660e-02
-1.088655497114309791e-02
-8.918162100073703108e-03
-5.135572718487829702e-03
-6.622818069622010348e-03
9.145644282959106532e-04
1.944123056766921750e-03
-1.421885480160048516e-02
8.366316865735849706e-03
1.511954824805380321e-02
-1.969642808756616806e-02
-4.848505464541805546e-03
1.817867763951828627e-02
-4.844877456366415182e-03
-2.979280747628316323e-02
2.856249820752143273e-02
1.106509542545328420e-03
7.406979597462809428e-04
-9.355758671004087840e-03
-1.144063764584045753e-02
1.553859948927676510e-02
4.640898594037892733e-03
-9.355808959353189083e-03
1.956799186767782875e-02
2.394417529830421970e-03
8.481923782827334793e-03
-1.426060832740237339e-05
-5.273662751411572862e-03
-1.222283171358052797e-02
-3.577769147662904214e-03
-2.145863100310812718e-02
-4.952583816515083830e-03
-1.102838869331402086e-02
-1.291479731348256802e-03
-3.840435042009650649e-03
-1.876322729019008415e-02
-4.112245325186260347e-03
6.544699090167147015e-02
-3.148036541490737555e-03
6.218545094032453500e-03
4.473707119236172529e-03
-3.155047379303555811e-03
2.852759074846307821e-03
-1.893474738454803625e-03
-1.509750190202429568e-03
-3.838702438663404038e-03
-2.241452408307548477e-03
3.557731023765831491e-03
3.292007483137266311e-03
1.672897406542616207e-03
-8.558539760353673894e-04
-2.045442848220000494e-03
1.637466660702839301e-04
-3.543633346953081308e-03
-7.575350465255341207e-04
1.316484489367192832e-02
3.208232855621982044e-02
1.807947727772574176e-02
-4.013512770886952692e-03
-3.530269659288140082e-03
-2.151472972854395413e-02
-3.351060352237290180e-02
1.183852988732627017e-02
2.130794571092107376e-02
1.815814434076427550e-02
-1.757810359066446643e-02
-1.292352111876075675e-02
2.492677464876767290e-03
-4.229554492694883976e-03
-1.906611820176827565e-02
1.249542799588207291e-02
-3.777465679237487772e-02
2.313620116060916693e-02
3.302895998537009464e-02
-1.790853818998304828e-02
-1.951453642238732897e-02
8.073119869118629624e-03
-1.535977606234722580e-03
-2.917677181813920287e-03
2.403190223206587081e-02
-5.820063952017281517e-04
-9.161554802471254949e-03
8.291877693428812215e-03
-5.812149838183775820e-03
-7.778783883725523367e-03
-6.071607824098507016e-03
-1.110645523257362127e-02
-3.733542616688640542e-03
2.764233163423138878e-02
2.084648160053194799e-03
1.046701636524302245e-02
-4.305152098101205568e-03
3.281839482649418199e-03
-2.433068569481356899e-02
1.801219166261843266e-02
1.307409536881327418e-03
5.881992060446683199e-03
1.153630344164363131e-03
-5.071269552418463181e-03
2.661054725709833743e-03
1.018514870520028336e-03
-2.496352364792220335e-02
2.425710738744821238e-02
1.546838004312344438e-02
6.673445400541687562e-03
-1.054327379446956883e-02
9.950592401863333700e-03
-8.149406485705066108e-03
-8.189080916137115446e-03
-2.946776403666492156e-02
2.553190128793949784e-02
2.031206024403469160e-02
-2.831343095804514116e-03
-1.317243857361542552e-04
1.829775608485525486e-03
-5.454997757990180662e-03
-8.715172145136115128e-03
-3.054049975579274309e-02
-6.291297827538282206e-02
-8.277349092542227171e-02
-8.114546547579624958e-02
3.918209822902664341e-02
3.108080105462492949e-03
-3.912801369259399920e-02
7.488247958864118273e-03
2.161815220758420975e-01
-1.905960930924163873e-03
-1.247481977931944042e-02
2.903261940422049558e-03
4.545685393804609412e-03
-4.062283002598278230e-03
5.346852360565185376e-03
6.936047225938025106e-03
-1.288783207887979560e-03
2.452736392851898213e-03
-5.815845737279246594e-04
-8.775527275992754022e-04
-3.643298746343163162e-03
4.450736239753738839e-03
3.484279420662218449e-03
-1.139510073435374363e-03
-4.145805932162116396e-03
2.782947173267352856e-04
5.280258695094921205e-03
-2.127928453733259799e-04
8.469425386165432140e-03
-1.574845728288657202e-04
4.753047487862958193e-03
-6.931446596015270953e-03
-1.147930227223258916e-02
-1.954942821961957664e-02
2.118217043180756209e-02
-9.345071953099968673e-03
2.356365448093448653e-02
3.728506454740209385e-03
-6.236052661840739940e-03
-2.967443590133422762e-03
-1.037633494278854783e-02
0.000000000000000000e+00
0.000000000000000000e+00
0.000000000000000000e+00
0.000000000000000000e+00
0.000000000000000000e+00
0.000000000000000000e+00
0.000000000000000000e+00
0.000000000000000000e+00
1.090422445930300070e-02
1.544252495088669578e-03
9.296325338749617147e-04
1.084132861370668173e-02
-4.030292383965011251e-03
-6.527831297170872543e-03
-3.122406097029141545e-03
-1.053890832380829576e-02
1.182606112398475358e-02
9.004152839132908634e-03
3.636898837348479657e-02
2.661455401305783380e-03
-1.570553194193397353e-02
7.527085499873546401e-03
-1.773067693462962099e-02
-3.395153436121822049e-02
1.700013640551438932e-03
-3.846451091650943642e-03
-1.813218924938614363e-02
-3.521743778797078398e-03
-5.249775789414537139e-03
1.552617486495304604e-03
1.022555761475503304e-02
1.727197116744693187e-02
-1.425797722801997944e-02
1.666075943725441391e-02
2.604676863074634110e-03
-6.893276366515760714e-04
3.131843151853645583e-03
8.008313122420807409e-03
2.481726202102131542e-03
-1.794001391203409179e-02
-7.527151253577427439e-03
-7.566407520698197921e-03
-9.813284190659681862e-04
9.297647289890097200e-03
7.665386180184410522e-03
-1.039282523237469074e-03
1.815685527428093483e-04
-3.043230623824475013e-05
2.496842210012786226e-03
1.211146692407693778e-02
-1.008440537325107182e-02
-9.024387330606523636e-05
-3.095846971308657391e-03
4.517748315892316895e-03
1.016126209500538280e-02
-1.601682332712161747e-02
-8.774145779489541828e-04
2.644049458431019933e-02
-4.263861937358713952e-03
-3.348712111914594995e-03
-4.156433570110148502e-03
-1.067026795634542244e-04
-5.118989738092484705e-03
-8.568379969321844244e-03
-1.732847749795748613e-02
-1.630838482182197027e-02
-3.683428047307345417e-03
4.974804281576412565e-03
1.343881737278227080e-02
2.451970067348712909e-02
1.073386294882419005e-03
-6.686418255641412081e-03
1.479141383019413067e-03
-4.259274077370323324e-04
-3.722250529243764238e-04
-2.388060958469467973e-04
-1.467577900604794048e-04
-1.090739931503912220e-04
-6.838656187779555771e-05
-1.179644814223917764e-04
3.484119999952067694e-03
-1.135840882873508616e-03
-1.354706179967691236e-02
1.255275839423395864e-02
4.627140237767000605e-03
-9.435816505772706350e-03
-3.003409577852768526e-03
6.458110134222870211e-03
-1.066210927179297822e-02
-1.918215875903481193e-02
-7.483881458889432049e-03
6.620869932349009992e-04
-4.093889551568483456e-03
1.999522402813459082e-02
1.328600538045233460e-03
1.943612748187097811e-02
8.411839508746186403e-04
4.465456279968606050e-03
3.608323953764824149e-03
4.553747197334810301e-03
-1.778536417765331709e-03
-2.041132859571633679e-03
-2.730396259815676737e-03
-6.918645844790218859e-03
-6.373003970316481158e-03
-8.520237268223338021e-04
4.938136088359732813e-03
-1.114717885411944595e-02
1.509927408681488621e-02
-6.030365550645046258e-03
9.209786212604639810e-03
-4.844624285875944077e-03
5.112091826665836510e-03
-1.695479574177019902e-02
7.999461274477803578e-04
8.458598411295837130e-03
1.047577313515225816e-02
-1.543578625192162891e-03
-1.179388863088670115e-02
5.445853497287349819e-03
1.980301127711942000e-02
2.548608691829442208e-03
-3.158792153922901445e-03
-3.307037400549806948e-03
-1.527802517499576591e-03
-4.067047962225871748e-03
4.292935198015047395e-03
-1.458387513276574940e-02
-1.108053221197503792e-03
1.459529191089364375e-03
-1.447767021825918004e-03
1.389044601883645006e-03
3.760772019092552959e-03
-1.121517423111918809e-03
-9.010353030812237552e-04
-2.030972842848999607e-03
9.595387621280720644e-05
-5.177365893662829680e-04
-2.273658669023439528e-04
-1.241080179399131709e-03
1.417774602165073131e-03
-1.545774573463257542e-03
4.933801250424297213e-04
1.524848605710705206e-03
-9.059979955640247396e-04
8.028479364678475826e-04
1.384054563016232173e-03
4.397034979698701473e-04
-8.661003734466660251e-04
-6.939272955801382720e-04
1.166754095055931324e-03
-1.327334427919051648e-03
-1.162641668024411027e-03
2.818332043388339578e-02
2.870190273292026750e-02
3.464052058750008347e-03
7.609160962588561172e-03
3.537289275683112508e-03
-1.451004820962963938e-02
-5.582303558617125044e-02
3.401445030434521039e-02
1.521730756030704665e-02
-1.071103542084171634e-02
-4.894440542590998075e-03
-8.152567883062396964e-03
-4.403233971220616404e-03
-7.743764158229400271e-03
-1.332671588870711424e-02
-4.287347449540507283e-02
-2.652450624835039905e-02
-8.137129252352113054e-03
-3.301053845278620075e-03
1.768669141493822358e-02
-6.785593029476169255e-03
1.663023154616627766e-02
5.330483390975788993e-02
1.078719371241877029e-02
1.063457530771284854e-02
4.066027766933156574e-03
4.509261122305880352e-03
5.096639204866353079e-03
-3.213036725694546833e-03
-8.678728163412524968e-03
-2.320193222512994743e-02
-1.619053144028901464e-02
-1.762042162990110766e-02
-7.767049425410324850e-03
1.292650034384979982e-02
1.716161216007772161e-02
-8.214542214006288409e-03
-3.684542838410049138e-03
2.338897504408926284e-02
-1.897564266315776571e-02
7.492741850830737273e-03
6.007915426360716654e-03
2.006317022186744278e-02
-6.766449224088547099e-03
-5.564646291054781320e-03
-2.779562939522470851e-03
5.224736187646633915e-04
1.374585165949069876e-01
3.405539616643340345e-02
1.859415784232513330e-02
-2.423387037359134993e-02
-4.546791762458253505e-02
-3.477223859261300426e-02
-3.335980904293407712e-02
-5.227423496994448165e-02
6.931342398805970294e-04
7.001546840557708491e-03
5.550976228685092217e-02
-4.752095648222374666e-03
-1.905959304512539615e-02
-6.006591361900552421e-03
-8.777278176018555103e-03
-2.460888513602236746e-02
3.898392162307015140e-03
1.312068656434851790e-03
5.146787971561224591e-03
2.006430487952117966e-03
2.516423509876372731e-03
-4.773286761015666999e-03
-2.800993738052801486e-04
-9.826716653310630517e-03
3.103251242919177625e-04
-4.546003530256826795e-04
8.690798784287537271e-03
-2.245342732747502429e-03
-1.669222180029394757e-03
-1.266986431935792582e-03
-1.040896139502872717e-03
-2.324076071338207483e-03
1.459973313906249995e-03
1.377700241492050030e-03
-4.873985265620386529e-04
-4.187391147163714426e-04
-3.919760492370063338e-04
-3.141378387054988546e-04
-2.703020057462163163e-04
-9.551200204311697259e-04
-5.946341441128984856e-03
-3.325357733838191308e-03
8.168376774165623730e-03
2.640675466936077357e-03
1.055629984870051601e-03
-2.738583262960951571e-04
-2.400653166358035883e-05
-2.295118193044897847e-03
1.076141853186147850e-02
1.803333183249664767e-02
-9.225289292055323734e-03
2.163894083938018402e-03
-5.032719165533530194e-03
-2.228670563903956386e-03
1.078734996432512919e-03
-1.555070042323584804e-02
1.289358527194378774e-02
9.010125367542665478e-03
9.046424595595441848e-03
-7.884386174694632196e-03
-4.467264866660829344e-03
-2.484080102878063329e-03
-6.023886371308525590e-03
-1.009051771953984981e-02
1.530531714892334819e-02
3.541264593953645946e-03
8.563361190060115018e-04
-1.975703341512349311e-03
2.726146804323270785e-03
-2.357907432965785852e-03
-1.207434386731130391e-02
-6.021110024416838867e-03
-2.154982322810851999e-03
-4.420290747675172972e-03
1.512296963213078738e-03
1.091118552862383601e-02
5.272562764123132125e-04
-1.883560827345442208e-03
4.148085243724466313e-04
-4.906713394790211853e-03
6.661224712367936653e-03
-1.724168459013107613e-02
-1.008322189917170396e-02
7.158344801802525061e-03
-8.205943963409461847e-03
2.591527247542096783e-04
-3.096072835997248484e-03
2.454820104978481729e-02
-8.342451374659129535e-04
2.440753713201438812e-03
-6.766119588782410540e-04
-3.705196520654969019e-04
-1.830888480498783744e-04
-1.164947965000107219e-04
-8.400316039626541751e-05
-1.757901598456328737e-04
-8.883890399266355193e-04
1.214493930068685432e-02
-7.707645258033759238e-03
3.387807533452396030e-03
7.025561985436854125e-03
-3.724225649809885432e-03
-2.866010867078730862e-03
-7.372038004727095480e-03
1.158113818709116845e-02
2.963516733261891659e-04
4.226252440095823286e-03
-3.540994946387898603e-03
-4.887701504313445543e-03
1.693044155338459158e-04
-2.305155470905563813e-03
-5.539194794440119481e-03
-7.412896133665461493e-04
-1.457216088587858296e-03
-6.694829418708076905e-04
1.012145580859663552e-02
5.644749626114942348e-04
-1.793593555206874409e-03
1.886069275725083590e-03
-7.910417847901127231e-03
-9.940658119611912175e-03
1.430402387112913662e-02
1.445318078743356056e-02
3.265178720353127499e-03
-1.210863483742500874e-03
-3.914943955870626296e-03
-1.114756027246876363e-03
-1.584116179244391548e-02
2.814055705477388689e-02
-6.438397765312822013e-03
-9.897091626931831324e-03
-4.153960975880948044e-03
1.056827154043047615e-03
9.402071643016116824e-04
-1.663435943707590155e-03
-7.984705061285348252e-03
2.972848291181104038e-02
5.324995110315340618e-02
-1.194218636037632474e-02
1.177677112644098627e-02
-1.029285847485124535e-02
-1.161140806762159597e-02
-1.266092610733173321e-02
-4.824782613122457348e-02
7.720523735878162541e-02
3.029388537239030912e-02
-7.708423554901666988e-04
-2.678184499292123391e-02
-2.640435182212876042e-02
-9.631313041300338870e-03
-5.295040360309136683e-03
-3.861573015902230316e-02
2.128119692783956706e-04
-6.264521141415105299e-02
-8.004871094779613186e-03
-1.785898925782484006e-02
-1.722230490552640464e-02
5.171327049589603993e-03
3.545601887457829234e-03
9.680163576595610109e-02
0.000000000000000000e+00
0.000000000000000000e+00
0.000000000000000000e+00
0.000000000000000000e+00
0.000000000000000000e+00
0.000000000000000000e+00
0.000000000000000000e+00
0.000000000000000000e+00
-8.552546487752218235e-03
3.607151184452375529e-03
1.126040903425624918e-03
-6.374709678879778019e-03
8.038341531602139975e-03
-8.755592178066613079e-03
-6.191249267042130827e-03
1.710256399226058738e-02
3.231627483676609118e-03
6.707069405026757107e-04
-1.459387500592325762e-03
3.744989571434602111e-03
1.445151147002196254e-02
3.464134131256576144e-03
-5.575626740574923627e-03
-1.852795535572517027e-02
1.029368628328475137e-02
-3.797188127894492692e-03
3.298655607116513476e-03
-7.055529133499011812e-03
-1.080637282661011007e-02
-7.556347096267208331e-03
-8.242487317230502014e-03
2.386558261110005227e-02
5.617313949243670293e-03
1.266037200691968491e-02
-1.703825380376228216e-02
1.548105272839671309e-02
-1.563650100320593261e-02
-1.564100376027900349e-03
-1.773607363714566759e-02
1.821619013558174738e-02
-3.369303565031789077e-04
-2.655253940994153211e-02
-2.075543270003884708e-02
2.631344681297098902e-03
-2.931721704173171142e-03
-1.129475084631619344e-02
1.961619556642943060e-02
3.962383476924639242e-02
-1.640212093999775592e-02
1.828561345270492567e-03
2.000338810056663530e-02
-6.297329960083352177e-03
-9.790723148006186607e-03
9.303456892852513373e-04
7.811307597031055643e-03
1.916571315933851940e-03
1.862806650508046918e-02
7.441215424002589271e-03
-2.333987156445658032e-02
-1.311299057119550554e-02
5.683218727940799950e-03
-3.811341877840033945e-03
-2.046670921540621330e-02
2.897841257187446298e-02
-1.869152049577237767e-02
-2.055387180711323522e-02
1.111073184564725751e-02
6.610629567134944720e-03
2.097697248287287708e-02
1.550227714048978134e-02
-7.187694032366865812e-03
-7.767524700892391477e-03
7.776336438453858302e-03
1.308185613324741245e-02
-1.443083182477184899e-04
-3.709816052427341877e-03
-3.250080454767803086e-03
8.390620906251096411e-03
-3.432344100296325865e-03
-1.871226455221319113e-02
-1.223700064666607967e-02
7.554162427706186123e-03
5.972178979161058519e-03
2.871538004884147642e-03
-1.713513134830466945e-03
3.975415138302524319e-03
9.878287070043312215e-04
-7.410609475561704892e-03
1.060839062880612922e-02
-4.535757267931301781e-03
-8.531908063172201351e-03
-1.315948303277590702e-03
-9.350223898498667349e-03
-9.622875322008249410e-03
1.134902305483705999e-02
1.139929917124480295e-02
-8.001121976833685048e-03
-2.790628546970545451e-02
-7.762243039296208048e-03
-4.523271013360325582e-03
-2.088212320711670643e-04
2.015968852684887902e-02
4.071920382922178047e-03
2.417013382149577061e-02
-1.453857376942306080e-02
2.891211116845076451e-02
-1.294918659292499654e-03
2.459411565322441092e-03
2.949575451072437501e-03
-7.040064672032381524e-03
-8.112424245092349163e-05
-1.136641684164677035e-02
-4.876096904161416647e-03
6.490738851238101077e-03
-4.274924347334610117e-03
-6.010104792319499560e-03
-6.435082404663777268e-03
-6.235444837003698698e-04
-4.299288413056513540e-03
2.002830249399810414e-02
8.520860389439846583e-03
7.891654039950063773e-03
-4.077089480066410990e-03
3.289049675039365603e-03
-7.391838509395330138e-03
-6.737144273634272824e-03
-8.100959046602615454e-03
6.605467205269349544e-03
1.610480647793090248e-02
-2.434329480698881401e-02
-2.357039323255434235e-02
-9.473354227269806943e-03
3.030617926993581929e-03
1.769596025045178794e-02
9.552197628806267590e-03
1.100345998263041296e-02
-1.416272292375742904e-02
4.089032003087141043e-02
9.593946176956750366e-03
-1.629598227618693149e-02
-5.258889315873451625e-03
-1.136486295591727404e-02
-5.428942667606757172e-03
2.027133931513679967e-03
-4.788539867756260587e-02
-2.725931204290813446e-03
1.368990057408617754e-02
1.648874728968922898e-02
8.548984329669939708e-03
4.496371999120184898e-03
1.221793624522752274e-02
-4.830610555939647555e-03
-1.073831546270595950e-03
1.333164832370438597e-02
-1.541725741867332362e-02
-2.018473817029503917e-02
-3.592011934134782536e-03
-1.054730105190061946e-02
-7.678457944451697915e-03
4.516194974202165230e-02
8.492464362571065101e-03
-1.240970776019038532e-02
6.501775372449842237e-03
-3.350022039517436007e-03
-1.303834968828472031e-02
5.994315066393454677e-05
-1.839667091522190559e-02
3.214056751752961821e-02
6.557804273472451116e-06
2.800763542526542738e-03
2.109626114368801618e-03
5.950598097060675121e-03
3.154891139043998699e-04
-4.048716827126074176e-03
2.775194807131679993e-03
-9.909512652139499181e-03
2.607240446823330324e-03
-8.691976195107021380e-03
1.868295753788114190e-04
-5.560820661924275113e-03
4.991472293148372166e-03
-1.793314408997566400e-04
-3.218569037864621278e-03
9.865155020445165110e-03
7.814565855480024373e-03
1.992536746607948342e-02
6.174934162509972471e-03
-6.601429350756617999e-03
-8.125768468284133919e-03
-6.710670834610336748e-03
-5.525148121478870925e-03
-6.951850708939524143e-03
2.802739277513735874e-02
2.440967386714166815e-03
5.423913672068872600e-03
-2.318891511786751528e-02
-6.047922862542296982e-03
-4.473227598735495837e-03
-2.943846213324335589e-03
7.616379585492491023e-04
-3.729578156863059407e-02
-3.170608456973588417e-03
4.187145196665110168e-03
-7.904562489907653033e-03
-1.131193397555822013e-04
2.757521826120459471e-02
3.628802877677941591e-03
1.309290551971977433e-02
-6.708533723023193431e-03
-2.084982394846605479e-03
3.255765804532322755e-02
1.921940646594337771e-03
-1.946889657530295661e-03
-5.375473815675983758e-03
-4.995320795758222479e-03
-1.336839830508326950e-02
-4.264123702582246593e-03
-7.609694354145252367e-03
-9.868863959881027381e-04
7.432485815863179926e-03
3.470384073966709896e-03
6.103056130302738150e-03
3.278987559625088592e-03
-7.424209127042118335e-03
2.214359130231734196e-03
-1.606927943517620335e-03
-1.029359967871367777e-03
5.099969648190644592e-04
7.232946696388985620e-04
1.849664599380589211e-03
-8.542034265357636253e-04
-1.806824026145532631e-03
-9.654906577439729271e-03
2.762303187182717570e-02
-6.171712059869055231e-03
4.253077635043474476e-03
-1.145021067262949740e-03
1.662857010490407595e-03
-3.240046896710883396e-03
-1.332727991607846399e-02
-3.476552280105532026e-03
6.478417169103745966e-03
4.312260496154622647e-03
-6.378358150631785461e-03
3.584611596746792739e-03
-2.966881323333712874e-04
-1.541551758056938998e-03
-2.682138940877537483e-03
1.903665902174199800e-02
1.116211435465673703e-02
-1.367179839150156444e-02
-1.511020481661496696e-02
1.146899216922429290e-03
-7.481881690938764875e-04
-4.539303851270600626e-03
2.723822635159851673e-03
1.644081594202558352e-02
-7.209186378081072766e-03
4.419116654578580244e-02
3.258082386765512664e-03
-7.723832534302381772e-03
-7.466548887493494428e-03
-7.100715556556391750e-03
-3.438978151814353623e-02
-2.660054237209303479e-02
5.124735600647436357e-03
2.312975233910705142e-02
1.559798399173549510e-03
4.246431178942941358e-03
-2.097878273713211453e-03
-2.921102216489153500e-03
-2.441194655575568920e-03
-3.219182545103469861e-03
1.309483742718764096e-02
-3.772709133113410010e-03
-6.408142539744927924e-03
-8.047997018087334892e-03
2.511707354652133032e-04
-8.107023611909235832e-04
8.912725434587209783e-03
2.360688931207336611e-02
6.765781807821365582e-03
-7.481019005496215672e-03
-6.038210830571718625e-03
-5.116596260929306104e-03
-3.288865180239826293e-03
-2.891013491941935108e-03
-5.556966350715736823e-03
-1.674054597046351067e-02
-2.231434061784906206e-02
-2.137295394948429336e-02
-1.158590769372629461e-02
-7.441177998707194409e-03
3.456591733220638028e-03
4.063558013175926596e-03
7.193477648383382606e-02
-2.346916925995211345e-02
2.816464927953829522e-02
3.074791494138404829e-02
-8.519347942411829595e-04
-3.913669165139456625e-03
-1.613918576583832365e-02
4.221661902623323123e-03
-1.876026713837457283e-02
1.041690775413249732e-02
2.271218954583219957e-02
-8.268451449354426511e-03
1.317854044771375570e-02
1.999088492842567965e-03
1.241956386777234812e-03
7.253379573477519715e-03
-4.853361075142135356e-02
-5.137489807559797103e-03
1.459140007697998101e-03
5.769943893587817056e-03
3.068342480860592608e-03
9.922342934696069469e-03
1.456408480899495320e-03
-4.238685065950724765e-03
-1.230000292423144917e-02
2.530966773390886434e-03
4.602894020252471310e-03
9.904887191446265331e-04
-1.763696430236479182e-03
7.704134883987072847e-04
-3.613050337175290104e-04
1.608891088857676956e-03
-8.378652626090360434e-03
1.087970657933007724e-03
-4.239787521556149033e-03
1.154257342701103719e-03
2.142499044617071288e-03
6.623987356476635120e-03
2.971353484906217972e-04
-8.081334224371304652e-04
-6.257928806225160692e-03
1.519793266036874573e-03
1.224510390759878456e-02
2.325136013741243082e-02
1.353171291957512221e-02
-2.085031764288621664e-02
-4.548754760753303573e-03
-1.777596715648045722e-02
-7.372930670503232559e-03
-7.587759363265066158e-04
-9.025055203211768302e-04
9.162784633738347163e-04
1.100619262909437656e-03
-4.799389075721458659e-04
-3.737536942074235857e-04
-3.008351725333284466e-04
7.989115046773087548e-04
-9.355808959353189083e-03
1.956799186767782875e-02
2.394417529830421970e-03
8.481923782827334793e-03
-1.426060832740237339e-05
-5.273662751411572862e-03
-1.222283171358052797e-02
-3.577769147662904214e-03
-9.309750936720777650e-03
1.751260692644345668e-02
9.401398816803855502e-03
9.014296412620984023e-03
4.876962989174515829e-04
-2.043826418280459203e-02
-6.495639620097401479e-03
-1.723437151629757821e-04
-1.214888006638735127e-02
-2.246519074295854138e-02
-2.042978751011787636e-02
-1.030577614396924538e-02
-4.328131340927103207e-03
1.675036892614510491e-03
2.383394294911138529e-03
6.561933461683443214e-02
-3.148036541490737555e-03
6.218545094032453500e-03
4.473707119236172529e-03
-3.155047379303555811e-03
2.852759074846307821e-03
-1.893474738454803625e-03
-1.509750190202429568e-03
-3.838702438663404038e-03
-2.241452408307548477e-03
3.557731023765831491e-03
3.292007483137266311e-03
1.672897406542616207e-03
-8.558539760353673894e-04
-2.045442848220000494e-03
1.637466660702839301e-04
-3.543633346953081308e-03
1.318373798899014418e-02
1.134331626703517087e-02
1.647262986984349142e-02
-1.633584861002028085e-02
-1.223437008613046696e-02
7.010451477709636614e-03
-4.385010478876436718e-03
-1.505490642855126029e-02
-2.072471027562539699e-03
1.158314084001618727e-02
7.921359405076334884e-04
-4.673490823071887318e-03
5.723347613567848812e-04
-3.532212618548706464e-03
9.027989194133398529e-04
-3.572235992110812768e-03
7.272629258986634078e-04
-1.618511396130279832e-03
8.933785304131551400e-04
3.431235842427704779e-03
-1.261485793987085838e-03
-9.855613942841602582e-04
-7.473429332317884114e-04
-4.389757811062081744e-04
-7.780850720706420504e-03
7.215240673559737868e-03
-1.939974929317386408e-03
-1.557888181761294191e-02
-2.760809775678959351e-03
-4.235612436145250702e-03
4.807798536942462127e-03
2.027309046895876127e-02
2.840946651817250618e-02
1.055606243124311561e-02
1.579015443641951233e-02
-9.035102383760347869e-03
-1.045424943483914439e-02
-6.822796552112661041e-03
-6.691085584407272836e-03
-2.175244943071572359e-02
-1.037674941622757953e-02
7.011469343727630768e-03
-5.852051131681716353e-03
-7.041003685001499205e-04
-1.218364820964210017e-03
1.370195237800287107e-03
-3.636890970039443564e-03
1.340649212588518151e-02
-1.761077252137479079e-02
4.335624016883175141e-03
4.438043744874756516e-03
-3.563988020807098370e-03
-4.026042419422765258e-03
-4.585682356474834673e-03
5.569224414288861252e-03
1.544359314203270703e-02
-2.397081866619596088e-02
-2.865878743518605540e-02
-8.769003908923109561e-03
3.847272351940330543e-02
1.291087850938498708e-03
-1.719278421426012962e-02
3.783508879735117316e-04
3.844923196624992073e-02
2.563438158798236541e-02
7.577104569419139748e-03
-3.847767421182888680e-03
5.228741362469073060e-04
-1.001232852237761602e-02
1.842560516352877154e-02
-1.795393099350559366e-02
-2.034593852011109053e-02
-3.070358532046269656e-02
-1.177338230227438498e-02
2.125712893398595468e-02
3.757235788552391875e-02
9.632887972571790164e-03
-1.166428027552714186e-03
7.892159100854691939e-03
-3.271113824264653552e-02
5.367241194577757057e-02
-3.261538990272423982e-03
-3.811990006636447811e-03
-3.893468039262742986e-02
-5.045096828346243810e-03
-5.302277901645759128e-03
-2.724559412085485188e-03
5.407731585836202289e-03
-2.924273762115551026e-02
-1.988473723141269758e-02
-9.150038304379654389e-03
5.700264193923422484e-03
1.265794236229247569e-02
1.190773676737593226e-02
1.447759137665872477e-02
1.353397845669731397e-02
3.021349577110894399e-02
-4.125220685787708494e-03
1.432315540611504498e-02
1.578186921170485202e-02
-1.340848216543390724e-02
4.075638227441058634e-04
-3.341127065685874000e-03
-3.985125429476544384e-02
-5.748813561036287927e-03
-6.766491182274434607e-03
6.985443413351247145e-04
2.795624021875639780e-03
5.434917591277035193e-03
-1.232005592564506397e-02
9.295589578124029487e-03
6.610685136343961120e-03
-2.917677181813920287e-03
2.403190223206587081e-02
-5.820063952017281517e-04
-9.161554802471254949e-03
8.291877693428812215e-03
-5.812149838183775820e-03
-7.778783883725523367e-03
-6.071607824098507016e-03
-1.110645523257362127e-02
-3.733542616688640542e-03
2.764233163423138878e-02
2.084648160053194799e-03
1.046701636524302245e-02
-4.305152098101205568e-03
3.281839482649418199e-03
-2.433068569481356899e-02
-1.407633590347660661e-02
1.013022973716675053e-02
1.262837147112091940e-02
-1.236351763175945993e-02
-4.544061719382854782e-03
4.503077788870501336e-03
7.601414580875969201e-04
2.962094799373168105e-03
3.248932020134425586e-02
-7.783463715578679658e-03
-7.481413179859348894e-03
1.037044705354356854e-02
-7.402373557381749548e-04
-7.154686511965952650e-04
-6.323934930378550916e-04
-2.550679085947719915e-02
-4.007926352492290544e-04
-1.039356484706740417e-03
7.350337691851120420e-04
3.146700922380251276e-03
2.130295227025650923e-04
-1.126554411964074713e-03
8.907669054702862903e-04
-2.418827587818171872e-03
2.425710738744821238e-02
1.546838004312344438e-02
6.673445400541687562e-03
-1.054327379446956883e-02
9.950592401863333700e-03
-8.149406485705066108e-03
-8.189080916137115446e-03
-2.946776403666492156e-02
2.553190128793949784e-02
2.031206024403469160e-02
-2.831343095804514116e-03
-1.317243857361542552e-04
1.829775608485525486e-03
-5.454997757990180662e-03
-8.715172145136115128e-03
-3.054049975579274309e-02
3.745600610037455851e-03
7.723303837574978931e-03
3.665544861915694813e-02
2.201667754396473276e-03
1.611821668222588461e-02
-1.167975420349598795e-03
-8.480104330500708859e-03
-5.679615775254143878e-02
4.929992707809333075e-02
2.772794345189592835e-02
-1.257351263984462543e-02
1.713895061180406923e-02
-7.705661036641301906e-03
-1.358262815661641365e-02
-4.354985288570300053e-03
-5.595003402012070637e-02
-1.589636561192115868e-02
-1.872566967970379706e-02
-2.073225296345598129e-02
-1.285870674188508214e-02
-1.159638032954132467e-02
-8.639130123145790513e-03
7.581040839513240870e-04
8.769040136570181720e-02
-1.067295671897218468e-02
-7.179652194648280909e-03
6.012744577500271116e-03
6.079273232013755919e-03
-2.167452606205718703e-03
1.262834189104210768e-02
-4.483063508769209726e-03
-2.172346719607491292e-04
1.730686161755823349e-02
9.803594926767557338e-03
3.195580576017062469e-02
-1.190459688990235139e-02
-6.135393813274010906e-03
-8.111801611760288341e-03
-1.468811560956670209e-03
-3.144565842860310573e-02
-1.940025744854049702e-02
-2.277154410631662337e-02
-2.788646632780102108e-02
9.514778703739884547e-02
3.975489082475037322e-02
-6.683457315113736606e-03
-2.254447236166947505e-02
-3.561648030270778142e-02
-3.727731776284446547e-02
-4.095034772213673735e-02
-2.692315051863498204e-02
4.916202843969126081e-03
-7.426400321763625178e-04
-5.727617804606279991e-03
9.378636081926513407e-03
9.732623491450316522e-02
2.010051841740985099e-02
1.993755090161703283e-02
1.287140195462087300e-02
-2.910741753262487217e-03
-1.432612613654394088e-02
-1.527205668263952910e-02
5.487503082164097920e-03
-2.588804978336587889e-02
4.866679752312690066e-03
-5.928108666287543876e-03
-4.577769098848312110e-03
5.887027781031921835e-03
3.501809520833195407e-03
8.778582511963070947e-03
-9.977669166719820015e-03
-2.550552634285199217e-03
-7.378411951904182732e-03
3.470689001206593571e-02
-2.275836889271792840e-02
8.202498151986714516e-05
-9.707791830892592913e-03
-7.567044911736376701e-03
-3.690322211660829708e-03
1.631302480532610330e-02
-5.567915584841197710e-03
-5.545709932458245395e-03
-3.482166475434877312e-03
-4.186755801293465078e-03
4.471342635373121090e-04
-4.527149929600503405e-04
-5.095616823958104948e-04
1.929769020584633579e-02
-4.487425624673752056e-02
-6.229175345340080133e-02
-7.824745777132534677e-03
-4.254565514483057281e-02
1.169091631458879510e-02
6.773939291784724509e-03
1.243114849204217734e-02
1.266404065236858001e-01
-1.905960930924163873e-03
-1.247481977931944042e-02
2.903261940422049558e-03
4.545685393804609412e-03
-4.062283002598278230e-03
5.346852360565185376e-03
6.936047225938025106e-03
-1.288783207887979560e-03
2.452736392851898213e-03
-5.815845737279246594e-04
-8.775527275992754022e-04
-3.643298746343163162e-03
4.450736239753738839e-03
3.484279420662218449e-03
-1.139510073435374363e-03
-4.145805932162116396e-03
-4.975078029972732074e-02
3.821563322821177472e-02
2.556954344633509055e-02
3.353228675582860946e-02
-7.431556833097300099e-03
-2.763832703512440064e-02
-9.854616467442876143e-03
-2.642182794983554545e-03
3.755765100734841794e-02
-2.185804250530537507e-02
-4.286848173311687271e-02
-1.367191286238863060e-02
-5.325145065712947115e-03
5.169411924447361167e-03
3.071466487335247804e-03
3.792505274739282894e-02
2.148274435920791148e-02
3.208641035566145439e-02
-3.610914290705592722e-02
-2.725716597972955429e-02
2.566161350054120549e-02
1.567591987588219660e-02
5.754236837388765347e-03
-3.729461604189608648e-02
1.215833580195597313e-01
-1.365008596668531617e-02
1.549826737216523573e-02
-3.636060263567648942e-02
-2.133639191197077289e-02
-1.933195738947273562e-02
-3.064807947243335454e-02
-1.575450801548623422e-02
-1.186571744671559639e-02
-1.035339454995882862e-02
-1.673112355865359960e-02
-8.134324657960510796e-03
-1.235078951444330830e-02
-8.347674063649213744e-03
-7.135307816485359812e-03
7.491833160786640078e-02
-3.840588921750368728e-02
-4.634222946430042317e-03
2.525156714685782358e-02
1.536506426328820840e-02
-1.211883138803481049e-03
1.033213951340528070e-02
1.153959074497483590e-02
-1.823636636578891690e-02
1.196777716658390018e-04
-5.823694181332866827e-04
1.288827638777371998e-02
-9.204953831227982372e-03
9.435092483300707355e-04
-4.215376149386867305e-03
5.108597754126392720e-04
-4.596237844341283718e-04
-1.647749686526721324e-02
-2.190177169973695978e-02
-1.459165987719998787e-02
2.024117674039212222e-02
2.258929336298910826e-03
4.715312830989914182e-03
7.484726887406444040e-03
1.827078264711676919e-02
-8.864421487406307087e-03
9.619348224291482743e-03
2.309573036109089858e-02
-9.304890471226064802e-03
-5.305493393462043863e-03
1.250353310980727162e-02
3.195877830054472384e-03
-2.493968417314970307e-02
-1.591649589933612219e-02
-2.516723210912424902e-02
2.348040280794078810e-02
1.274308545530137811e-03
6.188234451283009148e-03
3.354351013243384895e-03
1.904832968695620646e-03
4.881598221767435158e-03
-4.535540021136157812e-02
-3.637929782460071204e-02
-2.077475587693258102e-02
-4.121036878460457818e-03
2.666294721204291382e-02
2.001358868341632583e-02
1.218967475086041308e-02
4.776428014503569103e-02
2.160956004827292720e-02
-2.517538176777974965e-02
-4.551053981601960174e-02
-2.588064130592615184e-02
-6.412397403104510944e-03
1.402700326782118506e-02
1.036472453878683163e-02
5.697767243794908676e-02
-2.230044299823814510e-02
7.176440681471986383e-02
3.522186688196999454e-02
8.032055552129659451e-03
-3.089260224862985793e-03
-1.787284239622616289e-02
-1.912921961649896932e-02
-5.262656401299324604e-02
3.647915258216868906e-02
-1.954246947882426824e-02
1.030141130130499995e-02
-1.104917018023262101e-02
1.165280664024659352e-02
-1.281525354131286126e-02
1.564677165346421359e-02
-3.067324897681474039e-02
-2.108402656531034591e-02
-2.799182964785679878e-02
2.373570331631203595e-02
1.913559890059564686e-02
7.228847007566619257e-03
-4.126179438332086558e-03
5.465235479424531903e-03
-2.363349052399607922e-03
-1.420494221781268621e-02
-1.143110761696440863e-03
-1.080945117967487511e-02
6.156593919636813017e-04
-6.941976102376825643e-03
4.930153100242057329e-03
8.463367811645859315e-03
1.909029995770921209e-02
8.181770369909077689e-02
2.125468224838791343e-04
-1.180785891623678356e-02
-2.456916173815572313e-02
-1.147387598440280203e-02
-8.925561713162357552e-03
-1.423224506828525050e-05
-2.523955992454870317e-02
4.260060759611406303e-03
-1.027724606608291721e-02
-1.451500242940706280e-03
-9.070273808943967592e-03
-1.060551826132972867e-04
-8.234204338645188456e-03
-9.165845875695865369e-03
3.404506475531055010e-02
-3.304276221575286332e-02
1.299657315689686050e-04
-5.232691735743654187e-04
4.836668688555861330e-03
8.211934296063708866e-03
1.045982356936321980e-02
-1.130946343714312081e-03
1.105858544748974069e-02
-2.573329502776001976e-02
-9.188127506306697015e-03
-7.923846472778370287e-03
2.153641319775470575e-02
-9.264367266590739849e-03
-1.037191234599238281e-02
1.084816152634836446e-02
3.009697389532513950e-02
9.861913058058625545e-03
-2.133761184952063378e-02
-4.050136228423846518e-02
-1.664620491642769887e-02
-1.159893780266844747e-02
5.751023337241775377e-03
-2.115138581442063681e-03
7.658631903899690285e-02
-3.289219892978062498e-02
2.890962504068975841e-02
3.697109853753587777e-02
7.818187783823862032e-04
6.394330944682495577e-03
-4.504680850698523399e-03
3.921273094443275542e-03
-3.958126661525461498e-02
7.293670237180145677e-02
-1.402220614111922585e-03
-1.080351886020202747e-02
-9.871784077850746016e-04
-2.136334773580308294e-02
-9.728873437714313441e-03
-1.759743448333607116e-02
-1.105412883284898409e-02
-2.085035017621428288e-02
3.447323114867877764e-02
3.952253002437287888e-02
3.871188666833327158e-02
-5.022686568723180693e-03
-1.674520856026975174e-02
-5.679365002289570898e-03
-6.441003753388818698e-02
9.205016653671899141e-02
3.385797747501603436e-03
-1.290290136960198404e-02
5.137019281346083197e-03
-1.728287145533067420e-02
-1.232824213300480302e-02
-1.180346101798993366e-02
-4.625550758963919984e-02
-2.327655839263644347e-02
-1.280425962395835516e-03
1.049147129339731560e-02
4.090977771704132869e-03
3.349511159841640686e-03
8.819467961446036605e-03
-1.242576973302112441e-02
1.023132590166426353e-02
2.267388690226997128e-02
-4.282481395532299756e-02
-1.836132610555570033e-02
-1.260515801907611567e-02
3.775096236839611645e-03
2.310152054656131396e-02
1.063574863915313709e-02
1.360504575513079954e-02
-1.448385946526712726e-05
5.883168731951019664e-02
-1.161934973491621052e-02
-2.887253887996576660e-02
1.834183709464930895e-02
-8.645776590802756525e-04
-7.240095609084310976e-03
-2.856247867164772233e-02
4.965700603167098708e-03
-1.348809100512573383e-03
-4.947245209895105274e-04
-1.429099457084203034e-03
-8.212321901195429119e-04
1.201554294035735290e-03
-4.555147239937074499e-04
-1.617874904503293710e-03
8.332834961494983358e-03
-3.953642181992853347e-03
1.419575055093486894e-02
-2.073926627657094596e-02
9.820900012492174425e-04
3.009372022738067355e-04
-4.377274944100235932e-03
5.258570686711144283e-03
-1.473934957226863624e-03
-1.134986188586547791e-03
-1.134404225783248749e-03
-1.031214765524944349e-03
-8.638242072853215183e-04
-8.555924883915683610e-04
9.652757856724272128e-04
5.528681047126068372e-03
-6.135448727263408120e-02
-3.065460871674418730e-03
-2.586874458801552076e-02
3.683277986046596536e-02
2.244128262012843461e-02
1.495499419998318029e-02
-3.918649481609854171e-03
1.997828553335633320e-02
-4.790573083838069873e-02
-2.885512446387707500e-02
-2.045465824934906279e-02
1.693617638739807266e-02
-2.622799956024693055e-02
-1.097693627507190933e-02
1.359770026123485048e-02
1.038865727382927706e-01
-4.851980095739574783e-03
-4.169752189957979388e-02
-2.537403417919478071e-02
3.880338862530368412e-03
-1.876541465555093408e-02
-6.604280881752682721e-03
1.130562691421940248e-02
8.210726593506799398e-02
-5.122528591490457806e-02
-1.916137241167517255e-02
1.044616477963125796e-02
-3.232893341693347366e-03
3.226419459606771900e-02
1.902403724232448051e-02
7.765042967114805985e-04
1.110865075353813930e-02
4.709271183505246705e-02
-7.582524548331309386e-03
9.509758526822474634e-03
-2.819009344621057137e-02
-1.900086713218703677e-02
-1.502430718725021770e-02
-2.858018794802439071e-03
1.605334074690662610e-02
3.624058176416216498e-02
2.609220115962314693e-02
3.902593351316204634e-03
-2.068340469920445374e-02
2.183119385184034006e-02
-4.252733839496512097e-03
-6.737864318510282911e-03
-5.639256726973059658e-02
1.727225424213689464e-02
9.143312363120539507e-03
1.966947846163056863e-03
-1.350679883733366116e-02
-1.429706355536390465e-02
5.368077267000867341e-03
-2.110730926896765009e-05
-5.925622016454838541e-03
-6.822060736160985572e-02
3.803677407162948942e-02
3.907308590313243735e-02
-1.329337194532204786e-04
-1.030830745177789727e-02
5.181967629488492362e-04
7.422614074761968439e-03
-6.388822279631767992e-03
3.860194627864293321e-02
-1.562064423774662224e-02
-3.612603463599684678e-02
2.245424962414157427e-02
-8.035655518508180023e-03
-2.279380958959820874e-02
1.181346643816583164e-02
9.706481640899518662e-03
-3.665782322187600278e-02
1.401789436146141628e-03
4.449235150173269648e-02
-7.334701376087775400e-03
-1.166077256905798630e-02
1.794530412505639799e-02
6.365211201352460706e-03
-1.455135909726593298e-02
2.782947173267352856e-04
5.280258695094921205e-03
-2.127928453733259799e-04
8.469425386165432140e-03
-1.574845728288657202e-04
4.753047487862958193e-03
-6.931446596015270953e-03
-1.147930227223258916e-02
-1.332048020823622947e-02
2.855351847061612242e-02
-4.369196410059168582e-03
2.919759642380277687e-02
7.953793626334712194e-03
-3.954499983769322290e-03
-2.850836823894226969e-03
-4.120989509479465462e-02
-2.753707205658854299e-03
4.527574148986563893e-03
-3.994416644739621808e-04
-9.264316405512896570e-04
7.024340980951985667e-04
-2.799077378096781281e-04
-1.615114862295613995e-03
7.445948637076331986e-04
0.000000000000000000e+00
0.000000000000000000e+00
0.000000000000000000e+00
0.000000000000000000e+00
0.000000000000000000e+00
0.000000000000000000e+00
0.000000000000000000e+00
0.000000000000000000e+00
1.090422445930300070e-02
1.544252495088669578e-03
9.296325338749617147e-04
1.084132861370668173e-02
-4.030292383965011251e-03
-6.527831297170872543e-03
-3.122406097029141545e-03
-1.053890832380829576e-02
-1.081161576849098103e-02
-2.038122815681759140e-02
-1.286478756643462396e-02
-1.113066794111972936e-02
1.162629894067168830e-02
1.192488749798764625e-02
1.067775326522609446e-02
2.095935972897751756e-02
1.182606112398475358e-02
9.004152839132908634e-03
3.636898837348479657e-02
2.661455401305783380e-03
-1.570553194193397353e-02
7.527085499873546401e-03
-1.773067693462962099e-02
-3.395153436121822049e-02
1.251162940904242127e-02
1.653477706516665729e-02
-5.267401682951516201e-03
7.608924162322641856e-03
-1.687607473008622197e-02
-1.037227001149234121e-02
-4.521956504710587061e-04
-3.687388561530583093e-03
-1.425797722801997944e-02
1.666075943725441391e-02
2.604676863074634110e-03
-6.893276366515760714e-04
3.131843151853645583e-03
8.008313122420807409e-03
2.481726202102131542e-03
-1.794001391203409179e-02
2.496842210012786226e-03
1.211146692407693778e-02
-1.008440537325107182e-02
-9.024387330606523636e-05
-3.095846971308657391e-03
4.517748315892316895e-03
1.016126209500538280e-02
-1.601682332712161747e-02
-8.774145779489541828e-04
2.644049458431019933e-02
-4.263861937358713952e-03
-3.348712111914594995e-03
-4.156433570110148502e-03
-1.067026795634542244e-04
-5.118989738092484705e-03
-8.568379969321844244e-03
-7.180138293815541313e-03
-6.216732567029342738e-03
5.986338039240446298e-04
-1.142343833099242027e-03
4.287175521781847604e-03
1.377096249141962492e-02
4.144758637050736071e-03
-8.262315760232129963e-03
-1.014833920414194741e-02
-1.009165225479262927e-02
-4.282061851231388529e-03
6.117148114675651990e-03
9.151641851000419728e-03
1.074873818206748856e-02
-3.071372342168315981e-03
1.575897504590717665e-03
1.479141383019413067e-03
-4.259274077370323324e-04
-3.722250529243764238e-04
-2.388060958469467973e-04
-1.467577900604794048e-04
-1.090739931503912220e-04
-6.838656187779555771e-05
-1.179644814223917764e-04
-7.527151253577427439e-03
-7.566407520698197921e-03
-9.813284190659681862e-04
9.297647289890097200e-03
7.665386180184410522e-03
-1.039282523237469074e-03
1.815685527428093483e-04
-3.043230623824475013e-05
3.484119999952067694e-03
-1.135840882873508616e-03
-1.354706179967691236e-02
1.255275839423395864e-02
4.627140237767000605e-03
-9.435816505772706350e-03
-3.003409577852768526e-03
6.458110134222870211e-03
-1.066210927179297822e-02
-1.918215875903481193e-02
-7.483881458889432049e-03
6.620869932349009992e-04
-4.093889551568483456e-03
1.999522402813459082e-02
1.328600538045233460e-03
1.943612748187097811e-02
8.411839508746186403e-04
4.465456279968606050e-03
3.608323953764824149e-03
4.553747197334810301e-03
-1.778536417765331709e-03
-2.041132859571633679e-03
-2.730396259815676737e-03
-6.918645844790218859e-03
-6.373003970316481158e-03
-8.520237268223338021e-04
4.938136088359732813e-03
-1.114717885411944595e-02
1.509927408681488621e-02
-6.030365550645046258e-03
9.209786212604639810e-03
-4.844624285875944077e-03
5.112091826665836510e-03
-1.695479574177019902e-02
7.999461274477803578e-04
8.458598411295837130e-03
1.047577313515225816e-02
-1.543578625192162891e-03
-1.179388863088670115e-02
5.445853497287349819e-03
1.980301127711942000e-02
2.548608691829442208e-03
-3.158792153922901445e-03
-3.307037400549806948e-03
-1.527802517499576591e-03
-4.067047962225871748e-03
4.292935198015047395e-03
-1.458387513276574940e-02
-9.059979955640247396e-04
8.028479364678475826e-04
1.384054563016232173e-03
4.397034979698701473e-04
-8.661003734466660251e-04
-6.939272955801382720e-04
1.166754095055931324e-03
-1.327334427919051648e-03
-1.108053221197503792e-03
1.459529191089364375e-03
-1.447767021825918004e-03
1.389044601883645006e-03
3.760772019092552959e-03
-1.121517423111918809e-03
-9.010353030812237552e-04
-2.030972842848999607e-03
9.595387621280720644e-05
-5.177365893662829680e-04
-2.273658669023439528e-04
-1.241080179399131709e-03
1.417774602165073131e-03
-1.545774573463257542e-03
4.933801250424297213e-04
1.524848605710705206e-03
-1.446003612550153181e-02
-1.607631204688488025e-02
1.135562812102341827e-02
-3.300035103518064988e-03
4.854064345515451268e-03
-2.403301634803896238e-04
-4.219579414656922725e-03
2.208660038750292348e-02
-1.162641668024411027e-03
2.818332043388339578e-02
2.870190273292026750e-02
3.464052058750008347e-03
7.609160962588561172e-03
3.537289275683112508e-03
-1.451004820962963938e-02
-5.582303558617125044e-02
3.401445030434521039e-02
1.521730756030704665e-02
-1.071103542084171634e-02
-4.894440542590998075e-03
-8.152567883062396964e-03
-4.403233971220616404e-03
-7.743764158229400271e-03
-1.332671588870711424e-02
4.398978298428789235e-02
2.545544085632628004e-02
-3.843263708913055576e-02
-1.175804499511394485e-02
-1.135105301961938581e-02
-1.103921265328288923e-02
-1.082300485157428353e-03
4.218024401690018826e-03
5.318743786046022798e-02
-8.345835988942285066e-03
-1.231785279446752368e-02
-1.684854002190546915e-02
2.671720017351262612e-03
-1.501438705389858755e-02
-3.501470938096504140e-03
1.689289194988670677e-04
-4.287347449540507283e-02
-2.652450624835039905e-02
-8.137129252352113054e-03
-3.301053845278620075e-03
1.768669141493822358e-02
-6.785593029476169255e-03
1.663023154616627766e-02
5.330483390975788993e-02
1.078719371241877029e-02
1.063457530771284854e-02
4.066027766933156574e-03
4.509261122305880352e-03
5.096639204866353079e-03
-3.213036725694546833e-03
-8.678728163412524968e-03
-2.320193222512994743e-02
-1.619053144028901464e-02
-1.762042162990110766e-02
-7.767049425410324850e-03
1.292650034384979982e-02
1.716161216007772161e-02
-8.214542214006288409e-03
-3.684542838410049138e-03
2.338897504408926284e-02
-9.251807949765383440e-03
2.977179243704796210e-02
-1.048605945295463110e-02
2.527372384972119412e-02
-1.833525286376728319e-02
-1.080340483569107272e-02
-1.074641703808754210e-03
-5.094349480782011177e-03
2.563438158798236541e-02
7.577104569419139748e-03
-3.847767421182888680e-03
5.228741362469073060e-04
-1.001232852237761602e-02
1.842560516352877154e-02
-1.795393099350559366e-02
-2.034593852011109053e-02
6.931342398805970294e-04
7.001546840557708491e-03
5.550976228685092217e-02
-4.752095648222374666e-03
-1.905959304512539615e-02
-6.006591361900552421e-03
-8.777278176018555103e-03
-2.460888513602236746e-02
3.898392162307015140e-03
1.312068656434851790e-03
5.146787971561224591e-03
2.006430487952117966e-03
2.516423509876372731e-03
-4.773286761015666999e-03
-2.800993738052801486e-04
-9.826716653310630517e-03
-9.723834713392373597e-03
-2.227905058621721529e-02
1.649397487931535122e-02
-5.210553627853733993e-03
1.156880363967873089e-02
5.238758544636294007e-03
-1.704921235713717292e-03
5.616823099546673810e-03
3.103251242919177625e-04
-4.546003530256826795e-04
8.690798784287537271e-03
-2.245342732747502429e-03
-1.669222180029394757e-03
-1.266986431935792582e-03
-1.040896139502872717e-03
-2.324076071338207483e-03
1.459973313906249995e-03
1.377700241492050030e-03
-4.873985265620386529e-04
-4.187391147163714426e-04
-3.919760492370063338e-04
-3.141378387054988546e-04
-2.703020057462163163e-04
-9.551200204311697259e-04
-5.946341441128984856e-03
-3.325357733838191308e-03
8.168376774165623730e-03
2.640675466936077357e-03
1.055629984870051601e-03
-2.738583262960951571e-04
-2.400653166358035883e-05
-2.295118193044897847e-03
1.076141853186147850e-02
1.803333183249664767e-02
-9.225289292055323734e-03
2.163894083938018402e-03
-5.032719165533530194e-03
-2.228670563903956386e-03
1.078734996432512919e-03
-1.555070042323584804e-02
1.289358527194378774e-02
9.010125367542665478e-03
9.046424595595441848e-03
-7.884386174694632196e-03
-4.467264866660829344e-03
-2.484080102878063329e-03
-6.023886371308525590e-03
-1.009051771953984981e-02
1.817535327858009475e-02
1.112656822986019672e-02
5.741554915739452425e-03
3.170575131183865115e-03
5.502563995884664043e-03
-2.630038008288808349e-03
-1.267897992401514039e-02
-2.840759761894432606e-02
-2.870036129656748300e-03
-7.585303635906549477e-03
-4.885218796733443308e-03
-5.146278472696215293e-03
-2.776417191561395860e-03
2.721305753230218467e-04
6.046360567038344203e-04
2.238648759452750020e-02
-2.154982322810851999e-03
-4.420290747675172972e-03
1.512296963213078738e-03
1.091118552862383601e-02
5.272562764123132125e-04
-1.883560827345442208e-03
4.148085243724466313e-04
-4.906713394790211853e-03
6.661224712367936653e-03
-1.724168459013107613e-02
-1.008322189917170396e-02
7.158344801802525061e-03
-8.205943963409461847e-03
2.591527247542096783e-04
-3.096072835997248484e-03
2.454820104978481729e-02
-8.342451374659129535e-04
2.440753713201438812e-03
-6.766119588782410540e-04
-3.705196520654969019e-04
-1.830888480498783744e-04
-1.164947965000107219e-04
-8.400316039626541751e-05
-1.757901598456328737e-04
-8.883890399266355193e-04
1.214493930068685432e-02
-7.707645258033759238e-03
3.387807533452396030e-03
7.025561985436854125e-03
-3.724225649809885432e-03
-2.866010867078730862e-03
-7.372038004727095480e-03
1.158113818709116845e-02
2.963516733261891659e-04
4.226252440095823286e-03
-3.540994946387898603e-03
-4.887701504313445543e-03
1.693044155338459158e-04
-2.305155470905563813e-03
-5.539194794440119481e-03
-7.412896133665461493e-04
-1.457216088587858296e-03
-6.694829418708076905e-04
1.012145580859663552e-02
5.644749626114942348e-04
-1.793593555206874409e-03
1.886069275725083590e-03
-7.910417847901127231e-03
-9.940658119611912175e-03
1.430402387112913662e-02
1.445318078743356056e-02
3.265178720353127499e-03
-1.210863483742500874e-03
-3.914943955870626296e-03
-1.114756027246876363e-03
-1.584116179244391548e-02
2.814055705477388689e-02
-6.438397765312822013e-03
-9.897091626931831324e-03
-4.153960975880948044e-03
1.056827154043047615e-03
9.402071643016116824e-04
-1.663435943707590155e-03
-7.984705061285348252e-03
2.972848291181104038e-02
5.324995110315340618e-02
-1.194218636037632474e-02
1.177677112644098627e-02
-1.029285847485124535e-02
-1.161140806762159597e-02
-1.266092610733173321e-02
-4.824782613122457348e-02
7.720523735878162541e-02
3.029388537239030912e-02
-7.708423554901666988e-04
-2.678184499292123391e-02
-2.640435182212876042e-02
-9.631313041300338870e-03
-5.295040360309136683e-03
-3.861573015902230316e-02
-6.158518103373725357e-03
-6.567776550615099518e-03
4.538286596315828955e-04
1.802683003906285254e-03
1.204341311011076967e-03
1.709807568101000307e-03
2.521328889747915299e-04
7.303501222364090252e-03
2.128119692783956706e-04
-6.264521141415105299e-02
-8.004871094779613186e-03
-1.785898925782484006e-02
-1.722230490552640464e-02
5.171327049589603993e-03
3.545601887457829234e-03
9.680163576595610109e-02
0.000000000000000000e+00
0.000000000000000000e+00
0.000000000000000000e+00
0.000000000000000000e+00
0.000000000000000000e+00
0.000000000000000000e+00
0.000000000000000000e+00
0.000000000000000000e+00
-2.394028384378491144e-03
1.017492773506748806e-02
6.722122437940421854e-04
-8.177392682786062406e-03
6.834000220591061707e-03
-1.046539974616760883e-02
-6.443382156016926043e-03
9.799062769896504932e-03
-9.620937821403784162e-04
-1.352178087483588186e-03
-1.337467244121544113e-03
-9.487815061469782743e-04
-7.577405464266059138e-04
-5.419822852261213563e-04
1.275998622100852145e-03
4.624244829444366066e-03
4.193721265816984824e-03
2.022885027986263788e-03
-1.219202564707817576e-04
4.693771077581580277e-03
1.520925201644856770e-02
4.006116416482695224e-03
-6.851625362675771436e-03
-2.315220018516954067e-02
1.029368628328475137e-02
-3.797188127894492692e-03
3.298655607116513476e-03
-7.055529133499011812e-03
-1.080637282661011007e-02
-7.556347096267208331e-03
-8.242487317230502014e-03
2.386558261110005227e-02
5.617313949243670293e-03
1.266037200691968491e-02
-1.703825380376228216e-02
1.548105272839671309e-02
-1.563650100320593261e-02
-1.564100376027900349e-03
-1.773607363714566759e-02
1.821619013558174738e-02
-3.369303565031789077e-04
-2.655253940994153211e-02
-2.075543270003884708e-02
2.631344681297098902e-03
-2.931721704173171142e-03
-1.129475084631619344e-02
1.961619556642943060e-02
3.962383476924639242e-02
-1.683194153283122663e-02
8.610902148009391341e-03
2.518184633653634125e-02
-1.047607694107616531e-03
2.221803415398713668e-05
5.329515457600876409e-03
-4.743220710838760498e-03
-1.652171203852298431e-02
-1.640212093999775592e-02
1.828561345270492567e-03
2.000338810056663530e-02
-6.297329960083352177e-03
-9.790723148006186607e-03
9.303456892852513373e-04
7.811307597031055643e-03
1.916571315933851940e-03
1.862806650508046918e-02
7.441215424002589271e-03
-2.333987156445658032e-02
-1.311299057119550554e-02
5.683218727940799950e-03
-3.811341877840033945e-03
-2.046670921540621330e-02
2.897841257187446298e-02
-2.077073860171799527e-02
-1.001621966593819503e-02
-1.488753754439327975e-02
1.647163138181938907e-02
1.896872396932472102e-02
1.773043543023476373e-02
-1.852973040052624878e-02
1.103343543119685889e-02
2.079218105945610656e-03
-1.053765214117504193e-02
2.599826939004053900e-02
-9.861001814684439148e-03
2.008248513548163000e-03
-2.228158289744967650e-03
1.134203636815937430e-02
-1.880096013208923736e-02
-1.223700064666607967e-02
7.554162427706186123e-03
5.972178979161058519e-03
2.871538004884147642e-03
-1.713513134830466945e-03
3.975415138302524319e-03
9.878287070043312215e-04
-7.410609475561704892e-03
7.776336438453858302e-03
1.308185613324741245e-02
-1.443083182477184899e-04
-3.709816052427341877e-03
-3.250080454767803086e-03
8.390620906251096411e-03
-3.432344100296325865e-03
-1.871226455221319113e-02
1.060839062880612922e-02
-4.535757267931301781e-03
-8.531908063172201351e-03
-1.315948303277590702e-03
-9.350223898498667349e-03
-9.622875322008249410e-03
1.134902305483705999e-02
1.139929917124480295e-02
-8.001121976833685048e-03
-2.790628546970545451e-02
-7.762243039296208048e-03
-4.523271013360325582e-03
-2.088212320711670643e-04
2.015968852684887902e-02
4.071920382922178047e-03
2.417013382149577061e-02
-1.453857376942306080e-02
2.891211116845076451e-02
-1.294918659292499654e-03
2.459411565322441092e-03
2.949575451072437501e-03
-7.040064672032381524e-03
-8.112424245092349163e-05
-1.136641684164677035e-02
1.642845997295710320e-02
-8.184916890052939750e-04
2.671460915612979166e-03
-1.954668282588530926e-04
-6.115762679356450716e-03
-3.534462105661130820e-03
-2.622770677057477970e-04
-8.173460518582604389e-03
-4.876096904161416647e-03
6.490738851238101077e-03
-4.274924347334610117e-03
-6.010104792319499560e-03
-6.435082404663777268e-03
-6.235444837003698698e-04
-4.299288413056513540e-03
2.002830249399810414e-02
8.520860389439846583e-03
7.891654039950063773e-03
-4.077089480066410990e-03
3.289049675039365603e-03
-7.391838509395330138e-03
-6.737144273634272824e-03
-8.100959046602615454e-03
6.605467205269349544e-03
1.610480647793090248e-02
-2.434329480698881401e-02
-2.357039323255434235e-02
-9.473354227269806943e-03
3.030617926993581929e-03
1.769596025045178794e-02
9.552197628806267590e-03
1.100345998263041296e-02
-1.416272292375742904e-02
4.089032003087141043e-02
9.593946176956750366e-03
-1.629598227618693149e-02
-5.258889315873451625e-03
-1.136486295591727404e-02
-5.428942667606757172e-03
2.027133931513679967e-03
-1.686155088995202125e-02
4.545603351056295982e-02
-2.761168618900936619e-03
-8.936792030458790698e-03
-5.587869569947211254e-04
-6.665812781253144768e-03
-1.257565766522302821e-02
2.903735432219685560e-03
-4.788539867756260587e-02
-2.725931204290813446e-03
1.368990057408617754e-02
1.648874728968922898e-02
8.548984329669939708e-03
4.496371999120184898e-03
1.221793624522752274e-02
-4.830610555939647555e-03
1.578771934368141880e-02
-3.212438518685856170e-02
-1.265608879977238657e-02
-1.124794613983624500e-02
-3.033224977140060868e-03
-3.881488270647480334e-03
4.897199720771330290e-03
4.225821430980201271e-02
1.623619746335606961e-02
-3.042545341916087038e-04
1.494934813397950403e-02
5.185822614441999538e-03
-1.020222619301851957e-02
2.343568152532175992e-03
-1.840533908502207244e-02
-9.803116552077535337e-03
6.557804273472451116e-06
2.800763542526542738e-03
2.109626114368801618e-03
5.950598097060675121e-03
3.154891139043998699e-04
-4.048716827126074176e-03
2.775194807131679993e-03
-9.909512652139499181e-03
2.607240446823330324e-03
-8.691976195107021380e-03
1.868295753788114190e-04
-5.560820661924275113e-03
4.991472293148372166e-03
-1.793314408997566400e-04
-3.218569037864621278e-03
9.865155020445165110e-03
7.814565855480024373e-03
1.992536746607948342e-02
6.174934162509972471e-03
-6.601429350756617999e-03
-8.125768468284133919e-03
-6.710670834610336748e-03
-5.525148121478870925e-03
-6.951850708939524143e-03
2.802739277513735874e-02
2.440967386714166815e-03
5.423913672068872600e-03
-2.318891511786751528e-02
-6.047922862542296982e-03
-4.473227598735495837e-03
-2.943846213324335589e-03
7.616379585492491023e-04
-3.729578156863059407e-02
-3.170608456973588417e-03
4.187145196665110168e-03
-7.904562489907653033e-03
-1.131193397555822013e-04
2.757521826120459471e-02
3.628802877677941591e-03
1.309290551971977433e-02
-6.708533723023193431e-03
-2.084982394846605479e-03
3.255765804532322755e-02
1.921940646594337771e-03
-1.946889657530295661e-03
-5.375473815675983758e-03
-4.995320795758222479e-03
-1.336839830508326950e-02
-4.264123702582246593e-03
-7.609694354145252367e-03
-9.868863959881027381e-04
7.432485815863179926e-03
3.470384073966709896e-03
6.103056130302738150e-03
3.278987559625088592e-03
-7.424209127042118335e-03
2.214359130231734196e-03
-1.606927943517620335e-03
-1.029359967871367777e-03
5.099969648190644592e-04
7.232946696388985620e-04
1.849664599380589211e-03
-8.542034265357636253e-04
-1.806824026145532631e-03
-6.901199371780866731e-03
2.309545772284062395e-02
-5.772270395395090285e-03
5.179509275594768036e-03
-1.847455165358147982e-03
1.942764748300085777e-03
-1.624932034415268534e-03
-1.407187477978609491e-02
-3.476552280105532026e-03
6.478417169103745966e-03
4.312260496154622647e-03
-6.378358150631785461e-03
3.584611596746792739e-03
-2.966881323333712874e-04
-1.541551758056938998e-03
-2.682138940877537483e-03
1.903665902174199800e-02
1.116211435465673703e-02
-1.367179839150156444e-02
-1.511020481661496696e-02
1.146899216922429290e-03
-7.481881690938764875e-04
-4.539303851270600626e-03
2.723822635159851673e-03
1.644081594202558352e-02
-7.209186378081072766e-03
4.419116654578580244e-02
3.258082386765512664e-03
-7.723832534302381772e-03
-7.466548887493494428e-03
-7.100715556556391750e-03
-3.438978151814353623e-02
-3.219182545103469861e-03
1.309483742718764096e-02
-3.772709133113410010e-03
-6.408142539744927924e-03
-8.047997018087334892e-03
2.511707354652133032e-04
-8.107023611909235832e-04
8.912725434587209783e-03
-2.660054237209303479e-02
5.124735600647436357e-03
2.312975233910705142e-02
1.559798399173549510e-03
4.246431178942941358e-03
-2.097878273713211453e-03
-2.921102216489153500e-03
-2.441194655575568920e-03
-1.674054597046351067e-02
-2.231434061784906206e-02
-2.137295394948429336e-02
-1.158590769372629461e-02
-7.441177998707194409e-03
3.456591733220638028e-03
4.063558013175926596e-03
7.193477648383382606e-02
-2.346916925995211345e-02
2.816464927953829522e-02
3.074791494138404829e-02
-8.519347942411829595e-04
-3.913669165139456625e-03
-1.613918576583832365e-02
4.221661902623323123e-03
-1.876026713837457283e-02
1.041690775413249732e-02
2.271218954583219957e-02
-8.268451449354426511e-03
1.317854044771375570e-02
1.999088492842567965e-03
1.241956386777234812e-03
7.253379573477519715e-03
-4.853361075142135356e-02
-5.137489807559797103e-03
1.459140007697998101e-03
5.769943893587817056e-03
3.068342480860592608e-03
9.922342934696069469e-03
1.456408480899495320e-03
-4.238685065950724765e-03
-1.230000292423144917e-02
2.530966773390886434e-03
4.602894020252471310e-03
9.904887191446265331e-04
-1.763696430236479182e-03
7.704134883987072847e-04
-3.613050337175290104e-04
1.608891088857676956e-03
-8.378652626090360434e-03
1.087970657933007724e-03
-4.239787521556149033e-03
1.154257342701103719e-03
2.142499044617071288e-03
6.623987356476635120e-03
2.971353484906217972e-04
-8.081334224371304652e-04
-6.257928806225160692e-03
1.519793266036874573e-03
1.224510390759878456e-02
2.325136013741243082e-02
1.353171291957512221e-02
-2.085031764288621664e-02
-4.548754760753303573e-03
-1.777596715648045722e-02
-7.372930670503232559e-03
-7.587759363265066158e-04
-9.025055203211768302e-04
9.162784633738347163e-04
1.100619262909437656e-03
-4.799389075721458659e-04
-3.737536942074235857e-04
-3.008351725333284466e-04
7.989115046773087548e-04
-9.355808959353189083e-03
1.956799186767782875e-02
2.394417529830421970e-03
8.481923782827334793e-03
-1.426060832740237339e-05
-5.273662751411572862e-03
-1.222283171358052797e-02
-3.577769147662904214e-03
-1.684544997034152086e-02
1.666492053514357849e-02
1.376247488212300682e-02
-8.501157093915407206e-03
3.976187681960797679e-03
-1.417815037999843597e-02
-2.976692620702360136e-03
8.097866965730346825e-03
-1.214888006638735127e-02
-2.246519074295854138e-02
-2.042978751011787636e-02
-1.030577614396924538e-02
-4.328131340927103207e-03
1.675036892614510491e-03
2.383394294911138529e-03
6.561933461683443214e-02
7.535699033620747549e-03
8.476863912998778639e-04
-4.361076065319155655e-03
1.751545350653638602e-02
-3.488491383043344253e-03
-6.260113802806153462e-03
-3.518946999395039174e-03
-8.270210680893322688e-03
-3.148036541490737555e-03
6.218545094032453500e-03
4.473707119236172529e-03
-3.155047379303555811e-03
2.852759074846307821e-03
-1.893474738454803625e-03
-1.509750190202429568e-03
-3.838702438663404038e-03
-2.241452408307548477e-03
3.557731023765831491e-03
3.292007483137266311e-03
1.672897406542616207e-03
-8.558539760353673894e-04
-2.045442848220000494e-03
1.637466660702839301e-04
-3.543633346953081308e-03
1.318373798899014418e-02
1.134331626703517087e-02
1.647262986984349142e-02
-1.633584861002028085e-02
-1.223437008613046696e-02
7.010451477709636614e-03
-4.385010478876436718e-03
-1.505490642855126029e-02
-2.072471027562539699e-03
1.158314084001618727e-02
7.921359405076334884e-04
-4.673490823071887318e-03
5.723347613567848812e-04
-3.532212618548706464e-03
9.027989194133398529e-04
-3.572235992110812768e-03
7.272629258986634078e-04
-1.618511396130279832e-03
8.933785304131551400e-04
3.431235842427704779e-03
-1.261485793987085838e-03
-9.855613942841602582e-04
-7.473429332317884114e-04
-4.389757811062081744e-04
-7.780850720706420504e-03
7.215240673559737868e-03
-1.939974929317386408e-03
-1.557888181761294191e-02
-2.760809775678959351e-03
-4.235612436145250702e-03
4.807798536942462127e-03
2.027309046895876127e-02
2.840946651817250618e-02
1.055606243124311561e-02
1.579015443641951233e-02
-9.035102383760347869e-03
-1.045424943483914439e-02
-6.822796552112661041e-03
-6.691085584407272836e-03
-2.175244943071572359e-02
-1.037674941622757953e-02
7.011469343727630768e-03
-5.852051131681716353e-03
-7.041003685001499205e-04
-1.218364820964210017e-03
1.370195237800287107e-03
-3.636890970039443564e-03
1.340649212588518151e-02
-1.761077252137479079e-02
4.335624016883175141e-03
4.438043744874756516e-03
-3.563988020807098370e-03
-4.026042419422765258e-03
-4.585682356474834673e-03
5.569224414288861252e-03
1.544359314203270703e-02
-2.397081866619596088e-02
-2.865878743518605540e-02
-8.769003908923109561e-03
3.847272351940330543e-02
1.291087850938498708e-03
-1.719278421426012962e-02
3.783508879735117316e-04
3.844923196624992073e-02
-3.070358532046269656e-02
-1.177338230227438498e-02
2.125712893398595468e-02
3.757235788552391875e-02
9.632887972571790164e-03
-1.166428027552714186e-03
7.892159100854691939e-03
-3.271113824264653552e-02
5.367241194577757057e-02
-3.261538990272423982e-03
-3.811990006636447811e-03
-3.893468039262742986e-02
-5.045096828346243810e-03
-5.302277901645759128e-03
-2.724559412085485188e-03
5.407731585836202289e-03
-2.924273762115551026e-02
-1.988473723141269758e-02
-9.150038304379654389e-03
5.700264193923422484e-03
1.265794236229247569e-02
1.190773676737593226e-02
1.447759137665872477e-02
1.353397845669731397e-02
3.021349577110894399e-02
-4.125220685787708494e-03
1.432315540611504498e-02
1.578186921170485202e-02
-1.340848216543390724e-02
4.075638227441058634e-04
-3.341127065685874000e-03
-3.985125429476544384e-02
-5.748813561036287927e-03
-6.766491182274434607e-03
6.985443413351247145e-04
2.795624021875639780e-03
5.434917591277035193e-03
-1.232005592564506397e-02
9.295589578124029487e-03
6.610685136343961120e-03
-2.917677181813920287e-03
2.403190223206587081e-02
-5.820063952017281517e-04
-9.161554802471254949e-03
8.291877693428812215e-03
-5.812149838183775820e-03
-7.778783883725523367e-03
-6.071607824098507016e-03
-1.110645523257362127e-02
-3.733542616688640542e-03
2.764233163423138878e-02
2.084648160053194799e-03
1.046701636524302245e-02
-4.305152098101205568e-03
3.281839482649418199e-03
-2.433068569481356899e-02
-1.407633590347660661e-02
1.013022973716675053e-02
1.262837147112091940e-02
-1.236351763175945993e-02
-4.544061719382854782e-03
4.503077788870501336e-03
7.601414580875969201e-04
2.962094799373168105e-03
3.248932020134425586e-02
-7.783463715578679658e-03
-7.481413179859348894e-03
1.037044705354356854e-02
-7.402373557381749548e-04
-7.154686511965952650e-04
-6.323934930378550916e-04
-2.550679085947719915e-02
-4.007926352492290544e-04
-1.039356484706740417e-03
7.350337691851120420e-04
3.146700922380251276e-03
2.130295227025650923e-04
-1.126554411964074713e-03
8.907669054702862903e-04
-2.418827587818171872e-03
2.425710738744821238e-02
1.546838004312344438e-02
6.673445400541687562e-03
-1.054327379446956883e-02
9.950592401863333700e-03
-8.149406485705066108e-03
-8.189080916137115446e-03
-2.946776403666492156e-02
2.553190128793949784e-02
2.031206024403469160e-02
-2.831343095804514116e-03
-1.317243857361542552e-04
1.829775608485525486e-03
-5.454997757990180662e-03
-8.715172145136115128e-03
-3.054049975579274309e-02
3.745600610037455851e-03
7.723303837574978931e-03
3.665544861915694813e-02
2.201667754396473276e-03
1.611821668222588461e-02
-1.167975420349598795e-03
-8.480104330500708859e-03
-5.679615775254143878e-02
4.929992707809333075e-02
2.772794345189592835e-02
-1.257351263984462543e-02
1.713895061180406923e-02
-7.705661036641301906e-03
-1.358262815661641365e-02
-4.354985288570300053e-03
-5.595003402012070637e-02
-1.589636561192115868e-02
-1.872566967970379706e-02
-2.073225296345598129e-02
-1.285870674188508214e-02
-1.159638032954132467e-02
-8.639130123145790513e-03
7.581040839513240870e-04
8.769040136570181720e-02
-3.162512055053473548e-02
-3.535630034727660354e-02
-3.052680557235127809e-02
-2.116441478545144639e-02
-1.116937736968234493e-02
-3.447805319362335480e-04
3.072226691536590962e-02
9.946453224186670161e-02
-1.067295671897218468e-02
-7.179652194648280909e-03
6.012744577500271116e-03
6.079273232013755919e-03
-2.167452606205718703e-03
1.262834189104210768e-02
-4.483063508769209726e-03
-2.172346719607491292e-04
1.730686161755823349e-02
9.803594926767557338e-03
3.195580576017062469e-02
-1.190459688990235139e-02
-6.135393813274010906e-03
-8.111801611760288341e-03
-1.468811560956670209e-03
-3.144565842860310573e-02
7.669315089383035161e-03
1.539837584657671905e-02
9.546888725912499934e-04
4.116125828165955076e-03
3.627088343229090215e-03
2.419559674979430367e-03
-5.185023270592142852e-03
-2.900013038433333495e-02
-1.050909644849223890e-02
-7.206325561621195266e-03
1.487284545654114299e-03
8.603269313027220658e-03
9.807312577136753640e-04
-6.403445298225192601e-03
2.785510925596668477e-03
1.026207126634695078e-02
-3.027791886283969988e-02
-4.610753731943567635e-02
-2.599732682476453907e-02
8.967339028476899176e-02
3.873122735599414390e-02
-1.143268684241754464e-02
-1.494610568431635998e-02
3.569578930107445390e-04
2.010051841740985099e-02
1.993755090161703283e-02
1.287140195462087300e-02
-2.910741753262487217e-03
-1.432612613654394088e-02
-1.527205668263952910e-02
5.487503082164097920e-03
-2.588804978336587889e-02
4.866679752312690066e-03
-5.928108666287543876e-03
-4.577769098848312110e-03
5.887027781031921835e-03
3.501809520833195407e-03
8.778582511963070947e-03
-9.977669166719820015e-03
-2.550552634285199217e-03
3.208346324916167263e-03
7.937617366542351269e-03
-2.843828375627742086e-03
1.358270924463869135e-03
-2.603424874472854821e-03
2.329669852324376365e-03
-2.413343406760962671e-03
-6.973307811385211392e-03
-7.378411951904182732e-03
3.470689001206593571e-02
-2.275836889271792840e-02
8.202498151986714516e-05
-9.707791830892592913e-03
-7.567044911736376701e-03
-3.690322211660829708e-03
1.631302480532610330e-02
-2.676822131435221963e-02
-3.374402216051554382e-02
-2.841043506428908572e-02
-3.687066469058090674e-03
-1.723371289890039508e-03
6.758274936189123932e-04
6.593125156329847532e-03
8.706416364815629250e-02
-5.567915584841197710e-03
-5.545709932458245395e-03
-3.482166475434877312e-03
-4.186755801293465078e-03
4.471342635373121090e-04
-4.527149929600503405e-04
-5.095616823958104948e-04
1.929769020584633579e-02
-3.041422012123600263e-02
-4.621544140651586557e-02
-1.918037389815595642e-02
-3.924562004131250392e-02
6.836851969073343832e-03
7.014269455265112994e-03
1.665072790669909486e-02
1.045538061361828558e-01
-1.905960930924163873e-03
-1.247481977931944042e-02
2.903261940422049558e-03
4.545685393804609412e-03
-4.062283002598278230e-03
5.346852360565185376e-03
6.936047225938025106e-03
-1.288783207887979560e-03
2.452736392851898213e-03
-5.815845737279246594e-04
-8.775527275992754022e-04
-3.643298746343163162e-03
4.450736239753738839e-03
3.484279420662218449e-03
-1.139510073435374363e-03
-4.145805932162116396e-03
-2.911874631949130585e-02
-1.313125738192944848e-02
-1.147084960254239963e-02
2.747833103212252506e-02
-1.669369199872449945e-03
-1.105394433875126658e-04
-5.290474088268070675e-03
3.331290500336868410e-02
3.755765100734841794e-02
-2.185804250530537507e-02
-4.286848173311687271e-02
-1.367191286238863060e-02
-5.325145065712947115e-03
5.169411924447361167e-03
3.071466487335247804e-03
3.792505274739282894e-02
-5.004759212751411224e-02
4.034510682939506515e-02
4.010947270947235084e-03
-8.702543128272934676e-04
3.859514616734991289e-03
4.964802394056938052e-03
9.146037522335673936e-03
-1.140856219312849987e-02
5.353787050853221763e-02
-4.493844689026462932e-03
-3.753527087403492335e-02
-3.020042884356596846e-02
2.053111916049812566e-02
-6.514408453362784124e-03
-7.397977465504380727e-03
1.207294065646421014e-02
1.215833580195597313e-01
-1.365008596668531617e-02
1.549826737216523573e-02
-3.636060263567648942e-02
-2.133639191197077289e-02
-1.933195738947273562e-02
-3.064807947243335454e-02
-1.575450801548623422e-02
-1.186571744671559639e-02
-1.035339454995882862e-02
-1.673112355865359960e-02
-8.134324657960510796e-03
-1.235078951444330830e-02
-8.347674063649213744e-03
-7.135307816485359812e-03
7.491833160786640078e-02
-3.840588921750368728e-02
-4.634222946430042317e-03
2.525156714685782358e-02
1.536506426328820840e-02
-1.211883138803481049e-03
1.033213951340528070e-02
1.153959074497483590e-02
-1.823636636578891690e-02
-2.063203398023600102e-02
5.134689061014122147e-02
3.704039304887749018e-02
6.053955723706076590e-03
-5.762187633224848636e-03
-2.752778759173688666e-02
-4.564142379174808070e-03
-3.595508779835224211e-02
1.196777716658390018e-04
-5.823694181332866827e-04
1.288827638777371998e-02
-9.204953831227982372e-03
9.435092483300707355e-04
-4.215376149386867305e-03
5.108597754126392720e-04
-4.596237844341283718e-04
-1.647749686526721324e-02
-2.190177169973695978e-02
-1.459165987719998787e-02
2.024117674039212222e-02
2.258929336298910826e-03
4.715312830989914182e-03
7.484726887406444040e-03
1.827078264711676919e-02
-8.864421487406307087e-03
9.619348224291482743e-03
2.309573036109089858e-02
-9.304890471226064802e-03
-5.305493393462043863e-03
1.250353310980727162e-02
3.195877830054472384e-03
-2.493968417314970307e-02
-1.591649589933612219e-02
-2.516723210912424902e-02
2.348040280794078810e-02
1.274308545530137811e-03
6.188234451283009148e-03
3.354351013243384895e-03
1.904832968695620646e-03
4.881598221767435158e-03
-4.535540021136157812e-02
-3.637929782460071204e-02
-2.077475587693258102e-02
-4.121036878460457818e-03
2.666294721204291382e-02
2.001358868341632583e-02
1.218967475086041308e-02
4.776428014503569103e-02
2.160956004827292720e-02
-2.517538176777974965e-02
-4.551053981601960174e-02
-2.588064130592615184e-02
-6.412397403104510944e-03
1.402700326782118506e-02
1.036472453878683163e-02
5.697767243794908676e-02
9.315061690670361095e-04
1.500571651796148848e-02
3.159132845952972862e-02
-5.082471870809626528e-03
-2.343066762397339603e-02
5.599291703477460259e-04
-1.577814577040946228e-02
-3.797195051713525560e-03
-2.230044299823814510e-02
7.176440681471986383e-02
3.522186688196999454e-02
8.032055552129659451e-03
-3.089260224862985793e-03
-1.787284239622616289e-02
-1.912921961649896932e-02
-5.262656401299324604e-02
3.647915258216868906e-02
-1.954246947882426824e-02
1.030141130130499995e-02
-1.104917018023262101e-02
1.165280664024659352e-02
-1.281525354131286126e-02
1.564677165346421359e-02
-3.067324897681474039e-02
-2.573329502776001976e-02
-9.188127506306697015e-03
-7.923846472778370287e-03
2.153641319775470575e-02
-9.264367266590739849e-03
-1.037191234599238281e-02
1.084816152634836446e-02
3.009697389532513950e-02
-1.420494221781268621e-02
-1.143110761696440863e-03
-1.080945117967487511e-02
6.156593919636813017e-04
-6.941976102376825643e-03
4.930153100242057329e-03
8.463367811645859315e-03
1.909029995770921209e-02
8.181770369909077689e-02
2.125468224838791343e-04
-1.180785891623678356e-02
-2.456916173815572313e-02
-1.147387598440280203e-02
-8.925561713162357552e-03
-1.423224506828525050e-05
-2.523955992454870317e-02
4.260060759611406303e-03
-1.027724606608291721e-02
-1.451500242940706280e-03
-9.070273808943967592e-03
-1.060551826132972867e-04
-8.234204338645188456e-03
-9.165845875695865369e-03
3.404506475531055010e-02
-3.121092324225435352e-02
-9.758882801390009881e-03
1.050659709231431364e-02
1.458540920702782080e-02
8.634277460834423670e-03
-6.893334351871794816e-03
8.602035819179985193e-03
5.534820816159602766e-03
-6.623883603622197913e-03
2.990555608804175425e-02
3.061871617219789204e-02
1.122631227367724104e-02
-1.655112854892773142e-02
7.260600017182533041e-03
-1.578215530718371507e-02
-4.005401709136578031e-02
9.861913058058625545e-03
-2.133761184952063378e-02
-4.050136228423846518e-02
-1.664620491642769887e-02
-1.159893780266844747e-02
5.751023337241775377e-03
-2.115138581442063681e-03
7.658631903899690285e-02
-1.681275687526299217e-03
3.866850784207975095e-02
2.646450144522158321e-02
-1.380359042864544479e-02
-2.239946516151925925e-03
2.388653501173265779e-03
-4.680762724736708784e-03
-4.511608743141423683e-02
7.293670237180145677e-02
-1.402220614111922585e-03
-1.080351886020202747e-02
-9.871784077850746016e-04
-2.136334773580308294e-02
-9.728873437714313441e-03
-1.759743448333607116e-02
-1.105412883284898409e-02
8.749162888048609907e-03
3.185226520890727803e-02
-3.671738811802639779e-02
-6.259464316669476405e-03
-2.867795379011011617e-03
-8.635623686507979194e-03
-3.327488381813704758e-03
1.720633178507267186e-02
-2.085035017621428288e-02
3.447323114867877764e-02
3.952253002437287888e-02
3.871188666833327158e-02
-5.022686568723180693e-03
-1.674520856026975174e-02
-5.679365002289570898e-03
-6.441003753388818698e-02
9.205016653671899141e-02
3.385797747501603436e-03
-1.290290136960198404e-02
5.137019281346083197e-03
-1.728287145533067420e-02
-1.232824213300480302e-02
-1.180346101798993366e-02
-4.625550758963919984e-02
-2.327655839263644347e-02
-1.280425962395835516e-03
1.049147129339731560e-02
4.090977771704132869e-03
3.349511159841640686e-03
8.819467961446036605e-03
-1.242576973302112441e-02
1.023132590166426353e-02
2.267388690226997128e-02
-4.282481395532299756e-02
-1.836132610555570033e-02
-1.260515801907611567e-02
3.775096236839611645e-03
2.310152054656131396e-02
1.063574863915313709e-02
1.360504575513079954e-02
1.994516290612915327e-02
3.256972202197033067e-02
-1.845969496299622531e-03
-4.331763772302611032e-02
1.652489293571688528e-02
-1.386729086196939430e-02
-7.679138423174599812e-03
-2.329741359346589134e-03
3.780831626491561182e-02
-2.132635961095363450e-02
-5.177697967135346663e-02
3.832982577798210722e-02
-7.377953055487189091e-03
-2.932691639936221926e-03
-3.169822463606327355e-04
7.592824181193458428e-03
4.965700603167098708e-03
-1.348809100512573383e-03
-4.947245209895105274e-04
-1.429099457084203034e-03
-8.212321901195429119e-04
1.201554294035735290e-03
-4.555147239937074499e-04
-1.617874904503293710e-03
-7.103515632974971572e-02
-4.992344259854323424e-02
-2.074268492951885853e-02
4.817471604794507090e-02
4.873974562311281927e-02
2.303068871614340901e-02
1.518698467061331547e-02
6.569148799997175624e-03
-2.616128029627580800e-02
-2.174707915119469120e-02
1.827787986630368755e-03
-1.265519842066916735e-02
1.668111282023405917e-02
-4.246201756883301488e-03
-4.589212798288870403e-03
5.089007161644740207e-02
2.144220827783174452e-02
-7.454370104999413771e-03
1.654468023360605028e-02
-1.997854278947978207e-02
1.663015263607892568e-03
1.945196650140992639e-03
-1.735142358181408773e-02
3.189236051106585784e-03
-1.310937331633676289e-02
3.500727923006559557e-03
-2.348929682671185241e-03
-7.607234870911584648e-04
-6.809252623586738249e-04
-1.644259447867186391e-03
1.297414863771386047e-02
2.069334635604560668e-03
-3.833642772850837099e-03
3.114046905231761600e-03
-1.278061911072264276e-04
2.881825200159820327e-03
-1.013133655630886433e-03
-5.421099718968799613e-04
1.514446633024260852e-03
-1.993626146930016409e-03
-1.473934957226863624e-03
-1.134986188586547791e-03
-1.134404225783248749e-03
-1.031214765524944349e-03
-8.638242072853215183e-04
-8.555924883915683610e-04
9.652757856724272128e-04
5.528681047126068372e-03
-4.851980095739574783e-03
-4.169752189957979388e-02
-2.537403417919478071e-02
3.880338862530368412e-03
-1.876541465555093408e-02
-6.604280881752682721e-03
1.130562691421940248e-02
8.210726593506799398e-02
-5.122528591490457806e-02
-1.916137241167517255e-02
1.044616477963125796e-02
-3.232893341693347366e-03
3.226419459606771900e-02
1.902403724232448051e-02
7.765042967114805985e-04
1.110865075353813930e-02
4.709271183505246705e-02
-7.582524548331309386e-03
9.509758526822474634e-03
-2.819009344621057137e-02
-1.900086713218703677e-02
-1.502430718725021770e-02
-2.858018794802439071e-03
1.605334074690662610e-02
-9.761622469495074075e-03
7.260574791603009379e-03
-3.177820319020500245e-02
-2.104912135408050153e-02
2.989539968877653539e-02
2.221049146342033570e-02
2.157407430807142118e-02
-1.835159323809072360e-02
1.727225424213689464e-02
9.143312363120539507e-03
1.966947846163056863e-03
-1.350679883733366116e-02
-1.429706355536390465e-02
5.368077267000867341e-03
-2.110730926896765009e-05
-5.925622016454838541e-03
-2.108402656531034591e-02
-2.799182964785679878e-02
2.373570331631203595e-02
1.913559890059564686e-02
7.228847007566619257e-03
-4.126179438332086558e-03
5.465235479424531903e-03
-2.363349052399607922e-03
-6.822060736160985572e-02
3.803677407162948942e-02
3.907308590313243735e-02
-1.329337194532204786e-04
-1.030830745177789727e-02
5.181967629488492362e-04
7.422614074761968439e-03
-6.388822279631767992e-03
6.474453906676249509e-03
-1.775148227312894206e-02
3.023282187359830134e-02
2.296951785063872792e-02
4.475066736853102606e-03
-1.462990066834241737e-02
-5.951127628852644937e-03
-2.581934979744236747e-02
-1.995964676559440834e-02
2.626196529753991454e-02
-9.773380238616583005e-03
1.444509884306034719e-02
1.816944158932428657e-03
1.300271320288912645e-02
4.390428140902916001e-04
-2.623273731230110761e-02
-3.304276221575286332e-02
1.299657315689686050e-04
-5.232691735743654187e-04
4.836668688555861330e-03
8.211934296063708866e-03
1.045982356936321980e-02
-1.130946343714312081e-03
1.105858544748974069e-02
-1.119392940368039925e-04
-1.851873568850745735e-02
9.339694550712105206e-03
2.622538541377494523e-02
-5.619832845099026301e-03
-1.100628313231138446e-02
3.494506680655120462e-04
-6.577396725979041967e-04
-3.282418044902515875e-02
-1.712257469085620622e-03
4.462015769283993183e-02
-1.021652657624759833e-02
-1.064763891342708838e-02
1.848741409695328977e-02
4.850764568328199203e-03
-1.255773295033591266e-02
3.871388557267972652e-02
2.898091450760831213e-03
-4.546572918670897107e-02
-3.771135789633380062e-03
-2.415822673409155456e-03
-1.178752645728682949e-02
1.146401577010031612e-02
1.036422131349741885e-02
1.799246597818981996e-02
-3.764851784707130052e-03
-2.584819303968228111e-03
3.813517176663715983e-03
1.270979723308097000e-03
1.722552593518804007e-02
4.006176780557468668e-03
-3.795899450523176899e-02
2.385283577720169468e-02
1.776428298805468944e-02
6.667318681031023098e-02
4.568181471686915372e-03
-3.067282194295797848e-02
-5.184176779770410110e-03
-2.851376055197437850e-02
-4.848772777255078159e-02
5.635969185981221791e-02
2.797220649313969867e-02
-1.973387166861343550e-02
-2.155619350165506598e-02
-1.256149060794328580e-02
-1.716284009217529036e-02
-1.761759028689031253e-02
4.300087804325495276e-03
-2.130376265286357609e-02
1.966905855750610346e-02
2.940262283552744216e-02
1.199651541859348769e-03
-7.810653406383732088e-03
-1.071386236349868883e-02
3.563783697702155220e-03
-1.400683820984906236e-02
-7.743733100784996708e-03
-1.210545322599877738e-02
-8.447572761529655722e-03
-8.535844653959434244e-03
-2.836123495266192930e-03
-2.283625001868241303e-03
8.668169800153589948e-06
4.194368406960715528e-02
2.360688931207336611e-02
6.765781807821365582e-03
-7.481019005496215672e-03
-6.038210830571718625e-03
-5.116596260929306104e-03
-3.288865180239826293e-03
-2.891013491941935108e-03
-5.556966350715736823e-03
-6.228948011383357575e-03
-7.371348038808554250e-03
-4.975875543040806162e-03
-5.633941942868278194e-03
-4.225287171594504544e-03
-2.281552678071418951e-03
-1.166067662391938949e-04
3.083356015200610853e-02
-2.241292034157784871e-02
-2.664156517504008559e-02
-6.462098636389371209e-02
-1.714992965725584823e-02
1.327131142084813330e-02
-4.604464449738630296e-04
2.727662915940365362e-02
9.073790740248961761e-02
2.782947173267352856e-04
5.280258695094921205e-03
-2.127928453733259799e-04
8.469425386165432140e-03
-1.574845728288657202e-04
4.753047487862958193e-03
-6.931446596015270953e-03
-1.147930227223258916e-02
1.076141853186147850e-02
1.803333183249664767e-02
-9.225289292055323734e-03
2.163894083938018402e-03
-5.032719165533530194e-03
-2.228670563903956386e-03
1.078734996432512919e-03
-1.555070042323584804e-02
3.484119999952067694e-03
-1.135840882873508616e-03
-1.354706179967691236e-02
1.255275839423395864e-02
4.627140237767000605e-03
-9.435816505772706350e-03
-3.003409577852768526e-03
6.458110134222870211e-03
2.496842210012786226e-03
1.211146692407693778e-02
-1.008440537325107182e-02
-9.024387330606523636e-05
-3.095846971308657391e-03
4.517748315892316895e-03
1.016126209500538280e-02
-1.601682332712161747e-02
-3.476552280105532026e-03
6.478417169103745966e-03
4.312260496154622647e-03
-6.378358150631785461e-03
3.584611596746792739e-03
-2.966881323333712874e-04
-1.541551758056938998e-03
-2.682138940877537483e-03
9.861913058058625545e-03
-2.133761184952063378e-02
-4.050136228423846518e-02
-1.664620491642769887e-02
-1.159893780266844747e-02
5.751023337241775377e-03
-2.115138581442063681e-03
7.658631903899690285e-02
3.898392162307015140e-03
1.312068656434851790e-03
5.146787971561224591e-03
2.006430487952117966e-03
2.516423509876372731e-03
-4.773286761015666999e-03
-2.800993738052801486e-04
-9.826716653310630517e-03
-5.567915584841197710e-03
-5.545709932458245395e-03
-3.482166475434877312e-03
-4.186755801293465078e-03
4.471342635373121090e-04
-4.527149929600503405e-04
-5.095616823958104948e-04
1.929769020584633579e-02
-4.264123702582246593e-03
-7.609694354145252367e-03
-9.868863959881027381e-04
7.432485815863179926e-03
3.470384073966709896e-03
6.103056130302738150e-03
3.278987559625088592e-03
-7.424209127042118335e-03
-2.063203398023600102e-02
5.134689061014122147e-02
3.704039304887749018e-02
6.053955723706076590e-03
-5.762187633224848636e-03
-2.752778759173688666e-02
-4.564142379174808070e-03
-3.595508779835224211e-02
-2.911874631949130585e-02
-1.313125738192944848e-02
-1.147084960254239963e-02
2.747833103212252506e-02
-1.669369199872449945e-03
-1.105394433875126658e-04
-5.290474088268070675e-03
3.331290500336868410e-02
-1.647749686526721324e-02
-2.190177169973695978e-02
-1.459165987719998787e-02
2.024117674039212222e-02
2.258929336298910826e-03
4.715312830989914182e-03
7.484726887406444040e-03
1.827078264711676919e-02
-7.780850720706420504e-03
7.215240673559737868e-03
-1.939974929317386408e-03
-1.557888181761294191e-02
-2.760809775678959351e-03
-4.235612436145250702e-03
4.807798536942462127e-03
2.027309046895876127e-02
-8.864421487406307087e-03
9.619348224291482743e-03
2.309573036109089858e-02
-9.304890471226064802e-03
-5.305493393462043863e-03
1.250353310980727162e-02
3.195877830054472384e-03
-2.493968417314970307e-02
-8.774145779489541828e-04
2.644049458431019933e-02
-4.263861937358713952e-03
-3.348712111914594995e-03
-4.156433570110148502e-03
-1.067026795634542244e-04
-5.118989738092484705e-03
-8.568379969321844244e-03
4.398978298428789235e-02
2.545544085632628004e-02
-3.843263708913055576e-02
-1.175804499511394485e-02
-1.135105301961938581e-02
-1.103921265328288923e-02
-1.082300485157428353e-03
4.218024401690018826e-03
-1.186571744671559639e-02
-1.035339454995882862e-02
-1.673112355865359960e-02
-8.134324657960510796e-03
-1.235078951444330830e-02
-8.347674063649213744e-03
-7.135307816485359812e-03
7.491833160786640078e-02
1.519793266036874573e-03
1.224510390759878456e-02
2.325136013741243082e-02
1.353171291957512221e-02
-2.085031764288621664e-02
-4.548754760753303573e-03
-1.777596715648045722e-02
-7.372930670503232559e-03
-8.883890399266355193e-04
1.214493930068685432e-02
-7.707645258033759238e-03
3.387807533452396030e-03
7.025561985436854125e-03
-3.724225649809885432e-03
-2.866010867078730862e-03
-7.372038004727095480e-03
-2.917677181813920287e-03
2.403190223206587081e-02
-5.820063952017281517e-04
-9.161554802471254949e-03
8.291877693428812215e-03
-5.812149838183775820e-03
-7.778783883725523367e-03
-6.071607824098507016e-03
-1.110645523257362127e-02
-3.733542616688640542e-03
2.764233163423138878e-02
2.084648160053194799e-03
1.046701636524302245e-02
-4.305152098101205568e-03
3.281839482649418199e-03
-2.433068569481356899e-02
8.411839508746186403e-04
4.465456279968606050e-03
3.608323953764824149e-03
4.553747197334810301e-03
-1.778536417765331709e-03
-2.041132859571633679e-03
-2.730396259815676737e-03
-6.918645844790218859e-03
-5.137489807559797103e-03
1.459140007697998101e-03
5.769943893587817056e-03
3.068342480860592608e-03
9.922342934696069469e-03
1.456408480899495320e-03
-4.238685065950724765e-03
-1.230000292423144917e-02
2.607240446823330324e-03
-8.691976195107021380e-03
1.868295753788114190e-04
-5.560820661924275113e-03
4.991472293148372166e-03
-1.793314408997566400e-04
-3.218569037864621278e-03
9.865155020445165110e-03
-7.587759363265066158e-04
-9.025055203211768302e-04
9.162784633738347163e-04
1.100619262909437656e-03
-4.799389075721458659e-04
-3.737536942074235857e-04
-3.008351725333284466e-04
7.989115046773087548e-04
-3.148036541490737555e-03
6.218545094032453500e-03
4.473707119236172529e-03
-3.155047379303555811e-03
2.852759074846307821e-03
-1.893474738454803625e-03
-1.509750190202429568e-03
-3.838702438663404038e-03
5.112091826665836510e-03
-1.695479574177019902e-02
7.999461274477803578e-04
8.458598411295837130e-03
1.047577313515225816e-02
-1.543578625192162891e-03
-1.179388863088670115e-02
5.445853497287349819e-03
2.814055705477388689e-02
-6.438397765312822013e-03
-9.897091626931831324e-03
-4.153960975880948044e-03
1.056827154043047615e-03
9.402071643016116824e-04
-1.663435943707590155e-03
-7.984705061285348252e-03
-4.535540021136157812e-02
-3.637929782460071204e-02
-2.077475587693258102e-02
-4.121036878460457818e-03
2.666294721204291382e-02
2.001358868341632583e-02
1.218967475086041308e-02
4.776428014503569103e-02
1.318373798899014418e-02
1.134331626703517087e-02
1.647262986984349142e-02
-1.633584861002028085e-02
-1.223437008613046696e-02
7.010451477709636614e-03
-4.385010478876436718e-03
-1.505490642855126029e-02
1.980301127711942000e-02
2.548608691829442208e-03
-3.158792153922901445e-03
-3.307037400549806948e-03
-1.527802517499576591e-03
-4.067047962225871748e-03
4.292935198015047395e-03
-1.458387513276574940e-02
1.623619746335606961e-02
-3.042545341916087038e-04
1.494934813397950403e-02
5.185822614441999538e-03
-1.020222619301851957e-02
2.343568152532175992e-03
-1.840533908502207244e-02
-9.803116552077535337e-03
-7.743733100784996708e-03
-1.210545322599877738e-02
-8.447572761529655722e-03
-8.535844653959434244e-03
-2.836123495266192930e-03
-2.283625001868241303e-03
8.668169800153589948e-06
4.194368406960715528e-02
0.000000000000000000e+00
0.000000000000000000e+00
0.000000000000000000e+00
0.000000000000000000e+00
0.000000000000000000e+00
0.000000000000000000e+00
0.000000000000000000e+00
0.000000000000000000e+00
1.642845997295710320e-02
-8.184916890052939750e-04
2.671460915612979166e-03
-1.954668282588530926e-04
-6.115762679356450716e-03
-3.534462105661130820e-03
-2.622770677057477970e-04
-8.173460518582604389e-03
9.595387621280720644e-05
-5.177365893662829680e-04
-2.273658669023439528e-04
-1.241080179399131709e-03
1.417774602165073131e-03
-1.545774573463257542e-03
4.933801250424297213e-04
1.524848605710705206e-03
-1.037674941622757953e-02
7.011469343727630768e-03
-5.852051131681716353e-03
-7.041003685001499205e-04
-1.218364820964210017e-03
1.370195237800287107e-03
-3.636890970039443564e-03
1.340649212588518151e-02
-8.001121976833685048e-03
-2.790628546970545451e-02
-7.762243039296208048e-03
-4.523271013360325582e-03
-2.088212320711670643e-04
2.015968852684887902e-02
4.071920382922178047e-03
2.417013382149577061e-02
-4.007926352492290544e-04
-1.039356484706740417e-03
7.350337691851120420e-04
3.146700922380251276e-03
2.130295227025650923e-04
-1.126554411964074713e-03
8.907669054702862903e-04
-2.418827587818171872e-03
-1.684544997034152086e-02
1.666492053514357849e-02
1.376247488212300682e-02
-8.501157093915407206e-03
3.976187681960797679e-03
-1.417815037999843597e-02
-2.976692620702360136e-03
8.097866965730346825e-03
7.535699033620747549e-03
8.476863912998778639e-04
-4.361076065319155655e-03
1.751545350653638602e-02
-3.488491383043344253e-03
-6.260113802806153462e-03
-3.518946999395039174e-03
-8.270210680893322688e-03
-4.851980095739574783e-03
-4.169752189957979388e-02
-2.537403417919478071e-02
3.880338862530368412e-03
-1.876541465555093408e-02
-6.604280881752682721e-03
1.130562691421940248e-02
8.210726593506799398e-02
-4.287347449540507283e-02
-2.652450624835039905e-02
-8.137129252352113054e-03
-3.301053845278620075e-03
1.768669141493822358e-02
-6.785593029476169255e-03
1.663023154616627766e-02
5.330483390975788993e-02
7.814565855480024373e-03
