2.135348807447468023e+00
1.233067374235200742e+00
3.338294977214090742e-01
-2.077811486451129341e-01
-5.165525839415542331e-01
-7.627334909916018146e-01
-1.255394362951677500e+00
-9.597840928741345756e-01
-1.403963524425823195e+01
-1.110899792706815070e+01
-6.553009779471305585e+00
-2.482650876688221597e+00
-2.899808702832880614e-01
7.733566314770236039e-01
1.526321839442654316e+00
3.217459622684958731e+01
1.984376036179338054e-01
1.795227627380442392e-01
1.244672913595623459e-01
1.194489346545801189e-01
-2.283394180684816810e-02
-1.183150711837613889e-01
-1.640114719881470284e-01
-3.167161073913625224e-01
1.276904610013342711e-01
1.617260507079060772e-01
-7.264225624850022267e-02
1.250474289185767029e-01
-3.634237808068543213e-02
-1.172754553029855124e-01
-1.110398091597339654e-01
-7.716404183591588084e-02
6.945158459679937057e-02
-7.464166370931725469e-02
4.060893288229249637e-02
-3.139780661472989925e-02
-1.030481200614647985e-01
1.755439203227042722e-01
-4.447075620668631060e-03
-7.206977179561498137e-02
1.471980791591756821e-01
-4.759679450301874254e-02
4.287438651317557886e-02
7.195103624579750334e-02
-8.065889341606755081e-02
-2.196773801727815514e-02
-7.212005018715456073e-02
-3.968002579462758667e-02
1.288468643398631708e-01
4.763099520228929185e-03
3.262954291985571686e-02
2.195946363957353153e-02
-9.365220102369564703e-02
-4.757027600318484636e-03
-2.967148604564915498e-02
-6.011825574985951021e-02
1.011908102737384962e-01
9.962813990662626462e-02
9.473634643163046654e-02
4.492206245681998333e-02
-1.136437257682172547e-01
-4.717164109348537422e-03
-1.075733311443261148e-01
-1.145431380469240368e-01
1.581488590751287948e-01
5.563175609106773764e-03
6.329477235569593019e-02
2.339853287740214713e-02
-3.899130908308143240e-02
1.189867076236810275e-02
-1.141823521761960308e-01
-1.091303494204223373e-01
1.372410525104045542e-01
1.350327239073827734e-01
4.000255421674052403e-02
1.991584652888529205e-01
-7.469785540890376552e-02
-2.297667396834005560e-01
-3.391184423172595441e-02
-1.730583565993511486e-01
-6.127464929347205269e-02
-7.158413782333450381e-02
-8.072882322349439477e-02
-8.221077524473767439e-02
6.997119341041125457e-03
1.176939530480813484e-01
-1.125438253921631424e-02
1.823616957351315848e-01
5.607315082276598250e-02
-1.263024986236748436e-02
-3.203182657131893336e-03
-4.469554797343504304e-02
-9.451767085699523674e-02
6.671519729835853618e-02
4.360804777481189914e-02
-1.134974454600527066e-02
-9.920602150028222377e-02
8.609022725969388279e-02
-1.255793360270103173e-02
-2.307695188058330599e-02
-1.482133762531225290e-03
6.741171941463879047e-02
4.714728769550497606e-02
-6.432619362373838412e-02
-3.971587390556605840e-02
-2.160487712475267497e-02
-5.989104717740875022e-02
-2.978738306312894019e-02
-5.737895658176038471e-02
1.490197940128420127e-02
1.630487363296671266e-01
3.042742212166512153e-02
-1.100863399168665185e-01
-8.904668143039273787e-02
-7.698804694843378038e-02
1.616565900283888774e-02
1.638340165687284244e-01
1.993454428515587795e-01
-2.718172850491239190e-02
-7.604232162252001770e-02
-5.118564492480910666e-02
-1.586167672818641072e-01
-9.834372384005535261e-02
5.178059899267250382e-02
-8.086728887230275331e-02
1.955326968378024999e-01
-5.693841291682755906e-02
1.986385420053838058e-01
4.511765945097125780e-02
1.122583897689946042e-01
9.793952908876404906e-02
8.961761043025490148e-02
-1.912605491122200754e-02
-7.143236140770641007e-02
-1.511813789191378543e-01
-1.031933935009186759e-01
2.970833272536024805e-02
-9.310584852939883527e-02
1.721913806135313973e-02
-3.944601048116399417e-02
5.383921891009862959e-02
-3.086334516649592852e-02
9.588621073902145464e-02
-3.323769625877442263e-02
6.010896661461335999e-02
-8.126788308281540640e-02
7.770205544143376705e-03
4.889041787436387843e-02
6.133882363610276833e-02
6.820641453227554996e-02
-2.382276750616775796e-01
7.318072994299504308e-02
1.057158587430805097e-01
-3.431642044730169594e-02
-5.110052704186201881e-03
-5.492350700735914443e-02
-2.617674886222613739e-02
-6.618926065548426385e-02
1.261980342877858652e-01
-4.519790335430878131e-02
-1.465623023374064693e-01
1.178276934570026968e-01
-1.626201731167415884e-02
5.234066385767129070e-02
2.695669443469002613e-01
-2.709195217444809733e-01
1.856747645075802478e-01
-1.916662247755920867e-01
2.801617527553254550e-01
1.433780183009789877e-01
1.430981153351545132e-01
3.306527628047756240e-03
-5.982585567248898534e-02
-7.665213492866770548e-03
-3.089992986748241743e-01
-1.934540461793206878e-01
3.453950503241001030e-02
7.195298072538935941e-02
1.768763139633579284e-01
-3.043902460749483077e-02
1.242317412879253569e-01
-1.898961822125393162e-01
-1.318974331837694247e-01
-5.536790100527885089e-02
2.251728633535761415e-01
1.015607425792070390e-01
3.633481792911777974e-01
-2.025365710427360633e-01
-1.769265555250348620e-01
-1.131140544567896256e-01
-7.898411526525980775e-02
-1.185204889341410217e-01
1.915081010029429931e-01
-1.035407342450803299e-02
5.916769786888762678e-02
1.696647844030815255e-01
-1.130725871286854672e-01
-5.839114987303753446e-02
1.282072993126898708e-01
-3.667300721613736547e-01
2.870877256965819191e-01
1.905067334382493649e-01
6.629034010749676464e-02
-8.249538967581546145e-02
-1.039265430988093181e-01
-2.939140810106895957e-02
-2.412966848996853098e-01
-8.677477346695088023e-02
2.263104931912006401e-01
-1.747473452569377889e-02
-2.129643549796384622e-02
-1.172075172819152106e-01
-9.433201668364969705e-04
3.742372178238433794e-02
-2.898516135252906523e-01
1.830394060241141985e-01
-1.419764565642328558e-01
-1.296403194372259260e-01
6.096007221428574596e-02
2.429938414447832817e-01
3.484359240923392415e-02
-7.943569955093034152e-02
5.191178541555790948e-02
-3.965681593147191153e-02
3.903924321525484298e-02
2.168408550076534325e-01
-2.388967291053767095e-01
6.954613163324911695e-02
1.402291778894289576e-01
-1.047548401539917934e-01
-3.220770322203820452e-02
-8.979613526417951075e-02
-1.441735024986966762e-01
-1.942759226523219918e-01
7.526283411587132710e-02
-5.313500821215819819e-02
5.350371288254049396e-02
-4.466904462111587551e-04
1.125331805936082979e-01
1.507313962173720545e-01
3.277657010202521537e-01
8.618556269678129267e-02
1.221081198028971387e-01
-9.038171951852738695e-02
-2.511392776159531715e-01
4.346042550229110152e-02
-9.980403308252087935e-02
-1.381947788052212966e-01
-4.074316832662868565e-02
-9.248594840351190283e-02
-9.982789410083742210e-02
1.158953705949264529e-01
3.358452631974166713e-02
-1.369864768227284715e-02
1.408581660121067392e-01
-4.358240441352459471e-02
1.512625365168958902e-01
5.737346726189031243e-02
1.367248733527713991e-02
-6.431322355751867281e-02
1.405462432314005805e-01
7.629834689881899445e-02
-2.113032518119417613e-02
-3.537095325055703010e-01
3.688500051627831011e-01
1.585896335736300955e-01
-7.337404148051857034e-02
7.131398913920658500e-02
3.672617914941772501e-03
-2.536833911215040371e-02
-1.692948806039376031e-01
-3.343889845939524985e-01
5.638258252163604739e-02
-1.086443249674570038e-01
-7.133429348410963433e-02
-2.900889854703110962e-02
2.579773395556025223e-02
4.292791641989406742e-02
-2.316406685130871501e-02
1.070433509528158772e-01
1.006071750327004327e-01
3.708271651012990527e-02
-3.932484245352065901e-04
-5.826954756266809234e-03
2.312571520394023777e-02
4.552369845502314549e-03
-9.266224461504435350e-02
-6.648552879642732893e-02
4.495038184217874273e-03
-2.817532922857974437e-02
1.981249413344737462e-02
-1.457651107646008512e-02
-1.237769587516679599e-02
2.867672097145932200e-02
-2.628036228900709759e-02
2.842564518008975846e-02
3.370396659397432298e-02
2.025143421082253523e-02
4.001938529793055976e-02
-5.312131671091541163e-02
-1.664866315330432722e-01
-6.205360716221876294e-02
1.398205466583825329e-01
4.786622264506810998e-02
-1.666483089817197977e-02
-1.261376235451460229e-02
-2.621165160265033489e-02
-1.157547245583024631e-01
1.699492233975138586e-02
-7.334830069586614765e-03
-7.731516443333698307e-02
2.389000415768103014e-01
-1.314860584555919698e-01
-8.056142275382281726e-02
2.795506421349600035e-02
-6.952762202138336456e-02
-8.071718580471034382e-03
-6.593145566897673504e-02
9.945149638806634676e-03
3.176780636279454839e-01
8.130076680517075993e-02
1.044256490420572125e-03
4.146586918123776073e-04
-3.898248545650703084e-02
2.917427504190110710e-02
-1.165009304380539845e-01
-4.737202550977280546e-02
9.092148437503082270e-02
3.370955287065705019e-02
3.534753314564176296e-02
1.413563545172051017e-01
-2.844779148670633501e-03
-2.225806115289995571e-02
6.116758984305586955e-02
-5.522497775051121022e-02
-1.912532123244785609e-01
-7.900302110265640040e-03
-5.703136170389407761e-02
-5.565656845514087986e-02
-3.486850084771551950e-02
4.935252835127350302e-02
9.352421978163356908e-02
-1.303956946814490911e-02
2.561955445225394534e-02
-5.715388110986536346e-02
2.585459965367197244e-01
1.766268042618712383e-02
2.065637739329927516e-03
-4.020606268434773201e-02
-5.952533027953009481e-02
-1.297786017645847501e-01
8.389561136091138599e-03
5.936406739965981172e-02
7.945563174346004232e-02
-1.757208495209159477e-02
-1.543401143901380612e-01
2.382271009154921654e-02
-6.384524249252580309e-03
-2.905074516514730490e-02
4.470505952195875932e-02
1.541872122319999094e-01
-4.957734769726551693e-03
1.523996764245284519e-01
1.259458560281131491e-02
-4.762085733130692194e-02
-6.310997265315393401e-02
-7.689194833174892163e-02
-1.266009611734021378e-01
-3.108717949937443367e-02
-2.486601360697768270e-02
2.539781513855943890e-02
-5.095692564910362515e-02
1.734282514342271042e-02
5.733192099636422179e-02
-2.546404448229122597e-02
3.230160195939833084e-02
4.859156716771412254e-01
3.544418784921294363e-01
-2.074180410774259780e-03
-1.001052108890334025e-01
-2.967705607333593343e-01
-1.271155843549876818e-01
-1.922684419521821508e-01
-1.220235718289334609e-01
-3.467809531374843948e-03
1.368995400292302433e-01
8.607175836943913028e-02
1.369481836063687064e-01
-1.751684763056407801e-01
-1.539678720864039729e-01
6.380864098618824198e-02
-9.112396506780834349e-02
-3.521033687112006261e-01
-1.604456467855329416e-01
-2.272038059744910798e-01
-9.793641316839749034e-02
-8.276024334786373504e-02
2.961066994820475973e-01
3.406301695018491005e-01
2.837126090035938519e-01
4.463022912777677570e-02
6.262974114210666243e-02
-1.342682145544347311e-02
3.327137431469948808e-02
-9.529507494089952541e-03
-1.965416284044851220e-02
-1.091432204415784535e-01
1.122236764697703837e-02
-1.530542153723611631e-01
-3.428646777666283785e-01
-3.706235346217582327e-01
-2.240832270541799360e-03
6.882122387897787741e-02
4.106726691833838955e-02
2.887364841003983162e-01
4.701582851335703861e-01
-1.926991637123172951e-01
4.056588535407384954e-01
2.554136216995263053e-01
-2.475559708849346674e-01
2.731734405553243317e-01
-1.445549575074940585e-01
-1.404765324716545916e-01
-2.089592912191884366e-01
-1.627948541722369913e-01
2.644808404313323535e-01
1.429460654392854246e-01
1.403498126116129174e-01
-7.485339981992575331e-02
-1.685989520161826072e-01
5.768368847590402138e-02
-1.992132009497895595e-01
3.306000452846442200e-02
-1.760167078496525650e-01
1.193763986981771497e-01
1.761909809651552583e-01
2.167654614676408145e-02
1.733672997966274054e-01
-1.679369307075251339e-01
-1.797175915780132305e-01
2.023897529623635838e-01
2.472525866903242109e-01
1.159148265468137318e-01
9.871824547760239474e-03
-2.284814259789804680e-01
-2.082860079750348814e-01
-4.347592767648529588e-02
-9.518562911675951255e-02
1.427030409749588113e-01
-1.942146527443888715e-02
2.306189237972836037e-02
8.652754732225623191e-02
-6.828119754090122839e-02
-5.064445898873708163e-02
-4.583968789814771294e-02
-6.810567097471724451e-02
7.425632494102943348e-02
1.325516097797314885e-01
-1.747198827538549992e-02
-5.582812911067089323e-03
9.285940233459745452e-02
-5.515458745934137541e-02
-2.181704329205964854e-01
-3.287515488968559621e-03
-7.140863947258802025e-02
1.533039120227081172e-02
9.284194925886465888e-02
5.334052259828363229e-02
5.848340501332062284e-03
-4.317170640428503320e-02
1.305758073123399962e-02
-6.583843841511216599e-02
1.283670838052876351e-01
7.195152868102321075e-02
1.200763070661099857e-01
4.746520746497970289e-02
-1.091790117073879879e-01
-2.442489536133778116e-02
3.226638156997477247e-02
-2.665226015186485387e-01
1.601382226359231165e-01
9.905688050394355348e-02
-1.382749194733597911e-03
-4.143063349648840737e-02
2.856709643993940451e-02
-4.106599427144769221e-02
-9.343401402734331784e-02
-1.104488085897925992e-01
1.647037325964516019e-01
8.093773270710274970e-02
-2.883487171818223740e-02
4.151179419335701559e-02
3.884323080379601528e-02
-6.662191438838818702e-02
-1.125349460904795651e-01
-1.180047581036567234e-01
-2.491269732962973216e-01
-2.924669720614326840e-01
-2.716457262108273318e-01
1.159987791756731182e-02
1.257365068158861621e-01
-3.137570003569740973e-02
2.819430309851910232e-01
4.253359558856065759e-01
-5.645349472544489849e-02
-1.442114128342008861e-01
-2.710449661809298527e-02
6.678771991433440913e-02
-1.327996544196947681e-01
9.591009599031240229e-02
1.947320023837594283e-01
3.139240309027974390e-03
-1.223627064606125775e-01
-7.224232495844040702e-02
-3.357702378322725834e-02
-1.663705880182146657e-01
2.204599704695262563e-01
2.179703839392536646e-01
-2.609628460287024415e-02
-1.778142658541483068e-02
1.753373790660674725e-01
1.524638396545580643e-01
2.966413323672338620e-02
1.120483235521138876e-01
-2.404273370768261059e-02
1.000163368627144528e-01
-3.462585054572167587e-01
-1.992287732072760276e-01
-1.440329928750067323e-01
-8.398205649775955517e-02
-1.043776851432544478e-01
-3.956552631920599167e-02
-1.699895386214816118e-01
-1.149738922856590323e-01
6.683757479670497659e-02
5.900841169456649826e-01
0.000000000000000000e+00
0.000000000000000000e+00
0.000000000000000000e+00
0.000000000000000000e+00
0.000000000000000000e+00
0.000000000000000000e+00
0.000000000000000000e+00
0.000000000000000000e+00
1.372410525104045542e-01
1.350327239073827734e-01
4.000255421674052403e-02
1.991584652888529205e-01
-7.469785540890376552e-02
-2.297667396834005560e-01
-3.391184423172595441e-02
-1.730583565993511486e-01
2.580308239189923331e-02
6.075442347840771112e-02
8.688142076336208275e-02
3.426328646211264373e-02
-9.762446434926544403e-02
5.460075465270317063e-02
-1.194774567970620510e-01
-4.520104660215869263e-02
3.027006843086739452e-02
-7.338467334077558579e-02
-9.008460342049527669e-02
-7.895883443554760350e-02
3.106793492269371154e-03
1.211444264565387716e-02
1.630855045718739571e-01
3.385130205615391463e-02
-9.920602150028222377e-02
8.609022725969388279e-02
-1.255793360270103173e-02
-2.307695188058330599e-02
-1.482133762531225290e-03
6.741171941463879047e-02
4.714728769550497606e-02
-6.432619362373838412e-02
-1.305347068660500653e-01
-1.396458128704557988e-01
5.630294352914091277e-02
1.847695437976395183e-01
1.807256818626589157e-01
-1.382057719325511802e-01
2.466361331218931349e-02
-3.807549083257138339e-02
-3.971587390556605840e-02
-2.160487712475267497e-02
-5.989104717740875022e-02
-2.978738306312894019e-02
-5.737895658176038471e-02
1.490197940128420127e-02
1.630487363296671266e-01
3.042742212166512153e-02
1.297661086068062075e-01
2.319698586251934536e-01
-7.357399456357192891e-02
-8.595961669734392130e-02
-1.447324170879609739e-01
8.849998097499635341e-02
-1.181633406965938299e-01
-2.780657916152433351e-02
-3.060032060079313498e-01
-1.435896676170848596e-01
1.821420867610211783e-02
-4.531725818463577804e-02
1.454368722952433524e-01
2.690346469370933913e-01
6.994924634054153212e-02
-7.724842439323663379e-03
1.966854643503091749e-01
-3.778105956804443666e-02
-7.793120459010438594e-02
-3.732700991282097980e-02
-1.759612050121277249e-02
-1.998341312797621144e-02
-3.631247461049210302e-03
-2.435409189101258882e-03
1.772633126313912996e-02
4.887954896753097037e-03
-8.022260614605432327e-02
3.899100850279891423e-02
4.237420949716919072e-02
-7.968244722433370786e-02
-4.398004073059468694e-03
6.032355328358777330e-02
-6.891197618794869806e-02
-1.635047221786173066e-01
-1.812111769400057831e-02
1.278959048987361388e-02
-1.232414983694722632e-01
2.752151440621341538e-01
-5.254040884376789955e-02
1.383149887217966223e-01
4.511765945097125780e-02
1.122583897689946042e-01
9.793952908876404906e-02
8.961761043025490148e-02
-1.912605491122200754e-02
-7.143236140770641007e-02
-1.511813789191378543e-01
-1.031933935009186759e-01
2.970833272536024805e-02
-9.310584852939883527e-02
1.721913806135313973e-02
-3.944601048116399417e-02
5.383921891009862959e-02
-3.086334516649592852e-02
9.588621073902145464e-02
-3.323769625877442263e-02
6.010896661461335999e-02
-8.126788308281540640e-02
7.770205544143376705e-03
4.889041787436387843e-02
6.133882363610276833e-02
6.820641453227554996e-02
-2.382276750616775796e-01
7.318072994299504308e-02
1.057158587430805097e-01
-3.431642044730169594e-02
-5.110052704186201881e-03
-5.492350700735914443e-02
-2.617674886222613739e-02
-6.618926065548426385e-02
1.261980342877858652e-01
-4.519790335430878131e-02
-1.278868709807668425e-01
3.505617892594646567e-02
-9.554657442878448925e-02
1.206742076737581243e-01
3.072952385922468888e-01
-7.447946800773092013e-02
-6.572726646977002096e-02
-9.938544530489945572e-02
5.035006463929535270e-02
6.494264014801000295e-02
2.147441126413382299e-03
-1.082245538021530396e-01
7.474084842861251909e-02
-1.400602763146285568e-01
7.756688412736337246e-02
-2.146304835291291610e-02
-6.902549599593500729e-02
1.782887438304617614e-02
7.713711599069686398e-02
3.989100998606625453e-02
-1.124691426739592159e-01
-5.637977742212178789e-02
1.738351468499866048e-01
-7.081773111778018326e-02
3.687899769538190847e-02
5.701036961907361700e-02
2.857840961327604706e-02
-1.055018328203283402e-02
-1.258920138422893638e-02
3.507554162469950915e-02
-5.118200562973081180e-02
-8.322192825643866254e-02
3.391067898186422847e-01
1.081021732534454272e-01
1.806752995076707502e-02
-3.403552544705187172e-02
-9.645453361037431561e-02
-7.421884750907490821e-03
-1.643669209068131243e-01
-1.629976283077083088e-01
-1.472954319218385544e-01
-6.572196902701950283e-02
5.034705774167368229e-04
-5.651411375797067704e-02
3.513111629450272472e-02
-2.962434127488680104e-03
1.336423259519094464e-01
1.032170360104882612e-01
6.901713413203620917e-02
3.042493752728876386e-02
-2.157775601715727909e-02
-4.239208632432642232e-02
-2.174393225387941109e-03
3.433124169982409296e-02
-5.867807466972530667e-02
-8.951003122553091718e-03
-1.055821097661329006e-01
-4.698970727857825630e-02
-1.012267440210427513e-02
1.205355656646485835e-01
1.097858272142192976e-01
-1.382787148419435119e-01
-4.863642888318646385e-02
1.192882422930784808e-01
-1.209473148142843624e-01
-1.183298368315837124e-01
-2.536479695852509805e-02
-3.645155401660408329e-02
-2.971253874611390778e-03
1.331991260720234160e-01
3.050911633085846494e-02
1.403565140927260368e-01
5.306243049211815110e-01
2.293589699783621649e-01
7.676932653896546832e-02
-4.748830179166096260e-02
-2.175315665472943027e-01
-1.417730713205677950e-01
-1.844118220964285071e-01
-2.455478396825557796e-01
6.192058310063538323e-02
9.422964795924743120e-02
1.520229831414311172e-01
-5.604922164655901790e-02
-1.613576992641313768e-01
1.153896680792007405e-02
-7.090439561702210902e-02
-3.140086448152255849e-02
1.300373509044627507e-01
6.036950729397486115e-02
1.539369998055866162e-01
1.293940896113224270e-01
1.329900324392085109e-01
-2.924337296612531389e-01
8.535138624182840583e-02
-3.996456366351309186e-01
6.434194322888059370e-02
-1.605498484835683054e-02
4.398960191336701020e-01
-1.555522144218102476e-01
-1.267305704255191900e-01
-7.749572057545132953e-02
-5.402936513068771346e-02
-7.437510696072593963e-02
1.608309201246956865e-01
1.176157274275639042e-01
-7.654783984249258211e-02
-4.698435662092588505e-02
-5.019598509951587323e-02
-3.561833388133832379e-02
-2.495475013457198327e-02
-4.414538197341512371e-02
-1.614733641056532165e-01
-2.539391724624806557e-01
9.370291248394344019e-02
6.844752009866079956e-02
8.581221286098007772e-02
3.701080319270818458e-02
9.745836858113268719e-02
3.298071935070783639e-02
3.529814651085956823e-01
2.435850990379720138e-01
-3.453521461505650036e-02
1.012172643044195464e-01
-1.988847999896658780e-01
-9.540195306574536516e-02
3.074893073155745421e-02
-3.997107915120803878e-01
2.870877256965819191e-01
1.905067334382493649e-01
6.629034010749676464e-02
-8.249538967581546145e-02
-1.039265430988093181e-01
-2.939140810106895957e-02
-2.412966848996853098e-01
-8.677477346695088023e-02
2.263104931912006401e-01
-1.747473452569377889e-02
-2.129643549796384622e-02
-1.172075172819152106e-01
-9.433201668364969705e-04
3.742372178238433794e-02
-2.898516135252906523e-01
1.830394060241141985e-01
-1.419764565642328558e-01
-1.296403194372259260e-01
6.096007221428574596e-02
2.429938414447832817e-01
3.484359240923392415e-02
-7.943569955093034152e-02
5.191178541555790948e-02
-3.965681593147191153e-02
3.974024147894532344e-02
-2.201563487739934821e-01
-7.262520599180666281e-02
-3.182492584443859240e-02
-1.711924476824921715e-01
1.244587402869509335e-01
1.065851465598099401e-01
2.250147999670245591e-01
-8.360806155267090645e-02
2.203040355366110703e-01
-5.657951201495131643e-02
-4.228565582408803925e-02
-1.848618854124784577e-02
-8.935508711770246901e-03
-4.725739896994247610e-03
-5.683368994888467890e-03
8.290706328898048150e-02
2.166931682450352059e-01
-1.096920110986189106e-01
1.436567133017755127e-01
3.299078141131697728e-01
-2.202780717291729917e-01
-1.340671098848537357e-01
-3.091275662363154320e-01
3.277657010202521537e-01
8.618556269678129267e-02
1.221081198028971387e-01
-9.038171951852738695e-02
-2.511392776159531715e-01
4.346042550229110152e-02
-9.980403308252087935e-02
-1.381947788052212966e-01
-4.074316832662868565e-02
-9.248594840351190283e-02
-9.982789410083742210e-02
1.158953705949264529e-01
3.358452631974166713e-02
-1.369864768227284715e-02
1.408581660121067392e-01
-4.358240441352459471e-02
-1.520719839065812762e-01
1.116676271673812393e-01
1.383105388872593877e-01
5.071581305312231058e-02
3.608227203443806382e-03
-8.276813461026416574e-02
-1.644280430708197627e-02
-5.301928348727760754e-02
3.033345204234779713e-01
-5.429415990549055215e-02
-1.246380515519817656e-01
-1.150290366106412471e-01
1.369380160279560221e-01
1.590664815090835071e-01
-4.687520874112415838e-03
-3.006902490182923882e-01
4.444709770428828532e-02
9.860201123747450169e-02
-8.025287347633296153e-02
3.554013520650137897e-02
-2.085575782041861059e-02
-3.856780274298234751e-02
-1.937677695774322681e-02
-1.953603315078706465e-02
1.880649432220360406e-01
6.672449107621954145e-02
-4.168232337264433929e-02
-7.037065019553538636e-02
-4.745160205707431994e-02
-3.092678648795718632e-02
-2.975982772105393789e-03
-6.138208941293706727e-02
3.917276137758476245e-02
-4.842755182074579695e-02
-1.328312299012651167e-02
-2.722075558366394282e-02
-4.057101300467036431e-02
3.763622157792211043e-02
-3.638545319110146701e-03
5.633200576280938260e-02
0.000000000000000000e+00
0.000000000000000000e+00
0.000000000000000000e+00
0.000000000000000000e+00
0.000000000000000000e+00
0.000000000000000000e+00
0.000000000000000000e+00
0.000000000000000000e+00
-2.153022197822725414e-01
-2.255432754604075885e-01
6.388402635499297599e-02
3.304237202566716325e-02
1.346761068377241299e-01
7.478628407291140756e-02
2.827238197650136856e-03
1.316294677537303559e-01
1.006071750327004327e-01
3.708271651012990527e-02
-3.932484245352065901e-04
-5.826954756266809234e-03
2.312571520394023777e-02
4.552369845502314549e-03
-9.266224461504435350e-02
-6.648552879642732893e-02
1.950017775609445003e-01
4.792014001977633331e-02
1.019440582646540527e-01
3.665800320386530115e-02
-1.085955817622970138e-01
-1.060625934388927799e-01
-2.152477070205578158e-01
4.838190317250712358e-02
-9.319622422511020590e-03
2.108444644021595371e-02
-3.093167399953136026e-02
1.843414138646014278e-02
-1.698577746648739090e-03
1.621984899174389039e-02
-3.606942290994498423e-02
2.228086026021631680e-02
-3.921482393190378613e-02
-1.559425298273739713e-01
-1.411552144850309609e-01
1.756124999923405067e-02
2.367338669702616707e-02
-4.709990755334261814e-02
1.834214261512025768e-01
1.587564129501877752e-01
-8.058158135131049393e-02
-4.088559296642322455e-02
-2.479702165285238916e-03
-2.091211020374670465e-02
-1.832007939170278085e-02
4.192165935800921950e-02
3.742455273962252277e-02
8.383285398083707707e-02
8.241895401244611619e-02
7.176441750601841862e-02
-3.315485149428538947e-02
9.894702558735885695e-03
6.902628464510855710e-02
4.321976183792831591e-03
-1.736817483865867318e-01
-3.058973502522861418e-02
-3.147811681711572968e-02
-1.064386278101524252e-01
8.368530292448086993e-02
-6.743258851103586804e-02
8.915733628284050472e-02
1.418477343027471898e-03
1.410464615178287362e-01
-1.099582449298753262e-01
5.680202978082874582e-02
5.720366142629892264e-02
-2.855681959423043287e-02
-2.918303746895521342e-02
-2.950691944921148002e-02
6.528916021555426774e-02
-1.395268580690301255e-02
-7.809538910338284512e-02
-1.219834444035508558e-01
5.356346920904229980e-02
2.965386508492311862e-02
2.564765903216132542e-02
-2.101790379285022742e-02
3.350316858838129491e-02
2.235317829703683395e-02
-2.171999201514411212e-02
5.932041820612841965e-02
9.033658108099267350e-03
-4.267932422953936433e-02
-1.303380171982274766e-02
-3.333079880436512488e-02
-6.968420966860204568e-02
3.515531476495104002e-02
5.521874334315070298e-02
-2.242793946177600029e-01
-3.014548246043506907e-01
-1.345152863408926591e-01
-8.814424606964704756e-02
7.336736447408991058e-02
3.402948781813888157e-01
9.907236323734569527e-02
2.356591457398261591e-01
-4.638284152086800255e-02
2.003714162089017536e-01
7.252970057415593363e-02
4.367236981347212554e-02
4.123202455639607411e-02
-2.280615811060731635e-01
1.521041610606483491e-02
-9.857150463205263669e-02
-7.886880879104556097e-02
9.946273709963210016e-03
-4.728626765758994765e-02
-5.012284280108551815e-02
-5.072634231210776390e-02
3.219552892141248207e-02
6.768226872970437707e-03
1.780942320574820381e-01
9.326620364581281186e-02
2.225640982187420194e-02
-9.861968790999259618e-03
3.846453062448329518e-02
-8.075176603618904048e-02
-6.167787794749587937e-02
-1.825900226792064041e-01
1.808944913617204497e-01
-3.788526293102270626e-02
-1.222198700651089681e-01
-9.834957527624434148e-02
-8.230121816506649757e-02
6.308525323906297166e-02
1.082582532586024021e-01
1.247728187886201767e-01
4.463960115115707394e-02
-7.204577161296239762e-02
8.734969788872046226e-02
8.199989246459288283e-02
-7.191803701771873336e-02
3.466143513687781202e-02
-5.391520538069240198e-02
-1.949796054274950674e-02
1.336594906393297373e-02
-1.056380718883964676e-01
-1.372947667811028755e-02
-1.893406502235150425e-03
5.462854819458740074e-02
-1.226999179236111515e-02
8.289180684754850420e-04
8.923116686287377308e-02
-1.115768626483317795e-02
-1.951882048741188785e-02
1.143986094172157048e-01
5.081857622942839020e-02
2.486538717613812066e-02
3.377382209251456741e-02
-3.859343579649840428e-02
-7.980290017826069393e-02
-8.594123845312633125e-02
-6.329166079783897156e-03
-1.812305554929284634e-01
-2.097010551369702866e-02
-1.490215573921097048e-01
-2.957554888062470175e-02
-2.816693794095352296e-02
5.168829541938181182e-04
4.147769883459037077e-01
-1.579948878716847622e-04
5.584595390517812022e-03
8.924032603945364350e-03
6.266528218372101333e-02
-1.044880002589471113e-02
-7.185777332499641845e-02
6.839390471414999451e-02
-6.310324665357132379e-02
9.758946718239123672e-03
-6.293889140220144951e-02
2.086714994504498821e-02
-5.847719800771489923e-02
1.099325294870880515e-01
6.123350114629796601e-03
-1.120512262802616232e-01
8.678533942517624444e-02
7.169981497480283628e-02
5.839855250210421872e-02
-2.937652385717791012e-02
-4.317056963251357515e-02
-7.030945441929212225e-02
-5.076650722768837748e-02
-3.714703943661535387e-03
6.723939160342536081e-02
1.481846823610561414e-01
-3.066827087556971490e-02
-3.929710552242865473e-02
-1.557437249686439984e-01
-6.437108795771996628e-02
2.203599704644401344e-02
1.744179653210535877e-02
1.024177133847557347e-01
-6.876931377210541985e-02
-2.087449755213897917e-02
-6.910333597790489779e-02
-5.467403813475375102e-02
1.844100807965309667e-03
1.129050866797090963e-01
5.010196545308843313e-02
4.857003249614059992e-02
-6.137854342269714880e-02
1.111499606636826981e-01
3.136269551691164836e-01
1.236527416908646676e-01
5.084106033768499844e-02
-1.214014588489425311e-01
-1.622097112801346996e-01
-2.542810043095719008e-01
1.567272770440496926e-02
-2.425965909033215781e-02
-6.387015915157485957e-02
8.392024226386056440e-02
-1.057213434083056035e-02
4.762796496584580097e-02
3.944097154442952058e-02
-8.795995389580335555e-02
-7.900302110265640040e-03
-5.703136170389407761e-02
-5.565656845514087986e-02
-3.486850084771551950e-02
4.935252835127350302e-02
9.352421978163356908e-02
-1.303956946814490911e-02
2.561955445225394534e-02
-5.715388110986536346e-02
2.585459965367197244e-01
1.766268042618712383e-02
2.065637739329927516e-03
-4.020606268434773201e-02
-5.952533027953009481e-02
-1.297786017645847501e-01
8.389561136091138599e-03
-1.364795721328847244e-01
-6.680918365416172247e-03
6.603526971796877532e-03
-1.275742861310666665e-01
4.203334160489139576e-02
3.268130360690179453e-02
5.679305147620206801e-02
1.326235529695754256e-01
1.958436395325447443e-01
8.613655010887634467e-02
-2.417561192388827107e-02
-2.676582825907122126e-02
-1.821063151334196412e-02
-3.906582785615395070e-02
-8.584379664134914045e-02
-8.791849344761598628e-02
1.541872122319999094e-01
-4.957734769726551693e-03
1.523996764245284519e-01
1.259458560281131491e-02
-4.762085733130692194e-02
-6.310997265315393401e-02
-7.689194833174892163e-02
-1.266009611734021378e-01
-1.309548463842813981e-01
5.027429768559687345e-02
8.787449330424337846e-02
4.637236607014733059e-02
9.305648345951776645e-02
-3.173004727336378727e-02
-7.821084478556813990e-02
-3.668190207629185712e-02
2.803118055941155456e-02
1.487551728026419162e-01
-7.437022279706367867e-02
-6.751264026256204032e-02
-1.661409946897148826e-01
4.675812659803076088e-02
4.771856929356359765e-03
7.970752085990034930e-02
5.888393375020090081e-01
1.554124080038907507e-01
-1.557845091795368418e-02
-7.896493669661890091e-02
-2.236860495031614826e-01
-1.421436636796544750e-01
-1.188294540959693585e-01
-1.650491906125423069e-01
-5.824090036073775734e-01
-4.171749164824535283e-01
-4.796652164494370485e-01
-2.219399322905959426e-01
-9.422551297145083382e-02
5.397462531487111637e-01
4.502359363514066293e-01
8.054323923011957875e-01
4.567179555850336276e-02
1.605474148062423778e-01
1.922890089538229486e-01
4.731661010326037448e-02
9.724433523450059548e-04
-1.951181528568033119e-01
-6.384520405808485899e-02
-1.878339158592832459e-01
1.846338393376734388e-01
9.618185489067745952e-02
6.017240152112213192e-02
7.668690901893784884e-02
1.049282627124192152e-02
-4.852140080986091369e-02
-4.576056279147366901e-02
-3.338858674383168301e-01
-7.036647745493468213e-03
5.045666222548062657e-02
-1.935538766492739954e-02
-3.617636109423578994e-02
1.264143614314715836e-01
1.600698563141434577e-02
-5.344870608474584089e-02
-7.686090669896432359e-02
6.285961267255739740e-03
-5.288011522693356059e-02
-1.068027045199350794e-01
-1.082976371202349075e-01
-1.623282533255267571e-02
-8.454869062527412341e-03
2.974594182928509967e-01
-1.107722829792264808e-02
-5.141120384680961455e-03
-2.995773940202345886e-01
-8.979336498449469071e-04
6.332369773466148266e-02
3.111861362795868557e-01
1.205943154374815585e-01
7.222409781101493675e-02
-2.617117992079844857e-01
2.155067914425125297e-01
2.121758122433455573e-01
1.956300562536898435e-01
1.453650882187389748e-01
-3.544384425517161930e-01
8.171875869283985738e-02
-4.627688187124428532e-01
-3.318924558696198512e-02
-1.765549800511282685e-01
-8.619167307130956579e-02
5.080236827919502873e-02
1.119761932262267334e-01
-4.525268368002400426e-02
-3.649789090258052232e-02
-2.140292201420001747e-02
2.031215882138205642e-01
4.463022912777677570e-02
6.262974114210666243e-02
-1.342682145544347311e-02
3.327137431469948808e-02
-9.529507494089952541e-03
-1.965416284044851220e-02
-1.091432204415784535e-01
1.122236764697703837e-02
2.201703682912966309e-01
1.825152628921838383e-01
4.722941595892369421e-02
1.004615982180948747e-01
-1.458396641722851071e-02
-3.120610431835182941e-01
-5.331569915214034311e-02
-1.704159366076166693e-01
-3.732245836636562397e-01
-5.253799406588123277e-01
-4.178529505806811151e-01
-1.027024304886375999e-01
8.340519029620595270e-02
3.531283101018544146e-01
3.420521832525400541e-01
6.405742217411920514e-01
-1.926991637123172951e-01
4.056588535407384954e-01
2.554136216995263053e-01
-2.475559708849346674e-01
2.731734405553243317e-01
-1.445549575074940585e-01
-1.404765324716545916e-01
-2.089592912191884366e-01
-1.627948541722369913e-01
2.644808404313323535e-01
1.429460654392854246e-01
1.403498126116129174e-01
-7.485339981992575331e-02
-1.685989520161826072e-01
5.768368847590402138e-02
-1.992132009497895595e-01
1.958787308217992407e-01
7.139257385950213697e-02
5.382132751467825355e-02
-1.376515491149239434e-01
-2.062230656803650808e-01
1.569874460563706886e-01
-9.575918484368979577e-02
-3.844627861336955693e-02
-6.292209774232061792e-02
3.113159163143999209e-01
9.383850185392840840e-03
-1.924149244906361855e-01
9.830541874314743800e-02
-2.524116150311372375e-01
1.409120761504654151e-01
-5.216862412931130150e-02
6.943311988288480840e-02
-1.354559034835775277e-01
5.270964884674184808e-02
3.399382981533206061e-01
-1.205637790417622562e-01
-1.128618390002678329e-01
-8.862881898326031849e-02
-4.570726374079340203e-03
-9.812782660843416549e-02
-1.940554074201546186e-02
-2.016071116048008885e-02
-7.666537517391097678e-02
5.375583039524541376e-03
-1.119543941131997088e-02
6.050540225280745532e-02
1.596739078038291182e-01
3.126776124389017975e-01
1.794167525683837416e-01
1.378997787272876752e-01
-2.250140247059149307e-02
-1.537492632722756436e-01
-7.708341900604660790e-02
-1.256197426433523223e-01
-2.510403163423053918e-01
4.684677753348041873e-02
2.079630972670610256e-01
-5.409345629088210122e-02
-4.584538803760539877e-02
-1.017414175576318303e-01
3.197626794155222080e-02
-2.512145450391665147e-01
1.661086641831925059e-01
-1.231246982254546041e-01
-4.882034014302118197e-02
-6.921254330976642742e-03
-2.052141802769080065e-02
3.376143691606001140e-02
1.102128414497046544e-02
5.802608843558387103e-02
9.657890123053072817e-02
-5.277772809755889444e-02
-7.465038491532953457e-02
-1.914121285838961406e-02
1.734278131079630414e-01
8.328814694013891851e-02
-1.773709478251882798e-01
3.938115130124580227e-02
2.784316234711844973e-02
7.620716467159699414e-02
4.698674145367347926e-02
6.282909310972788035e-03
3.232817785736160493e-02
-2.069112177898286414e-02
6.723853174087975060e-02
-9.646029200520006563e-02
-1.118921112503026977e-01
-1.492838197453379701e-01
-7.259676619549668142e-02
4.258852920607641285e-02
1.029961188778951431e-01
5.101963388362035917e-02
2.584577475076841463e-02
4.200066289379058432e-02
-4.257013367131777526e-02
1.141925601002168472e-01
-4.651065347447751186e-02
-3.736882251640385316e-02
-1.197363924455542017e-01
3.367465253209540876e-02
2.273397042790414359e-03
1.641621634133036411e-02
3.705904242000422621e-02
-1.569734671710231733e-01
-1.407181212731997144e-01
-4.554746825444739439e-02
-1.262028638718257385e-02
5.540419189159156294e-02
1.006039787373481098e-01
8.889109623093044421e-02
1.109600762259831813e-01
2.191705738338975695e-01
2.222737909388705635e-02
2.815953188740933158e-02
6.798827565424013508e-02
-9.607346717597176067e-02
5.846390549356950822e-02
4.579637167363956318e-02
-3.457325704606707406e-01
-4.610410775532391980e-02
-7.331362891390320879e-02
-8.635931340438253445e-03
7.677424367332541522e-03
4.145042704093026414e-02
-8.241779259806200630e-02
7.643790266024386160e-02
8.490570653922199784e-02
7.425632494102943348e-02
1.325516097797314885e-01
-1.747198827538549992e-02
-5.582812911067089323e-03
9.285940233459745452e-02
-5.515458745934137541e-02
-2.181704329205964854e-01
-3.287515488968559621e-03
-7.140863947258802025e-02
1.533039120227081172e-02
9.284194925886465888e-02
5.334052259828363229e-02
5.848340501332062284e-03
-4.317170640428503320e-02
1.305758073123399962e-02
-6.583843841511216599e-02
2.387194085967919883e-03
2.681786630342180566e-01
2.254337629506407703e-01
-1.552696620836691022e-01
-9.352770172880836563e-02
5.737003010834863109e-02
-1.627119833488589462e-01
-1.418603030178390845e-01
1.765457199587084913e-01
-9.117232921497361864e-02
-6.235089779002645632e-02
-2.878779022260119502e-02
-3.436637012013806641e-02
2.032833543258700734e-02
3.552304663111473942e-02
-1.571971467467125211e-02
-5.056583023938868160e-02
-1.050548051382206305e-01
-4.300655809450442540e-02
2.315226597712495560e-01
1.871506014155763578e-02
-1.021232609022733467e-01
1.594553182877190278e-01
-1.089425838261390972e-01
1.601382226359231165e-01
9.905688050394355348e-02
-1.382749194733597911e-03
-4.143063349648840737e-02
2.856709643993940451e-02
-4.106599427144769221e-02
-9.343401402734331784e-02
-1.104488085897925992e-01
1.647037325964516019e-01
8.093773270710274970e-02
-2.883487171818223740e-02
4.151179419335701559e-02
3.884323080379601528e-02
-6.662191438838818702e-02
-1.125349460904795651e-01
-1.180047581036567234e-01
1.945138376957300519e-01
8.712274649351710309e-02
1.895462348144763831e-01
5.642830904437974755e-03
9.599737361981551531e-02
-2.681836124615245495e-02
-1.906906192743310080e-01
-3.553140430074913647e-01
3.075187411456548614e-01
7.235539840081889329e-02
-2.780454874360479070e-02
-3.594333954683987149e-03
6.311254966019131524e-03
-6.072046289402487085e-02
-1.107148781344043237e-01
-1.833511707857765349e-01
-5.408170813943268262e-01
-1.558743666929084115e-01
-3.199568612025687764e-01
-4.712645792181704291e-02
-2.688426034359284178e-01
-2.195650031583787076e-01
5.395673740192475920e-01
1.012614999786681347e+00
-1.477234663486133859e-01
-1.204084739185371927e-01
1.305326913177285997e-01
7.894331054557014726e-02
1.243400834392972484e-02
3.261023693050746908e-01
-1.728259229273359232e-01
-1.070545163178173997e-01
1.749634857775975161e-01
1.492308720921476373e-01
2.749655812287130074e-01
-6.556254960657706410e-02
8.020779786252837593e-03
-9.727031584968376388e-02
-5.447249817941972327e-02
-3.898753552490295538e-01
2.649140397290729587e-01
1.636057581724419951e-01
-8.490016452817357451e-02
2.825809603029885708e-01
1.455034831121518601e-01
1.317912631442176748e-02
-4.124901266078676021e-01
-3.723930764950336147e-01
-4.333441395875235469e-01
-4.208697129788352420e-01
-4.155794632594939642e-01
1.017596044777079600e-01
1.455602695565057225e-01
2.844341968667276135e-02
3.963350050673132841e-01
5.976950170376530425e-01
2.416551808742197771e-01
1.241102860206478864e-01
1.252908426303519507e-01
-1.325645119649160840e-02
-9.282904603136250821e-02
-1.740214749866832167e-01
1.709928870571504264e-02
-2.280486260163991086e-01
6.960728261867155098e-02
-4.133234409820954469e-02
3.910292579185337125e-02
8.506634190154975864e-03
-5.565464247984951845e-02
6.416938142142232515e-02
-1.243618605735077182e-01
3.996262312946282508e-02
1.861285807223636013e-01
2.229128170981172496e-01
-1.050853221903049091e-02
4.283213373457900319e-02
-3.630316382819934878e-02
-8.350632647450693946e-02
-1.472318892022619619e-01
-1.743236198310604002e-01
-3.156771322837896299e-01
-2.059103168051583943e-01
-1.339845774146580966e-02
-1.745791664192107850e-01
2.263860382176476893e-01
1.144423970393216999e-01
3.571551973424826748e-02
3.330211182584063012e-01
-4.758943353242565955e-02
-3.374149889117186024e-02
1.061981674861497971e-01
-3.980320951919300021e-02
6.702167407239037478e-02
4.006246393350858942e-02
-3.828804398454727781e-02
-5.386011956471210838e-02
-5.645349472544489849e-02
-1.442114128342008861e-01
-2.710449661809298527e-02
6.678771991433440913e-02
-1.327996544196947681e-01
9.591009599031240229e-02
1.947320023837594283e-01
3.139240309027974390e-03
-1.223627064606125775e-01
-7.224232495844040702e-02
-3.357702378322725834e-02
-1.663705880182146657e-01
2.204599704695262563e-01
2.179703839392536646e-01
-2.609628460287024415e-02
-1.778142658541483068e-02
-8.658010418732214886e-02
1.715704624991231109e-01
1.155587761418752635e-01
2.296783347686892351e-01
-6.026463374188688630e-04
-8.564180962997201829e-02
-1.766582764193246058e-01
-1.673247368356509113e-01
1.852329584105276705e-01
-2.196778980133598860e-02
-9.252370178858618233e-02
-6.856509209466696286e-02
-7.192149327560088540e-03
4.011111846654795421e-02
3.505650717156814922e-02
-7.015185103649419773e-02
1.864693617596084318e-01
7.223466418315026283e-02
-2.151000969393343162e-02
-1.112307222420257924e-01
5.439884925846145969e-02
6.527063417981998628e-02
4.930943551530676816e-02
-2.949422129603854748e-01
2.941764908346521379e-01
7.309548739690589943e-03
5.062810638261391188e-02
-9.005682596654898675e-02
-2.718107625321972490e-02
-2.987289610101971984e-02
-1.880455469895046805e-01
-1.695780064666179560e-02
-6.922001499064562857e-01
-2.626338840770748306e-01
-2.236507065448712361e-01
6.394686366909153874e-02
-9.936203523885689393e-02
1.254785281290055066e-01
1.671875876439443964e-01
9.212337963252191786e-01
-5.080304596583062882e-02
-3.062059011889259677e-02
5.563998755490606046e-02
-3.583031187476505217e-03
2.359198216458894062e-02
3.668835023221320851e-02
6.360756441588430454e-02
-9.452121709539307304e-02
1.024298397613511019e-01
-7.476549247994570060e-03
3.512872472450209033e-02
-1.024003021918020728e-01
6.334419507504675251e-02
-3.433997222851338516e-02
3.828834612290891309e-02
-9.497428201549858173e-02
-2.438386912129217668e-02
-3.188746158506452349e-02
-3.443825380887526738e-02
7.160445774796514451e-02
2.109074864285024817e-02
-1.324708320532587760e-02
6.836030165085211878e-03
4.425431164656708910e-03
2.686510608598566534e-03
1.991826934773868740e-02
4.788851248878788630e-02
-2.885326490866729418e-02
-3.937074826323944121e-02
1.113570740154629923e-01
6.275165702518803457e-02
-1.763780103138700150e-01
-1.400860328343444816e-01
-1.577958628023357068e-01
1.007586572140878323e-01
-1.525194653260056148e-02
5.002019562696431026e-02
3.325453396557082053e-02
-1.219287795079646193e-02
1.412933333134549774e-01
-1.715570207353326049e-01
-1.448504926422066741e-01
-1.146388397009587140e-01
-3.858331164839360478e-02
1.268997679449280491e-01
1.204042573683702239e-01
1.201154192678120652e-01
1.022102201457817106e-01
1.038332465009749322e-01
-2.171398924617617271e-02
-1.173938220438559277e-01
-5.552419945564431719e-02
7.802053443475376847e-03
3.745969080242252114e-02
4.259909106897151465e-02
2.937928929831741792e-03
1.081079852306632005e-01
1.399278144184076533e-01
7.672427728806822944e-02
3.668552711743700012e-02
-1.909074767649939636e-02
-8.338815913453695439e-02
-1.367334902227325399e-01
-1.222332070208070470e-01
1.169453680158443337e-01
5.549667144691197707e-02
3.665579804313620627e-02
-1.834617442804128140e-01
1.123653989298472461e-01
-1.078911946438493030e-01
-2.227366091780776103e-02
-7.836636593671177445e-03
-2.173923665375993575e-01
-1.260446885980419096e-01
1.099650999184413475e-01
1.009513044209153637e-01
8.438122694775866683e-02
2.815379669182505734e-02
-3.059813649189624396e-02
5.058376364859874103e-02
-1.372096186136669525e-02
2.274460790439471192e-02
-4.390092394363091094e-02
-1.387885125377819398e-03
-5.475599547915680626e-02
4.022220966648679813e-02
1.532849400957916365e-02
3.547045482907174030e-02
2.366173402045040064e-01
1.948172073184495021e-02
-2.375394273375290924e-02
-9.288680198118924591e-02
-4.609493295672333069e-02
2.084588972647049340e-03
-3.714724401802956683e-02
-5.830072821930023380e-02
6.412504056172407818e-02
1.815572038961737675e-02
1.256121399226709304e-02
-7.638747621693260659e-03
3.685511464988756869e-02
-3.798045971057889547e-02
-6.194945923250901043e-02
-2.412842302871417641e-02
-9.208208252623963086e-02
2.663381525900779950e-02
-6.075043058488856229e-02
1.474906693492765083e-02
5.074101983652631875e-02
7.903130064327174020e-02
-1.116784487481565016e-02
-7.154844687790870746e-03
-2.177097204279491161e-01
-1.438086512239921677e-01
3.352877993241232257e-02
1.923714963786362919e-01
-1.151011356286469473e-01
-1.894586150527060309e-01
2.570088774130789289e-01
1.831689686091683700e-01
-2.060147352139708038e-02
-3.937184191454658200e-02
-3.639393234278302802e-02
-1.364680621534135677e-02
-7.457756648330699303e-03
-2.431939486774637935e-02
1.318585608760914490e-02
1.286053494225375127e-01
-1.209964017154626925e-01
5.514854516637004295e-02
6.635051449909966370e-02
-1.061048639294699669e-02
2.341919655023454866e-02
-1.857678231355439080e-02
-2.235911759642543115e-02
2.762453180268497482e-02
1.661156461455015609e-01
1.508201470294252833e-02
-1.179132536460578314e-02
3.656515787027527636e-02
-9.205966879046328932e-02
-8.485842684242354134e-03
-1.313586532051044808e-01
2.593267132569384778e-02
-1.806475373551447716e-01
-4.891101848900460125e-02
-2.190140904366396496e-02
1.946666509062536243e-01
6.806184999338861508e-02
-1.060447535498704186e-01
8.777253469389766083e-02
7.003682844144205714e-03
6.116114408179091494e-02
-3.742503157924422647e-02
-3.038420112676437981e-02
2.633945999619378975e-03
-2.126026277240879517e-02
-2.257898355210538957e-02
3.244007707318739137e-02
1.541331187592565218e-02
-4.411201750630940749e-02
1.065348565050443230e-01
5.453584015985723371e-02
5.281418488136051942e-02
2.682581832158584603e-02
-2.617945715512486754e-02
-7.979581245383504662e-02
-9.062341275257874973e-02
4.374341641944880926e-02
-1.697500428043183518e-01
-9.223739015862465751e-02
-6.299217545876750757e-02
4.689153872346037838e-02
1.539324614180183348e-01
1.130555280909788796e-01
-3.264333623019814029e-02
-6.956186707562340976e-02
1.543539639349423287e-01
-4.841838993550461046e-02
-3.870379381305205473e-03
-6.427489425224198506e-03
5.159942556844566292e-02
-3.451078761920226695e-02
-4.316447606652673574e-02
7.974310407078859242e-02
1.666947919349157439e-02
6.879027798016439099e-02
-1.099912182659830845e-01
-7.110612601064396354e-02
1.765164861413505148e-01
-6.450114953916044613e-02
-9.612085357000740848e-02
9.370550082386332191e-02
6.955641879006303763e-02
4.037420853996137593e-02
-4.939189806794109378e-02
-4.409628930737214542e-02
-2.289434738100130928e-02
-6.279087515230410976e-02
-2.446271824526906682e-02
-1.159915297448511629e-01
-6.940609532001013049e-02
-5.598977600204615990e-02
-4.929347420212611131e-02
-4.598143574387162508e-02
-4.181127076741443516e-02
2.048885080481316345e-01
1.735850737321880943e-01
4.343246324243490303e-02
2.925884132093761747e-02
-9.642600279235431782e-02
3.924716132027378235e-02
1.890451939074292570e-02
4.980642337832116850e-03
3.029121319672287843e-02
-6.968883801658959376e-02
-8.567816966376512466e-02
-4.731671737532893926e-03
-1.430905045644596287e-02
1.848689219898640851e-02
-7.910642129472383877e-02
2.151339552920779330e-02
1.314269428548570928e-01
1.239808256941616477e-02
3.313389855664395506e-02
-1.001176320928868629e-01
-7.445351391598149793e-02
-1.708909809622481679e-02
-6.316584430687852136e-02
-1.757666733604140285e-04
1.010919202350765989e-01
1.207760362936121379e-01
-1.961487736699722984e-01
-1.157869009436438695e-01
-3.738256885188277756e-02
-3.936276719391620937e-02
1.416004191159806191e-01
1.348464895424691945e-01
4.439714271508476973e-02
6.783695928587969715e-02
1.315145784463967460e-01
2.691892648902918794e-02
5.011790458940253157e-02
-6.051388872272568664e-02
-4.652007471740054328e-02
-1.039536290640389604e-01
-2.309777465576872205e-02
2.553395763510564465e-02
7.275990863133033337e-02
8.597748194286126966e-02
7.753616403338314811e-02
3.495126559700896182e-03
1.052764568994751654e-01
-7.302047770261117787e-02
-1.384223509009462338e-01
-1.336023094631933472e-01
1.768977119709863322e-01
5.532274564086086394e-02
2.531794881400939098e-02
-6.558470466823430878e-02
-1.202765197222457477e-01
2.686726125396930384e-02
-1.626731195921432213e-02
-8.227713133012998226e-02
-3.583517197150249550e-02
9.298615224894632436e-02
5.555007090009621284e-02
-1.760394550390576626e-04
-3.516060264681001440e-02
-1.304314756284684351e-02
-1.612691107892858661e-02
-4.819435043391513684e-02
1.102193729131882294e-01
-7.067876412475783410e-02
-2.933762853759051825e-02
6.381096126406723967e-02
-5.535593806774625342e-02
-1.327205757132848274e-01
7.670088761253696097e-02
3.736168465358717661e-02
-1.136871824445640916e-01
2.075783041539867591e-01
1.154093869070307310e-01
7.313722234230096708e-02
-1.198125382378938675e-01
-2.124729637311817410e-02
-1.289224662634810142e-02
-1.284856497213950899e-01
1.753373790660674725e-01
1.524638396545580643e-01
2.966413323672338620e-02
1.120483235521138876e-01
-2.404273370768261059e-02
1.000163368627144528e-01
-3.462585054572167587e-01
-1.992287732072760276e-01
2.051140517740436819e-01
2.223737785930081368e-01
-6.233201541001318069e-02
1.847611237749422972e-02
2.630684108557845846e-02
2.562269941771170775e-02
-5.820792520452852670e-02
-3.773535426332922382e-01
-2.698544138287000196e-02
3.534179493212971090e-01
8.378893650528507209e-02
-2.185088371312666339e-02
5.535718775898564384e-03
-1.359147195320107859e-01
-2.677705032051601042e-01
9.778943230687333829e-03
0.000000000000000000e+00
0.000000000000000000e+00
0.000000000000000000e+00
0.000000000000000000e+00
0.000000000000000000e+00
0.000000000000000000e+00
0.000000000000000000e+00
0.000000000000000000e+00
1.372410525104045542e-01
1.350327239073827734e-01
4.000255421674052403e-02
1.991584652888529205e-01
-7.469785540890376552e-02
-2.297667396834005560e-01
-3.391184423172595441e-02
-1.730583565993511486e-01
-1.048999159289338706e-01
-1.975786006840200004e-01
-1.260970283831376881e-01
-1.330752341587453091e-01
1.494843738355878249e-01
1.737993387578635751e-01
1.769932036844028000e-01
6.137386287698316095e-02
2.580308239189923331e-02
6.075442347840771112e-02
8.688142076336208275e-02
3.426328646211264373e-02
-9.762446434926544403e-02
5.460075465270317063e-02
-1.194774567970620510e-01
-4.520104660215869263e-02
1.351699843598005712e-01
1.241939273432464269e-01
3.601242496264230042e-02
5.411639972319727543e-02
-1.463775803433185752e-01
-1.616848961122091810e-01
-1.390769911252873713e-02
-2.752256082082995062e-02
-9.920602150028222377e-02
8.609022725969388279e-02
-1.255793360270103173e-02
-2.307695188058330599e-02
-1.482133762531225290e-03
6.741171941463879047e-02
4.714728769550497606e-02
-6.432619362373838412e-02
-3.971587390556605840e-02
-2.160487712475267497e-02
-5.989104717740875022e-02
-2.978738306312894019e-02
-5.737895658176038471e-02
1.490197940128420127e-02
1.630487363296671266e-01
3.042742212166512153e-02
1.297661086068062075e-01
2.319698586251934536e-01
-7.357399456357192891e-02
-8.595961669734392130e-02
-1.447324170879609739e-01
8.849998097499635341e-02
-1.181633406965938299e-01
-2.780657916152433351e-02
-2.294062610952470882e-01
-1.130491804677365431e-01
1.842741397166086925e-01
-4.711846587114665308e-02
1.882613924430152075e-01
3.056884560444238508e-01
3.093136197953034669e-02
-3.195814427494473864e-01
-7.659694491268553840e-02
-3.054048714934851777e-02
-1.660599310405063977e-01
1.801207686510833406e-03
-4.282452014777150817e-02
-3.665380910733276321e-02
3.901788436101075175e-02
3.118566003101230222e-01
1.966854643503091749e-01
-3.778105956804443666e-02
-7.793120459010438594e-02
-3.732700991282097980e-02
-1.759612050121277249e-02
-1.998341312797621144e-02
-3.631247461049210302e-03
-2.435409189101258882e-03
-1.305347068660500653e-01
-1.396458128704557988e-01
5.630294352914091277e-02
1.847695437976395183e-01
1.807256818626589157e-01
-1.382057719325511802e-01
2.466361331218931349e-02
-3.807549083257138339e-02
1.772633126313912996e-02
4.887954896753097037e-03
-8.022260614605432327e-02
3.899100850279891423e-02
4.237420949716919072e-02
-7.968244722433370786e-02
-4.398004073059468694e-03
6.032355328358777330e-02
-6.891197618794869806e-02
-1.635047221786173066e-01
-1.812111769400057831e-02
1.278959048987361388e-02
-1.232414983694722632e-01
2.752151440621341538e-01
-5.254040884376789955e-02
1.383149887217966223e-01
4.511765945097125780e-02
1.122583897689946042e-01
9.793952908876404906e-02
8.961761043025490148e-02
-1.912605491122200754e-02
-7.143236140770641007e-02
-1.511813789191378543e-01
-1.031933935009186759e-01
2.970833272536024805e-02
-9.310584852939883527e-02
1.721913806135313973e-02
-3.944601048116399417e-02
5.383921891009862959e-02
-3.086334516649592852e-02
9.588621073902145464e-02
-3.323769625877442263e-02
6.010896661461335999e-02
-8.126788308281540640e-02
7.770205544143376705e-03
4.889041787436387843e-02
6.133882363610276833e-02
6.820641453227554996e-02
-2.382276750616775796e-01
7.318072994299504308e-02
1.057158587430805097e-01
-3.431642044730169594e-02
-5.110052704186201881e-03
-5.492350700735914443e-02
-2.617674886222613739e-02
-6.618926065548426385e-02
1.261980342877858652e-01
-4.519790335430878131e-02
-6.902549599593500729e-02
1.782887438304617614e-02
7.713711599069686398e-02
3.989100998606625453e-02
-1.124691426739592159e-01
-5.637977742212178789e-02
1.738351468499866048e-01
-7.081773111778018326e-02
-1.278868709807668425e-01
3.505617892594646567e-02
-9.554657442878448925e-02
1.206742076737581243e-01
3.072952385922468888e-01
-7.447946800773092013e-02
-6.572726646977002096e-02
-9.938544530489945572e-02
5.035006463929535270e-02
6.494264014801000295e-02
2.147441126413382299e-03
-1.082245538021530396e-01
7.474084842861251909e-02
-1.400602763146285568e-01
7.756688412736337246e-02
-2.146304835291291610e-02
-9.582403475870168719e-02
-2.173452457154022299e-02
9.645217577110863638e-02
4.789223635713277943e-02
4.921787932211522942e-02
-3.531887036665894153e-02
-9.345037213828187583e-02
5.276551038482439615e-02
3.687899769538190847e-02
5.701036961907361700e-02
2.857840961327604706e-02
-1.055018328203283402e-02
-1.258920138422893638e-02
3.507554162469950915e-02
-5.118200562973081180e-02
-8.322192825643866254e-02
3.391067898186422847e-01
1.081021732534454272e-01
1.806752995076707502e-02
-3.403552544705187172e-02
-9.645453361037431561e-02
-7.421884750907490821e-03
-1.643669209068131243e-01
-1.629976283077083088e-01
-1.202654116398667490e-02
4.276619419938190725e-02
-1.569887739575688279e-01
-4.105737711414573360e-02
1.124736684144658945e-02
5.360105264986921025e-02
1.486028550349677117e-02
8.759779304150565327e-02
4.052511694902708600e-02
-2.197896357105936713e-02
-7.200230167096502432e-02
-9.349386874220236288e-02
1.605807086290251262e-01
-1.449298089812232626e-01
1.111377870448544136e-01
2.016133034254542419e-02
-1.472954319218385544e-01
-6.572196902701950283e-02
5.034705774167368229e-04
-5.651411375797067704e-02
3.513111629450272472e-02
-2.962434127488680104e-03
1.336423259519094464e-01
1.032170360104882612e-01
6.901713413203620917e-02
3.042493752728876386e-02
-2.157775601715727909e-02
-4.239208632432642232e-02
-2.174393225387941109e-03
3.433124169982409296e-02
-5.867807466972530667e-02
-8.951003122553091718e-03
-1.055821097661329006e-01
-4.698970727857825630e-02
-1.012267440210427513e-02
1.205355656646485835e-01
1.097858272142192976e-01
-1.382787148419435119e-01
-4.863642888318646385e-02
1.192882422930784808e-01
5.949266442334141813e-02
2.259174152590940621e-01
-6.027795388099442542e-02
1.009293684165124133e-01
-1.831019629969943552e-01
-7.983552447940304997e-02
2.328749590283255618e-03
-6.545275633184184649e-02
7.620716467159699414e-02
4.698674145367347926e-02
6.282909310972788035e-03
3.232817785736160493e-02
-2.069112177898286414e-02
6.723853174087975060e-02
-9.646029200520006563e-02
-1.118921112503026977e-01
6.192058310063538323e-02
9.422964795924743120e-02
1.520229831414311172e-01
-5.604922164655901790e-02
-1.613576992641313768e-01
1.153896680792007405e-02
-7.090439561702210902e-02
-3.140086448152255849e-02
1.300373509044627507e-01
6.036950729397486115e-02
1.539369998055866162e-01
1.293940896113224270e-01
1.329900324392085109e-01
-2.924337296612531389e-01
8.535138624182840583e-02
-3.996456366351309186e-01
-1.804399792376264744e-01
-3.442472520906784128e-01
3.491315692246930308e-02
-1.373809224331173362e-01
1.801307091223838253e-01
2.130346505514262856e-01
2.818036674057517593e-02
2.058092704245667592e-01
6.434194322888059370e-02
-1.605498484835683054e-02
4.398960191336701020e-01
-1.555522144218102476e-01
-1.267305704255191900e-01
-7.749572057545132953e-02
-5.402936513068771346e-02
-7.437510696072593963e-02
1.608309201246956865e-01
1.176157274275639042e-01
-7.654783984249258211e-02
-4.698435662092588505e-02
-5.019598509951587323e-02
-3.561833388133832379e-02
-2.495475013457198327e-02
-4.414538197341512371e-02
-1.614733641056532165e-01
-2.539391724624806557e-01
9.370291248394344019e-02
6.844752009866079956e-02
8.581221286098007772e-02
3.701080319270818458e-02
9.745836858113268719e-02
3.298071935070783639e-02
3.529814651085956823e-01
2.435850990379720138e-01
-3.453521461505650036e-02
1.012172643044195464e-01
-1.988847999896658780e-01
-9.540195306574536516e-02
3.074893073155745421e-02
-3.997107915120803878e-01
2.870877256965819191e-01
1.905067334382493649e-01
6.629034010749676464e-02
-8.249538967581546145e-02
-1.039265430988093181e-01
-2.939140810106895957e-02
-2.412966848996853098e-01
-8.677477346695088023e-02
2.241813509960140227e-01
2.512295420821578085e-01
1.105010007755269918e-01
1.442218694309919946e-01
1.989589034744797258e-01
-3.701497983682514731e-02
-4.544396503712760937e-01
-4.376380365510700865e-01
2.129142195186414874e-03
-2.687042766078514000e-01
-1.317974362734909144e-01
-2.614293867129078297e-01
-1.999022236413169618e-01
7.443870161920952688e-02
1.645880368459859411e-01
6.206774425751863111e-01
-1.419764565642328558e-01
-1.296403194372259260e-01
6.096007221428574596e-02
2.429938414447832817e-01
3.484359240923392415e-02
-7.943569955093034152e-02
5.191178541555790948e-02
-3.965681593147191153e-02
3.974024147894532344e-02
-2.201563487739934821e-01
-7.262520599180666281e-02
-3.182492584443859240e-02
-1.711924476824921715e-01
1.244587402869509335e-01
1.065851465598099401e-01
2.250147999670245591e-01
-8.360806155267090645e-02
2.203040355366110703e-01
-5.657951201495131643e-02
-4.228565582408803925e-02
-1.848618854124784577e-02
-8.935508711770246901e-03
-4.725739896994247610e-03
-5.683368994888467890e-03
8.290706328898048150e-02
2.166931682450352059e-01
-1.096920110986189106e-01
1.436567133017755127e-01
3.299078141131697728e-01
-2.202780717291729917e-01
-1.340671098848537357e-01
-3.091275662363154320e-01
3.277657010202521537e-01
8.618556269678129267e-02
1.221081198028971387e-01
-9.038171951852738695e-02
-2.511392776159531715e-01
4.346042550229110152e-02
-9.980403308252087935e-02
-1.381947788052212966e-01
-4.074316832662868565e-02
-9.248594840351190283e-02
-9.982789410083742210e-02
1.158953705949264529e-01
3.358452631974166713e-02
-1.369864768227284715e-02
1.408581660121067392e-01
-4.358240441352459471e-02
-1.520719839065812762e-01
1.116676271673812393e-01
1.383105388872593877e-01
5.071581305312231058e-02
3.608227203443806382e-03
-8.276813461026416574e-02
-1.644280430708197627e-02
-5.301928348727760754e-02
3.033345204234779713e-01
-5.429415990549055215e-02
-1.246380515519817656e-01
-1.150290366106412471e-01
1.369380160279560221e-01
1.590664815090835071e-01
-4.687520874112415838e-03
-3.006902490182923882e-01
4.444709770428828532e-02
9.860201123747450169e-02
-8.025287347633296153e-02
3.554013520650137897e-02
-2.085575782041861059e-02
-3.856780274298234751e-02
-1.937677695774322681e-02
-1.953603315078706465e-02
1.880649432220360406e-01
6.672449107621954145e-02
-4.168232337264433929e-02
-7.037065019553538636e-02
-4.745160205707431994e-02
-3.092678648795718632e-02
-2.975982772105393789e-03
-6.138208941293706727e-02
-4.199780162149606699e-01
-3.750077380054483989e-01
1.699215772908190536e-01
1.270011411137088320e-01
1.174816281563214465e-01
1.686408274882430780e-01
4.009585935183936772e-03
2.079309942361339536e-01
3.917276137758476245e-02
-4.842755182074579695e-02
-1.328312299012651167e-02
-2.722075558366394282e-02
-4.057101300467036431e-02
3.763622157792211043e-02
-3.638545319110146701e-03
5.633200576280938260e-02
0.000000000000000000e+00
0.000000000000000000e+00
0.000000000000000000e+00
0.000000000000000000e+00
0.000000000000000000e+00
0.000000000000000000e+00
0.000000000000000000e+00
0.000000000000000000e+00
2.046757964326889889e-01
1.494644625450442244e-01
-1.060375509358257862e-01
-9.395876908804144667e-02
1.719447868140297486e-02
-9.385454341533169820e-02
-1.182347737533733130e-03
-7.630152648240262625e-02
-1.661380741705973871e-02
-1.527254998499090639e-02
-2.712993626895881041e-02
-6.158243399775241433e-02
-6.959932449860344039e-02
-5.174259425901708842e-02
1.350465137339942057e-01
1.068941326923882051e-01
1.172209824497603692e-01
5.235526649512087932e-02
2.673668784442374130e-02
5.575547924148605006e-02
9.272503970254361572e-02
5.629496410451927807e-02
-2.277087583490377265e-01
-1.733796614888167831e-01
1.950017775609445003e-01
4.792014001977633331e-02
1.019440582646540527e-01
3.665800320386530115e-02
-1.085955817622970138e-01
-1.060625934388927799e-01
-2.152477070205578158e-01
4.838190317250712358e-02
-9.319622422511020590e-03
2.108444644021595371e-02
-3.093167399953136026e-02
1.843414138646014278e-02
-1.698577746648739090e-03
1.621984899174389039e-02
-3.606942290994498423e-02
2.228086026021631680e-02
-3.921482393190378613e-02
-1.559425298273739713e-01
-1.411552144850309609e-01
1.756124999923405067e-02
2.367338669702616707e-02
-4.709990755334261814e-02
1.834214261512025768e-01
1.587564129501877752e-01
-1.064705524497373823e-01
1.452162866591776881e-02
8.348685382729179039e-02
7.789270646643272830e-03
1.823515744693412349e-02
8.884914095178611526e-02
-6.729731635657031433e-03
-9.968176745317849918e-02
-8.058158135131049393e-02
-4.088559296642322455e-02
-2.479702165285238916e-03
-2.091211020374670465e-02
-1.832007939170278085e-02
4.192165935800921950e-02
3.742455273962252277e-02
8.383285398083707707e-02
8.241895401244611619e-02
7.176441750601841862e-02
-3.315485149428538947e-02
9.894702558735885695e-03
6.902628464510855710e-02
4.321976183792831591e-03
-1.736817483865867318e-01
-3.058973502522861418e-02
-6.162704604301742078e-02
3.329356217332934964e-02
-5.348541750096804520e-02
8.321243371114994680e-02
1.984267871824248880e-02
5.762971598263148809e-02
-1.450111662537432733e-01
6.614523921237497328e-02
3.014892922590185070e-02
-1.397321899834820524e-01
1.371707204254495327e-01
-1.506450222221842605e-01
6.931465756459785632e-02
-5.621123863960375555e-02
2.860576277715715099e-01
-1.761034841422512709e-01
-1.219834444035508558e-01
5.356346920904229980e-02
2.965386508492311862e-02
2.564765903216132542e-02
-2.101790379285022742e-02
3.350316858838129491e-02
2.235317829703683395e-02
-2.171999201514411212e-02
5.680202978082874582e-02
5.720366142629892264e-02
-2.855681959423043287e-02
-2.918303746895521342e-02
-2.950691944921148002e-02
6.528916021555426774e-02
-1.395268580690301255e-02
-7.809538910338284512e-02
5.932041820612841965e-02
9.033658108099267350e-03
-4.267932422953936433e-02
-1.303380171982274766e-02
-3.333079880436512488e-02
-6.968420966860204568e-02
3.515531476495104002e-02
5.521874334315070298e-02
-2.242793946177600029e-01
-3.014548246043506907e-01
-1.345152863408926591e-01
-8.814424606964704756e-02
7.336736447408991058e-02
3.402948781813888157e-01
9.907236323734569527e-02
2.356591457398261591e-01
-4.638284152086800255e-02
2.003714162089017536e-01
7.252970057415593363e-02
4.367236981347212554e-02
4.123202455639607411e-02
-2.280615811060731635e-01
1.521041610606483491e-02
-9.857150463205263669e-02
3.832350115236463073e-01
1.113885688963062170e-01
1.492912387222569692e-01
4.147340234634598610e-02
-2.303596782514208685e-01
-2.064824331589486806e-01
1.876954044200130484e-02
-2.673156505201896849e-01
-7.886880879104556097e-02
9.946273709963210016e-03
-4.728626765758994765e-02
-5.012284280108551815e-02
-5.072634231210776390e-02
3.219552892141248207e-02
6.768226872970437707e-03
1.780942320574820381e-01
9.326620364581281186e-02
2.225640982187420194e-02
-9.861968790999259618e-03
3.846453062448329518e-02
-8.075176603618904048e-02
-6.167787794749587937e-02
-1.825900226792064041e-01
1.808944913617204497e-01
-3.788526293102270626e-02
-1.222198700651089681e-01
-9.834957527624434148e-02
-8.230121816506649757e-02
6.308525323906297166e-02
1.082582532586024021e-01
1.247728187886201767e-01
4.463960115115707394e-02
-7.204577161296239762e-02
8.734969788872046226e-02
8.199989246459288283e-02
-7.191803701771873336e-02
3.466143513687781202e-02
-5.391520538069240198e-02
-1.949796054274950674e-02
1.336594906393297373e-02
-4.779263795820868493e-02
1.882242961820571325e-01
4.637544081613119429e-02
3.024839417042233039e-02
3.329266415342370389e-02
-3.818235295688754416e-02
-2.004572886551166389e-01
-1.170851575182229459e-02
-1.056380718883964676e-01
-1.372947667811028755e-02
-1.893406502235150425e-03
5.462854819458740074e-02
-1.226999179236111515e-02
8.289180684754850420e-04
8.923116686287377308e-02
-1.115768626483317795e-02
2.827381747079649871e-02
-7.382568676484189962e-02
4.443135413297367650e-03
-5.383006994284327690e-03
4.811579390909116564e-04
-4.110828396110086536e-04
1.206543884768569025e-01
-7.423272270130426564e-02
1.735435114525423622e-02
4.138971500225124139e-02
1.492527965811364654e-02
9.368926398735952232e-02
-2.079925372681075066e-02
1.160534263938467203e-01
-7.628989259646240528e-02
-1.863228898635514996e-01
-1.579948878716847622e-04
5.584595390517812022e-03
8.924032603945364350e-03
6.266528218372101333e-02
-1.044880002589471113e-02
-7.185777332499641845e-02
6.839390471414999451e-02
-6.310324665357132379e-02
9.758946718239123672e-03
-6.293889140220144951e-02
2.086714994504498821e-02
-5.847719800771489923e-02
1.099325294870880515e-01
6.123350114629796601e-03
-1.120512262802616232e-01
8.678533942517624444e-02
7.169981497480283628e-02
5.839855250210421872e-02
-2.937652385717791012e-02
-4.317056963251357515e-02
-7.030945441929212225e-02
-5.076650722768837748e-02
-3.714703943661535387e-03
6.723939160342536081e-02
1.481846823610561414e-01
-3.066827087556971490e-02
-3.929710552242865473e-02
-1.557437249686439984e-01
-6.437108795771996628e-02
2.203599704644401344e-02
1.744179653210535877e-02
1.024177133847557347e-01
-6.876931377210541985e-02
-2.087449755213897917e-02
-6.910333597790489779e-02
-5.467403813475375102e-02
1.844100807965309667e-03
1.129050866797090963e-01
5.010196545308843313e-02
4.857003249614059992e-02
-6.137854342269714880e-02
1.111499606636826981e-01
3.136269551691164836e-01
1.236527416908646676e-01
5.084106033768499844e-02
-1.214014588489425311e-01
-1.622097112801346996e-01
-2.542810043095719008e-01
1.567272770440496926e-02
-2.425965909033215781e-02
-6.387015915157485957e-02
8.392024226386056440e-02
-1.057213434083056035e-02
4.762796496584580097e-02
3.944097154442952058e-02
-8.795995389580335555e-02
-7.900302110265640040e-03
-5.703136170389407761e-02
-5.565656845514087986e-02
-3.486850084771551950e-02
4.935252835127350302e-02
9.352421978163356908e-02
-1.303956946814490911e-02
2.561955445225394534e-02
-3.016843972699534762e-02
-9.487195278457821734e-02
-6.612625607909784764e-02
2.391652145245651284e-02
-4.574178146024628078e-02
7.638938925248082989e-02
1.379919014405754929e-01
-1.389382094596142972e-03
-1.364795721328847244e-01
-6.680918365416172247e-03
6.603526971796877532e-03
-1.275742861310666665e-01
4.203334160489139576e-02
3.268130360690179453e-02
5.679305147620206801e-02
1.326235529695754256e-01
1.958436395325447443e-01
8.613655010887634467e-02
-2.417561192388827107e-02
-2.676582825907122126e-02
-1.821063151334196412e-02
-3.906582785615395070e-02
-8.584379664134914045e-02
-8.791849344761598628e-02
1.541872122319999094e-01
-4.957734769726551693e-03
1.523996764245284519e-01
1.259458560281131491e-02
-4.762085733130692194e-02
-6.310997265315393401e-02
-7.689194833174892163e-02
-1.266009611734021378e-01
2.803118055941155456e-02
1.487551728026419162e-01
-7.437022279706367867e-02
-6.751264026256204032e-02
-1.661409946897148826e-01
4.675812659803076088e-02
4.771856929356359765e-03
7.970752085990034930e-02
-1.309548463842813981e-01
5.027429768559687345e-02
8.787449330424337846e-02
4.637236607014733059e-02
9.305648345951776645e-02
-3.173004727336378727e-02
-7.821084478556813990e-02
-3.668190207629185712e-02
-5.824090036073775734e-01
-4.171749164824535283e-01
-4.796652164494370485e-01
-2.219399322905959426e-01
-9.422551297145083382e-02
5.397462531487111637e-01
4.502359363514066293e-01
8.054323923011957875e-01
4.567179555850336276e-02
1.605474148062423778e-01
1.922890089538229486e-01
4.731661010326037448e-02
9.724433523450059548e-04
-1.951181528568033119e-01
-6.384520405808485899e-02
-1.878339158592832459e-01
1.846338393376734388e-01
9.618185489067745952e-02
6.017240152112213192e-02
7.668690901893784884e-02
1.049282627124192152e-02
-4.852140080986091369e-02
-4.576056279147366901e-02
-3.338858674383168301e-01
-7.036647745493468213e-03
5.045666222548062657e-02
-1.935538766492739954e-02
-3.617636109423578994e-02
1.264143614314715836e-01
1.600698563141434577e-02
-5.344870608474584089e-02
-7.686090669896432359e-02
6.285961267255739740e-03
-5.288011522693356059e-02
-1.068027045199350794e-01
-1.082976371202349075e-01
-1.623282533255267571e-02
-8.454869062527412341e-03
2.974594182928509967e-01
-1.107722829792264808e-02
-5.141120384680961455e-03
-2.995773940202345886e-01
-8.979336498449469071e-04
6.332369773466148266e-02
3.111861362795868557e-01
1.205943154374815585e-01
7.222409781101493675e-02
-2.617117992079844857e-01
2.155067914425125297e-01
2.121758122433455573e-01
1.956300562536898435e-01
1.453650882187389748e-01
-3.544384425517161930e-01
8.171875869283985738e-02
-4.627688187124428532e-01
-3.318924558696198512e-02
-1.765549800511282685e-01
-8.619167307130956579e-02
5.080236827919502873e-02
1.119761932262267334e-01
-4.525268368002400426e-02
-3.649789090258052232e-02
-2.140292201420001747e-02
2.031215882138205642e-01
4.463022912777677570e-02
6.262974114210666243e-02
-1.342682145544347311e-02
3.327137431469948808e-02
-9.529507494089952541e-03
-1.965416284044851220e-02
-1.091432204415784535e-01
1.122236764697703837e-02
-1.247300960921848834e-01
1.191651687731368203e-01
1.233068800757915334e-01
-6.617226987615988654e-02
5.653376642844720745e-02
-4.924313546333331654e-02
-7.109468054263275161e-02
1.223436669693484490e-02
-3.732245836636562397e-01
-5.253799406588123277e-01
-4.178529505806811151e-01
-1.027024304886375999e-01
8.340519029620595270e-02
3.531283101018544146e-01
3.420521832525400541e-01
6.405742217411920514e-01
3.449004643834825967e-01
6.335009411904701793e-02
-7.607746411686627797e-02
1.666338680942563988e-01
-7.111773284567636522e-02
-2.628179077201825975e-01
1.777898139049223850e-02
-1.826503033045517588e-01
-1.926991637123172951e-01
4.056588535407384954e-01
2.554136216995263053e-01
-2.475559708849346674e-01
2.731734405553243317e-01
-1.445549575074940585e-01
-1.404765324716545916e-01
-2.089592912191884366e-01
-1.627948541722369913e-01
2.644808404313323535e-01
1.429460654392854246e-01
1.403498126116129174e-01
-7.485339981992575331e-02
-1.685989520161826072e-01
5.768368847590402138e-02
-1.992132009497895595e-01
1.958787308217992407e-01
7.139257385950213697e-02
5.382132751467825355e-02
-1.376515491149239434e-01
-2.062230656803650808e-01
1.569874460563706886e-01
-9.575918484368979577e-02
-3.844627861336955693e-02
-6.292209774232061792e-02
3.113159163143999209e-01
9.383850185392840840e-03
-1.924149244906361855e-01
9.830541874314743800e-02
-2.524116150311372375e-01
1.409120761504654151e-01
-5.216862412931130150e-02
6.943311988288480840e-02
-1.354559034835775277e-01
5.270964884674184808e-02
3.399382981533206061e-01
-1.205637790417622562e-01
-1.128618390002678329e-01
-8.862881898326031849e-02
-4.570726374079340203e-03
-9.812782660843416549e-02
-1.940554074201546186e-02
-2.016071116048008885e-02
-7.666537517391097678e-02
5.375583039524541376e-03
-1.119543941131997088e-02
6.050540225280745532e-02
1.596739078038291182e-01
3.126776124389017975e-01
1.794167525683837416e-01
1.378997787272876752e-01
-2.250140247059149307e-02
-1.537492632722756436e-01
-7.708341900604660790e-02
-1.256197426433523223e-01
-2.510403163423053918e-01
4.684677753348041873e-02
2.079630972670610256e-01
-5.409345629088210122e-02
-4.584538803760539877e-02
-1.017414175576318303e-01
3.197626794155222080e-02
-2.512145450391665147e-01
1.661086641831925059e-01
-1.231246982254546041e-01
-4.882034014302118197e-02
-6.921254330976642742e-03
-2.052141802769080065e-02
3.376143691606001140e-02
1.102128414497046544e-02
5.802608843558387103e-02
9.657890123053072817e-02
-5.277772809755889444e-02
-7.465038491532953457e-02
-1.914121285838961406e-02
1.734278131079630414e-01
8.328814694013891851e-02
-1.773709478251882798e-01
3.938115130124580227e-02
2.784316234711844973e-02
-1.492838197453379701e-01
-7.259676619549668142e-02
4.258852920607641285e-02
1.029961188778951431e-01
5.101963388362035917e-02
2.584577475076841463e-02
4.200066289379058432e-02
-4.257013367131777526e-02
1.141925601002168472e-01
-4.651065347447751186e-02
-3.736882251640385316e-02
-1.197363924455542017e-01
3.367465253209540876e-02
2.273397042790414359e-03
1.641621634133036411e-02
3.705904242000422621e-02
-1.569734671710231733e-01
-1.407181212731997144e-01
-4.554746825444739439e-02
-1.262028638718257385e-02
5.540419189159156294e-02
1.006039787373481098e-01
8.889109623093044421e-02
1.109600762259831813e-01
2.191705738338975695e-01
2.222737909388705635e-02
2.815953188740933158e-02
6.798827565424013508e-02
-9.607346717597176067e-02
5.846390549356950822e-02
4.579637167363956318e-02
-3.457325704606707406e-01
-4.610410775532391980e-02
-7.331362891390320879e-02
-8.635931340438253445e-03
7.677424367332541522e-03
4.145042704093026414e-02
-8.241779259806200630e-02
7.643790266024386160e-02
8.490570653922199784e-02
7.425632494102943348e-02
1.325516097797314885e-01
-1.747198827538549992e-02
-5.582812911067089323e-03
9.285940233459745452e-02
-5.515458745934137541e-02
-2.181704329205964854e-01
-3.287515488968559621e-03
-7.140863947258802025e-02
1.533039120227081172e-02
9.284194925886465888e-02
5.334052259828363229e-02
5.848340501332062284e-03
-4.317170640428503320e-02
1.305758073123399962e-02
-6.583843841511216599e-02
2.387194085967919883e-03
2.681786630342180566e-01
2.254337629506407703e-01
-1.552696620836691022e-01
-9.352770172880836563e-02
5.737003010834863109e-02
-1.627119833488589462e-01
-1.418603030178390845e-01
1.765457199587084913e-01
-9.117232921497361864e-02
-6.235089779002645632e-02
-2.878779022260119502e-02
-3.436637012013806641e-02
2.032833543258700734e-02
3.552304663111473942e-02
-1.571971467467125211e-02
-5.056583023938868160e-02
-1.050548051382206305e-01
-4.300655809450442540e-02
2.315226597712495560e-01
1.871506014155763578e-02
-1.021232609022733467e-01
1.594553182877190278e-01
-1.089425838261390972e-01
1.601382226359231165e-01
9.905688050394355348e-02
-1.382749194733597911e-03
-4.143063349648840737e-02
2.856709643993940451e-02
-4.106599427144769221e-02
-9.343401402734331784e-02
-1.104488085897925992e-01
1.647037325964516019e-01
8.093773270710274970e-02
-2.883487171818223740e-02
4.151179419335701559e-02
3.884323080379601528e-02
-6.662191438838818702e-02
-1.125349460904795651e-01
-1.180047581036567234e-01
1.945138376957300519e-01
8.712274649351710309e-02
1.895462348144763831e-01
5.642830904437974755e-03
9.599737361981551531e-02
-2.681836124615245495e-02
-1.906906192743310080e-01
-3.553140430074913647e-01
3.075187411456548614e-01
7.235539840081889329e-02
-2.780454874360479070e-02
-3.594333954683987149e-03
6.311254966019131524e-03
-6.072046289402487085e-02
-1.107148781344043237e-01
-1.833511707857765349e-01
-5.408170813943268262e-01
-1.558743666929084115e-01
-3.199568612025687764e-01
-4.712645792181704291e-02
-2.688426034359284178e-01
-2.195650031583787076e-01
5.395673740192475920e-01
1.012614999786681347e+00
-2.991009034716314852e-01
-1.554026615258413402e-01
-1.686819660146520738e-01
-1.168511912627667043e-01
-7.865103976137235997e-02
8.808216506650496519e-03
4.508513102040636600e-01
3.590282353255505043e-01
-1.477234663486133859e-01
-1.204084739185371927e-01
1.305326913177285997e-01
7.894331054557014726e-02
1.243400834392972484e-02
3.261023693050746908e-01
-1.728259229273359232e-01
-1.070545163178173997e-01
1.749634857775975161e-01
1.492308720921476373e-01
2.749655812287130074e-01
-6.556254960657706410e-02
8.020779786252837593e-03
-9.727031584968376388e-02
-5.447249817941972327e-02
-3.898753552490295538e-01
1.441784833238571595e-01
4.416115452568152716e-02
-1.585039729265637701e-02
-1.222198204613253875e-01
1.110754276079068195e-02
-2.933103634396696038e-02
1.054858359003765650e-01
-1.375317624127553040e-01
-2.599598686859137461e-02
4.415422560582885677e-04
1.509169079381935674e-01
2.156400858522326824e-02
5.133864196589770640e-02
-2.373067104880000056e-01
8.591095776301077569e-02
-4.686936115179026613e-02
-1.779545335398725059e-01
-2.669027529562169598e-01
-4.379763271027112270e-02
3.629328025464918506e-01
3.365541224545628984e-01
-2.346892772442384367e-01
-3.415624157928649485e-01
3.654196872424066433e-01
2.416551808742197771e-01
1.241102860206478864e-01
1.252908426303519507e-01
-1.325645119649160840e-02
-9.282904603136250821e-02
-1.740214749866832167e-01
1.709928870571504264e-02
-2.280486260163991086e-01
6.960728261867155098e-02
-4.133234409820954469e-02
3.910292579185337125e-02
8.506634190154975864e-03
-5.565464247984951845e-02
6.416938142142232515e-02
-1.243618605735077182e-01
3.996262312946282508e-02
2.986900899450882219e-01
3.863473566029758666e-01
-2.525213452524582153e-02
4.186797821782130280e-02
-2.021581821032012172e-01
2.771994399026256883e-01
-1.764135467153794545e-01
-6.002810013246840937e-01
1.861285807223636013e-01
2.229128170981172496e-01
-1.050853221903049091e-02
4.283213373457900319e-02
-3.630316382819934878e-02
-8.350632647450693946e-02
-1.472318892022619619e-01
-1.743236198310604002e-01
-4.073481527189301565e-01
-4.213112552348940998e-01
-5.664963711976851446e-01
8.019559589248465015e-02
9.422162759060880022e-02
2.657501301746735822e-01
3.104240473043027304e-01
6.445643781894428992e-01
-3.156771322837896299e-01
-2.059103168051583943e-01
-1.339845774146580966e-02
-1.745791664192107850e-01
2.263860382176476893e-01
1.144423970393216999e-01
3.571551973424826748e-02
3.330211182584063012e-01
4.823460122627550029e-02
-1.200697431963143429e-02
9.745991715040695780e-03
-8.769544587632530086e-02
1.780379475027506556e-02
7.538133430016810688e-02
5.516232815373468823e-02
-1.066256299495365045e-01
-5.645349472544489849e-02
-1.442114128342008861e-01
-2.710449661809298527e-02
6.678771991433440913e-02
-1.327996544196947681e-01
9.591009599031240229e-02
1.947320023837594283e-01
3.139240309027974390e-03
-1.223627064606125775e-01
-7.224232495844040702e-02
-3.357702378322725834e-02
-1.663705880182146657e-01
2.204599704695262563e-01
2.179703839392536646e-01
-2.609628460287024415e-02
-1.778142658541483068e-02
-1.911982493307803066e-01
1.313787575313145328e-01
5.273827137724012432e-02
3.540146520073327308e-01
2.407603621754151116e-02
1.354258260375428187e-02
-3.408248187634376203e-01
-4.372723164296427739e-02
1.852329584105276705e-01
-2.196778980133598860e-02
-9.252370178858618233e-02
-6.856509209466696286e-02
-7.192149327560088540e-03
4.011111846654795421e-02
3.505650717156814922e-02
-7.015185103649419773e-02
-1.024642643873443504e-01
1.200943765808405173e-01
-1.541887964220732023e-02
-1.677556195613962020e-02
-5.638842087178349421e-03
6.284056907428306471e-02
1.167036451774542960e-01
-1.593410427597092838e-01
1.124995054733742839e-01
-7.938768365423343187e-02
-2.606348398460058002e-03
-5.616128402100473149e-02
7.958220391065469468e-02
-3.902448482426649351e-02
-5.183221119711103192e-02
3.693030271104680295e-02
2.941764908346521379e-01
7.309548739690589943e-03
5.062810638261391188e-02
-9.005682596654898675e-02
-2.718107625321972490e-02
-2.987289610101971984e-02
-1.880455469895046805e-01
-1.695780064666179560e-02
-6.922001499064562857e-01
-2.626338840770748306e-01
-2.236507065448712361e-01
6.394686366909153874e-02
-9.936203523885689393e-02
1.254785281290055066e-01
1.671875876439443964e-01
9.212337963252191786e-01
-5.080304596583062882e-02
-3.062059011889259677e-02
5.563998755490606046e-02
-3.583031187476505217e-03
2.359198216458894062e-02
3.668835023221320851e-02
6.360756441588430454e-02
-9.452121709539307304e-02
1.046181451434587684e-01
4.019170496780778701e-02
6.282050476463625632e-02
-1.243363172386414833e-01
-2.467868255496016155e-02
-9.918439223372646496e-02
1.641665423441152072e-01
-1.235975051926872792e-01
1.024298397613511019e-01
-7.476549247994570060e-03
3.512872472450209033e-02
-1.024003021918020728e-01
6.334419507504675251e-02
-3.433997222851338516e-02
3.828834612290891309e-02
-9.497428201549858173e-02
-2.438386912129217668e-02
-3.188746158506452349e-02
-3.443825380887526738e-02
7.160445774796514451e-02
2.109074864285024817e-02
-1.324708320532587760e-02
6.836030165085211878e-03
4.425431164656708910e-03
2.686510608598566534e-03
1.991826934773868740e-02
4.788851248878788630e-02
-2.885326490866729418e-02
-3.937074826323944121e-02
1.113570740154629923e-01
6.275165702518803457e-02
-1.763780103138700150e-01
-1.400860328343444816e-01
-1.577958628023357068e-01
1.007586572140878323e-01
-1.525194653260056148e-02
5.002019562696431026e-02
3.325453396557082053e-02
-1.219287795079646193e-02
1.412933333134549774e-01
-1.715570207353326049e-01
-1.448504926422066741e-01
-1.146388397009587140e-01
-3.858331164839360478e-02
1.268997679449280491e-01
1.204042573683702239e-01
1.201154192678120652e-01
1.022102201457817106e-01
1.038332465009749322e-01
-2.171398924617617271e-02
-1.173938220438559277e-01
-5.552419945564431719e-02
7.802053443475376847e-03
3.745969080242252114e-02
4.259909106897151465e-02
2.937928929831741792e-03
1.316095262092802642e-01
8.806174993137716456e-02
1.528128184567254522e-01
-2.063736834167062204e-02
-1.532095044538737405e-01
3.258316752946219946e-02
-1.864751850351494544e-01
-4.474520429615087835e-02
1.081079852306632005e-01
1.399278144184076533e-01
7.672427728806822944e-02
3.668552711743700012e-02
-1.909074767649939636e-02
-8.338815913453695439e-02
-1.367334902227325399e-01
-1.222332070208070470e-01
1.169453680158443337e-01
5.549667144691197707e-02
3.665579804313620627e-02
-1.834617442804128140e-01
1.123653989298472461e-01
-1.078911946438493030e-01
-2.227366091780776103e-02
-7.836636593671177445e-03
-2.177097204279491161e-01
-1.438086512239921677e-01
3.352877993241232257e-02
1.923714963786362919e-01
-1.151011356286469473e-01
-1.894586150527060309e-01
2.570088774130789289e-01
1.831689686091683700e-01
-1.372096186136669525e-02
2.274460790439471192e-02
-4.390092394363091094e-02
-1.387885125377819398e-03
-5.475599547915680626e-02
4.022220966648679813e-02
1.532849400957916365e-02
3.547045482907174030e-02
2.366173402045040064e-01
1.948172073184495021e-02
-2.375394273375290924e-02
-9.288680198118924591e-02
-4.609493295672333069e-02
2.084588972647049340e-03
-3.714724401802956683e-02
-5.830072821930023380e-02
6.412504056172407818e-02
1.815572038961737675e-02
1.256121399226709304e-02
-7.638747621693260659e-03
3.685511464988756869e-02
-3.798045971057889547e-02
-6.194945923250901043e-02
-2.412842302871417641e-02
-2.485588323237616082e-01
-8.463983458184848319e-02
9.208989516349496904e-03
7.567971350452430690e-02
7.535247826620247724e-02
-2.487800166290984535e-02
7.583337389573555076e-02
1.220021133857093348e-01
2.017393746709181535e-01
1.439056859637313224e-01
1.320235522255173988e-01
5.880333558851548459e-02
-1.667003833248532074e-01
1.449982537650793268e-01
-3.306937456176761714e-01
-1.840760732712298231e-01
-2.060147352139708038e-02
-3.937184191454658200e-02
-3.639393234278302802e-02
-1.364680621534135677e-02
-7.457756648330699303e-03
-2.431939486774637935e-02
1.318585608760914490e-02
1.286053494225375127e-01
1.275624306083006088e-01
1.397883797482184776e-01
5.714152498274915198e-02
-8.629019989747233055e-02
-5.193328171596758858e-02
6.301219349355893437e-03
-9.819249149215907024e-02
-9.437758158302446410e-02
1.661156461455015609e-01
1.508201470294252833e-02
-1.179132536460578314e-02
3.656515787027527636e-02
-9.205966879046328932e-02
-8.485842684242354134e-03
-1.313586532051044808e-01
2.593267132569384778e-02
1.492153904405639220e-01
6.912349116684483874e-02
-2.209429749608304849e-01
-4.311124079756305238e-02
1.285729307713699872e-02
-1.225009149812126275e-01
5.736434642591869276e-02
9.799460962914247064e-02
-1.806475373551447716e-01
-4.891101848900460125e-02
-2.190140904366396496e-02
1.946666509062536243e-01
6.806184999338861508e-02
-1.060447535498704186e-01
8.777253469389766083e-02
7.003682844144205714e-03
6.116114408179091494e-02
-3.742503157924422647e-02
-3.038420112676437981e-02
2.633945999619378975e-03
-2.126026277240879517e-02
-2.257898355210538957e-02
3.244007707318739137e-02
1.541331187592565218e-02
-4.411201750630940749e-02
1.065348565050443230e-01
5.453584015985723371e-02
5.281418488136051942e-02
2.682581832158584603e-02
-2.617945715512486754e-02
-7.979581245383504662e-02
-9.062341275257874973e-02
4.374341641944880926e-02
-1.697500428043183518e-01
-9.223739015862465751e-02
-6.299217545876750757e-02
4.689153872346037838e-02
1.539324614180183348e-01
1.130555280909788796e-01
-3.264333623019814029e-02
3.292565029976976532e-02
8.395443356312531913e-02
4.934804658611054162e-02
-3.898279153436877420e-02
2.412958955429868671e-02
-9.490710989429924915e-02
-8.134043363784593250e-02
2.487261506320889368e-02
1.015999523664307819e-01
-2.544160614111504008e-03
-7.204076455148811231e-02
1.219880942912818234e-01
3.713218901889286244e-02
-1.278692788768934913e-02
-3.274980709810502294e-02
-1.405985755252102953e-01
7.974310407078859242e-02
1.666947919349157439e-02
6.879027798016439099e-02
-1.099912182659830845e-01
-7.110612601064396354e-02
1.765164861413505148e-01
-6.450114953916044613e-02
-9.612085357000740848e-02
-2.373924534074106918e-01
-1.279263997772836225e-01
-2.829584628824926423e-02
1.029957704595084456e-01
1.592567307674811472e-01
9.489838978958152482e-02
1.594020518059528768e-01
-1.229382433495818522e-01
-3.796999286326269152e-02
-2.831569373964982345e-02
1.477140199188811329e-02
-3.780503757843202417e-03
1.410722092368086045e-01
1.788538471073475473e-03
-4.099504637416725994e-02
-4.657091296484721504e-02
1.575250534168299854e-01
7.132418853190067298e-02
4.235669235561655838e-02
-7.174908450137829075e-02
-4.759806850687620106e-02
2.009518835328890501e-02
-1.560940842038456844e-01
-1.585988544553622662e-02
-6.381955259296516469e-02
-1.767769741837476845e-03
-1.982483815655325995e-03
2.235718643343699921e-02
3.501779199504524882e-03
-4.298953573429004082e-02
9.330320905154132483e-02
-8.602832799733228786e-03
-1.051294343609826126e-01
3.879042042605417295e-01
9.302956848952452507e-02
2.399739345704312299e-01
-9.142383499631047405e-02
-2.215317547717984559e-01
-1.003886323820835508e-01
-2.024340508093223634e-01
-1.159915297448511629e-01
-6.940609532001013049e-02
-5.598977600204615990e-02
-4.929347420212611131e-02
-4.598143574387162508e-02
-4.181127076741443516e-02
2.048885080481316345e-01
1.735850737321880943e-01
3.313389855664395506e-02
-1.001176320928868629e-01
-7.445351391598149793e-02
-1.708909809622481679e-02
-6.316584430687852136e-02
-1.757666733604140285e-04
1.010919202350765989e-01
1.207760362936121379e-01
-1.961487736699722984e-01
-1.157869009436438695e-01
-3.738256885188277756e-02
-3.936276719391620937e-02
1.416004191159806191e-01
1.348464895424691945e-01
4.439714271508476973e-02
6.783695928587969715e-02
1.315145784463967460e-01
2.691892648902918794e-02
5.011790458940253157e-02
-6.051388872272568664e-02
-4.652007471740054328e-02
-1.039536290640389604e-01
-2.309777465576872205e-02
2.553395763510564465e-02
-7.131350966991122087e-02
-1.761735005570215160e-02
-1.008473764892107577e-01
-1.111778633572604313e-01
7.324680701559491136e-02
6.303568456605243564e-02
5.772761122909896708e-02
1.069459967613390072e-01
1.768977119709863322e-01
5.532274564086086394e-02
2.531794881400939098e-02
-6.558470466823430878e-02
-1.202765197222457477e-01
2.686726125396930384e-02
-1.626731195921432213e-02
-8.227713133012998226e-02
-2.173923665375993575e-01
-1.260446885980419096e-01
1.099650999184413475e-01
1.009513044209153637e-01
8.438122694775866683e-02
2.815379669182505734e-02
-3.059813649189624396e-02
5.058376364859874103e-02
-3.583517197150249550e-02
9.298615224894632436e-02
5.555007090009621284e-02
-1.760394550390576626e-04
-3.516060264681001440e-02
-1.304314756284684351e-02
-1.612691107892858661e-02
-4.819435043391513684e-02
6.716128861436027053e-02
-7.114131008128517231e-02
5.363542990450446274e-02
1.048600708227866024e-01
-1.470629443541065021e-02
-9.050278776549502968e-02
4.325280463645286150e-02
-9.255920169591190516e-02
-1.024875173753938967e-01
7.039953037181718998e-02
-9.776643652161579046e-02
3.511241215306337010e-02
-3.055707897952269006e-02
1.465065354627444749e-01
4.682964601864381127e-02
-6.803709112973713169e-02
-9.208208252623963086e-02
2.663381525900779950e-02
-6.075043058488856229e-02
1.474906693492765083e-02
5.074101983652631875e-02
7.903130064327174020e-02
-1.116784487481565016e-02
-7.154844687790870746e-03
1.908281220326488170e-02
-4.452122465470809143e-02
7.923348497176442573e-02
1.191715246482618062e-01
-7.362808079555538399e-02
-1.318814929769910882e-01
1.639657410960513803e-02
1.614640249435769087e-02
-8.557748083581249998e-03
-1.803259001065541656e-01
2.237981841750539061e-02
-1.668367122281293191e-01
-2.838870324158314362e-02
2.002844583986791160e-01
8.749638575573498445e-02
7.394840108792770372e-02
9.113656070992405545e-02
-2.615753947004941307e-02
-1.085711135093553881e-01
-5.536056338419500372e-02
1.827214272780834300e-02
-8.390827362938473987e-04
6.030431350293138926e-02
2.121528215922951349e-02
1.764341206735787759e-01
3.152797125654283744e-02
-3.484781653266496616e-03
-3.829387626488169744e-02
-1.954451256501511108e-02
4.145454992980351916e-02
-1.556199846503738930e-02
-1.725314729117260193e-01
1.188907176124916198e-01
9.718317045373663088e-02
1.564691634452421154e-01
4.558954171834155716e-02
-1.589999637663463417e-01
1.560381181697344799e-01
-3.291794350867839336e-01
-8.599131254641666222e-02
1.833826821366191517e-01
1.602145134139314475e-01
4.126125679079743064e-02
2.023648447531762803e-03
2.850078687235717972e-02
-1.344025154549549350e-01
-2.326730351308414491e-01
-4.830733707544224154e-02
-5.194660036622274213e-02
3.762515817833978621e-02
7.961872589228834174e-02
-4.167284266020088862e-02
-1.195939646419769652e-02
-1.212946853259058849e-01
8.501423174074572431e-02
2.461540900515285860e-02
-2.368351722503788531e-02
-2.226202704951794342e-01
-3.589538517181105337e-02
-2.427108213794685054e-01
-8.776295153814004865e-03
-1.442203643348003994e-01
7.680677555065637541e-02
6.010998782094549853e-01
5.888393375020090081e-01
1.554124080038907507e-01
-1.557845091795368418e-02
-7.896493669661890091e-02
-2.236860495031614826e-01
-1.421436636796544750e-01
-1.188294540959693585e-01
-1.650491906125423069e-01
-3.491470446490496649e-01
-3.063558350907676919e-01
-4.204566973324077445e-02
-5.804163869670010689e-02
-1.962963797070611249e-01
-1.405965917033705492e-01
1.250455000012332396e-01
9.674376595789557776e-01
2.115448534825326715e-02
-8.500756779479606839e-02
-2.649005127873566012e-01
-8.378315061873603531e-02
6.462083854481866230e-02
5.944258082935274107e-02
1.441110592705881766e-01
1.443622672078730407e-01
1.753373790660674725e-01
1.524638396545580643e-01
2.966413323672338620e-02
1.120483235521138876e-01
-2.404273370768261059e-02
1.000163368627144528e-01
-3.462585054572167587e-01
-1.992287732072760276e-01
3.529814651085956823e-01
2.435850990379720138e-01
-3.453521461505650036e-02
1.012172643044195464e-01
-1.988847999896658780e-01
-9.540195306574536516e-02
3.074893073155745421e-02
-3.997107915120803878e-01
1.772633126313912996e-02
4.887954896753097037e-03
-8.022260614605432327e-02
3.899100850279891423e-02
4.237420949716919072e-02
-7.968244722433370786e-02
-4.398004073059468694e-03
6.032355328358777330e-02
-3.971587390556605840e-02
-2.160487712475267497e-02
-5.989104717740875022e-02
-2.978738306312894019e-02
-5.737895658176038471e-02
1.490197940128420127e-02
1.630487363296671266e-01
3.042742212166512153e-02
-1.364795721328847244e-01
-6.680918365416172247e-03
6.603526971796877532e-03
-1.275742861310666665e-01
4.203334160489139576e-02
3.268130360690179453e-02
5.679305147620206801e-02
1.326235529695754256e-01
-2.060147352139708038e-02
-3.937184191454658200e-02
-3.639393234278302802e-02
-1.364680621534135677e-02
-7.457756648330699303e-03
-2.431939486774637935e-02
1.318585608760914490e-02
1.286053494225375127e-01
1.300373509044627507e-01
6.036950729397486115e-02
1.539369998055866162e-01
1.293940896113224270e-01
1.329900324392085109e-01
-2.924337296612531389e-01
8.535138624182840583e-02
-3.996456366351309186e-01
-3.156771322837896299e-01
-2.059103168051583943e-01
-1.339845774146580966e-02
-1.745791664192107850e-01
2.263860382176476893e-01
1.144423970393216999e-01
3.571551973424826748e-02
3.330211182584063012e-01
1.567272770440496926e-02
-2.425965909033215781e-02
-6.387015915157485957e-02
8.392024226386056440e-02
-1.057213434083056035e-02
4.762796496584580097e-02
3.944097154442952058e-02
-8.795995389580335555e-02
1.046181451434587684e-01
4.019170496780778701e-02
6.282050476463625632e-02
-1.243363172386414833e-01
-2.467868255496016155e-02
-9.918439223372646496e-02
1.641665423441152072e-01
-1.235975051926872792e-01
-1.911982493307803066e-01
1.313787575313145328e-01
5.273827137724012432e-02
3.540146520073327308e-01
2.407603621754151116e-02
1.354258260375428187e-02
-3.408248187634376203e-01
-4.372723164296427739e-02
-2.438386912129217668e-02
-3.188746158506452349e-02
-3.443825380887526738e-02
7.160445774796514451e-02
2.109074864285024817e-02
-1.324708320532587760e-02
6.836030165085211878e-03
4.425431164656708910e-03
-9.812782660843416549e-02
-1.940554074201546186e-02
-2.016071116048008885e-02
-7.666537517391097678e-02
5.375583039524541376e-03
-1.119543941131997088e-02
6.050540225280745532e-02
1.596739078038291182e-01
2.686510608598566534e-03
1.991826934773868740e-02
4.788851248878788630e-02
-2.885326490866729418e-02
-3.937074826323944121e-02
1.113570740154629923e-01
6.275165702518803457e-02
-1.763780103138700150e-01
1.297661086068062075e-01
2.319698586251934536e-01
-7.357399456357192891e-02
-8.595961669734392130e-02
-1.447324170879609739e-01
8.849998097499635341e-02
-1.181633406965938299e-01
-2.780657916152433351e-02
-1.202654116398667490e-02
4.276619419938190725e-02
-1.569887739575688279e-01
-4.105737711414573360e-02
1.124736684144658945e-02
5.360105264986921025e-02
1.486028550349677117e-02
8.759779304150565327e-02
-6.922001499064562857e-01
-2.626338840770748306e-01
-2.236507065448712361e-01
6.394686366909153874e-02
-9.936203523885689393e-02
1.254785281290055066e-01
1.671875876439443964e-01
9.212337963252191786e-01
2.155067914425125297e-01
2.121758122433455573e-01
1.956300562536898435e-01
1.453650882187389748e-01
-3.544384425517161930e-01
8.171875869283985738e-02
-4.627688187124428532e-01
-3.318924558696198512e-02
8.290706328898048150e-02
2.166931682450352059e-01
-1.096920110986189106e-01
1.436567133017755127e-01
3.299078141131697728e-01
-2.202780717291729917e-01
-1.340671098848537357e-01
-3.091275662363154320e-01
7.425632494102943348e-02
1.325516097797314885e-01
-1.747198827538549992e-02
-5.582812911067089323e-03
9.285940233459745452e-02
-5.515458745934137541e-02
-2.181704329205964854e-01
-3.287515488968559621e-03
-7.140863947258802025e-02
1.533039120227081172e-02
9.284194925886465888e-02
5.334052259828363229e-02
5.848340501332062284e-03
-4.317170640428503320e-02
1.305758073123399962e-02
-6.583843841511216599e-02
4.511765945097125780e-02
1.122583897689946042e-01
9.793952908876404906e-02
8.961761043025490148e-02
-1.912605491122200754e-02
-7.143236140770641007e-02
-1.511813789191378543e-01
-1.031933935009186759e-01
-7.036647745493468213e-03
5.045666222548062657e-02
-1.935538766492739954e-02
-3.617636109423578994e-02
1.264143614314715836e-01
1.600698563141434577e-02
-5.344870608474584089e-02
-7.686090669896432359e-02
9.758946718239123672e-03
-6.293889140220144951e-02
2.086714994504498821e-02
-5.847719800771489923e-02
1.099325294870880515e-01
6.123350114629796601e-03
-1.120512262802616232e-01
8.678533942517624444e-02
-1.765549800511282685e-01
-8.619167307130956579e-02
5.080236827919502873e-02
1.119761932262267334e-01
-4.525268368002400426e-02
-3.649789090258052232e-02
-2.140292201420001747e-02
2.031215882138205642e-01
-1.926991637123172951e-01
4.056588535407384954e-01
2.554136216995263053e-01
-2.475559708849346674e-01
2.731734405553243317e-01
-1.445549575074940585e-01
-1.404765324716545916e-01
-2.089592912191884366e-01
6.010896661461335999e-02
-8.126788308281540640e-02
7.770205544143376705e-03
4.889041787436387843e-02
6.133882363610276833e-02
6.820641453227554996e-02
-2.382276750616775796e-01
7.318072994299504308e-02
3.033345204234779713e-01
-5.429415990549055215e-02
-1.246380515519817656e-01
-1.150290366106412471e-01
1.369380160279560221e-01
1.590664815090835071e-01
-4.687520874112415838e-03
-3.006902490182923882e-01
-1.715570207353326049e-01
-1.448504926422066741e-01
-1.146388397009587140e-01
-3.858331164839360478e-02
1.268997679449280491e-01
1.204042573683702239e-01
1.201154192678120652e-01
1.022102201457817106e-01
1.958787308217992407e-01
7.139257385950213697e-02
5.382132751467825355e-02
-1.376515491149239434e-01
-2.062230656803650808e-01
1.569874460563706886e-01
-9.575918484368979577e-02
-3.844627861336955693e-02
1.057158587430805097e-01
-3.431642044730169594e-02
-5.110052704186201881e-03
-5.492350700735914443e-02
-2.617674886222613739e-02
-6.618926065548426385e-02
1.261980342877858652e-01
-4.519790335430878131e-02
1.735435114525423622e-02
4.138971500225124139e-02
1.492527965811364654e-02
9.368926398735952232e-02
-2.079925372681075066e-02
1.160534263938467203e-01
-7.628989259646240528e-02
-1.863228898635514996e-01
-2.368351722503788531e-02
-2.226202704951794342e-01
-3.589538517181105337e-02
-2.427108213794685054e-01
-8.776295153814004865e-03
-1.442203643348003994e-01
7.680677555065637541e-02
6.010998782094549853e-01
0.000000000000000000e+00
0.000000000000000000e+00
0.000000000000000000e+00
0.000000000000000000e+00
0.000000000000000000e+00
0.000000000000000000e+00
0.000000000000000000e+00
0.000000000000000000e+00
3.832350115236463073e-01
1.113885688963062170e-01
1.492912387222569692e-01
4.147340234634598610e-02
-2.303596782514208685e-01
-2.064824331589486806e-01
1.876954044200130484e-02
-2.673156505201896849e-01
5.035006463929535270e-02
6.494264014801000295e-02
2.147441126413382299e-03
-1.082245538021530396e-01
7.474084842861251909e-02
-1.400602763146285568e-01
7.756688412736337246e-02
-2.146304835291291610e-02
4.684677753348041873e-02
2.079630972670610256e-01
-5.409345629088210122e-02
-4.584538803760539877e-02
-1.017414175576318303e-01
3.197626794155222080e-02
-2.512145450391665147e-01
1.661086641831925059e-01
-2.242793946177600029e-01
-3.014548246043506907e-01
-1.345152863408926591e-01
-8.814424606964704756e-02
7.336736447408991058e-02
3.402948781813888157e-01
9.907236323734569527e-02
2.356591457398261591e-01
-5.056583023938868160e-02
-1.050548051382206305e-01
-4.300655809450442540e-02
2.315226597712495560e-01
1.871506014155763578e-02
-1.021232609022733467e-01
1.594553182877190278e-01
-1.089425838261390972e-01
-1.247300960921848834e-01
1.191651687731368203e-01
1.233068800757915334e-01
-6.617226987615988654e-02
5.653376642844720745e-02
-4.924313546333331654e-02
-7.109468054263275161e-02
1.223436669693484490e-02
3.449004643834825967e-01
6.335009411904701793e-02
-7.607746411686627797e-02
1.666338680942563988e-01
-7.111773284567636522e-02
-2.628179077201825975e-01
1.777898139049223850e-02
-1.826503033045517588e-01
3.313389855664395506e-02
-1.001176320928868629e-01
-7.445351391598149793e-02
-1.708909809622481679e-02
-6.316584430687852136e-02
-1.757666733604140285e-04
1.010919202350765989e-01
1.207760362936121379e-01
-1.472954319218385544e-01
-6.572196902701950283e-02
5.034705774167368229e-04
-5.651411375797067704e-02
3.513111629450272472e-02
-2.962434127488680104e-03
1.336423259519094464e-01
1.032170360104882612e-01
7.169981497480283628e-02
5.839855250210421872e-02
-2.937652385717791012e-02
-4.317056963251357515e-02
-7.030945441929212225e-02
-5.076650722768837748e-02
