-1.542029484880943535e+01
-1.223099157411287230e+01
-7.089776284986419874e+00
-2.333120141138118164e+00
7.465041983679806398e-03
1.093559552261922141e+00
1.943923238186569868e+00
3.402923501661501859e+01
3.862882658495838534e-02
1.291127951293682130e-01
1.890937728412598884e-01
7.608168151807009894e-03
-5.352837656665639099e-02
1.542442006567592595e-03
-5.441396854781487685e-02
-2.580436595994816673e-01
-9.201758687113177626e-02
-9.863941740718024098e-02
8.143998252603859220e-03
8.845629679038793935e-02
-2.620130571050995755e-02
1.793535947648219192e-02
2.433882794424520671e-02
7.798382752510310545e-02
4.524082333538207573e-02
1.643128848037186604e-02
-4.316920793211737745e-02
-1.424143289145201607e-01
-5.003949336067805426e-02
1.535670433161246962e-01
1.313005348252681281e-01
-1.109166597498443124e-01
1.661354537387499733e-02
-1.201126878041683249e-01
-1.605042782647011224e-01
1.115190930058054947e-01
1.954943657122784270e-02
-9.185640189074435746e-02
4.557112018138466392e-02
1.792201728273272454e-01
4.098133942446160471e-01
2.155697038731111681e-01
1.073488087123160989e-02
4.321624718348920230e-02
-1.781118046006359978e-01
-2.820276348361420160e-01
-1.661165458843847642e-01
-5.307824085128613756e-02
8.683963133349058283e-02
8.818456888624999490e-02
-4.361170340899925280e-02
2.931725784434514176e-02
-6.131021836434782935e-02
-4.917093879455412819e-02
-7.051364593350548104e-02
2.026504843732310907e-02
5.044605080058028879e-02
-5.284688412952268100e-02
1.411583949863716003e-03
-2.069198523352671487e-02
-7.102864831763595899e-02
1.471153142971580539e-03
-1.331455337210181271e-02
1.045532831593728312e-01
5.600071201358332029e-01
1.737557591781606348e-01
4.337823858986334519e-02
-7.323248547571474532e-02
-2.651539663886846587e-01
-1.523405574978275168e-01
-1.136232853868701376e-01
-1.727908231547616302e-01
-6.437373507294779085e-01
-4.409368441247433212e-01
-5.510164868173306196e-01
-2.297836278747122374e-01
-1.077643033682536139e-01
5.528651056795379493e-01
5.170834064522099593e-01
9.032901007827743856e-01
-3.585871791209653270e-01
-5.285030923808882175e-01
-4.356170268329725426e-01
-2.578452058904694144e-02
1.011545173985571033e-01
3.006618505019723608e-01
3.246936665250245158e-01
6.219817844983175359e-01
-5.930910614771508493e-01
-2.141025020177109439e-01
-3.182232923432670169e-01
-4.014691952901625754e-02
-2.918927283943449913e-01
-2.181886996995079098e-01
5.743937662769258434e-01
1.101251437184067150e+00
-1.326250533611723070e-01
-4.456842241219485801e-02
-1.157251895581064977e-01
1.276267776041186131e-01
1.267760817015275987e-01
2.456629323942921828e-01
-1.507262173454366472e-01
-5.642090902303422556e-02
-9.649437715395791093e-01
-6.228272072039953144e-01
-2.031668357320137452e-01
2.040681165783247153e-01
2.091844902579437504e-01
-7.467635623428611757e-02
4.604021919628630277e-01
9.919593719107369090e-01
-4.060364194132043969e-01
-2.286388598294849528e-01
-1.671126602959356611e-02
-1.799797946208676613e-01
2.442190622409840528e-01
1.076020066874561892e-01
4.282836985799198803e-02
4.367169011067186801e-01
-1.956536101414500517e-01
-1.521861365930052279e-01
2.204221410142343796e-01
1.666207930019117031e-02
1.904697111684901245e-01
-7.827860750930695777e-02
-1.918867872355712600e-01
1.904512099964233707e-01
2.026425628353389630e-01
-1.607004121130941460e-02
5.888557433009955489e-02
-4.899207360353598217e-02
-3.046813092999885175e-02
-4.626917210635957123e-02
-2.458486474745911754e-01
1.261199281603500866e-01
-6.602627919760579722e-01
-2.445978341359828501e-01
-1.886224336768093091e-01
1.146542119040829255e-01
-1.200716335504289772e-01
7.845793646062414195e-02
8.535298835085122771e-02
9.350895566237277245e-01
-2.765877982205335317e-01
-1.817034017538054214e-01
-1.139752135752198636e-01
-4.305205217785566807e-02
1.226152117698631194e-01
1.487467758000355911e-01
1.753109448393066760e-01
1.686455333182037275e-01
-2.168527740658523703e-02
6.609989447875146140e-02
6.515651718475877485e-02
3.225759955940531165e-02
-1.012154611605062433e-02
-5.412762123286501970e-02
-4.915657672874669537e-02
-2.842298973866901057e-02
-1.588740257231789077e-01
-6.706334455129810135e-02
-5.639227752235943802e-02
8.138028208140130407e-03
-4.456474288647992860e-02
7.247750815394334023e-02
1.106109300760991648e-01
1.356679242451326040e-01
1.635461084175250657e-01
-1.681090698512821557e-02
-2.920563895099973287e-02
-9.112738239891737813e-02
-6.440548313487848286e-02
-5.522141857154628380e-02
4.347008815988002983e-02
4.975463346406442527e-02
-1.902448119311339336e-01
-8.984740264445088831e-02
-5.410110424764194570e-02
1.036399188087634565e-01
-6.205541159791927441e-02
-7.717032982218031967e-02
1.752403534908770211e-01
1.945387879436810408e-01
7.349285289240689578e-02
-2.970193285925010977e-03
-5.427206515546714044e-02
-1.377548710697292129e-02
-3.254112971773288204e-02
-2.686108334486074674e-03
-3.148820700082338719e-02
6.424033770900008933e-02
2.479189574917625150e-01
4.818493718733583842e-02
1.021673475582516623e-02
5.327865428778891244e-02
-1.072164858107887003e-01
-1.986114972506891271e-02
-1.859939526081287597e-01
-4.652769557872956513e-02
-6.872332824920920902e-02
-1.694907159567787466e-02
2.027475940718967071e-02
1.818216519934023057e-01
5.261495995508039952e-02
-9.868411528217031770e-02
5.359067016643963982e-02
-1.239455263950558356e-01
1.672135663424235696e-01
7.797188781836213861e-03
-1.383919532359535222e-02
1.542169200236527538e-02
-5.402038352415846484e-02
-3.078587108902483202e-02
-2.910140310342078721e-02
-6.268559408642397635e-02
9.867694152463765689e-02
1.371360439610110893e-01
8.676464324213047086e-02
3.908127593128937066e-02
-7.853176865536452096e-05
-3.549972355288585901e-02
-1.314343454124859423e-01
-1.946463039250395100e-01
-1.656684129899198554e-01
2.646701074944405804e-02
4.449417207979639022e-02
-3.790329760811926747e-03
-2.348008683108916000e-02
9.385748695780394418e-03
6.126662908006447888e-02
5.132526897673075211e-02
1.072508034445792714e-02
-3.741632907190303031e-02
1.008614124552353331e-01
-3.083677306108140170e-02
1.523946271506402272e-01
-2.125238232929775872e-01
8.427673035536943635e-02
-6.748092487973561537e-02
-4.483654654678223550e-02
1.265978850216344376e-01
4.224600498672528154e-02
1.761437323898120688e-01
-1.698620222988108386e-01
-1.270870853856911897e-01
2.198080672424385529e-03
-5.400048839312543252e-03
8.683963133349058283e-02
8.818456888624999490e-02
-4.361170340899925280e-02
2.931725784434514176e-02
-6.131021836434782935e-02
-4.917093879455412819e-02
-7.051364593350548104e-02
2.026504843732310907e-02
5.044605080058028879e-02
-5.284688412952268100e-02
1.411583949863716003e-03
-2.069198523352671487e-02
-7.102864831763595899e-02
1.471153142971580539e-03
-1.331455337210181271e-02
1.045532831593728312e-01
-6.437373507294779085e-01
-4.409368441247433212e-01
-5.510164868173306196e-01
-2.297836278747122374e-01
-1.077643033682536139e-01
5.528651056795379493e-01
5.170834064522099593e-01
9.032901007827743856e-01
-3.585871791209653270e-01
-5.285030923808882175e-01
-4.356170268329725426e-01
-2.578452058904694144e-02
1.011545173985571033e-01
3.006618505019723608e-01
3.246936665250245158e-01
6.219817844983175359e-01
2.840090558246500252e-01
1.660088436752853863e-02
-6.583441298268541408e-02
2.557972576202346415e-01
-6.593994900105583368e-02
-3.349311501576872629e-01
3.097693438118091780e-02
-1.206786200521639402e-01
-5.930910614771508493e-01
-2.141025020177109439e-01
-3.182232923432670169e-01
-4.014691952901625754e-02
-2.918927283943449913e-01
-2.181886996995079098e-01
5.743937662769258434e-01
1.101251437184067150e+00
-5.058130485019355360e-01
-2.881498324467893224e-01
-2.795937673847426752e-01
-1.652253415434703776e-01
-1.781613386084722472e-01
8.845620825235323004e-02
6.679524374902660044e-01
6.605346827427938106e-01
-2.058880443682701011e-01
-3.374809223532603819e-01
-8.026012341837467090e-02
4.424960220054381388e-01
3.442462708455456544e-01
-3.193025934892366191e-01
-3.302036970164866081e-01
4.863930877946521791e-01
-2.768722269901277566e-01
-4.061296281839793521e-01
-6.576945995109483301e-01
2.735214766462933100e-02
2.881898659553414760e-02
3.023589282108566367e-01
3.355195920125653708e-01
6.466468002014684746e-01
-4.060364194132043969e-01
-2.286388598294849528e-01
-1.671126602959356611e-02
-1.799797946208676613e-01
2.442190622409840528e-01
1.076020066874561892e-01
4.282836985799198803e-02
4.367169011067186801e-01
-6.949596242458788709e-02
-3.874742072793559838e-02
-1.257808593154576549e-01
-1.382228903447403068e-01
-2.177361436591635294e-02
1.431450232000168743e-01
2.267261317679460375e-01
2.414959221068252795e-02
-2.487677914810827173e-01
1.919158674293045541e-01
1.386540772075879890e-01
5.143226844695496514e-01
2.833839144241072534e-03
-1.162009987713057968e-01
-5.041841494483966235e-01
2.142647145009576176e-02
7.380502197321360536e-02
-5.752661403494110925e-02
-4.102049715620188081e-02
-3.359365658048608927e-02
8.075503325709032509e-02
-3.714919985112528911e-02
-7.302418225714499278e-02
8.775409464959335604e-02
2.026425628353389630e-01
-1.607004121130941460e-02
5.888557433009955489e-02
-4.899207360353598217e-02
-3.046813092999885175e-02
-4.626917210635957123e-02
-2.458486474745911754e-01
1.261199281603500866e-01
-6.602627919760579722e-01
-2.445978341359828501e-01
-1.886224336768093091e-01
1.146542119040829255e-01
-1.200716335504289772e-01
7.845793646062414195e-02
8.535298835085122771e-02
9.350895566237277245e-01
-2.765877982205335317e-01
-1.817034017538054214e-01
-1.139752135752198636e-01
-4.305205217785566807e-02
1.226152117698631194e-01
1.487467758000355911e-01
1.753109448393066760e-01
1.686455333182037275e-01
-2.168527740658523703e-02
6.609989447875146140e-02
6.515651718475877485e-02
3.225759955940531165e-02
-1.012154611605062433e-02
-5.412762123286501970e-02
-4.915657672874669537e-02
-2.842298973866901057e-02
-1.902448119311339336e-01
-8.984740264445088831e-02
-5.410110424764194570e-02
1.036399188087634565e-01
-6.205541159791927441e-02
-7.717032982218031967e-02
1.752403534908770211e-01
1.945387879436810408e-01
-1.588740257231789077e-01
-6.706334455129810135e-02
-5.639227752235943802e-02
8.138028208140130407e-03
-4.456474288647992860e-02
7.247750815394334023e-02
1.106109300760991648e-01
1.356679242451326040e-01
1.635461084175250657e-01
-1.681090698512821557e-02
-2.920563895099973287e-02
-9.112738239891737813e-02
-6.440548313487848286e-02
-5.522141857154628380e-02
4.347008815988002983e-02
4.975463346406442527e-02
-4.925683463140401730e-01
-1.817835757392782248e-01
5.378592469411036699e-03
8.548592182010267271e-02
8.313209619415000418e-02
-3.023565958345330804e-02
2.348075328745992396e-01
2.957834382785066163e-01
2.273429346732560308e-01
1.783586519776365897e-01
1.401318094941120251e-01
9.048738490409347079e-02
-2.208505627089359102e-01
1.612799767903491388e-01
-3.386175381230241421e-01
-2.381326570074827342e-01
7.349285289240689578e-02
-2.970193285925010977e-03
-5.427206515546714044e-02
-1.377548710697292129e-02
-3.254112971773288204e-02
-2.686108334486074674e-03
-3.148820700082338719e-02
6.424033770900008933e-02
2.479189574917625150e-01
4.818493718733583842e-02
1.021673475582516623e-02
5.327865428778891244e-02
-1.072164858107887003e-01
-1.986114972506891271e-02
-1.859939526081287597e-01
-4.652769557872956513e-02
-6.872332824920920902e-02
-1.694907159567787466e-02
2.027475940718967071e-02
1.818216519934023057e-01
5.261495995508039952e-02
-9.868411528217031770e-02
5.359067016643963982e-02
-1.239455263950558356e-01
1.672135663424235696e-01
7.797188781836213861e-03
-1.383919532359535222e-02
1.542169200236527538e-02
-5.402038352415846484e-02
-3.078587108902483202e-02
-2.910140310342078721e-02
-6.268559408642397635e-02
9.867694152463765689e-02
1.371360439610110893e-01
8.676464324213047086e-02
3.908127593128937066e-02
-7.853176865536452096e-05
-3.549972355288585901e-02
-1.314343454124859423e-01
-1.946463039250395100e-01
2.127606985054348449e-02
3.978531831523908317e-03
-2.710769506945339465e-03
2.558827356624408106e-02
-1.598341302513213089e-02
-5.142520594270633127e-02
8.339214248290782727e-02
-6.411562925643710109e-02
-1.656684129899198554e-01
2.646701074944405804e-02
4.449417207979639022e-02
-3.790329760811926747e-03
-2.348008683108916000e-02
9.385748695780394418e-03
6.126662908006447888e-02
5.132526897673075211e-02
1.088552074054787849e-01
7.972002999984252603e-02
2.724039188307985082e-01
8.997944881232945724e-02
-1.434030369323401333e-01
9.390613498913547019e-02
-3.320080902964000491e-01
-1.694536128088437454e-01
1.330833892764033966e-01
1.589375335903576991e-01
1.151764925790378646e-01
1.571060562546206657e-02
3.205150238752241948e-02
-1.791355037503320480e-01
-2.331251100066892012e-01
-4.269890970176269673e-02
-8.499512723585438134e-02
-2.912542887576936024e-01
-9.708253177222297969e-02
-3.278845644620325128e-01
-4.017252417569974060e-02
-1.764268983726845486e-01
7.319679738638583399e-02
9.446191373898029653e-01
5.600071201358332029e-01
1.737557591781606348e-01
4.337823858986334519e-02
-7.323248547571474532e-02
-2.651539663886846587e-01
-1.523405574978275168e-01
-1.136232853868701376e-01
-1.727908231547616302e-01
-3.886998073923010888e-01
-3.157954713287198789e-01
-4.234729643394954945e-02
-6.669972050811888431e-02
-2.342147071732614549e-01
-1.747983197961372470e-01
1.152122122186686470e-01
1.107343110413818499e+00
7.349285289240689578e-02
-2.970193285925010977e-03
-5.427206515546714044e-02
-1.377548710697292129e-02
-3.254112971773288204e-02
-2.686108334486074674e-03
-3.148820700082338719e-02
6.424033770900008933e-02
-4.060364194132043969e-01
-2.286388598294849528e-01
-1.671126602959356611e-02
-1.799797946208676613e-01
2.442190622409840528e-01
1.076020066874561892e-01
4.282836985799198803e-02
4.367169011067186801e-01
-2.487677914810827173e-01
1.919158674293045541e-01
1.386540772075879890e-01
5.143226844695496514e-01
2.833839144241072534e-03
-1.162009987713057968e-01
-5.041841494483966235e-01
2.142647145009576176e-02
-6.602627919760579722e-01
-2.445978341359828501e-01
-1.886224336768093091e-01
1.146542119040829255e-01
-1.200716335504289772e-01
7.845793646062414195e-02
8.535298835085122771e-02
9.350895566237277245e-01
-2.765877982205335317e-01
-1.817034017538054214e-01
-1.139752135752198636e-01
-4.305205217785566807e-02
1.226152117698631194e-01
1.487467758000355911e-01
1.753109448393066760e-01
1.686455333182037275e-01
-8.499512723585438134e-02
-2.912542887576936024e-01
-9.708253177222297969e-02
-3.278845644620325128e-01
-4.017252417569974060e-02
-1.764268983726845486e-01
7.319679738638583399e-02
9.446191373898029653e-01
2.840090558246500252e-01
1.660088436752853863e-02
-6.583441298268541408e-02
2.557972576202346415e-01
-6.593994900105583368e-02
-3.349311501576872629e-01
3.097693438118091780e-02
-1.206786200521639402e-01
2.479189574917625150e-01
4.818493718733583842e-02
1.021673475582516623e-02
5.327865428778891244e-02
-1.072164858107887003e-01
-1.986114972506891271e-02
-1.859939526081287597e-01
-4.652769557872956513e-02
-6.437373507294779085e-01
-4.409368441247433212e-01
-5.510164868173306196e-01
-2.297836278747122374e-01
-1.077643033682536139e-01
5.528651056795379493e-01
5.170834064522099593e-01
9.032901007827743856e-01
8.683963133349058283e-02
8.818456888624999490e-02
-4.361170340899925280e-02
2.931725784434514176e-02
-6.131021836434782935e-02
-4.917093879455412819e-02
-7.051364593350548104e-02
2.026504843732310907e-02
-6.872332824920920902e-02
-1.694907159567787466e-02
2.027475940718967071e-02
1.818216519934023057e-01
5.261495995508039952e-02
-9.868411528217031770e-02
5.359067016643963982e-02
-1.239455263950558356e-01
-1.902448119311339336e-01
-8.984740264445088831e-02
-5.410110424764194570e-02
1.036399188087634565e-01
-6.205541159791927441e-02
-7.717032982218031967e-02
1.752403534908770211e-01
1.945387879436810408e-01
-1.588740257231789077e-01
-6.706334455129810135e-02
-5.639227752235943802e-02
8.138028208140130407e-03
-4.456474288647992860e-02
7.247750815394334023e-02
1.106109300760991648e-01
1.356679242451326040e-01
1.672135663424235696e-01
7.797188781836213861e-03
-1.383919532359535222e-02
1.542169200236527538e-02
-5.402038352415846484e-02
-3.078587108902483202e-02
-2.910140310342078721e-02
-6.268559408642397635e-02
2.026425628353389630e-01
-1.607004121130941460e-02
5.888557433009955489e-02
-4.899207360353598217e-02
-3.046813092999885175e-02
-4.626917210635957123e-02
-2.458486474745911754e-01
1.261199281603500866e-01
1.330833892764033966e-01
1.589375335903576991e-01
1.151764925790378646e-01
1.571060562546206657e-02
3.205150238752241948e-02
-1.791355037503320480e-01
-2.331251100066892012e-01
-4.269890970176269673e-02
-2.168527740658523703e-02
6.609989447875146140e-02
6.515651718475877485e-02
3.225759955940531165e-02
-1.012154611605062433e-02
-5.412762123286501970e-02
-4.915657672874669537e-02
-2.842298973866901057e-02
9.867694152463765689e-02
1.371360439610110893e-01
8.676464324213047086e-02
3.908127593128937066e-02
-7.853176865536452096e-05
-3.549972355288585901e-02
-1.314343454124859423e-01
-1.946463039250395100e-01
1.088552074054787849e-01
7.972002999984252603e-02
2.724039188307985082e-01
8.997944881232945724e-02
-1.434030369323401333e-01
9.390613498913547019e-02
-3.320080902964000491e-01
-1.694536128088437454e-01
7.380502197321360536e-02
-5.752661403494110925e-02
-4.102049715620188081e-02
-3.359365658048608927e-02
8.075503325709032509e-02
-3.714919985112528911e-02
-7.302418225714499278e-02
8.775409464959335604e-02
-4.925683463140401730e-01
-1.817835757392782248e-01
5.378592469411036699e-03
8.548592182010267271e-02
8.313209619415000418e-02
-3.023565958345330804e-02
2.348075328745992396e-01
2.957834382785066163e-01
2.127606985054348449e-02
3.978531831523908317e-03
-2.710769506945339465e-03
2.558827356624408106e-02
-1.598341302513213089e-02
-5.142520594270633127e-02
8.339214248290782727e-02
-6.411562925643710109e-02
-5.058130485019355360e-01
-2.881498324467893224e-01
-2.795937673847426752e-01
-1.652253415434703776e-01
-1.781613386084722472e-01
8.845620825235323004e-02
6.679524374902660044e-01
6.605346827427938106e-01
2.273429346732560308e-01
1.783586519776365897e-01
1.401318094941120251e-01
9.048738490409347079e-02
-2.208505627089359102e-01
1.612799767903491388e-01
-3.386175381230241421e-01
-2.381326570074827342e-01
-1.656684129899198554e-01
2.646701074944405804e-02
4.449417207979639022e-02
-3.790329760811926747e-03
-2.348008683108916000e-02
9.385748695780394418e-03
6.126662908006447888e-02
5.132526897673075211e-02
-2.058880443682701011e-01
-3.374809223532603819e-01
-8.026012341837467090e-02
4.424960220054381388e-01
3.442462708455456544e-01
-3.193025934892366191e-01
-3.302036970164866081e-01
4.863930877946521791e-01
-4.483654654678223550e-02
1.265978850216344376e-01
4.224600498672528154e-02
1.761437323898120688e-01
-1.698620222988108386e-01
-1.270870853856911897e-01
2.198080672424385529e-03
-5.400048839312543252e-03
-2.768722269901277566e-01
-4.061296281839793521e-01
-6.576945995109483301e-01
2.735214766462933100e-02
2.881898659553414760e-02
3.023589282108566367e-01
3.355195920125653708e-01
6.466468002014684746e-01
-3.886998073923010888e-01
-3.157954713287198789e-01
-4.234729643394954945e-02
-6.669972050811888431e-02
-2.342147071732614549e-01
-1.747983197961372470e-01
1.152122122186686470e-01
1.107343110413818499e+00
5.044605080058028879e-02
-5.284688412952268100e-02
1.411583949863716003e-03
-2.069198523352671487e-02
-7.102864831763595899e-02
1.471153142971580539e-03
-1.331455337210181271e-02
1.045532831593728312e-01
-3.585871791209653270e-01
-5.285030923808882175e-01
-4.356170268329725426e-01
-2.578452058904694144e-02
1.011545173985571033e-01
3.006618505019723608e-01
3.246936665250245158e-01
6.219817844983175359e-01
5.600071201358332029e-01
1.737557591781606348e-01
4.337823858986334519e-02
-7.323248547571474532e-02
-2.651539663886846587e-01
-1.523405574978275168e-01
-1.136232853868701376e-01
-1.727908231547616302e-01
-6.949596242458788709e-02
-3.874742072793559838e-02
-1.257808593154576549e-01
-1.382228903447403068e-01
-2.177361436591635294e-02
1.431450232000168743e-01
2.267261317679460375e-01
2.414959221068252795e-02
-5.930910614771508493e-01
-2.141025020177109439e-01
-3.182232923432670169e-01
-4.014691952901625754e-02
-2.918927283943449913e-01
-2.181886996995079098e-01
5.743937662769258434e-01
1.101251437184067150e+00
1.072508034445792714e-02
-3.741632907190303031e-02
1.008614124552353331e-01
-3.083677306108140170e-02
1.523946271506402272e-01
-2.125238232929775872e-01
8.427673035536943635e-02
-6.748092487973561537e-02
1.635461084175250657e-01
-1.681090698512821557e-02
-2.920563895099973287e-02
-9.112738239891737813e-02
-6.440548313487848286e-02
-5.522141857154628380e-02
4.347008815988002983e-02
4.975463346406442527e-02
-1.552038563995255527e-01
-4.247213715963611691e-02
1.545567462516415080e-01
2.312019054185324995e-01
8.477939521499118503e-02
1.980820139541160374e-02
-1.589741665556360095e-01
-1.336960881657840439e-01
-2.069537515697389696e-01
1.016953924909345421e-02
1.686583791064951432e-01
1.948151365078161779e-01
7.863541504707183272e-02
-1.945721020502490586e-02
-1.669081129796325391e-01
-5.895939515607796083e-02
-3.055934475000853245e-01
-1.527675675286880100e-02
1.300788604622772904e-01
2.321293601739521373e-01
1.901756597822339134e-01
-8.262100361772158758e-03
-1.307424500525000144e-01
-9.250912575123004800e-02
-1.834119409891407926e-01
-1.773475546422147164e-02
2.626818199607266480e-01
2.001071514519981165e-01
1.539511384015541384e-01
-3.971561421956365523e-02
-2.084291874769778619e-01
-1.674486116643795208e-01
-5.727674907848376296e-02
1.663529548348293904e-02
3.153901356738896683e-02
1.248708626077110334e-01
4.035760596429705666e-02
-1.586365654814191617e-01
-4.825562419171966488e-02
5.076616112874483139e-02
8.311815296309817136e-02
4.692838313004539519e-02
4.090982542520906623e-02
-4.582823620169126227e-02
-3.323576441377364826e-02
-3.980541819082361599e-02
-3.051507211713613485e-02
-2.157187059492911285e-02
9.058655422015016168e-02
-3.296676609558030907e-02
2.761825443852916097e-03
8.294501997957760830e-02
-2.150227995956919755e-02
-6.159345384286681047e-02
2.318343817919481589e-02
-8.341433792475591580e-02
-1.920690252620703420e-02
-3.692584757207744567e-02
-3.917364535613499649e-02
-2.341236959028822340e-02
-4.470497004771714633e-03
7.044908228512264392e-02
3.928415312891664346e-02
1.345602663544117304e-02
-6.146538477647284227e-02
-5.887469275001115838e-03
7.567354219160876694e-02
1.210570749195637695e-02
-5.467700348321232612e-02
-5.406327705365109731e-02
4.965228565101689057e-02
3.866159925375380751e-02
-1.211869609312560131e-01
1.753616530484470096e-02
7.072976988344539806e-02
1.607534856757866434e-02
-5.805452780702203414e-02
7.571920861208968068e-02
-3.321964244816285466e-02
3.240063881848834898e-02
-7.405291427939135751e-01
-3.328491090773861294e-01
2.770298327985857290e-01
1.733474439225498875e-01
1.751216537601436585e-01
4.545800326427241328e-02
1.783710514266051983e-01
2.240502666991692482e-01
2.678587112914796453e+00
1.127237724475830927e+00
1.049464056693946851e-01
-2.830277908665957409e-01
-6.407552316385047853e-01
-1.011484579058337108e+00
-9.349519161091418562e-01
-1.040551725387418802e+00
3.877479187764267254e-01
1.708183880811154354e-01
-2.138677036088336078e-02
-1.084175034793816855e-01
2.215312807047604415e-01
-6.731728169775000326e-02
-3.619853422001456100e-01
-2.209906898241374151e-01
8.430127310290322917e-01
6.829907512637887201e-01
1.695785999795399734e-01
3.938044616879316645e-02
-2.160788176812215022e-01
-3.807279249249205799e-01
-5.371016006288455991e-01
-6.010541852061537238e-01
-1.468706287193740356e-01
2.779806845268547599e-01
2.769852051038125540e-02
1.918184560196387750e-02
2.405452198791804483e-02
-5.999721544369630843e-02
-7.061702592557297931e-02
-7.143070253846567352e-02
2.271976482121060570e-01
1.882151112895321873e-02
-1.924205369204884664e-01
-6.153952651720844685e-02
-1.637059628838159753e-01
-2.235453432749202607e-01
1.681666511558922439e-01
2.270255590994872952e-01
1.545465705516175348e+00
3.252571591721403754e-01
-3.508151441033201950e-02
-6.639364394425526505e-01
-3.040451959149305661e-01
-4.816520407613392174e-01
-3.215517748082786231e-01
-6.445589935088941180e-02
-1.311385599133532809e+00
-4.486967058667446495e-01
-1.583729892947773887e-01
2.101142388767475166e-01
3.167535841677759367e-01
3.751122787576922635e-01
3.752590568214193012e-01
6.412161356714461968e-01
2.321841955789773593e+00
9.537098949962795613e-01
2.422704520180095356e-02
-3.226419825241181871e-01
-4.430891746558117683e-01
-6.662349236035648437e-01
-9.500694435952835581e-01
-9.177433716090831473e-01
2.834312557872052385e-01
3.626794577569014133e-01
-5.242368459875835773e-01
-2.511881911380731136e-01
-4.828927616711827242e-01
8.965869021034142405e-02
8.635757873799628989e-03
5.139126371685837080e-01
1.909026136609972335e+00
7.952916832505105837e-01
1.388150781505979592e-01
-5.966167078902651077e-02
-5.493796982631697912e-01
-6.865664641306283844e-01
-6.701306479815444250e-01
-8.773944168467038285e-01
-9.365718056239032974e-01
-6.715272788527527625e-01
1.999328675953822645e-02
8.316307924932352102e-02
2.630126346493897316e-01
2.314253262973179071e-01
3.858656310884739926e-01
6.246391264326192072e-01
-3.345727178175776362e-01
-2.337598866813498655e-01
4.169357731355660332e-03
-2.129648025376900122e-01
4.576683116847912736e-01
-5.719853270789830579e-02
2.949233358817849454e-02
3.471659367401920826e-01
-1.235197117502995434e+00
-1.643014201696771648e-01
-1.884928749166009943e-01
9.979834957532639217e-02
4.806841627208419121e-01
6.803767482243926468e-01
3.734453947931695716e-01
-4.631324272445302981e-02
-4.012176137504623319e-01
1.640987928760015424e-01
2.208771963788542236e-01
3.157734463062016883e-01
-1.717589634062922921e-01
2.113492809236023895e-01
-6.896933113687836459e-02
-2.701528081910300472e-01
3.566468750147266387e-01
-6.110643241496596101e-01
1.888277246916920116e-01
-4.213749327729554017e-01
3.869095037415972715e-01
4.382090771244040450e-01
-8.183116110165079837e-02
-2.563227625481586669e-01
-5.502438793236202885e-01
-4.281109318167818922e-01
8.721689306573488301e-03
3.983811011488909704e-01
-3.833084326432706912e-01
-6.234704369006432989e-02
6.436411998932116685e-01
3.732662971250518824e-01
-7.256382717506559832e-02
-5.069419985029689490e-01
-3.220638386755049209e-01
-1.551148367433259345e-01
7.978506012240371703e-01
-1.849227033199704606e-01
2.243318478887210976e-01
2.194247553040764021e-01
-3.041787863611356557e-01
-3.783312624905982857e-01
2.043790616953128705e-02
6.007153030060794624e-02
4.504275373017218587e-01
8.067056181716678043e-02
2.303800522445490495e-01
-1.594775389818494093e-01
3.515283501556498158e-01
2.865346921004726100e-01
1.661408001720065253e-01
1.464808568617870510e-01
3.527066334559700311e-01
-6.681219460031856405e-01
-2.726932796805744963e-01
-3.625761070621310034e-01
1.028787237910472996e+00
5.004457499224810313e-01
-1.233544181303754435e-02
-4.782440788051631753e-01
-1.406400588311588207e-01
-3.403119668488301386e-01
-7.507193414062260373e-02
-4.826295073941426761e-01
9.505518268286111683e-02
3.460852550261401817e-01
1.825398840415677348e-01
-4.078063878277726206e-01
-3.782343282573364957e-03
1.747958783712340314e-02
-2.030852116174248490e-01
-2.648596685992193542e-02
-1.632257441913691209e-01
7.389538272311539646e-02
-5.400996162570792514e-01
-1.114445326138674280e-01
3.635191742042683249e-01
-1.456001189125224193e-01
-7.221147274533444571e-02
5.951669277927903456e-01
2.061974527644533026e-02
1.810646142012960480e-01
-1.129941186964358441e-01
-2.001426721178337087e-01
-1.114911927299036959e-01
3.331453219228504292e-02
-2.362096879874247546e-01
4.258387798615685393e-01
3.922815279650758158e-01
-3.815520697590074062e-01
-3.374860722328643647e-01
-1.383212096706905592e-01
-1.135802086590321364e-01
2.506503102299478813e-01
1.532061758520714967e-01
1.748015462744980930e-01
1.204680458301817941e-01
-2.879829186241086303e-01
2.060059588052678692e-01
-9.760131412868579270e-02
3.755106993922867342e-02
-9.118747996875656292e-02
1.289194892375975648e-02
9.985468922311710460e-02
-1.544910009511376303e-01
4.259569089641935813e-01
-1.170614751456968972e-01
6.901241409375615810e-01
6.289175762303715611e-02
4.544560590863647165e-02
-1.536842206043587122e-01
-7.991817167322398108e-01
4.757571173638476258e-01
2.958878900929808875e-01
3.211426579591561969e-01
-1.561560433863249664e-01
1.169613138058025192e-01
-3.627349834710604792e-01
-8.846307386055629607e-02
-6.023948785038574227e-01
7.882292320684961551e-01
3.601266272312077521e-01
5.302980181743648797e-02
-6.746686011959310281e-02
-2.909686860603949432e-01
-2.921406034695799292e-01
-1.361811744145809133e-01
-4.146283370529910139e-01
2.034607754371899335e-01
4.118220861826938500e-02
-7.321112099226124992e-02
7.226447828403813334e-02
2.597853954555561229e-01
-1.033658362845082251e-01
-2.087653365663329486e-01
-1.913505639519507417e-01
6.334584962075455739e-01
1.603686199709624949e-01
-3.593208883904555617e-01
9.816248556220721899e-02
3.542288220838754054e-01
-2.630186808002987209e-01
-3.012548425795033569e-01
-3.226240120543217293e-01
3.552172280511528557e-01
1.419618430790779429e-01
3.709345583846579419e-01
-5.322386849671525283e-02
-7.245251134672310578e-02
-1.632205231788181055e-01
-3.608987308341356504e-01
-2.183179956584972159e-01
2.631066972484353839e-01
3.121854337893138487e-01
1.196474691222000897e-01
-4.045331719813937549e-02
2.117339897666821180e-01
-1.427622741177697052e-01
-5.280563212951054908e-01
-1.954016773156112829e-01
3.050624288141960405e-01
2.373990790015849950e-01
3.310979629570018345e-02
-4.128309087040764325e-02
-9.425070697775726758e-02
-1.237536653988646901e-01
-2.361206956101778998e-01
-8.016314525426650184e-02
-5.387680828720905861e-03
4.902516899657892169e-01
4.287949977667428469e-01
-2.676885497906002220e-02
-2.795315350155427314e-01
1.003094509765592099e-02
-7.166679334748735086e-02
-5.457227686593654203e-01
-9.226426418679364860e-02
-1.542354878106072247e-01
2.306485131243482534e-01
8.383763137845547941e-01
-3.105058672936716335e-01
-1.741535125439426512e-01
-2.104059459806422727e-01
-1.274597490932460053e-01
-2.484410079735445073e-02
-1.961101046681800741e-01
-1.421588476890347785e-01
-1.519327416955414400e-01
-1.665574890115651963e-01
2.808464306081674966e-01
2.244159795845927230e-01
1.763408736689114631e-01
2.632783893596961078e-01
-4.249749619155374636e-01
-2.844863514183769149e-01
1.429100919449401152e-01
3.215031076909813379e-01
2.137418730268086653e-01
2.663829815851768978e-02
-2.586104468470231121e-01
8.455222029354226843e-01
-1.833377137897529707e-01
-2.121497878380455004e-01
4.424300270507542376e-01
-3.766561372946978375e-02
-1.827665130426708306e-01
-1.730120613624889780e-01
-4.990205402237530286e-01
1.734084698553379350e-02
2.391813679058003572e-01
7.859390582571143535e-02
1.006463311540087280e-01
5.874936052804240888e-03
-1.754648317276690517e-01
-5.972118411395806875e-02
-2.064513720822277743e-01
6.777487535814896366e-03
-2.887970111309442478e-01
-7.234498161211602718e-02
-2.907891375978722270e-01
-2.414493360113151299e-01
4.613569813271702902e-01
1.912206043970405001e-01
2.340253930922226999e-01
-1.349679818722507862e-01
1.116257166649888971e-01
7.779263956533627455e-02
-2.306790797965870277e-01
9.137707231205065631e-03
3.832920999208392354e-01
-8.143017028186431971e-02
-1.347709314316650753e-01
1.128593591964901277e+00
3.280815321518381622e-01
-6.248292601651540545e-01
2.050553458532361761e-01
-8.493838145619068136e-01
-4.141810132453660476e-02
-1.631602331606381252e-03
-1.444676915867690314e-01
9.062672436918115526e-01
5.465728053676751630e-01
2.878730546613186836e-01
3.107468991850465545e-01
-3.794362420281093273e-01
-6.129249883445441194e-01
-4.320581054901695972e-01
-6.270406670430312968e-01
-8.825431436491272263e-01
-5.655588960636815932e-01
-4.759305725362748540e-01
1.912116717383770606e-02
3.224175112051745618e-02
3.847826239223025580e-01
4.325278297071860067e-01
1.055359240325248527e+00
7.095029707593467627e-01
1.395923484058234076e-01
-9.540380933550864431e-03
-2.829007534029677751e-01
-4.489814866921443826e-01
3.407403142093374249e-01
1.178295680078848828e-01
-5.662425803537252111e-01
-6.521611544126214577e-01
-1.235214859526629211e-01
-1.264754909134108429e-01
1.308357714413289387e-02
1.768407112306937257e-01
1.810552643006752838e-01
3.273401237374755635e-01
2.038384548657180273e-01
1.918927764725703866e-01
3.155121407250595644e-01
-4.722740312650735572e-01
5.694561262978523608e-01
1.569728098902938851e-01
-3.165680268456438351e-01
-2.708191267133598923e-01
-1.741726685616958592e-01
-8.028026849045083457e-02
1.112135201068707446e-01
6.292822693369224882e-03
3.348165964383214011e-01
5.737567290406916237e-02
-2.781572550702374191e-01
-9.374783479255936747e-02
-5.751325378938695193e-02
7.408535499537682867e-01
-2.307591679251347061e-01
-2.149611135108085019e-02
2.483320759745058157e-02
4.487496086850980073e-03
-1.796287366168696775e-01
-7.805541342195948529e-02
-2.602348243230203084e-01
-1.227278075329519269e-01
-2.567759450098081597e-01
1.305832954278871860e-01
3.195688680475600729e-01
-1.613809512140408631e-01
1.212504264480817606e-01
1.589849670640586850e-03
-3.210773583736109549e-02
2.634628112342101702e-01
2.311890743152347216e-01
-1.976922943134094834e-02
8.996551794794829804e-02
-1.095028446302810307e-02
-1.751959465990735321e-01
4.495586205519694345e-02
-4.236578050591418565e-01
7.741950522744098229e-02
-2.487899934979348124e-02
2.989824133103288761e-01
-3.501370689119992149e-03
8.407041469101383252e-03
-1.514256398413947324e-01
5.762922494762384024e-03
-2.107658726213254008e-01
-3.234872454908131467e-01
-4.611150124947984152e-01
-2.179586200402317334e-02
8.956380879198833078e-02
1.487965902167608934e-01
2.667429638302826755e-01
-5.074464145107555196e-02
3.520393986016780441e-01
-1.268003824952311509e-01
-1.188511451571739180e-01
8.574903128817050815e-03
-5.037498774137861846e-01
4.109585125425402330e-01
2.141167731229444704e-01
-6.570359481177619199e-02
1.814548110836669281e-01
2.016442495924437306e-01
3.989534454902791127e-01
-9.085118731828411773e-03
6.201642976962005172e-01
-4.978447349471106231e-01
-4.842310212724817431e-01
-2.345500596650323122e-01
4.948941837533677932e-03
1.245888606466979187e+00
5.213640107174846161e-01
2.543756409450378606e-02
-1.943417363914929086e-01
-5.564306070850090213e-01
-2.216687329593098332e-01
-5.035252609319956774e-01
-3.167238439111480508e-01
1.372634308429135364e-01
-2.233667951969379173e-01
-2.331424960196522567e-01
8.046248985911792773e-02
-3.511413587107478085e-01
1.841899895211611682e-01
5.283432722639636731e-02
3.529004124777523899e-01
-7.899848103701232471e-01
-2.386551349937816591e-01
1.819395871072959081e-01
6.536286430923026192e-01
4.239766269677353039e-02
3.598444114930261506e-01
-8.296002058237596233e-02
-1.262103384431087216e-01
5.436491244166298253e-01
3.102089333140456429e-01
1.861421553772194537e-01
3.763612472063683489e-02
-1.469745503412019927e-01
-1.687829302800774867e-01
-2.730260056392553314e-01
-4.888528515679922415e-01
-6.446162261921393188e-01
6.904312482371302573e-02
6.505094606570713256e-03
-6.179590091761312520e-02
7.922277502588993825e-02
5.426353155197811973e-02
9.292315946802798265e-02
4.044544416335689729e-01
-2.510957244545563571e-01
-1.987262174008246896e-01
2.622838199297597428e-01
1.727360380227774828e-01
-2.788039048625748362e-01
-1.918509844926338248e-01
2.259810517245914030e-01
2.594759215334517255e-01
5.772429620423280561e-01
1.263650875707302557e-01
2.376237780099882124e-01
4.178149421399241503e-01
-2.418631444900526950e-01
-3.681055112718904510e-01
-1.004926994060313244e-01
-6.485854145949989658e-01
1.716388091016613215e-01
8.043540683584241013e-02
3.509159404981695984e-01
9.162233944401851349e-02
-5.958240542336008111e-02
-1.867077607206864276e-01
-1.551606620766329270e-01
-2.931616676590151904e-01
-2.224311152329682129e-01
6.065277699353694985e-01
2.187948330739339087e-01
-9.098226895721780658e-03
3.986870554574914460e-01
-1.715054806745411886e-01
-4.202586171335703780e-01
-4.007162185299879553e-01
1.169454442732103860e+00
-4.784534752056258666e-01
-3.763486249985599774e-01
-2.653879890732683822e-01
-2.772174929025899015e-01
2.132379541085006602e-01
-1.466929101651912593e-01
1.614080955046325594e-01
1.269616043781433667e+00
7.129463679954239907e-01
-8.313515912948711284e-01
-3.977589912308330811e-01
-2.736334406946266395e-01
-2.089682309463511689e-01
3.820330121723047173e-02
-3.090534588273953220e-01
-1.450798675144839289e-01
-3.298555958698386470e-01
-2.706317657672118182e-01
7.253260011548293140e-02
3.808930969410002920e-02
3.454356031270119920e-01
3.022629982224001588e-01
-1.275328200747133205e-02
-1.187476052970058982e+00
-1.368690582318230486e+00
-6.705343303221700246e-01
2.963453279449387856e-01
7.085412679631556410e-01
7.955461556793719247e-01
8.447986744101330103e-01
5.814695396128680693e-01
-5.575301384000511812e-02
-4.062688495804472333e-01
-8.045770895777533127e-01
-1.356148858147112612e-01
-1.602642434485970491e-01
4.239361682266065690e-01
3.536112554227663352e-01
7.849306586121538309e-01
-4.921290965231730485e-01
-1.715921678923571780e-01
-1.304526759422681426e-01
6.153406869419915104e-01
9.784420904521030637e-01
5.655164693648254692e-01
-5.704620925331838066e-01
-7.946632138678935142e-01
-9.635944229156683249e-01
-5.486281833541136743e-01
-1.271635448374508481e-01
4.964795528888938381e-01
7.209408484419310703e-01
3.685128544010571328e-01
4.313433721047245650e-01
-3.778904767293640998e-01
7.559383932744235812e-01
5.174803611642854184e-01
4.097016917041568784e-01
1.405826603110545137e-01
-5.121744228500370033e-01
-7.303737204407918515e-01
-3.452530793440354295e-01
-2.359018838190597156e-01
1.249710046266087504e+00
1.407479889597754497e+00
9.042809997136964650e-01
7.800939800274415969e-02
-1.120604123363032167e+00
-9.809822253835575045e-01
-1.040648065945841916e+00
-4.972459188878462499e-01
4.544362589951345122e-01
2.857931129679072701e-01
-2.723436987255868913e-01
3.571492090139606335e-01
7.199364996999995103e-01
-2.831974328151629638e-01
-5.185505354626434027e-01
-7.432234136736095564e-01
-8.164857178723300413e-01
-4.364019283562726170e-01
-1.436872359584294156e-01
2.901831390387419884e-01
5.802627730291537445e-01
3.103987868062135780e-01
-4.714246939345035914e-01
6.871548772474062039e-01
5.681238229610152679e-01
4.056795233730871586e-01
-2.530624155333049963e-01
-3.982063040282440847e-01
-2.190935188031606085e-01
-3.799284701443911283e-01
2.658381688895843434e-02
2.499035452860426942e-01
2.302920948303267545e-01
7.691028969752361499e-01
2.899791777835298429e-02
1.667909126567666545e-01
-2.053266566657038217e-01
-2.316648632098595451e-01
-2.700062643875830726e-01
-4.881860379775344039e-01
2.643866310171721357e-01
1.460690830702120468e-01
-1.310521830818647260e-01
1.173705815364913807e-01
6.654810880759581826e-02
-1.325795240671807373e-01
1.752099607947660287e-01
-5.059526580771882553e-01
6.378058803306796420e-01
6.988197616523694755e-01
-2.211237218094278534e-01
-2.990477037073834832e-01
-3.719563566881576300e-01
-1.724638462211899870e-01
-1.010091250989299388e-01
-1.710248884579767259e-01
-9.237695634512477216e-01
-1.123185867623170825e-01
2.073841865737351131e-01
9.779023011214772743e-02
-2.988723200835599059e-01
3.448944611008538663e-01
1.522618203379529356e-01
5.326297721724363443e-01
-1.035350381351355153e+00
-1.872968640275012586e-01
-1.492277848197028078e-02
-2.442941326945055058e-01
-1.712436458286372976e-01
4.193897248149192625e-01
6.281096072091510996e-01
6.056084703598970664e-01
-7.211247445786989063e-01
-4.715950935401167499e-01
-1.546824462626247843e-01
-2.233542201166952845e-01
4.848183232536487086e-01
-4.780616961291885708e-02
5.213676881040731903e-01
6.123766627533360207e-01
1.224826035971770644e+00
1.049444437738848990e+00
8.527871538549256503e-01
-3.170242350580781965e-02
-6.745896693871674676e-01
-4.790281211684330742e-01
-8.589496446401181373e-01
-1.082787768864009736e+00
2.608663689067403646e-01
-3.819983165284742549e-02
4.715060842091924748e-02
-1.052050804831562852e-01
-1.164164369752393735e-01
-2.554506327223740603e-02
-2.026975769763861984e-02
-2.380807246534187571e-03
-1.179504023445720584e+00
1.989188124303062077e-01
3.085880937256067491e-01
5.348644189481386313e-01
-1.262294545045103411e-01
1.926821978271687774e-01
1.114480837046616379e-01
-4.076812868567165210e-02
1.299659138063075536e+00
-1.720198639712806898e-01
-2.503735836380283075e-01
-4.163149797135202723e-01
3.701862863417357263e-01
-2.046449352005424993e-01
-1.590585338697240170e-01
-4.674335280117093427e-01
-8.913566758169770843e-01
-1.142969093940899405e+00
-2.186928005622064408e-01
4.094240751567498893e-01
4.559709820284851278e-01
5.649980690457248045e-01
2.150035308157720315e-01
6.076219132733281514e-01
8.556347320762792696e-01
5.017709238332597466e-02
2.039978467808460927e-01
1.641592470916520830e-01
-2.076337114839916786e-01
-5.957051109828819246e-01
-4.876464953949936620e-01
1.701639952976432418e-02
2.405437831784723313e-01
-7.356160916604424782e-02
2.689868011644366841e-02
1.962650340333334242e-02
1.358982226074943456e-01
-1.974230406971056589e-02
-1.924474932258065374e-01
-1.372157828441825933e-01
6.990528780755888016e-01
2.258664656827879397e-02
2.436168898411450456e-01
5.589673579488902561e-02
-3.595379014981361920e-01
-4.509311533484650081e-01
-8.807459892149956115e-02
-1.226094965117968810e-01
1.213637157548822954e+00
-2.532504667176513347e-01
1.544778230741848946e-01
-9.476335262698579176e-02
7.313382559823231044e-02
-1.480855036353375120e-01
-1.471424718605837401e-01
-7.980070113806732035e-01
7.142473933991630997e-01
2.618639710238395701e-01
-1.860036792110133022e-02
-4.473065303503427903e-01
-1.012524398016147187e-01
-2.546126896971360153e-03
-4.358007527841841200e-01
2.939485333120810812e-02
1.928651349298868278e-01
-6.374906987065855068e-02
9.154080495885749680e-02
-3.088877926510640373e-02
-1.756632771385344405e-01
2.687365095852147778e-01
-1.065369801917953746e-01
-1.763043430078611584e-01
-3.295702073006764182e-02
-5.971235200454169667e-02
-1.321603989029949133e-01
-4.501707381967241101e-02
6.117314510341669703e-02
-6.878990484491921686e-02
2.041658574369592805e-01
7.329774776182435003e-02
5.125736573375244687e-01
2.927866291781686670e-01
-2.846359154002897629e-01
1.211903830676163418e-01
1.279481715601359960e-02
-9.958380935086355579e-02
-3.055985429953035348e-01
-2.495272189928749440e-01
-3.215893635806652689e-02
1.904428352226651411e-01
-1.292030482257869872e-01
1.913504813153144857e-01
-1.113353435784287110e-01
1.633310115688720865e-01
3.194480107847607053e-01
-5.918750107293127005e-01
1.658792185770683325e-01
-4.842793291811243739e-01
-9.204249745924414361e-02
-3.434643873633728695e-01
-1.388988258013821031e-01
6.332252121676822387e-01
1.638914494013932188e-01
9.568915965897864528e-02
4.180084704355956915e-01
1.704361576705277492e-01
6.254833685162720924e-02
-2.966034961335154985e-01
-2.046199091808538484e-01
-1.303055168898119565e-01
6.074382354662049427e-02
-8.020786630019979824e-02
1.005082724212380541e+00
-5.164380673045901871e-01
-4.044561625144151712e-02
-1.496145120494748737e-01
-1.145264611379638864e-01
-6.297450473985768959e-02
-4.875113554721159648e-02
-7.233242718183932607e-02
-6.589051522249916859e-01
-8.458255122683633331e-01
-4.513383926854697692e-01
3.064250164671785126e-01
4.366007768197444627e-01
2.435220423307328796e-01
7.089751995672505247e-01
2.605460219939256250e-01
-2.323255842116617176e-01
1.214067335250154089e-01
-4.678980138758028762e-01
-1.889620681847943295e-01
-4.942888475260224790e-01
-3.148405771952739879e-02
5.488695553524338688e-01
7.446822826403597384e-01
-5.326305891996914454e-02
6.523701804860047859e-02
1.646549076829358915e-01
-2.332765459600468494e-01
-7.383867343133233840e-02
-1.545917352508351106e-02
8.918633593801864046e-02
5.675919016687572954e-02
-1.596571172471546174e-01
-4.531297926648398811e-01
-3.632036780575856327e-01
-2.052390249038728576e-01
-1.276742939234106963e-02
7.797729322989423173e-02
5.752475956232074861e-01
5.407721534126803675e-01
1.088001329841137982e-02
-2.452464634173571745e-01
-5.192880252002369801e-01
4.951305711492576256e-02
-1.771016688403382611e-01
-1.526233276202538791e-01
4.796957475865992193e-01
5.541706670782807764e-01
3.725847552903795434e-01
2.796528185096751051e-01
3.436419652470012326e-02
-5.327388894957790777e-02
1.888489376575277212e-01
4.917509612721209303e-03
-4.418452464755804887e-01
-3.852490821698570933e-01
2.082439706313511385e-01
-3.755629759879918622e-02
-1.278448550271294726e-01
-1.516952632353436858e-01
2.867087125088436661e-01
1.261427293328531707e-01
-5.465992931028071378e-02
-2.493390673014966863e-01
-1.103340987847390986e+00
9.751218397845062835e-02
-3.963485893094911838e-02
4.202091629489840274e-01
4.949965416735094270e-01
-1.229082306319670415e-01
2.411204866673553326e-01
1.204570214200101699e-02
6.556826462216468476e-01
4.463334200965027865e-01
2.304473280940495458e-02
-6.917439502518252237e-01
-3.599371054427730199e-01
-4.275493649201672075e-01
1.982814965523951312e-01
1.558881249348073039e-01
-5.254643160022614001e-01
3.808126689986503499e-01
-5.007112279445371517e-01
6.590821432926169399e-02
-1.692103519066711637e-01
-3.728905375705979935e-02
2.270734136986033991e-01
5.588806525840094297e-01
4.513266094756854252e-01
3.200015991730562614e-01
1.603429283700622335e-02
-3.387096819578205298e-01
2.410881753245222858e-01
-3.647573625841054601e-01
-5.058374114751749973e-02
-2.743998911208265779e-01
7.073379889301432133e-01
3.542161193292980848e-01
-4.260130050960093118e-01
-2.612193397727618493e-01
-2.005312236605048537e-01
-1.261069772581847603e-01
-1.160039407509983883e-01
6.832037827901800420e-02
-1.622750619822782223e-02
-4.315875428791209056e-02
1.523737357242896384e-01
1.266419611462344108e-01
-2.197150128742572373e-01
-5.576455590022091346e-01
3.972796355820155667e-01
1.604514999100668804e-01
-5.178460628843000180e-01
-4.534991018783028904e-01
-3.980607199967801241e-02
-4.250740105381459744e-01
3.385920626368697089e-02
-3.884928661862026011e-01
3.339310933619210053e-01
1.456927813861036869e+00
-2.002028537979592959e-01
-6.589170085095341634e-01
-4.305867541627824702e-01
-4.675062985713333008e-01
2.379484664042599840e-01
4.576342630258889432e-01
3.921166274323150125e-01
6.695135581791461510e-01
-7.302222843218211801e-02
-3.379153896900162213e-01
-3.871705950816950459e-01
-4.251769284134079285e-01
-1.201746008418834791e-02
1.356230533840145636e-01
3.531996638335936356e-01
7.464798844838780312e-01
-1.176124287665439860e-01
-4.501000493349394116e-01
-1.170357569955218779e-01
7.430991473832364302e-02
-2.319009893382898979e-01
4.639102376262893568e-02
2.451629303787063729e-01
5.507853555556386782e-01
-2.563302327429835548e-01
-2.431614844423191091e-01
8.342606223544024591e-02
8.266153072374972377e-02
-3.922297321489112004e-02
-2.778826354168320925e-02
-7.526967152614667811e-02
4.756850325088302078e-01
-3.915002410090872575e-01
1.030684538574762332e-01
6.319888320347666344e-02
-3.331184255201172784e-01
-1.018083076548190191e-01
7.952241515562283314e-02
-7.635729671661033169e-02
6.569945186840631113e-01
-1.503770368792652634e-01
-1.096932147873503349e-01
-7.552596181820166177e-02
9.761736682362498474e-02
8.279623203993078384e-01
-4.635221104212980392e-02
2.352436564914483774e-01
-7.788749191874366762e-01
-1.689129645725449658e+00
-1.184682594138233958e+00
-1.310490427125630353e+00
6.594605199324266032e-01
1.473859035851288191e-01
1.097250438331054623e+00
1.169359244677978582e+00
1.110846560462722010e+00
-5.408626123124377072e-02
3.897779535232867576e-01
5.340554731720416060e-01
-4.899817450666602014e-02
1.198568590903766190e-01
-1.537521887777210106e-01
-2.526379958829746974e-01
-5.342156653870803185e-01
-3.451720674683124712e-01
7.758377310716708941e-02
2.414773149617516490e-01
-7.241028278821193265e-02
1.920013658505344556e-01
-4.261957156150995851e-02
-4.675357006110901275e-04
-5.039299640080122794e-02
-2.005578806265494729e-01
-2.065197915279076979e-01
-2.030700850683165304e-01
3.919146109206071427e-01
9.711189273660972288e-02
-1.254682728702562478e-01
4.522047394160921829e-02
2.013690524942083615e-01
-2.633388095765505366e-01
-2.298380252490605236e-01
2.747938416845045473e-01
2.879566180412550525e-01
2.280768743752372707e-01
-9.275406542618233607e-02
-1.858410965062008979e-01
-1.905533734300028648e-02
-6.886976300235629900e-01
-7.890709755963245531e-01
-6.291605638350000751e-01
-5.255037414639799481e-02
2.261141952921192078e-01
2.981448525096564994e-01
6.940615274934573975e-01
9.411589683060751499e-01
-1.431649038236476601e+00
-5.739625986614406150e-01
-9.836070691505353902e-02
-5.004241308381127476e-03
1.412646728109723526e-01
5.129944520053818513e-01
4.548298995464367112e-01
9.998875607585526737e-01
-1.053759172769384335e-02
-7.294402197483550176e-02
-2.072306865798843184e-02
1.012292890458193900e-01
-2.492490998800222513e-01
1.750050105154018487e-01
2.866705377863045315e-02
4.855242890069218220e-02
-3.323203080818035726e-01
-3.046650453024698502e-01
-2.727449647645501241e-01
-2.187983759246081850e-01
7.678313222151103568e-02
-1.568442257791613503e-01
-1.253274389776652675e-01
1.333917226608746898e+00
-8.434014652498557085e-01
-2.719574363626080515e-01
-5.610938500505674442e-01
-1.430856158808066769e-01
1.267711272176987036e-01
8.633463859302900612e-02
1.983957529021902755e-01
1.408036848830919174e+00
-1.005881451275121075e+00
-4.584097139850943914e-01
1.710289480562653510e-03
1.856335194020689028e-01
1.963258309702048676e-01
2.057124523357082568e-01
3.722017850772216807e-01
5.027072879944342043e-01
-8.259906973249391271e-01
2.477703347999661854e-01
-3.046571099648128778e-01
2.181424579481284487e-01
-6.273344564587187699e-01
3.555670066265267937e-01
-1.810893670339101813e-02
9.546114010772476233e-01
-1.640588808187958825e-01
-5.666383309180965389e-02
2.384928101180515403e-01
-3.367419163330937493e-01
2.394499348378130998e-01
-3.475332103388983906e-01
2.955751756931927765e-02
3.974975780574134254e-01
-6.653520577428530258e-02
-3.085497311365192341e-01
-1.582835418365623747e-01
2.199790532820575240e-01
-5.752454977293324223e-01
6.780421177515605358e-01
-4.581789701198163978e-01
6.687717755629014604e-01
4.037455055369850720e-01
-1.270253766591058486e-01
-5.391571164727961829e-01
-6.377981879209572158e-01
5.178946344054397716e-02
3.866053396308547496e-01
4.201388957830443083e-02
4.198264828661857906e-01
-5.899030990397519103e-01
-4.345702357284394468e-01
4.237914428406878709e-01
1.836773645609726113e-01
1.949034913260878077e-01
-1.019526414232337780e-01
7.534416018154709016e-03
3.165192614455108466e-01
-5.252262151077120578e-01
-4.642732736203479260e-01
-1.733192446851348767e-01
-4.580987049481333728e-01
2.814081485597750842e-01
5.700460073141155881e-01
3.365743790491552700e-01
4.328889034382795709e-01
3.493623016535315484e-01
5.237366911442522532e-01
6.899065069504181635e-02
1.912024514399021657e-01
-7.170258637125190293e-02
-1.248726630359523471e-01
-7.911625833676104447e-02
-8.576005871887703025e-01
-8.364605474474842151e-01
-7.465260409620628756e-01
-5.536759990232711370e-01
-9.981839047618391858e-02
1.513346193189405442e-01
5.300629277476227585e-01
7.216681674132884305e-01
8.334152634291481787e-01
-8.523179260420055137e-01
-4.573998845210516251e-01
-1.721762018570133779e-01
1.887556348317843136e-01
3.291143137893510762e-01
2.531591425195229283e-01
2.262560984678920195e-01
4.846088228115232877e-01
-4.728004043058204320e-01
-4.178063214513780266e-01
-1.273366278837348708e-01
-2.331761669735142595e-01
1.105859177632767532e-01
3.389695873615400368e-01
1.082552823868201675e-01
6.933087331028084943e-01
3.056902783544454549e-02
-3.459114142613914367e-01
5.956192000803606224e-02
3.423373812646095526e-01
3.078893002518459654e-01
-7.245265897721717141e-02
-1.354270131216184780e-01
-1.865665429997158120e-01
-1.171941803439577878e+00
-2.645280267932815232e-01
-1.522115223831044528e-01
-2.638768944615839385e-02
3.280620521608927920e-01
2.934708930967508400e-01
5.751931719941396626e-01
4.183429248103332498e-01
-4.090737799918859330e-01
-1.133319498325475960e+00
1.085977704083628953e-01
1.652604990844489252e-01
3.308343532615559135e-01
4.350717669455644310e-01
1.867280962188879456e-01
3.159007923985380217e-01
7.472457029045415089e-01
3.263673454786868156e-02
3.184780936460246403e-02
-1.949531751040900207e-01
1.267775892536628785e-02
-2.815689824898008897e-01
-4.513152875014126986e-01
1.034294393529287259e-01
-9.405874729368314258e-01
-9.005415764240770615e-02
-2.037117038079136466e-01
1.843823703587257612e-01
5.569914057903805338e-01
2.073215218705780627e-01
1.231369184795381017e-01
1.625211178879250873e-01
6.220837051751122448e-01
-1.995129300544538353e-01
-6.501794667933198657e-02
-1.672712810796675165e-01
-1.434034204461952233e-01
-1.718631689163545584e-01
-1.910649920717532035e-01
3.160500340726429269e-01
6.537900416898118072e-01
3.888754793718352532e-01
-1.004147420279793146e-01
-2.110776958381815616e-01
-2.815571886556291759e-01
2.082698376108650939e-01
-3.753855325184643921e-03
-6.541318768255272031e-01
-1.469802398200873994e-01
1.779160414439825630e-02
8.004529829359828541e-02
2.202451469122169159e-01
3.771143827353977129e-01
-2.006376650089536917e-01
2.748902288080633943e-02
-3.750675501373674225e-01
1.546082030452461120e-01
-4.811227814098877759e-02
2.602198827687718374e-01
1.642221853948183097e-01
1.673220799071180320e-01
-2.827426931958861855e-01
-4.921976171392761223e-01
7.668023736019266567e-02
1.017719354645294921e-01
4.506878272973016131e-01
-3.489213511203601015e-01
1.246638355158290329e-01
-5.514008432666261950e-01
2.964168542050532595e-01
-1.635191747285455188e-01
9.030091663282041603e-02
1.621439537239287854e-01
1.346296336665472534e-02
4.186672111277356390e-01
-3.751410435974592006e-02
-1.154252513067702129e-01
-1.981200202588487280e-01
-1.498335354784076645e-01
-9.338121681454619738e-02
-3.688962927171381967e-01
6.361423159575274600e-01
3.702671769499798482e-01
5.266266600232534512e-02
-4.135504980717694679e-01
-1.902378233640481253e-01
-1.045614597164989251e-01
1.817391495962334888e-02
-2.076049260836331456e+00
7.415899370553824532e-02
5.436485495008530622e-01
4.744683351954551154e-01
2.112644647207330140e-01
5.643973417704573059e-01
1.607661908897195166e-02
1.920349568543479601e-01
-5.094053098555140213e-01
2.578850515752907357e-01
4.770069402858695407e-01
2.524673715737565938e-01
-4.704953634937603102e-02
-3.118355062649131315e-01
-1.896081793534941662e-01
7.053916838837490100e-02
1.234193989854454609e-01
6.383286882652292604e-01
3.729938278695388298e-01
-4.700997314823624484e-01
-4.027282445783088582e-01
-3.109526146453495815e-02
-1.724164869274211753e-01
-5.840219066758905314e-02
1.798826656534476542e-01
5.171069667830200389e-01
1.733487624753546341e-01
-2.088598604727765484e-01
-9.185639533401068757e-02
-9.063695859549877887e-02
-1.027249398418472598e-01
-3.762602406677081346e-01
2.921470720333448901e-01
2.442861325899898517e-01
-5.978568671190835904e-01
-2.954928579101784303e-01
-2.728531359666101497e-01
3.214605867020668972e-01
4.106230701077573375e-01
-1.023140004372805334e-01
-3.660013838378077811e-01
-4.782196938808765951e-01
-5.812991504425644995e-02
6.247051988104443745e-03
6.338239731256994913e-02
2.035504568341016743e-02
1.570227911808877996e-01
6.553437065979770271e-01
-1.485222737305617324e-01
3.484682478276877049e-01
3.642868053724952482e-01
2.948822305994646120e-01
1.373815406927907795e-02
-4.911625752149135771e-01
-1.555568471883387038e-01
-2.261337417351149126e-01
-2.316995372195839176e-01
-9.107064063405344301e-02
1.782419683325749959e-01
4.060368971710353603e-01
2.036476353444984511e-01
2.190913527486544263e-02
1.402126236096186973e-01
-6.272780818789728263e-01
2.953530102167918336e-01
3.121581014079883865e-01
8.473365013719359740e-02
2.659582510992826165e-01
1.612571416709366601e-01
-5.989033658174466312e-01
-3.683643265376750769e-02
-4.837203560609754094e-01
1.037404857659362634e+00
1.699231039245586716e-01
3.759154790594989581e-01
-2.586098203865569434e-01
-1.015608680884187293e-01
-3.125972295040725935e-01
-4.485866418735875438e-01
-4.618888807907996497e-01
-2.912501116864644746e-01
-3.757258041168685114e-01
-4.444006178440059740e-01
-5.473081511602653215e-01
1.139329250088667173e-01
2.063137372496640087e-01
2.556058785476164052e-01
1.082832144001456776e+00
2.075760608464983781e-01
2.350037616428406473e-01
1.527674394693930293e-01
3.996139579015665633e-01
8.292153470036441043e-02
-2.119667007789444724e-01
1.243930258489240603e-01
-9.903090796306366350e-01
-1.158789463321836077e+00
-6.742370573549890667e-01
-2.206706611915904004e-01
1.864445158000938019e-02
8.256873271465611785e-02
6.666637603198093398e-01
4.868461481382369005e-01
7.989740891156976721e-01
2.643826813323836844e-01
2.064756037324307902e-01
1.826611103339347009e-01
-5.354197830725091478e-01
-1.598141775255659536e-01
-8.804406884989060807e-06
-8.159317265480826864e-02
1.233165422610078832e-01
8.541556658995990148e-01
-2.523915521936588302e-01
1.183006348457247836e-01
7.088879544798024068e-02
-2.868191320661350185e-01
5.241612571198601273e-02
-2.203293900032083641e-01
-3.362211476422941048e-01
3.502832416339350385e-01
4.476515002446658786e-01
2.457205852413844871e-01
-2.564492552021077967e-02
-8.657227827580919743e-02
-1.217886208459763309e-01
-6.031105015756089704e-01
-2.065390009023699569e-01
-1.728817430388346621e-01
-1.097465272932468983e+00
-6.687294533091943105e-01
-1.098695317257751963e-01
2.173133800272223637e-01
-1.869737888649084800e-01
7.966870820234731587e-01
1.221919327820496282e+00
-3.849571964588530126e-01
-5.463270088208270758e-01
-1.044433066727955828e-01
9.633563366198844014e-02
-4.091801521053398116e-02
2.890906335405133420e-01
1.709753400442605431e-01
5.202439199162542938e-01
-5.463459033454520081e-02
-6.596478107510621303e-02
1.614922630103691470e-01
-1.240156077675680091e-01
-1.398147796564339906e-01
3.590394738974163058e-01
-1.761487860826876917e-01
4.004680800855615203e-02
-5.287956723700374395e-01
7.521113348433189350e-02
-4.274043949598621550e-01
-7.010528451710459907e-02
-9.084930762062555509e-02
-4.039514137101494345e-02
5.225788021013724055e-02
1.030080787144177279e+00
1.174199576251492017e-01
-4.033055795832987123e-01
-5.070472527125623463e-01
-3.694807835896771753e-01
-1.342639943383063250e-01
3.000510168194442384e-01
-2.228057071182633075e-01
1.219432342897514676e+00
-1.002265650814117004e+00
-1.075426874108381003e+00
-4.008090420822754130e-01
-7.490271222526589945e-02
-1.728412049075904499e-03
3.761094086056238073e-01
6.039703696840973413e-01
1.575052912989374443e+00
-1.046826528935810963e+00
-3.102813292694305836e-01
3.368917560892270482e-03
-4.402646418841757447e-01
-1.871106686454365176e-01
2.933602457690565046e-01
2.231952457385800448e-01
1.464558759666321874e+00
1.242848000094544797e-01
-2.021136735298594278e-01
-8.214499439957839710e-02
2.348342359945187682e-02
-5.599568431872262858e-02
5.371871592286746842e-03
6.321127729401809781e-02
1.239029797529435234e-01
-2.402989889243266619e-01
-2.894390451729366709e-01
-1.000988871220957060e-01
-2.500612782992753802e-01
-2.695670010894816171e-01
2.360446303655079903e-01
2.650330303805408794e-01
6.483875398620821962e-01
-1.135214650661580782e+00
-2.170354803697053525e-01
3.358974948174028863e-01
6.488183695426641417e-01
5.027258946966437492e-01
1.764217678632821196e-01
-1.230525718227247628e-01
-1.885608240660061885e-01
4.159616977195274568e-01
4.046613076709328349e-01
2.691108565498863681e-01
1.762448529887709059e-01
-1.535368487801479827e-03
-5.062336893847031449e-01
-1.080782772938001096e-01
-6.501313797628130997e-01
-4.027346838820883845e-01
-2.011939825749259891e-01
-2.180950477433316326e-01
-5.566004933728521675e-02
-6.297757855814387074e-02
3.096258465644686209e-01
2.541924772657671028e-01
3.768430182655252980e-01
-5.074298034065933827e-01
-1.062115786431794495e+00
-1.099351196385422585e-01
-2.067003910482212783e-02
1.577086619272934642e-01
1.128156108955727099e-01
5.046684022498576505e-01
9.249580735090303651e-01
-3.551769825024983507e-01
-6.484927837418272834e-01
-1.844081657408718211e-01
-6.554318959139464329e-02
6.076405367008971270e-01
2.187861470085463167e-01
-3.656088068862072271e-01
7.928032447533545080e-01
-2.850069864749598669e-01
1.306119860226601925e-01
8.145437685116353743e-02
-4.416859825736044187e-02
7.775327330833284312e-02
-1.745124852195119591e-01
1.910993884121552910e-01
2.276904535751924502e-02
-2.853501253568756918e-02
-1.519602128600293645e-01
-2.204732788459806692e-02
-5.366086203889780873e-03
-9.155879198379039338e-03
1.162981141726063261e-01
3.330983971744177347e-02
6.745656479253848981e-02
-4.128984795859969026e-01
-3.384939249505404257e-01
-3.065740222593848485e-01
-2.527576157526820189e-01
4.229411386452349569e-02
-1.867810372301630384e-01
-1.524565985913766963e-01
1.607667564505621538e+00
1.424804010261155607e-01
-2.411869566200524062e-01
-2.647127790196570074e-01
2.047810195174065706e-02
9.219041496973943636e-03
-2.696618860492141501e-01
-2.990328138778455269e-01
9.024168910919414532e-01
-1.716193979198232800e-01
-1.245499890069767940e-01
-1.534010507327500938e-01
-1.300622935077280218e-01
9.147409451188247276e-02
-1.882382091803182222e-01
-2.184789951843577327e-01
8.948758410200701174e-01
-9.164006751405946449e-01
-2.106275798328631765e-01
-4.439063584228132298e-01
6.527735427019905057e-01
3.450823834603720663e-01
-2.159422236533116157e-01
2.103957922507876388e-01
5.786251186364271826e-01
1.020283740757182978e-01
2.163756394789947413e-01
5.418035639528212544e-01
-9.425748678414362647e-02
-3.207616828840348933e-01
-2.021948427840921381e-01
1.982334269974806440e-01
-4.412269920527417955e-01
7.694557846751235441e-01
4.633676072410423674e-01
2.234684776765179515e-01
-4.712084095388082705e-01
-2.923906483882588447e-01
7.623441938006507435e-03
-6.049320910317143030e-01
-9.538416257190829306e-02
1.214812287531524815e+00
4.236536262488616034e-01
-1.616324743462302024e-02
-4.272170204782867464e-01
-2.192724202419104318e-01
-4.076055532510938217e-01
1.223109977346296257e-01
-6.905186701091020618e-01
-2.386756555906736355e-01
-4.957906343195541132e-01
-1.512860792567528589e-01
-6.840381060030102933e-01
4.258088610606314273e-01
-2.537451688626483626e-01
4.276897250086716396e-01
9.700370579633361690e-01
4.833428021380004602e-01
3.038505607328871316e-01
-1.807895721589997118e-01
-5.407370988168396647e-02
-1.498087122018883777e-01
-1.648584857941807758e-01
1.057356027940133635e-02
-2.482364431135388738e-01
1.073231842206557041e-01
-1.376844712343409660e-01
-1.366292879718045417e-01
-1.236197986310742652e-01
-2.827751553245189120e-01
7.758327061887658471e-02
1.743114227580201125e-01
3.214908355641869497e-01
6.579218887357319856e-01
-1.372126085447233634e-01
6.756832824945557814e-02
1.197960473666406650e-01
-3.074893881668563367e-01
-3.213347239867762606e-01
4.848485230852739997e-02
-1.277343959619970104e-01
3.520909684398069728e-01
2.923873314185073125e-01
1.052482841010704134e-01
2.838330691465025812e-01
-2.546041257677156278e-02
-6.415043197601596470e-01
-1.167304944559435509e-01
-2.498644263130285204e-01
7.303392071818680664e-01
6.228299024792965932e-01
2.789138204603099913e-01
1.244768351495746800e-01
6.912612060742348574e-02
-8.771572672898620970e-01
-4.200785226019423946e-01
-5.284500959866702541e-01
-6.104301670839054061e-01
-9.017234372668565534e-01
-6.567107940454137704e-01
-3.967715895675089088e-01
-1.049227478383219468e-02
1.324194592089623923e-01
1.463974045089336151e+00
9.797347584492150929e-01
2.114138696640837922e-01
5.497714926873438213e-01
4.155884560851478837e-01
9.832728583961893379e-03
-3.742129547761035568e-01
-9.412727670485349085e-02
-3.470057760585469886e-01
-3.712605394810149506e-01
6.538225805091131271e-01
7.252741907537056942e-01
-3.076436084092969425e-01
1.825236000087472887e-01
-2.395719928610173521e-01
-2.599109281928307369e-01
-4.431482253416620387e-01
-3.113456164667570691e-01
8.974943872081514451e-01
3.644259691019779424e-01
-3.919056265476592721e-02
-1.471435735183465876e-01
7.311536734034418394e-02
-2.471405089587837001e-01
-1.129302089583564539e-01
-7.886308695602194385e-01
5.313954603299830826e-01
2.475323300997494536e-01
-1.316163720853532476e-02
-1.285143502508137858e-01
-1.987721542003777764e-01
-4.335720642530804247e-01
-1.788414250706582553e-01
1.739338405537375065e-01
1.165185999461192168e+00
2.591515968403481085e-01
-2.641787840773915375e-01
-5.611045695120195909e-01
-3.273209134846973845e-01
-1.918244586545333197e-01
-2.295732875858479960e-01
1.496644170129555751e-01
3.108228265200765339e-01
3.709846008836107378e-01
1.725799855952850903e-01
-2.828555599855633873e-01
2.433806352003080320e-01
-1.242056479978480704e-01
-5.168433584158445004e-01
-1.738634818000193705e-01
-6.623568849686660431e-02
5.950539561206639183e-01
3.533937534940321257e-01
-5.050504572132352710e-01
1.337763550517710176e-01
1.462034023572411634e-01
-5.812761045191607856e-01
-7.586521679443182509e-02
2.907671631006935042e-01
4.259387363095287760e-02
3.675152198305525059e-02
3.337431237813250906e-01
-1.615415445111941309e-02
1.316715140970046993e-01
-9.793108479038459269e-01
1.599378057619339488e-01
-9.136208536796678326e-01
-7.412860520006069320e-01
-8.573157183131615566e-01
-2.245326940138223371e-01
6.890057927778532321e-01
3.098242925346643140e-01
5.557114988392908295e-01
1.182213733855449700e+00
2.397287724260355746e-01
1.608010739109367593e-01
1.370356457127994143e-01
4.286432487675693737e-01
-2.715336600533126421e-01
-1.952763901934550517e-01
2.494157317718407457e-03
-5.018928478883049049e-01
2.527596156496803581e-01
4.972137705156222109e-01
1.329975265503773561e-02
-1.491057230978985182e-01
-5.178848291278889127e-01
-2.368405980538939581e-01
-1.214046711355988920e-02
1.526984785729028349e-01
-5.416896887098123781e-01
-5.777638810267037295e-01
-1.578116566789145581e-01
1.735227444970551258e-01
2.118253319985042848e-01
4.435126689743837947e-01
2.028174806398026775e-01
2.455870003056940531e-01
3.472911088342217623e-01
2.254577932254935302e-01
3.040253867417417877e-01
1.761589443839174651e-01
2.124878496856289489e-01
-2.876467851893174665e-01
-1.921448828583825208e-01
-7.856294148233091690e-01
4.880673426165502704e-01
2.268213261116100443e-01
2.529418818096937360e-01
8.383082712209655174e-02
-2.392598181749383823e-01
-1.485071718246094574e-01
-2.918732311181980732e-01
-3.720211565421919220e-01
3.325902326516687324e-02
2.545948207367416116e-01
5.711093597603743993e-02
-1.072447607227061533e-01
1.539058579484366696e-01
-1.152426865798251709e-01
9.817580577883976145e-02
-3.745589964027029595e-01
3.254335631332578305e-01
9.581278353349202692e-02
1.173942701247192022e-01
-1.289199817654621549e-01
-6.161589356724328503e-02
-5.658171298269706710e-03
-7.185547028832209304e-02
-2.705910998721664518e-01
1.007664689691427640e+00
4.843556254045038867e-01
2.274448261457524545e-01
3.251345012450882616e-02
-1.549135631707655447e-01
-1.529241082364517224e-01
-5.644158753498271786e-01
-8.797250446091386955e-01
1.864759036679062287e-01
-9.938917797890468586e-01
-4.374818747372732353e-01
1.899473812385001070e-01
1.208550586388489334e-01
6.808296937100057900e-01
3.224663490065409199e-01
-6.920073173547955370e-02
-5.610714809843655448e-01
-7.393489561555162126e-01
-6.128543142610690664e-01
-7.518865699310185446e-01
-3.058981600814170698e-01
3.584766728733061458e-01
7.680068499237187041e-01
1.844575958616357481e+00
-1.498007776611936626e+00
-1.733213319662012308e+00
-8.869293607161694570e-01
6.890384088560272957e-01
5.197210974626835789e-01
8.092107774444982082e-01
9.680156137408472139e-01
1.132164559486055433e+00
-9.806139096413815093e-01
-9.379471644162112876e-01
-9.068532458610318869e-01
-2.767172199094631857e-01
2.618401579479935348e-01
7.301044310033012463e-01
1.072345578064877625e+00
1.037841372811927343e+00
-9.836814796160092689e-01
-6.007227049178651690e-01
-7.781921697801393867e-01
4.669565098619727905e-01
4.506114944077686535e-01
6.409146730166809247e-01
5.332020620477385675e-01
2.709116149798493911e-01
-4.158234154830145468e-02
-8.620257450454145154e-01
-2.177635736572989533e-01
1.455171465320146372e-02
9.822211946580280961e-02
3.041306413740720305e-01
3.965464253134067252e-01
3.079207594445266816e-01
5.964258065383083451e-01
1.863107821198240199e-01
-1.140593854534540375e-01
-1.593186700434143788e-01
2.007912636062906819e-01
-4.281080279887238826e-01
-2.562296406599600118e-01
-2.581212811887685296e-02
1.363918836707312066e+00
5.950127781022843676e-01
1.595197346602313104e-01
2.762848493308182538e-02
-4.940405732730165367e-01
-6.034880761229451940e-01
-4.026495091189983833e-01
-6.459016758879669862e-01
-2.520570933697481308e-01
-4.508102523008911677e-01
-4.683431020191465843e-01
1.357857009839934515e-01
-3.973035467360491180e-01
2.764136357805342392e-01
5.694099408971585730e-01
5.869047167641406881e-01
2.776836346079549767e-01
4.155122833339589539e-01
8.432486530032780314e-02
-4.238177850024870547e-02
-3.529373803890493710e-01
-2.746509218474965652e-01
-4.696170399006260321e-01
3.620663373951709119e-01
-6.233593940213310036e-01
1.264251230111727853e-01
6.802554337050104039e-02
1.694414421790499392e-01
2.771849460029065515e-01
-1.417835465183127364e-01
1.388272440843333899e-01
-1.476135810831627829e-02
4.158808669447827677e-01
9.597597207194743518e-01
6.158776880840554080e-01
-1.574148171340329916e-01
-1.245446073276377207e-02
-5.766869481449281576e-01
-9.082180044767380611e-01
-3.367440452598234879e-01
6.768125417773137587e-01
7.426455919118272186e-01
6.193591920808349388e-02
-1.794983266217960172e-01
-1.515475139217737017e-03
-5.863732472692504416e-01
-6.397202323425968951e-01
-7.428677152436612141e-02
1.372680697506186154e-01
-5.897138533201817800e-02
1.081926336468875677e-01
-2.426069825888766407e-01
-1.589584708992726469e-01
1.230185108186622883e-01
-5.826219787325800231e-02
1.503198224772548663e-01
6.269672148039630022e-01
9.042553819095046075e-01
6.445810104837605969e-01
-6.843515636762158572e-01
4.010117987257751787e-02
2.247265483862416480e-01
-8.886282902613328316e-01
-8.676514815184938056e-01
5.991373945878725182e-01
2.169377120373482681e-01
3.803261714235889324e-01
-3.294442313638668018e-01
-1.005289240473086487e-01
-3.760869399313862549e-01
-3.132060048899872329e-01
-7.713517781625245373e-02
-1.580914723595400417e+00
-5.951566134165785504e-01
-4.003857077126816155e-01
1.284446293837339104e-01
1.326829950197694064e-01
4.123690334659675938e-01
8.674486574523893045e-01
1.035511729402812886e+00
-1.189470509102442008e+00
-4.660548022134010093e-01
3.150235011127601181e-01
-2.695714001079075883e-01
-1.027009621351991364e-01
6.838127394610211685e-01
2.068721286710835106e-01
8.220893043140945489e-01
6.794866972010696893e-01
7.348421019072391702e-02
-1.603381463089756029e-02
-3.211087856315302247e-01
4.320647039161310543e-01
-6.641174311474243863e-01
-3.133853815382030006e-01
1.296098016401198427e-01
-1.706554910200512587e-01
-8.335704870572383518e-01
-5.255084917870202904e-02
-1.067044566578267961e-02
-5.335231239606730985e-02
2.080356855263294502e-01
6.376118161849293475e-01
2.751520836065833309e-01
-5.367487702667826655e-02
1.208697942476669868e-02
-2.231668162993063753e-01
-7.065470936320741857e-02
-4.966753689539846195e-01
1.726672775927336201e-01
1.877862716237765073e-01
4.716312430019026225e-01
1.381856958089344722e-01
7.505759544172875553e-02
1.757626260197999168e-01
-5.400711562465961846e-01
-5.427289484214063708e-02
-7.418100097422974937e-02
2.929568520648642149e-01
-1.343771727236244863e-02
-1.083893921205627775e+00
-3.212729594310654857e-01
1.171417967246954767e-01
6.421400986125617993e-02
-4.039325724974878601e-02
1.279705134486566198e-01
7.344839771631260783e-01
4.017498406887047291e-01
5.957473905491734723e-01
3.804017987992616145e-01
3.252677046490120016e-01
-4.716523659891320164e-01
-2.100077562367565487e-01
-1.589024393085710363e-01
3.739251072687254512e-02
-4.982468431898585126e-01
5.454598191918433869e-01
-7.965675766723040452e-02
5.766739314273158779e-02
-6.420176886445733144e-02
-2.952166302599295022e-01
-8.965141457477227363e-03
-9.645255727825818859e-02
-5.863435680721057475e-02
4.616845936134515438e-01
-5.737585317331803103e-02
6.930058514863447761e-02
-1.456036780093343530e-01
-2.214930492328114620e-01
1.289689059370559554e-01
-8.039126840820204345e-02
-1.550902358754786825e-01
-2.773595308627349598e-01
-2.031722156433757309e-01
-5.734568522212429853e-01
-2.936018158054909954e-01
2.669380537920281182e-01
2.801762232868999503e-01
4.420986240748211449e-01
3.583775133790895184e-01
-1.662910808945734231e-01
-9.071487830831099775e-01
1.736400090988003964e-01
4.683993423959957325e-01
-3.374101580903987596e-02
-4.696049596312181218e-01
1.862023034386925957e-01
7.485441844844602510e-01
1.338782842330064060e-01
2.378227639960731055e-01
1.925756974458979198e-01
2.619579924218646272e-01
4.433472854586498202e-01
-4.396375340135894039e-01
-3.526889840428600320e-01
-4.772555054990417767e-01
-4.337702291106916297e-01
-3.859821788661695896e-01
2.856316819321828571e-01
4.017534808286419290e-01
9.024458104209723275e-02
-2.004425083869637025e-01
-3.925303522526299438e-01
6.350955248135370379e-01
-2.857954612566213637e-01
4.062791013494424508e-01
2.913991304357183010e-01
-2.240871765367279111e-01
-1.331213324378133500e-01
3.901529315394423048e-01
-2.566341559331986044e-01
-1.881930371602391627e-01
-4.266063227508222755e-01
6.507466104594165079e-01
6.025017600502886594e-01
1.680610057276500091e-01
-6.759790338782341312e-02
-2.364965808815622239e-01
-2.075637917919403164e-01
-4.830447774251886428e-01
-1.026881956201050494e+00
-8.973606965434961780e-02
3.664672794540080880e-01
5.243857147180617240e-01
3.498607230879509089e-01
2.157300531322465242e-01
-3.617281617993597931e-02
-3.036529283569393556e-01
2.942890490913732671e-01
-1.962898619195190819e-01
-3.928879961715709378e-03
-6.130216612529579973e-02
-9.369498527282216216e-02
2.725323363747251815e-01
3.998425238841029489e-02
-2.515897445751583694e-01
-2.157776567874444273e-01
-7.690715151315247189e-01
3.019941286890995280e-01
2.688789003206735195e-01
2.935207384621875693e-01
4.030941504538452236e-01
1.329779172853811642e-01
-4.156166632922324577e-01
2.667401725653780198e-01
3.293347243641181477e-01
-3.912953289240203025e-01
-6.926222521550644551e-01
-8.496399056354418666e-02
1.801138259562757582e-01
3.721888203433371123e-01
2.050402841351941369e-02
4.421081836926706865e-01
9.018766686393117071e-01
-1.928308526188563798e-01
-7.878013820693392788e-02
-3.681477679400318448e-01
-1.278607625691796090e-01
1.123462074158134982e-01
-6.887115384127935336e-01
6.779380733645740120e-01
2.525001554436667184e-01
-6.696230349929767345e-02
-4.426842707705539448e-01
-1.545004984326850961e-01
-1.986012842907078357e-01
-1.768314371941057464e-02
-5.000672809558216747e-02
-2.722532098419409019e-01
1.920488064473150069e-01
-6.943884430748682446e-01
-1.960325450350323406e-01
3.341860549474513081e-03
2.072889524968358210e-01
3.329702975368229456e-01
4.270242809213969370e-01
-1.751491115076926341e-01
1.232892141080638437e-01
-4.251820675620681111e-01
-1.706497793914825700e-01
2.435139798741913983e-02
4.381141960967619431e-01
-1.340181238064081307e-02
1.986279626496351980e-01
3.082826144231960441e-01
-1.845256182252246469e-01
1.760213860903017680e-01
-1.346543301260634262e-01
-7.913828354746997584e-02
-5.617564995090951890e-02
-6.290067319839370841e-02
3.309055453456487966e-02
5.323834182684242800e-01
7.594908761255808605e-01
-5.826927973388756204e-02
-3.054835394112984104e-01
5.906300551048556530e-02
-1.408605907943249747e-01
-3.554740929127959137e-01
-4.908497970521856768e-01
-5.537398879682541887e-03
-1.422248273477668412e-01
-1.113993261150608149e-01
-1.704673666780500418e-01
3.074582024300303029e-01
-4.148306823241116464e-02
4.167423230747490659e-01
-2.530885382518068827e-01
4.176265557076940249e-01
5.993870541098220844e-02
-1.181667553193793685e-02
-5.603478320959918990e-02
-3.172134373451396261e-02
2.589412818270262484e-01
-7.047884332994887313e-02
-5.664548971396980992e-01
7.815634394499628712e-01
1.724849552586175783e+00
8.724617780762653485e-01
9.689699770612647534e-02
-9.820562723031818209e-01
-9.184876087060991345e-01
-7.070771018172840039e-01
-8.681507849919559705e-01
1.280703722499197950e+00
-2.116398036765370638e-01
-2.984588289215644452e-01
-4.798258779324152679e-01
9.663963502794646609e-02
-1.703266519291463665e-01
-1.009372996501194941e-01
-1.161548954173597381e-01
2.185656118328152195e-02
-3.711588819616455370e-01
-2.100881935390913613e-01
1.964159350001636051e-02
-1.578366390702850564e-01
8.063303895226169027e-02
2.125488568174943582e-01
4.044036641179669656e-01
-4.490527129645635052e-01
-2.483862294864967735e-01
-4.867305853396264870e-01
-6.757898151065013827e-03
3.150566178290311603e-01
2.890502564801923913e-01
3.178438932186865573e-01
2.689766584138393313e-01
9.212400967421184861e-01
1.732375402375690154e-01
1.234027870474959099e-01
1.364073514448213564e-01
-3.078201113487404328e-01
-3.033866527777028810e-01
-2.466539613162447575e-01
-4.964270500292983779e-01
1.180336039587460417e-01
2.458582568716335126e-01
9.424391111736823978e-02
-2.439504260205497405e-02
3.728487784578562309e-02
1.772541856117171855e-01
-1.583720515395965200e-01
-4.899077412635975959e-01
1.034726803420819685e+00
3.441570534884521027e-01
-3.604656868887639032e-01
-3.091464131717152619e-01
9.181431686698712097e-03
-2.690661245629494269e-02
-5.843682562213842191e-01
-1.071783198578131896e-01
-1.217939220136172451e-01
-1.291321032139298164e-01
1.185048768709711514e-01
9.348347169355820940e-02
-2.219410622672745304e-01
-2.966036599647699501e-01
4.712477251120281707e-01
8.623467378303595332e-02
-4.377546258029162835e-02
1.013741517044096652e-01
4.848782893555476647e-01
-8.758096919143656955e-02
2.129379739891660434e-02
2.928432417541030897e-01
-2.796928497433638916e-01
-4.893401986978819784e-01
7.817432953347905888e-01
2.130613430043123424e-01
-1.915002375222737419e-01
-4.291730661455604445e-01
-2.041665362594155264e-01
-1.851683707940238732e-01
4.824814376379998188e-02
-3.304457138163204022e-02
4.076591925382568316e-01
5.732366848510258572e-01
-2.759691869186500779e-01
-2.583618637108049954e-01
-3.092003259843383867e-01
-3.893854220485262196e-01
1.364978238091823365e-02
2.383711388921201102e-01
3.975656895565115034e-01
8.830757094267261964e-01
6.075535204645812204e-01
-2.319354500940622732e-01
-7.954726784127853501e-01
-3.575083788882952862e-01
-1.558330221835841911e-01
-3.474453898690745834e-01
8.847725708631528629e-01
3.362011746514773081e-02
-3.256480046360274994e-01
-2.711361469445624506e-01
-1.435566942335532725e-01
-1.198690304342030222e-01
1.348053662782033590e-01
-1.929881783581560706e-01
-5.673075818182331531e-01
8.555038230378100295e-01
7.749981289478202751e-01
-1.913083622034675579e-01
-1.643324684674699054e-01
-1.871810292053676938e-01
-1.769879331597075944e-01
-3.433845771313929762e-01
5.469816679575203455e-01
6.796467038565636720e-01
1.531271511857526801e-01
-6.729572132684744634e-01
1.632665718005347211e-01
-4.544274745861286435e-01
6.299434043871671163e-02
-4.786317473844903803e-01
-2.707844358025914833e+00
-1.485954946633891494e+00
8.119839071628774940e-01
1.276078166684094795e+00
1.353812523399029910e+00
6.770554761703061475e-01
1.589089257846943992e-01
-8.403969454111775983e-02
-8.306842711976623050e-01
4.932755623856206473e-01
8.363009744502220011e-01
4.916329143198480689e-01
-6.032026787199517431e-02
-3.213972694771998206e-01
-2.418826785462463713e-01
-3.669249640625827369e-01
-1.295373171990325423e+00
8.632454961836364404e-01
1.435849503065394384e+00
4.722422843236366297e-01
-2.536620936450727504e-01
-3.256552425105320725e-01
-2.290512148387350289e-01
-6.675955605880240507e-01
-9.267984085011732320e-01
1.022263676544583610e+00
1.452869931331870257e+00
2.847327833985957568e-01
-3.435839981476376259e-01
-1.378548526700237864e-01
-1.108856944387720755e+00
-2.427721875685205644e-01
2.882330290584473875e-01
5.867569763681094175e-01
2.684430623130857341e-01
-5.688261208307696659e-01
-8.443321378659224274e-01
-3.600920720618276394e-01
3.851195692292770922e-01
2.446976937896087057e-01
1.086494309816402049e-01
1.828122002773611976e-01
2.250392589686935618e-01
-8.438795279047737186e-01
1.601115751628474360e-01
-2.637637276619598237e-01
1.715374508127955888e-01
2.594933393633931940e-01
4.535048604983371034e-01
-2.601763260061284999e-01
-2.540541313196949536e-01
-4.307189726544114472e-01
3.772292608054195751e-01
8.564396781282603011e-02
-6.275656382788909193e-02
9.132790469152746171e-02
3.578958021592133942e+00
7.119298083019708345e-01
-5.556743932056613655e-01
-5.987724207799383080e-01
-4.287681649450511001e-01
-5.278534752399507424e-01
-5.343450108645850793e-01
-1.645474364858907634e+00
-7.061338959701725544e-03
-2.710249471502996360e-02
-5.975668913080312700e-02
-4.467105488714940426e-02
-2.683801323125583824e-02
-3.643930038082475453e-02
-4.145459462411964918e-02
2.433234859288841700e-01
5.055979450446104195e-01
3.582382644336871147e-01
-2.251246217378560510e-01
-1.733586931614185811e-01
-1.203661136821871092e-01
-1.304262988984009886e-01
-1.446054070816681358e-01
-6.995507491676475342e-02
-6.656254868359620658e-02
-1.788177493297059828e-01
-2.248590193147767258e-01
-1.697913452237356235e-01
-9.914558554224051079e-02
-1.034795445101095862e-01
-1.000556666677205886e-01
9.427114592718863761e-01
-6.973440846084434652e-02
-1.891152035667139075e-01
-2.615989125712361307e-01
-1.622632375638326796e-01
-8.277768158233780871e-02
-7.680812068096190548e-02
-7.984483290913248210e-02
9.221423973350598713e-01
1.683944177060894831e-01
-2.692506081102435389e-01
-3.168200113506911553e-01
1.391304714419884514e-02
-1.320068601533188613e-01
-1.131935128233712562e-01
-1.116902581590604460e-01
7.606537857463968599e-01
-1.089826565259334468e-01
-3.082521591166454966e-01
-3.418197843260085689e-01
-2.704574012214643330e-01
-1.495796202721791368e-01
-1.502859058407007287e-01
-1.247807415713227952e-01
1.454158268874259141e+00
-5.096988896436116523e-01
-5.628311495288846888e-01
-8.210254790222885068e-01
1.788818034320814043e-01
3.744007348551752767e-01
1.819821818655098788e-01
2.352741849617207837e-01
9.230166130802935909e-01
-2.903882684168130335e-01
-7.750928036453909042e-01
-5.613399432417607304e-01
-4.089647029116184607e-01
3.308024252182136249e-01
3.137283129783360880e-01
1.540501185435111109e-01
1.237204861475513118e+00
-7.715375393530083947e-01
-1.159747520339835747e+00
-5.764606108888141733e-01
-3.959771572113425786e-01
2.923794496759599681e-01
9.742434258480232590e-01
6.399726192281532944e-01
9.971273330408556568e-01
-5.035053120867081233e-01
1.217550605287895937e+00
4.138674934798889926e-01
3.605037220510969864e-01
9.643602665768680193e-02
-6.611530363495317086e-01
-4.599467406259608038e-01
-4.637527584143305570e-01
-9.729419752287593592e-01
-7.097873499544006259e-01
-2.852926348635669365e-02
-2.620317612661984819e-01
4.077821177583780266e-01
4.852268282888763107e-01
1.178718492977701704e+00
-9.843708908924318768e-02
-9.521466194336684064e-01
-1.330184303373755927e+00
-5.854476138582886957e-01
4.259973542877047437e-01
1.268079016421928655e-02
8.657042901972824556e-01
1.492344748958451373e+00
7.105135305805873602e-02
1.627490695713817992e+00
1.894101333935086950e+00
1.254600622663924581e+00
5.054385218592579720e-01
-5.229315485074487180e-01
-1.129243784380671300e+00
-1.616901927466560362e+00
-2.012553913817457740e+00
1.264246249520598386e+00
7.093410033290140637e-01
4.305141663416904296e-01
1.449226912732861361e-01
2.660386658953263761e-01
-5.202779562881774122e-01
-1.148448896085194182e+00
-1.146335923986545158e+00
2.612740744683543781e-01
2.426963819746604523e-01
-4.404760253662572955e-01
-3.143130698224631536e-01
3.973640378498334846e-01
-1.462898175271182544e-01
1.914717850614889444e-02
-1.940276008316055636e-02
-6.635205984052909567e-02
3.785524051588294581e-02
-8.887696618309087748e-02
-1.551137024757492933e-02
-1.625127249345218183e-01
2.112692296513851431e-01
4.570173485572701644e-01
-3.728886975188210884e-01
-3.529126197277762111e-01
6.665872420180213309e-02
4.033140438247885262e-01
1.844137364409700885e-02
3.528435855856477121e-01
1.851250453751245861e-01
-2.078507684923990573e-01
-4.656193844112896940e-01
3.004876612770523980e-02
-8.677359306462566479e-01
-3.396900348266386205e-01
1.389526901872298881e-01
2.406246285902093052e-02
3.007415887770661933e-01
4.501631305105524561e-01
2.634573270113129140e-01
-9.332778188515086226e-01
-4.216366114054955205e-01
-4.587415854916293001e-01
-9.136250348739523297e-02
3.836933886187312015e-01
2.441970403675517709e-01
7.580454211106308904e-01
5.190826691391129399e-01
-5.794858204285841669e-02
6.412692722439544690e-02
-1.008717890627120056e-01
2.596103187776934162e-01
-2.004355104924153697e-01
1.095330034225503457e-01
2.028445473742468697e-01
-2.768589152009068299e-01
-2.032653412966651807e-01
-4.587422673124973982e-01
-2.786437010606752640e-01
-4.215834623687406135e-01
-3.464454499620440164e-01
6.454535253986309895e-02
4.419054572486981192e-01
1.202229412212054926e+00
-5.317406636047677937e-01
-3.811946036168087915e-01
-6.299918223493240765e-02
8.877006542367223141e-02
-2.002340219387005460e-01
2.976166523437156000e-02
4.810142653898724086e-01
5.766224753473073728e-01
-1.977729308106722095e-01
-1.702988151473141532e-01
-1.411084070973094295e-01
-1.529931395624420931e-01
-1.577177726752697073e-01
1.023984088473589987e-01
5.957899887099297326e-02
6.579136575746638016e-01
-1.801281340602412795e-01
-6.975937997264530788e-02
1.110147746112533224e-01
2.394968199719563762e-01
-3.954191880941102660e-02
-1.385188886613507309e-01
8.074669570896768345e-02
-3.309968788529411843e-03
2.184637776258104847e-01
1.876826810160611980e-01
1.590754640371445927e-01
3.258853057057759517e-01
-1.568975678804579443e-01
-4.139179091654400788e-01
-2.585325983935672367e-01
-6.175915294532358102e-02
-1.875504847551192344e-01
-5.024099457313228045e-01
-4.816981946509361623e-01
1.647897538835459419e-01
4.113934401016515474e-02
1.380799066636867189e-01
2.819257665761882303e-01
5.457238540037955277e-01
2.948042529769741571e-01
5.120855585915713437e-01
1.083765013533265209e-01
-8.163270958265823607e-01
-7.689880752923786700e-01
2.690723401231928102e-01
2.772387193519503801e-01
1.237377987219289710e-01
-5.765592527970396786e-01
-9.797094896115320362e-01
-8.807318806197913519e-01
-4.823708744180056907e-01
-2.624137730128883739e-02
2.410268530506368689e-01
8.300716469851152635e-01
1.874514374711924392e+00
3.442017792490987271e-01
-3.598305635110112671e-02
-2.341465665550149511e-01
2.195721044738236372e-01
8.614747795380683915e-01
1.250984246873172168e-01
-5.379009979034186095e-01
-7.423164671387881830e-01
5.327667614569138177e-01
3.678750728911580614e-01
1.733698990065885015e-01
4.637689990565270759e-01
-2.277818348150557337e-01
-5.979046404889539756e-01
-3.708466393035287356e-01
-3.412476178036383256e-01
-2.020613111274664753e-01
-6.279508788891324800e-02
1.342446745732672059e-02
3.458862510834968818e-02
3.999364810373801787e-02
1.535534505491636670e-01
2.211316902382182148e-01
-1.978354824404151557e-01
6.265285269491768227e-01
3.065026915247651695e-01
-1.796952784966361072e-01
2.068736418181605641e-01
3.208134270073764172e-01
-2.695306142480037859e-01
-3.252920859581736046e-01
-6.862003085966685845e-01
4.267971411266361925e-01
1.567443872399795213e-01
-3.085952411804441797e-01
1.930132470119473864e-01
8.301479549148679804e-02
-2.926492824673181947e-01
2.194000938720762350e-01
-4.777251410943635368e-01
-1.521298349171985587e+00
-7.214060751396250692e-01
-1.105631769794658492e+00
3.425298350927415136e-02
3.548104738232918942e-01
4.563653003962080956e-01
9.427510779031303967e-01
1.560156358474364513e+00
-1.175922802507061826e+00
-5.275390053941589885e-01
-2.801204440558985875e-01
-7.667601973172125662e-01
-7.335995029611127594e-01
4.421575580300981523e-01
8.620297695566417895e-01
2.179754624648684747e+00
2.165972974058621991e-02
-1.528958018030597277e-01
-1.307453586109503796e-01
3.633656096912023514e-01
1.000880882383422821e-01
-1.297235712059229551e-01
-2.970732135805920215e-01
2.253245175303926207e-01
4.281058574378661108e-01
-5.339819617629587567e-01
-3.944720326324760995e-01
-3.574659009123246634e-01
4.257704999685684721e-01
-2.072126713610615012e-01
1.573375970441175942e-01
4.819186122182703702e-01
7.086144974192068458e-02
-1.570511561826734848e-01
-1.229160217220963414e-02
1.290053702358243126e-01
-6.830066441995719106e-02
-1.321574726471110017e-01
-1.212134456623679690e-01
2.911475211065738256e-01
-6.174924117475427687e-02
8.330623895040466242e-02
7.599834064070172535e-02
-1.284745621213067568e-01
-5.618370997768462605e-01
5.780440485772214698e-02
-7.778547945080726590e-03
5.427304665691575769e-01
8.879701736481199204e-01
4.415759400046576078e-01
2.586285586587186991e-01
4.471917122420149271e-02
-1.309990999290359948e-01
-3.564464846466428027e-01
-3.156420126253816627e-01
-8.298062463346158601e-01
2.597893960562590032e-01
3.190317990666086678e-01
1.037894854731052086e-01
1.287860654719144224e-02
7.249411340878679326e-03
-1.506921212545498101e-01
-2.727694402660156836e-01
-2.792771369634739487e-01
8.309376621935967711e-01
4.898187474306178180e-01
1.920330493168748709e-01
5.224342210329954717e-02
-1.073215893844380875e-01
-4.267133575644266874e-01
-4.369618228929013082e-01
-5.940361112026369961e-01
2.453097748030393654e-01
2.826418420402068699e-01
9.285837728683972447e-02
1.319151952875667888e-01
1.764220612624443629e-01
-2.105132713899638408e-01
-3.746654438003552134e-01
-3.439685354897734082e-01
1.536671531696578441e-01
2.068677596842856681e-01
1.060428665608922905e-01
-1.835581731378596940e-02
-8.342687526949242593e-02
1.367698166798886512e-02
-2.253953849125699821e-02
-3.559325300082868404e-01
2.880302282729306773e-01
2.476167947526028701e-01
1.558347319604616865e-01
1.101020169978095264e-01
1.210149227034945929e-01
-1.903865639366148221e-01
-2.834842918487330277e-01
-4.487278389019531133e-01
6.576897125680871703e-01
2.930446385353865923e-01
5.063581373982745798e-02
1.346399410459201695e-01
-1.683853202300730333e-03
-1.914649361529024707e-01
-6.177547675947022698e-01
-3.251065489393095698e-01
4.076893412722384924e-01
4.690172327835687716e-01
2.297736503328518254e-01
2.472637896679193148e-02
-1.826380873357459633e-02
-2.943156152579201046e-01
-3.688005390578420473e-01
-4.498266403061127461e-01
4.857687080477910979e-01
4.450915091976264670e-01
1.433790927670482440e-01
5.732346165179125208e-02
-2.943251181073718373e-02
-2.570789172039268378e-01
-4.222743880819982421e-01
-4.227769545675859608e-01
5.287496892605842991e-01
2.953755705350815108e-01
2.926033613657026689e-02
3.162550028655843337e-01
-3.461465195511476689e-01
5.682458825865177587e-02
-7.708873048184534671e-01
-1.094313626868660683e-01
6.333565600347872415e-01
3.396030209919783105e-01
4.542920509402764706e-02
2.414193998142981634e-01
-2.429776003256775840e-01
-3.430424670358429018e-01
-1.416318036695391469e-01
-5.321563149040553498e-01
8.880769596168760494e-01
9.691187172391245719e-01
5.536827288566098515e-01
1.761914705695832584e-01
-4.041971301523566984e-01
-9.462895370955515251e-01
-6.495423778025686268e-01
-5.870408312317314525e-01
-2.451588594608891669e-01
-3.667445321900857924e-01
-2.193666955709140665e-01
-4.484500971881062448e-01
-7.497368915461173622e-02
2.995323539047411443e-01
-1.097672213073538211e-01
1.164928740967221321e+00
3.122992485131690366e-01
2.638989421811687580e-02
1.470663883868635891e-01
1.962005929355731954e-02
-2.124331772930476980e-01
-1.544959083482807805e-01
-1.551598591763637958e-01
1.671335440598440900e-02
3.519180088034152276e-01
3.812303147991012442e-01
2.534646747866848848e-01
-2.385690318654870926e-03
-1.608744559598581092e-01
-1.349192067998895850e-01
-3.769681713325936934e-01
-3.114654739782077852e-01
-5.889207198282429001e-01
-3.775482710352791593e-01
-3.613052421166892403e-01
-1.777902851155062358e-01
2.908773111425946301e-01
4.382307423887752407e-01
5.028942609006469174e-03
7.714275219553512475e-01
-3.040887278271184324e-01
-2.365984149910849710e-01
-1.748203374701518681e-02
4.992116629588959353e-02
-4.040349508975854542e-01
-1.369618984798935679e-01
1.368834075199763523e-01
9.123614521268263999e-01
9.373528269744066943e-01
6.552533645357110359e-01
3.497001798885039925e-01
-1.791718559598302341e-01
-3.188339344532852282e-01
-2.984377363981228770e-01
-6.374163919663176081e-01
-5.084464526210529245e-01
7.110168443275420858e-01
4.431230418729129594e-01
9.346076794539619204e-02
-5.575851312721363806e-02
-1.386164345394006181e-01
-2.892264917039358285e-01
-3.285210942545760404e-01
-4.354781205207005068e-01
-7.479376169488215209e-02
2.755376879472069551e-01
1.201544708371259929e-01
-5.135299979833145567e-01
6.268298821546396116e-02
1.563026729494902678e-02
2.085213500895406191e-01
-9.420300470608776455e-02
-7.138342992541794052e-01
-4.886873751158130608e-01
-1.697545172577920591e-01
1.301106268534209798e-01
1.852457245416978537e-01
3.381999786793249974e-01
2.680395757617042296e-01
4.506802857916143989e-01
-1.353477358109661299e+00
-9.703072998111024194e-01
-3.238400065170039532e-01
-3.812284476211281331e-02
3.802889231792492275e-01
4.808689462323985087e-01
7.102864631358047909e-01
1.114303176652475358e+00
-1.606081502790072113e+00
-1.140363994046800000e+00
-4.190455383821552471e-01
-1.214061122957419830e-01
1.961291615785848430e-01
6.400662741798668343e-01
8.328858648480444993e-01
1.617815846908300159e+00
1.236386488956407598e-01
4.327866141002633116e-01
2.733301616573946546e-01
-6.322072765022018759e-02
-1.164450360433696152e-01
-1.458599390121297079e-01
-1.931668257964435642e-01
-3.110628961511311963e-01
7.981002927294758020e-01
6.737792491753086255e-01
4.961160719691010135e-01
-2.667633029767577796e-02
-2.529189200923535608e-01
-4.944637409259447502e-01
-4.842474151680113414e-01
-7.096892073899337960e-01
4.769120893319959698e-01
5.885365845995207401e-01
4.614542200421066775e-01
-8.248050855391589331e-02
-1.571108292446259658e-01
-3.628585064927691284e-01
-3.179231265311130428e-01
-6.065299231512064626e-01
-2.077650598488998690e-01
-2.007969230915714609e-01
-2.035208777920212708e-01
-1.694620930149868809e-01
-4.759599314931401565e-02
2.425359216693247222e-01
3.418558403026262793e-01
2.447491849248434881e-01
-9.928838322309525843e-02
-4.097702686466730970e-02
3.181990410205950363e-04
3.777875866604254486e-03
-4.234636460548031958e-03
2.592049228065127983e-02
5.412238038268230716e-02
6.036109897734674018e-02
-2.806550181192795507e-02
-1.404435169371683577e-02
3.300107400868469709e-02
2.152578888370758337e-02
-6.394396714357521161e-02
3.697371255646637878e-02
-9.089783306384101313e-02
1.054510782642046063e-01
2.502741255434805939e-02
-3.423406504128045924e-02
-2.057117123359708533e-01
-1.432150606228243805e-01
1.078480711940896578e-02
-5.309370800292233933e-02
1.650245326525715539e-01
2.354177936766735924e-01
5.500254955151873820e-02
4.588715025927752461e-02
1.635796190762561081e-02
4.586466721447495648e-02
-2.605872523749937913e-02
8.284014326747080048e-02
-1.638441848651784882e-01
-5.604956209769045017e-02
1.456442454543503962e-01
-1.686431247046983606e-02
-9.514272025511211206e-02
-5.093028814640650388e-03
-7.890013475674467758e-02
9.962895423344665657e-02
-1.115824068510477274e-01
6.230940346021470594e-02
9.805179646870849919e-02
4.745095461506765311e-02
5.784614488895537671e-02
-5.745244422867448048e-02
-2.638091835891494263e-02
-1.275587745841682830e-01
-6.277835148567441348e-02
7.082159268471001357e-02
1.172184514832193547e-01
5.486248393989222316e-02
-4.790299978050832630e-02
-9.321420888330596288e-02
-1.505706189149534635e-01
-6.366936334482355131e-02
6.312061498478033217e-02
1.201556405157076513e-01
1.310875420571293304e-01
5.635150334945068090e-02
1.073227028287991255e-02
-1.023589088788590812e-01
-7.539897864149366913e-02
-2.756289086710370095e-02
-2.727532593655093707e-02
3.442478863454101479e-02
1.310550604256749130e-01
5.975318623814035446e-02
8.069450891483927191e-02
-4.823074515500026804e-02
-3.656676720899861704e-02
-3.934734702803022177e-02
-3.101485619202611066e-02
-1.163430399945948046e-01
1.826635279742919171e-01
5.358076816441354612e-02
-1.503909533052954703e-02
-6.562466184950060955e-02
-1.253805823556094871e-02
-4.070056499701241864e-02
-3.773100448667713464e-02
-6.461091123942853953e-02
8.292627894070429134e-03
-2.605195619014078617e-02
-7.745738679825581174e-02
-3.625108357470251813e-02
8.562563458408789518e-02
2.039793406912167317e-02
-5.552962163898604586e-02
8.097385165480358582e-02
8.284678584907127774e-02
-2.696239185237030433e-01
-1.489967075927319806e-01
7.064932253029959641e-02
-1.439487422626393731e-01
1.264175013411997783e-01
1.820244356858393142e-01
1.006313229726646663e-01
2.206516788247807684e-03
1.826424568062941581e-02
5.873127515948511901e-03
-9.536661839436457941e-03
1.821538061974964026e-02
-3.221480723887355097e-02
-9.522092633622016022e-02
9.241312480995016176e-02
2.315957962199265419e-01
-2.576378636832333396e-02
3.050353044527508856e-02
8.099394952012256566e-03
-1.336441999601151454e-01
5.185514003812963235e-02
-8.311334237786807688e-02
-7.953253294904191750e-02
9.088859381339739474e-02
-2.091188980353748117e-01
-2.345603079171435235e-01
-1.837871499572524547e-01
-9.687779448128348847e-02
-1.025100829585915002e-01
1.574720141821689678e-01
5.784936253540798878e-01
-5.494774611203693399e-02
-1.561018189733304751e-01
-2.230160953505493371e-01
-1.466847801753042857e-01
-8.330690328084532081e-02
-7.588798791668996402e-02
-7.560969560010286084e-02
8.155550274088604334e-01
-1.678912176634400621e-01
4.139849177558888593e-01
-3.159522265587271783e-01
-2.489852119438095424e-01
-1.420026890849411527e-01
-1.250604958787596699e-01
-1.007385437864763283e-01
6.866454671602613136e-01
-8.020868138840110684e-02
-2.130591959847348837e-01
-2.499908788555940675e-01
-1.726765103374599819e-01
-1.170389656008038182e-01
-8.992039666185080993e-02
-8.808787570910756037e-02
1.010982504537952575e+00
8.660079080671240215e-02
-3.637155980622856499e-01
-1.660413715493977704e-01
-3.442289549640225599e-01
-2.138333520986181735e-01
6.147932685347280712e-02
3.358448126788224908e-01
6.038943463353174668e-01
-4.984187824222499064e-01
7.088305233776642615e-03
-3.845910975776157814e-01
3.424494631894126617e-01
-2.645271690196979164e-01
2.361573136626510805e-01
-2.215591933211301379e-01
7.834011602548555109e-01
-5.176969343193368323e-01
-4.950338647196823039e-01
-5.224977724238752952e-01
3.194422719545868539e-01
6.601793486735979544e-01
-3.030543226588434669e-01
-5.711439144733070072e-02
9.157756649408854699e-01
-7.249145336539896123e-01
2.552121724250446151e-03
-1.456381715766607854e-01
2.490195168073991716e-01
2.179776536027196870e-02
-3.743431372865309026e-01
6.101222012614163637e-01
3.614042373638444161e-01
-1.119811861791892182e+00
3.059118535969798658e-01
-2.272619450971173627e-01
3.176808247923852968e-01
1.997082945509525698e-01
4.024662465017188051e-01
1.522767055935871361e-01
-3.097011814662015139e-02
-5.329341308671944333e-01
3.479348756483571781e-01
-5.135696213851000808e-02
-3.278153168511153959e-02
1.060632818930941496e-01
1.942314525338491027e-01
-4.265032117344752516e-01
3.953462263499986085e-01
-2.126512557819861260e-01
2.435813429514071260e-01
-2.957244973125184861e-01
-8.467947597025855810e-02
1.890778113331712806e-01
2.639176477374923224e-01
-6.134679290133927820e-02
-4.217478005597387336e-02
-5.570386874054472637e-01
8.047369931899911455e-01
2.891144224110288492e-03
-1.556747891959413960e-02
6.615382476195595940e-01
-6.515089410597709740e-01
-1.062813917429437510e-01
-1.387698859059011691e-01
-2.638690717607810599e-01
5.316302574557870697e-01
-7.389030719694676674e-02
-2.006927208851071176e-01
2.165281084782229026e-01
-5.572871163803553435e-02
2.735110798415811284e-01
-4.274886342947168960e-01
2.612286009998724540e-02
8.353602461579752170e-01
1.664333997348358685e-01
2.658849791410695662e-01
-3.973900122936353529e-01
-3.971983235488230068e-02
-4.300181105561851069e-01
-4.266735299291458672e-01
-1.604375570382816918e-01
6.743083386508771371e-01
1.240616634879512375e-01
1.872050243835390593e-01
6.546898885196556460e-03
-2.701123103810360027e-01
-1.147289325926240527e-01
-4.468431253956283156e-01
-8.410373636430688860e-02
5.677977884585663215e-01
-9.363827781975732345e-02
2.091732682271613963e-01
-2.122339126254582098e-01
