1.198906321481184589e+00
7.060623029755539459e-01
1.191275957547671682e-01
-1.252698189071894674e-01
-3.676328261728429858e-01
-5.432985580047433594e-01
-6.779489118748553977e-01
-3.099461052518763249e-01
-3.372541243421548707e+00
-2.736283795330400892e+00
-1.768394759237664537e+00
-8.228260548083321524e-01
-2.940594454094863641e-01
-4.453753402502719921e-02
1.385851690207165199e-01
8.900057663211818237e+00
1.568450417404691488e-01
1.450561788710603150e-01
7.651924685967577411e-02
7.642647998738225090e-02
-2.431242250329546106e-02
-8.641920184852228126e-02
-1.112424800648682266e-01
-2.328728430418988415e-01
1.877294797700190809e-01
1.312398780993867531e-01
-2.661753325815695292e-02
2.366482399259613179e-02
-7.289072517389767747e-02
-5.546486290247954615e-02
-1.009326667892889856e-01
-8.672839373817936570e-02
-4.815515837840654524e-04
-2.176192019793448187e-02
1.026975369867654808e-01
-4.315122146548353022e-02
-9.033502696491063633e-02
1.125413478791831116e-02
1.024221438507736705e-02
3.153583405235160786e-02
1.007810607525643082e-01
-3.829408342009542332e-02
2.410993813825578619e-02
3.376444529865487570e-02
-8.923655673337922700e-02
-3.546384186096199209e-02
-2.502933317970311433e-02
2.936837100466529321e-02
8.143033922580462936e-02
-4.465266836317444143e-02
1.122022081781082377e-02
-3.234095511207334822e-02
-8.483398313369923394e-02
-3.710833512131015560e-02
3.463771729537365451e-02
7.164766439126701858e-02
8.635398883784370372e-02
6.054773698300290607e-02
6.161251501950489734e-02
3.844267918486381913e-02
-7.984039321006980439e-02
6.704799657755442129e-03
-7.108913136075843686e-02
-1.027321951121425020e-01
1.238120737640686503e-01
3.784323028735935707e-02
5.671514814298358326e-02
4.659751470980786486e-02
-4.175280765290315110e-02
-1.157047238315793338e-03
-1.056330664510006928e-01
-1.164250455619991187e-01
7.579749475077589282e-02
4.678474532902120869e-02
-1.391098327527677189e-02
1.370956962078955510e-01
-5.390575431948553542e-02
-1.119419808607183542e-01
-1.899576936026236076e-02
-6.092344847194847146e-02
-1.408721777465219566e-02
-3.204907961043061693e-02
-6.260869005061447945e-02
-8.357653723487989961e-02
-1.759406548618335300e-02
4.517156477017002930e-02
-2.723905848484414402e-02
1.919830838714358667e-01
6.404717675928858767e-02
1.620832387206875766e-02
1.373675376073183602e-02
-2.491738358748547474e-02
-6.128098763376580577e-02
4.854190234557775874e-02
-1.670637728634569510e-02
-3.962940823006955160e-02
-6.735863227061639202e-02
8.623690742212543336e-02
4.902545726874084700e-03
-1.923244962262342372e-02
-3.955538161613208039e-04
3.789751092605214700e-02
3.101144305616369140e-02
-7.306177142181358164e-02
-5.923387490321609279e-03
1.792507382580194389e-02
-3.574788307903354473e-02
-2.786556133596389609e-02
-5.286599254497265782e-02
2.102938884859673757e-02
1.134578903894198215e-01
-3.000952861352708043e-02
-9.935303705797846052e-02
-8.972250460356993168e-03
-8.324958213666978912e-02
3.288478973068931221e-02
1.250687805200027813e-01
1.457793052748895812e-01
-2.276940000283357926e-02
-8.938860586774322048e-02
-8.717283048678142743e-02
-1.415262400777859142e-01
-8.922825068913003976e-02
4.874185554239061913e-02
-3.698005446829726039e-02
1.367171761113206707e-01
-8.211853133350183187e-03
1.776601972016332021e-01
2.230681207855550463e-02
4.433941311093451965e-02
4.787576125877322092e-02
6.336006277234895734e-02
-1.855940557630375229e-02
-4.183710268782185604e-02
-5.438275407441344605e-02
-6.310278688207311693e-02
7.422622785736029440e-03
-4.396413713651197569e-02
-2.095901169937392991e-03
-5.048364418942932752e-02
6.616069199729955608e-02
-3.844844374463248643e-02
6.073990556393969037e-02
6.689058935359653993e-04
4.278059801638563892e-02
-8.236100736723918347e-02
6.399560878238136179e-03
4.542220479035074393e-02
6.180058342291360612e-02
9.608095208525523762e-03
-1.553071991531506657e-01
7.165716420397658104e-02
1.184062908447274937e-01
-8.509155887789087921e-03
-5.009374919865757815e-03
-5.014506339980164679e-02
-1.604786673315281020e-02
-5.134419367369286863e-02
7.856692355616871903e-02
-6.591755978659415149e-02
-7.459434594680823538e-02
2.915074973483794060e-02
-1.009189326783955978e-03
1.682364118445359158e-02
1.125473538622051156e-01
-7.806898208937000649e-02
3.768942563078987729e-02
-4.253865304932449853e-02
2.041405665916733725e-01
9.532016696841918990e-02
9.496963477477526894e-02
1.432225638124146397e-02
-3.316444339815449727e-02
-1.799362885520827682e-02
-2.026595532933176125e-01
-1.549349991694308204e-01
4.235869467429896618e-02
5.254272316920714780e-02
1.743929104162048604e-01
-2.183486155458395916e-02
5.878913934930282692e-02
-1.679156968295786867e-01
-1.176458178246499592e-01
-2.068709140019978771e-02
3.280610930329651981e-02
9.919200297569137278e-03
1.665657908625118866e-01
-6.564184189379840273e-02
-4.966070446655547477e-02
-3.229375111569969536e-02
-2.573521641430031107e-02
-3.595958657302374128e-02
1.311464952712325660e-01
5.557109990259687798e-02
9.667245340270982923e-03
8.112804567455510207e-02
-8.405281180779758388e-02
-4.184182622416093150e-02
3.771112010911222001e-02
-1.893293682658095112e-01
1.751296800191648462e-01
1.115984280876984591e-01
5.123856172267007153e-02
-7.578020782853822634e-02
-6.764362236935678174e-02
-2.230631671655385409e-02
-9.818441714874986959e-02
-7.405210576633453057e-02
1.791792126748915914e-01
2.744000501270891373e-02
-7.217330061723942029e-04
-5.276741079548370045e-02
1.045836019433041102e-02
-2.532172423151500887e-02
-1.748304654133192859e-01
3.656375556455889603e-02
-6.871236546481881979e-02
-8.251391037151058205e-02
2.367312302634291127e-02
1.832535159673154557e-01
1.172212179805065535e-02
-3.848660557302011065e-02
1.469829597772671914e-02
-4.363417536008622200e-02
1.073587436243124069e-04
5.143199957914220549e-02
-1.650731954639816923e-01
3.111736714938071954e-02
4.857634186630734041e-02
-2.311669615744118417e-02
4.181708892307066036e-03
5.277511539065933566e-02
-1.798455936934308663e-01
-1.589598996153173682e-01
3.621863914505686621e-02
-3.504929558682360474e-02
4.692480232436896381e-02
-1.270501538653298450e-02
1.406889352586578601e-01
1.627274275540250281e-01
1.697998998523299052e-01
-4.493727181936047269e-03
6.127123366188320236e-02
-6.514543945659506674e-02
-9.633891034129156428e-02
1.995049152874681792e-02
-3.002503441136358808e-02
-5.501851365177336944e-02
-4.014838023054906335e-02
-7.346582359504037762e-02
-5.385878887017180039e-02
1.169180529210277347e-01
2.193219388227207398e-02
-2.175618335579249107e-02
7.351845054414755942e-02
-2.313952129589365303e-02
1.394498535653503624e-01
3.082128485820354036e-02
-5.036116202133471623e-03
-2.425830791020249302e-02
6.792866582454583357e-02
5.267193937102792808e-03
-8.964109525368852208e-03
-2.052084645474973879e-01
3.060012250763399222e-01
1.012196647846609482e-01
-5.829017521407169750e-02
2.969465180070147634e-02
9.344383048360754146e-03
-4.685921794716688127e-02
-1.600954040141705781e-01
-1.810151275346586486e-01
9.988179433353042147e-02
-1.371703511783035553e-02
-5.197890492953665537e-02
-4.370058946455061821e-02
-2.581469197714417185e-02
-6.044552858379530560e-03
-1.684855153990304309e-04
4.154246552931042252e-02
6.922412721376650091e-02
3.237563965004634087e-02
4.961651965510174497e-03
2.884988145627922357e-02
4.795830135347354389e-02
1.274883684188005649e-02
-9.652439695844645950e-02
-9.959404152251002951e-02
-2.307600739789280979e-03
-3.227278981291906851e-02
-1.106651290929904635e-02
-2.011032935609628758e-02
-2.736041930664953950e-02
2.215267384267615922e-02
-9.929504748380040685e-03
8.089448303045869426e-02
2.353959487561738118e-02
-1.170234942531577470e-02
3.944406453764363451e-04
-7.564168264124630781e-02
-1.153995899281233806e-01
1.320359102797728085e-02
7.763927181481498907e-02
8.796672363089989843e-02
-7.148152394415055151e-04
2.048559162021680938e-02
-2.855362216870776376e-02
-7.499782869458214429e-02
-1.356758397499674591e-02
-1.679000718106592356e-03
-5.617937090108543474e-02
1.552066300767032669e-01
-1.363612225825532320e-01
-4.168428981578074094e-02
2.237375389536886208e-02
-4.488534580651690892e-02
-2.000882942512280729e-02
-7.541693520200495882e-03
-3.158542890141721043e-02
2.596930561562231787e-01
8.330217736927961192e-02
1.694785342141757675e-02
3.956641427811153494e-02
-2.258828264241665926e-02
6.513358726206387034e-03
-1.187814924408267386e-01
-4.647016501020369977e-02
4.151013629843234437e-02
-3.784228349027860677e-02
-2.004305099643983318e-02
1.133883592306097476e-01
-5.930287228135254843e-03
-3.391542056335642569e-02
7.961606355687839143e-02
2.021778491132660807e-04
-9.547555835839041660e-02
2.127308428485246913e-03
-2.928328466230204971e-02
-1.786675973075772805e-02
-8.333134178773963369e-03
1.659136299172237622e-02
3.829232305899641503e-02
-9.584394300023394569e-03
8.056578392653111417e-03
-4.295519582880052978e-02
1.781455935351647923e-01
2.413572611050112532e-03
-2.581538066081577251e-03
-2.587643171743988363e-02
-1.917640360110505968e-02
-6.031209056192569917e-02
-2.965750637086202179e-02
3.201866153264161519e-02
7.599068999119475143e-02
-4.460955566650702010e-03
-1.212007626691378737e-01
4.054469430417789039e-02
-1.020316581498211320e-02
-3.737751222455865802e-02
2.468835044731670925e-02
1.403351790727045689e-01
5.066016245044400144e-03
1.294442894525503762e-01
2.727213320502404337e-02
-4.170231303610212603e-02
-5.794488039649169780e-02
-7.088223689209791067e-02
-1.315881876506318493e-01
-4.356398686343575938e-02
-2.465025796238454192e-02
1.121005860722244785e-02
-3.736617330264129649e-02
8.809642257221569905e-03
3.521224942723721885e-02
2.995740135552013225e-02
2.039106648126010751e-02
2.556209864992285974e-01
2.165662024982684952e-01
-5.816302729563604251e-02
-9.947135530827777572e-02
-1.343188909085712146e-01
-7.337164848971543252e-02
-5.014869356153234953e-02
-5.671357343376315363e-02
1.292591248097985958e-02
6.978690404029820604e-02
8.469038833021870494e-02
9.395639921157110386e-02
-1.323187452774672312e-01
-5.792791598501747380e-02
5.132584318021291697e-02
-1.224387859807955087e-01
-1.836817866080757977e-01
-5.739017059182683483e-02
-1.041088783231845227e-01
-5.570236217254606603e-02
-5.946657152321720152e-02
8.146371107056626926e-02
1.791966203397359070e-01
1.996894378085476152e-01
4.223967604394023023e-03
3.939659892019743703e-02
6.895106307271334049e-03
4.120576407456219559e-02
6.088103250480815867e-03
-1.546301183301505844e-02
-8.610245011593328779e-02
3.755921792042793937e-03
-1.423512204470712139e-01
-1.994190485477810582e-01
-2.000745867151916824e-01
7.923951526965393455e-03
3.271601588328212906e-02
-2.027838161952254942e-02
1.144570161092038768e-01
4.070262538101128147e-01
-6.817940031805061474e-02
1.479383631288134215e-01
8.346660971410817254e-02
-7.930448807526251087e-02
7.555011264081425149e-02
-4.674598835072770603e-02
-3.608678252340571935e-02
-7.663842621628941254e-02
-7.678273313413938594e-02
8.761793132768401493e-02
6.465412143205441498e-02
4.483700530687513564e-02
-2.144618187311833971e-02
-4.892137184636664166e-02
1.294851551939826470e-02
-6.290728673238757396e-02
6.609346630011909973e-02
-3.079230269527649666e-02
1.273582741417157438e-01
1.191846216233206496e-01
2.097925978180456216e-02
5.172965755432561846e-02
-1.745904997172592343e-01
-1.799624769887484266e-01
9.552613914343686952e-02
1.983993591125553513e-01
8.385184087320185498e-02
-9.335447212416687901e-02
-1.566165726948773318e-01
-2.490027444832203229e-02
-2.287350248863189925e-02
-8.003251737319445891e-02
1.030886614923534061e-01
-6.021293607175503063e-03
3.517645104755479091e-02
5.387477465475143390e-02
-6.187613742672905953e-02
-5.761651570363781477e-02
-1.509982843132307191e-02
-5.152611202579282512e-02
4.032379188641548040e-02
1.243940467297100644e-01
-1.057203153395043504e-02
-3.239036512362269971e-02
8.179987589363067746e-02
-5.675969929406153580e-02
-1.180702887740377738e-01
-2.872532978408362178e-02
-8.234484095974727025e-02
1.424002140482348230e-02
7.884948135703560845e-02
3.275005991710876196e-02
5.118680296297294097e-02
-4.305134047372820988e-02
3.950923513792893582e-02
-9.113941934639413489e-02
7.625722664137563056e-02
9.216585851169999122e-02
1.218927916592941335e-01
-1.573580115473311239e-02
-8.277940324828571284e-02
1.095383890107557052e-02
-4.742677253914784861e-03
-1.980118340565122093e-01
1.194574988129148696e-01
7.708035279300617937e-02
2.236266835719950830e-02
-3.841934815638024109e-02
2.280680004262550589e-02
-4.003755971816441023e-02
-5.718623584656003928e-02
-1.060641762846404046e-01
1.604378390186262937e-01
8.004908961703821602e-02
-7.698926864214648662e-03
3.685205122832693747e-02
3.292062633230767588e-02
-6.158753445484573680e-02
-9.366989269018226316e-02
-1.473032521870561995e-01
-2.400142456775985478e-01
-2.612747870645443227e-01
-2.423166282733284771e-01
2.501320462728807981e-02
7.889324891057467037e-02
-2.808127019483927858e-02
2.271981724095969435e-01
4.405823052628508596e-01
-3.247856231140443944e-02
-1.252032660977278333e-01
-7.225690496594576115e-03
5.442656756393378370e-02
-8.295955264449078603e-02
6.884962439558367508e-02
1.295420655791065800e-01
-4.951185988406380488e-03
-4.731452624338202545e-02
-2.306525658865119649e-02
-1.192503848847045744e-02
-6.404079677488995481e-02
1.066005968987537855e-01
8.980937039073312589e-02
-1.600573401506711832e-02
-3.405861517902595420e-02
3.929163391517678794e-02
9.583932677472289940e-02
1.919353979147179513e-03
9.630913172778136910e-02
-8.388382809623796607e-03
6.939798685202400175e-02
-1.329296151521449920e-01
-1.614394352870838212e-01
-3.545943807187160179e-02
-1.440426670199919899e-02
-6.625099099585199380e-02
-2.219874244394274762e-02
-7.565776675920404815e-02
-5.644035444610018271e-02
1.749623678737530913e-02
2.529153226315969394e-01
0.000000000000000000e+00
0.000000000000000000e+00
0.000000000000000000e+00
0.000000000000000000e+00
0.000000000000000000e+00
0.000000000000000000e+00
0.000000000000000000e+00
0.000000000000000000e+00
7.579749475077589282e-02
4.678474532902120869e-02
-1.391098327527677189e-02
1.370956962078955510e-01
-5.390575431948553542e-02
-1.119419808607183542e-01
-1.899576936026236076e-02
-6.092344847194847146e-02
3.634533693931492337e-02
6.876454315147359497e-02
9.839678483993107017e-02
3.444588965933711999e-02
-8.853679185513256555e-02
5.419292280563216269e-02
-1.366990513681501651e-01
-6.690963417240537725e-02
2.770183981997388634e-02
-5.255621927940507671e-02
-8.466003107919899129e-02
-5.936327324682291046e-02
2.725580422136662101e-02
-5.651020460054671096e-03
1.199926740818053339e-01
2.728022594233614484e-02
-6.735863227061639202e-02
8.623690742212543336e-02
4.902545726874084700e-03
-1.923244962262342372e-02
-3.955538161613208039e-04
3.789751092605214700e-02
3.101144305616369140e-02
-7.306177142181358164e-02
-6.521016809228172284e-02
-9.433769593789086139e-02
9.073657476538127264e-03
1.304659539896091403e-01
1.125880020796342640e-01
-5.683680507256505532e-02
3.171465795821646260e-04
-3.606009102262550114e-02
-5.923387490321609279e-03
1.792507382580194389e-02
-3.574788307903354473e-02
-2.786556133596389609e-02
-5.286599254497265782e-02
2.102938884859673757e-02
1.134578903894198215e-01
-3.000952861352708043e-02
6.613404559210531164e-02
2.041386501493373529e-01
-6.754950992667113630e-02
-6.808131781978972452e-02
-7.602228061573015894e-02
2.370842137564920307e-02
-5.058508899705770057e-02
-3.174291975784297032e-02
-1.430792110924391791e-01
-1.044713833998916902e-01
-1.282436820543647257e-02
-2.268377402685934491e-02
9.279597407300529954e-02
1.823957496297297642e-01
2.854243757693118028e-02
-2.067542455503856499e-02
4.280229653463670653e-02
-1.430182127191135556e-02
-1.194936148110039599e-02
-6.816072412270392580e-03
-4.292915016906206915e-03
-3.488060657923681539e-03
-1.043895162289375060e-03
-9.101705322353203457e-04
3.283017520015480816e-03
-3.159972422046007667e-04
-6.519278380295455422e-02
3.952415294581910349e-02
4.948834673975800735e-02
-9.621296752101386740e-02
1.238349516844364923e-02
5.704273619213744845e-02
-9.045584800679742910e-02
-1.412102428355805905e-01
-2.403546688617568330e-02
9.217702596571482679e-03
-8.646840120805539265e-02
2.329301436323352181e-01
-2.059534830179388792e-02
1.206174610094966626e-01
2.230681207855550463e-02
4.433941311093451965e-02
4.787576125877322092e-02
6.336006277234895734e-02
-1.855940557630375229e-02
-4.183710268782185604e-02
-5.438275407441344605e-02
-6.310278688207311693e-02
7.422622785736029440e-03
-4.396413713651197569e-02
-2.095901169937392991e-03
-5.048364418942932752e-02
6.616069199729955608e-02
-3.844844374463248643e-02
6.073990556393969037e-02
6.689058935359653993e-04
4.278059801638563892e-02
-8.236100736723918347e-02
6.399560878238136179e-03
4.542220479035074393e-02
6.180058342291360612e-02
9.608095208525523762e-03
-1.553071991531506657e-01
7.165716420397658104e-02
1.184062908447274937e-01
-8.509155887789087921e-03
-5.009374919865757815e-03
-5.014506339980164679e-02
-1.604786673315281020e-02
-5.134419367369286863e-02
7.856692355616871903e-02
-6.591755978659415149e-02
-5.539038664409284135e-02
1.589370705454302979e-02
-3.183628003992000632e-02
3.473893880280376489e-02
1.010745199991797960e-01
-2.233659102399026056e-02
-1.633971090680470112e-02
-2.580419724171886114e-02
1.058835089575725814e-02
1.646320875667307707e-03
3.337354420041855740e-03
-2.624439806432946054e-02
3.366379986801915775e-02
-3.993833126272944983e-02
1.683874259866388612e-02
1.081606689093811673e-04
-2.979231019847274758e-02
1.161072180462762761e-02
2.748973629309421282e-02
8.329100445979276818e-03
-2.219096600499385896e-02
-1.579405980265027876e-02
3.719039393893069229e-02
-1.684261647651493984e-02
1.608668973580494946e-02
4.896572817757444823e-02
4.204113108435261759e-02
1.805976012720230880e-02
2.374646524138676693e-03
3.273935167797535628e-02
-5.118961257112676633e-02
-1.090776947559216892e-01
2.873771156251088144e-01
7.845269343329346057e-02
-2.990956881355933891e-02
-4.255658467013881396e-02
-8.830283867281681076e-02
-2.258020438655806983e-02
-9.188325379934531023e-02
-9.059735871598402490e-02
-1.314899977878180026e-01
-6.972591556275645197e-02
-1.389874355584536959e-02
-3.780728031068522621e-02
4.591019521350549887e-02
-1.258336331198157271e-02
1.239121104650392075e-01
9.568299485054440612e-02
6.896828480456571042e-02
4.202481854215402851e-02
-1.156428849185934041e-02
-2.493206954239127887e-02
8.454542422217872430e-03
1.784290559929322187e-02
-4.352535570791039865e-02
-5.726883762606994194e-02
-1.292780579814597763e-01
-5.563779993452540318e-02
-2.109067796273307246e-02
1.248259936436384165e-01
1.264422534789719776e-01
-1.184709899930390109e-01
-4.937934667769575126e-02
1.225886254268429981e-01
-1.009383853391294938e-01
-1.095884309057057887e-01
1.986381732754878213e-03
-1.759533598561586337e-02
4.998197305216139051e-03
7.248930542224274465e-02
3.823232808566141144e-02
1.104159396845757618e-01
4.505715709767734722e-01
1.803935064566729307e-01
5.165343956275497694e-02
-6.680828645123934595e-02
-1.526612395016751222e-01
-1.055385666958165436e-01
-1.228865965047129249e-01
-2.347238278427563052e-01
7.811542046040503839e-02
8.978344396323960364e-02
1.665999325611592086e-01
-3.937945689061945337e-02
-1.396472383509675397e-01
-1.171508955624915235e-02
-6.736979624554759183e-02
-7.638721594142239280e-02
5.126173389735846214e-02
6.693798727918594260e-03
6.102200932474852874e-02
3.927480379024175100e-02
5.832008802143507503e-02
-9.789448963460524455e-02
1.761783856643848664e-02
-1.362957826935357886e-01
-1.069352780038584916e-03
-2.518700668324866040e-02
1.848909356520175018e-01
-5.407186364005196755e-02
-3.840055862928708208e-02
-2.357814301652370187e-02
-1.917128013817078966e-02
-2.341273076469671879e-02
3.387546208333511166e-02
3.510620698081777513e-02
-1.832514478950555623e-02
-1.156997825374646641e-02
-1.126014583726836493e-02
-8.715608099175996965e-03
-6.563936276129532683e-03
-1.254685580832698780e-02
-1.001122147377192934e-01
-1.412016243249118452e-01
9.828301381369973500e-02
5.196500164746026273e-02
2.875988970958026289e-02
1.024211548949526332e-02
2.054544751967866956e-02
3.151837088271713938e-02
2.312587100089522063e-01
1.967727242275084942e-01
-8.861576847342854391e-02
2.916304402709481852e-02
-1.128127015173781000e-01
-5.208394171365620523e-02
1.716567258943322780e-02
-2.208477391485263452e-01
1.751296800191648462e-01
1.115984280876984591e-01
5.123856172267007153e-02
-7.578020782853822634e-02
-6.764362236935678174e-02
-2.230631671655385409e-02
-9.818441714874986959e-02
-7.405210576633453057e-02
1.791792126748915914e-01
2.744000501270891373e-02
-7.217330061723942029e-04
-5.276741079548370045e-02
1.045836019433041102e-02
-2.532172423151500887e-02
-1.748304654133192859e-01
3.656375556455889603e-02
-6.871236546481881979e-02
-8.251391037151058205e-02
2.367312302634291127e-02
1.832535159673154557e-01
1.172212179805065535e-02
-3.848660557302011065e-02
1.469829597772671914e-02
-4.363417536008622200e-02
4.144211686117647842e-02
-1.405813206947624516e-01
-5.043731454984306389e-02
-1.273534673159183034e-02
-1.025948020323409760e-01
5.124799654881854322e-02
5.185669995325217774e-02
1.618019706452908102e-01
-2.426166709958628431e-02
6.216920059311541180e-02
-1.800316079346720236e-02
-1.011957085798452852e-02
-4.311872136246251708e-03
-2.384291483982579028e-03
-1.444335709737436290e-03
-1.644302512111090776e-03
-1.707309101796567613e-02
1.298441196807895159e-01
-9.663272012066999317e-02
5.397228473895711309e-02
1.554830160348947277e-01
-7.198040122227751525e-02
-4.623065535120745445e-02
-1.073825527425208148e-01
1.697998998523299052e-01
-4.493727181936047269e-03
6.127123366188320236e-02
-6.514543945659506674e-02
-9.633891034129156428e-02
1.995049152874681792e-02
-3.002503441136358808e-02
-5.501851365177336944e-02
-4.014838023054906335e-02
-7.346582359504037762e-02
-5.385878887017180039e-02
1.169180529210277347e-01
2.193219388227207398e-02
-2.175618335579249107e-02
7.351845054414755942e-02
-2.313952129589365303e-02
-1.379279806730599744e-01
1.115413831882686446e-01
1.210887348718566459e-01
3.777066810156482629e-02
1.162368005056672003e-02
-4.439335403473201880e-02
6.059742739141634089e-03
-1.057628742436066555e-01
2.773778342384103923e-01
-8.072009833006514590e-02
-1.261248510739903239e-01
-6.202897601176731585e-02
5.630498577397915344e-02
4.966054797183484110e-02
-1.502385226451049410e-02
-9.944559030389098220e-02
4.415519157894097491e-02
7.341119742084055433e-02
-3.806625177142649447e-02
3.932814393991324736e-02
-1.619492004312367631e-02
-1.955892268395546113e-02
-1.923734903083631695e-02
-6.383708941035395878e-02
1.446515782752337553e-01
6.394770541077196557e-02
-8.306048506263104259e-03
-4.806904078749466708e-02
-6.046797480690122711e-02
-1.782717795611050635e-02
4.352608501251577461e-05
-7.397256771424748356e-02
-2.895885292773718936e-02
-7.764211171930306132e-02
-1.228680630490758957e-02
-2.644880562155113232e-02
-2.391370114526353979e-02
3.620935258452793321e-02
2.939356100854561421e-02
1.036473641256886596e-01
0.000000000000000000e+00
0.000000000000000000e+00
0.000000000000000000e+00
0.000000000000000000e+00
0.000000000000000000e+00
0.000000000000000000e+00
0.000000000000000000e+00
0.000000000000000000e+00
-5.996612259290730329e-02
-7.343382623014049759e-02
6.680201653060248435e-03
-8.510886995417986378e-03
7.476190401814380992e-02
-4.867804802841025312e-03
-1.036822357812174772e-02
7.570475852822398932e-02
6.922412721376650091e-02
3.237563965004634087e-02
4.961651965510174497e-03
2.884988145627922357e-02
4.795830135347354389e-02
1.274883684188005649e-02
-9.652439695844645950e-02
-9.959404152251002951e-02
1.431238214818598420e-01
4.435948185922557185e-02
7.075826025457854218e-02
4.159475841489089498e-03
-9.384937514705390948e-02
-7.786255487864351954e-02
-1.326937252672283629e-01
4.200461585577339174e-02
-1.351275715012065486e-03
9.626827816597812934e-03
-4.754067059889157537e-02
2.959024682734675768e-02
-5.568383128683149740e-03
1.576763423020964214e-02
-4.635422837260350093e-02
4.582984894103645651e-02
-2.962706837433226603e-02
-1.316044190352606280e-01
-1.300735288279686874e-01
1.557953723386952018e-02
1.895244872266270419e-02
-5.412582188893972496e-02
1.787193864467947479e-01
1.321794657231743775e-01
-6.261841873775327028e-02
-2.647326727321207621e-02
-5.090675271941206767e-03
-6.674871786936013504e-03
-2.088719092205284372e-02
3.158162206340656142e-02
4.471096870024546255e-02
4.545183322824291466e-02
2.973115291324181231e-02
3.333525480010748193e-02
-4.504821704872593452e-02
5.229166590639038915e-03
6.184081396605865116e-02
1.650242176668159991e-02
-1.266748493332193193e-01
2.508425634521803393e-02
3.722644701719758469e-03
-8.654072166314809300e-02
7.083616870840291069e-02
-5.788605520093191570e-02
7.725655251618958330e-02
5.739874597664415198e-03
9.022257131489133664e-02
-1.033510349747858575e-01
5.078014953245015700e-02
6.013843034508931790e-02
-1.517690978206468790e-02
-2.527976346754860770e-02
-3.022937250312935156e-02
5.416180832889616603e-02
-3.090086643261096000e-02
-6.349347602108164346e-02
-9.580747566152220118e-02
4.734306714623355561e-02
4.156124288945919204e-02
1.544365238632274678e-02
-2.436468233279351706e-02
2.624207928173404383e-02
-6.635376640685408385e-05
-1.035152994302775825e-02
5.656224389643810940e-02
7.559846029137333445e-03
-3.804603309520408760e-02
-4.539381519601540932e-03
-2.485795534240023766e-02
-6.305780894300919148e-02
3.802880618031516391e-02
2.835028279432541196e-02
-1.413407512020894152e-01
-2.452845140438403293e-01
-1.006817221020774172e-01
-7.589921862450417500e-02
1.631432489559447863e-02
2.469536003925926204e-01
9.043493441734688776e-02
2.095033462669776414e-01
-3.634155742382880888e-02
1.990638985083595658e-01
7.102008159633842188e-02
3.739724805077097175e-02
2.243555256962672870e-02
-1.555960444640770157e-01
-1.763281993623365060e-02
-1.203463589009557549e-01
-4.362997085486193527e-02
3.117567992376719336e-03
-3.025906160366178405e-02
-3.655294187542468265e-02
-4.717712663274620244e-02
9.800626440036869572e-03
-9.409842472220342549e-03
1.541107490064999863e-01
7.783670562687862449e-02
3.079637115484350207e-02
-1.386677524522790875e-02
4.275562246754713996e-02
-6.502181427427383698e-02
-6.436099243896917232e-02
-1.250161670105524592e-01
1.168770497197544056e-01
-2.396844823600104493e-02
-1.089460491937647851e-01
-9.201197962590625112e-02
-5.630892642813913052e-02
4.041019640184423389e-02
1.128603158976600324e-01
9.352258863615570128e-02
3.444230254815264930e-02
-5.458307263031875189e-02
9.863526965913792244e-02
7.732513270242716286e-02
-6.144452473399082681e-02
1.104403389743256921e-02
-5.017832417679720519e-02
-2.468579252668835072e-02
3.887277808796316125e-03
-1.032075866885734383e-01
-3.595068819831857831e-02
4.975544155328922614e-03
3.565514107545173644e-02
1.195394460225311650e-02
1.880110485617941113e-02
7.903030927443172038e-02
-1.125776907675380724e-02
-3.852360641710458194e-02
7.887435800749841019e-02
4.280041793818686879e-02
-1.131345803099752592e-02
1.834163515790665847e-02
-3.964691171039209233e-02
-6.137805436641249196e-02
1.084561942131410071e-02
5.369970523124142046e-03
-8.460795962496084344e-02
-2.540220819814641845e-02
-6.922702885097134495e-02
-5.030440918528261002e-02
1.330411333401158337e-02
-4.923768380943628620e-02
2.601052058116621879e-01
-5.270149087548968089e-03
1.163473168965229940e-02
1.889671888118158241e-02
6.618100462418508023e-02
-8.676632089892492850e-03
-5.884148205744466759e-02
4.242883813248393005e-02
-6.635303009261701856e-02
1.315876533433713719e-02
-6.223395596142038827e-02
2.522454837128473848e-02
-5.208422226582241910e-02
8.471590826561313514e-02
-8.122829940757955725e-03
-6.522545760104771218e-02
6.456724379781320078e-02
7.541356112249121557e-02
6.754707769318540889e-02
-4.554852974354370483e-03
-3.668506500077943489e-02
-6.952591744951457098e-02
-5.181718044262501044e-02
-2.367354554163940070e-02
4.329592259323596787e-02
1.384020999530972407e-01
-4.669250090575738539e-03
-3.911196463012318880e-02
-1.376882762848418706e-01
-3.329059042203466601e-02
-1.164977069490058114e-04
2.414516674087808026e-02
5.232931244055057801e-02
-7.666052205332825331e-02
-2.199468864547734354e-02
-5.162020325470990934e-02
-3.013936653359685844e-02
3.313796899433467738e-03
1.089652314639233260e-01
3.128941197273066299e-02
3.684634015102660615e-02
-9.205697403170169657e-02
4.774005617360720793e-02
2.593090932755964806e-01
7.939207561007879943e-02
6.645665578682001876e-03
-7.674773438311213725e-02
-8.037914712201930933e-02
-1.439030351011318654e-01
-7.526887358342736027e-03
-4.111916843399392174e-02
-5.518856616015427319e-02
8.250527998022472165e-02
-1.058429261943720848e-02
4.751506418301570944e-02
2.514674625752369441e-02
-4.074817584883562438e-02
2.127308428485246913e-03
-2.928328466230204971e-02
-1.786675973075772805e-02
-8.333134178773963369e-03
1.659136299172237622e-02
3.829232305899641503e-02
-9.584394300023394569e-03
8.056578392653111417e-03
-4.295519582880052978e-02
1.781455935351647923e-01
2.413572611050112532e-03
-2.581538066081577251e-03
-2.587643171743988363e-02
-1.917640360110505968e-02
-6.031209056192569917e-02
-2.965750637086202179e-02
-9.221115094993023731e-02
1.742103652437414218e-02
2.929128436932576518e-02
-8.453983382168016314e-02
5.336272539752935640e-02
1.101248961371335995e-02
2.504442389094763306e-03
6.315900647757277664e-02
1.242298124825727962e-01
5.856965346681970719e-02
-3.375223993597652877e-02
-3.666092884745791869e-02
-1.281803109335156489e-02
-2.121565542869559631e-02
-3.988195461365375005e-02
-3.847065603025612984e-02
1.403351790727045689e-01
5.066016245044400144e-03
1.294442894525503762e-01
2.727213320502404337e-02
-4.170231303610212603e-02
-5.794488039649169780e-02
-7.088223689209791067e-02
-1.315881876506318493e-01
-1.266796336002595502e-01
5.885065997675744537e-02
1.079258804788631315e-01
4.547523787776681231e-02
5.932594891442351248e-02
-4.348200087816478376e-02
-4.063451529065758433e-02
-6.078157747872773436e-02
1.221956124056126046e-02
1.369930793548695680e-01
-5.324587827128027251e-02
-6.431850633565559805e-02
-1.234116950480503849e-01
1.038829022045746446e-02
1.903163657047061627e-02
6.234351226862725609e-02
3.700810588589260042e-01
2.072246316664097185e-02
-1.128430295032191027e-01
-8.062808685038951040e-02
-7.023314477494366215e-02
-4.027793783200805250e-02
-2.854581484134525310e-02
-5.827550822366241168e-02
-2.772627020216907878e-01
-2.386232369809793141e-01
-2.355929390728883632e-01
-1.286186458497143581e-01
-7.312549780578488090e-02
1.741564664384553096e-01
1.488612167681292731e-01
6.302053385244703598e-01
-1.156139596858833316e-02
1.214656197128572701e-01
1.329263260006460501e-01
2.882968784278104601e-02
3.923824461133987133e-03
-1.172667767171504394e-01
1.024289020361750409e-02
-1.685601755352963971e-01
1.051423113822035349e-01
5.976744667629394631e-02
-1.442265250943142001e-03
4.408659583438766238e-02
9.735101821433540456e-03
2.457402134926029921e-02
2.009251336798935708e-02
-2.619557251806264864e-01
-1.832259964097385230e-02
1.644384104055712781e-02
5.979062795129604785e-03
-2.741426543690523524e-03
1.180739707507571512e-01
2.351541086243415148e-04
-6.391042782120115451e-02
-5.575757468920290727e-02
2.418299352542278152e-02
-1.655501730535511098e-02
-5.063261848045978036e-02
-5.885627003568584537e-02
6.629188681608341217e-03
1.038178940001165985e-02
9.821987505461847456e-02
-1.336994084016071907e-02
-3.605034076064258641e-03
-1.238341029522709441e-01
2.656287176714147019e-03
3.088275295456461428e-02
1.533893141165122431e-01
2.340776427569160253e-02
4.694838627643873295e-03
-8.759182012279102814e-02
9.896525388057851591e-02
1.247793935816347011e-01
1.469728011423942493e-01
1.200105383976017293e-01
-2.441875267057973531e-01
2.581698774403236654e-02
-2.083817764097991854e-01
-6.397567163064558915e-02
-3.512714738884423898e-02
-3.162641705984258617e-02
2.238274150793726630e-02
2.988902685053083236e-02
-1.292568706127673710e-02
-8.112037974034480570e-03
-5.213009168520583124e-03
4.073253029405051601e-02
4.223967604394023023e-03
3.939659892019743703e-02
6.895106307271334049e-03
4.120576407456219559e-02
6.088103250480815867e-03
-1.546301183301505844e-02
-8.610245011593328779e-02
3.755921792042793937e-03
6.908306468753024066e-02
5.052850312831875385e-02
6.259823319599490399e-03
8.958747769415334461e-02
2.024567808577884542e-02
-1.429845984318293683e-01
-1.156253172941151298e-02
-8.115741675414021861e-02
-2.114342851346008301e-01
-2.499475516761004712e-01
-2.063344100347908605e-01
-8.166352616718751400e-02
1.247033779750300261e-02
1.227062168123063263e-01
1.260195478386147983e-01
4.881836705642557672e-01
-6.817940031805061474e-02
1.479383631288134215e-01
8.346660971410817254e-02
-7.930448807526251087e-02
7.555011264081425149e-02
-4.674598835072770603e-02
-3.608678252340571935e-02
-7.663842621628941254e-02
-7.678273313413938594e-02
8.761793132768401493e-02
6.465412143205441498e-02
4.483700530687513564e-02
-2.144618187311833971e-02
-4.892137184636664166e-02
1.294851551939826470e-02
-6.290728673238757396e-02
1.455522871840451704e-01
6.450516530907397794e-02
6.332649594806856463e-02
-1.151336671387028082e-01
-1.508032431157916853e-01
8.343236827186496785e-02
-4.328639301427317926e-02
-4.759301344428372438e-02
-6.604482484959668664e-02
1.846571880599680859e-01
6.188621836361441093e-03
-7.704551643733269228e-02
2.572671613652645697e-02
-8.144229161852717391e-02
3.800132785604869168e-02
-3.004122098344768135e-02
1.601867680898822963e-02
-5.076299425648628239e-02
1.433672308877093592e-02
9.882471145186855210e-02
-3.154004571561188491e-02
-2.689035110165937520e-02
-1.758843733040736310e-02
-2.398282945462762179e-03
-5.960793017317615045e-02
5.239918331531291662e-03
-1.293117085184009724e-02
-6.913168050691860522e-02
8.539949904353104360e-03
-1.231662812494283346e-02
3.166778282634750974e-02
1.085397585946454024e-01
2.651315959322873561e-01
1.357261161330806376e-01
1.202290957863559051e-01
-4.777848922053584690e-02
-1.120270026836390764e-01
-7.156617188175803945e-02
-8.360333349416614046e-02
-2.061118105716235327e-01
-2.128622705314299826e-02
1.732441291609563006e-01
-5.107345724664530406e-02
-4.584394297097226650e-02
-6.767273066708513751e-02
8.434146065832559894e-03
-1.086079092380878991e-01
1.128059919491433555e-01
-1.116889383344170927e-01
-3.159442687219437412e-02
1.653598932726809551e-02
-5.080621973517330560e-03
2.144526805062238126e-02
-1.514349388125930604e-03
3.454533008755614892e-02
7.735174910280809280e-02
-7.138344261507081900e-02
-8.149366059742804702e-02
-2.346779600809449640e-02
1.659613263766449298e-01
6.790074578522778403e-02
-1.278391654258618226e-01
2.480255980026581028e-02
4.551943268431672684e-02
7.327187788381311906e-02
3.430780646732044248e-02
8.065412045751129549e-03
9.805917957046406466e-03
-2.314842054151942247e-02
6.643313754765768631e-02
-9.482299738471794415e-02
-7.391273397535069734e-02
-1.052587346889225922e-01
-5.170308871119306399e-02
3.555396105301673881e-02
9.698820723925757892e-02
4.248393274908012635e-02
1.527382438216642706e-02
2.722139701880100376e-02
-6.055949904220543634e-02
1.055237615981462901e-01
-3.586204546802922860e-02
-3.018875916665880038e-02
-1.174877385883040110e-01
1.273701047272575264e-02
1.418696968123314694e-02
6.692605400113869896e-03
4.439819607077449826e-02
-1.374651352123606729e-01
-1.076662310206550066e-01
-4.307429111922334714e-02
-9.496364404241165041e-03
4.950060786611516772e-02
8.472994951028378630e-02
7.247016469523462345e-02
9.100129968484552134e-02
1.841318835473870485e-01
-7.939448697677565017e-03
1.463622375466215771e-02
6.975536969371248786e-02
-9.459617159597334679e-02
5.272116173097380482e-02
2.474729303569860039e-02
-2.434563114687844643e-01
-1.828004939219047068e-02
-3.828036233288569651e-02
8.912434729640095416e-04
6.182791052578412959e-03
3.296067323336290822e-02
-8.615938980109616452e-02
4.978727882163042073e-02
5.289781494563697978e-02
4.032379188641548040e-02
1.243940467297100644e-01
-1.057203153395043504e-02
-3.239036512362269971e-02
8.179987589363067746e-02
-5.675969929406153580e-02
-1.180702887740377738e-01
-2.872532978408362178e-02
-8.234484095974727025e-02
1.424002140482348230e-02
7.884948135703560845e-02
3.275005991710876196e-02
5.118680296297294097e-02
-4.305134047372820988e-02
3.950923513792893582e-02
-9.113941934639413489e-02
-5.975580029436523832e-02
2.109638555398467563e-01
1.951191608964280566e-01
-1.202081767299869181e-01
-6.951778119934620692e-02
3.312066689702053424e-02
-5.930359591745571618e-02
-1.304183291921412469e-01
1.541328839492108194e-01
-8.113878524636132517e-02
-7.248598364125896643e-02
2.535976781041294689e-02
-2.067293441763838960e-02
4.117192944089865733e-03
2.318137855915063800e-02
-3.249351995760708933e-02
-1.811985701347061661e-02
-3.765921178178479461e-02
-7.403855958746030034e-04
7.911260776484033141e-02
7.411312368699384152e-03
-2.628402094003499598e-02
3.137954010439029245e-02
-3.509998490676501104e-02
1.194574988129148696e-01
7.708035279300617937e-02
2.236266835719950830e-02
-3.841934815638024109e-02
2.280680004262550589e-02
-4.003755971816441023e-02
-5.718623584656003928e-02
-1.060641762846404046e-01
1.604378390186262937e-01
8.004908961703821602e-02
-7.698926864214648662e-03
3.685205122832693747e-02
3.292062633230767588e-02
-6.158753445484573680e-02
-9.366989269018226316e-02
-1.473032521870561995e-01
1.251887447402536546e-01
9.204508215329280929e-02
1.626408937499091434e-01
1.179463151026122029e-02
9.030878663001308537e-02
-5.424764949164459157e-03
-1.265973326777081187e-01
-3.499560411568568563e-01
2.359586883246254929e-01
8.875694885277152224e-02
-2.277965066448517026e-02
2.233961458528930730e-02
-5.897779316893963023e-03
-5.655033251127389998e-02
-5.646963055226954242e-02
-2.053578587177640746e-01
-2.356494342981527990e-01
-1.497193922105373720e-01
-1.829716847275143499e-01
-9.033662817178519933e-02
-1.254234103202606365e-01
-9.310360433305454875e-02
1.212518153377152158e-01
7.559523387235902447e-01
-1.754511873503862285e-01
-1.165880946156981485e-01
7.909965903111595975e-02
6.858227800617591741e-02
9.330830589840969280e-04
2.454648776141895861e-01
-7.571900458862847183e-02
-2.632161115575288798e-02
1.205687513375812009e-01
1.083794555915497809e-01
2.118996025894645807e-01
-6.196380456766712591e-02
-7.517785319169644626e-03
-6.181504307776449630e-02
-2.365505457657107735e-02
-2.858961219774238671e-01
7.442380617386448738e-02
3.791744403117897760e-02
-1.149156593630755313e-01
2.506782364380358841e-01
1.831739539333732680e-01
-3.155130103470217551e-02
-2.054285229847907235e-01
-1.942979571938860950e-01
-3.443829261170971434e-01
-3.155914384779776594e-01
-2.455440975259895464e-01
8.736551597356989607e-02
8.396871230325234081e-02
-1.522758819358264321e-02
2.318191012945418905e-01
5.175927207432807764e-01
1.798091784179627062e-01
1.102052553865946471e-01
9.325488745224437548e-02
-1.004215479250974291e-02
-1.001101926540897136e-01
-1.397096797483888542e-01
4.162890197116665691e-02
-1.750361960329811228e-01
2.995659373048393040e-02
-4.281124181103078408e-02
-8.535086452181294900e-03
-6.386878917744087669e-03
1.713857826188327008e-02
8.848582491496682911e-02
-7.281414878424161130e-02
-5.033640942135937657e-03
8.141589511516801603e-02
1.843379983096248287e-01
-3.545719828535467966e-02
3.194795908571932547e-02
-4.031124972575286791e-02
-5.763877246936711940e-02
-5.331801423295910725e-02
-1.109766177970791107e-01
-1.346889494369607754e-01
-7.110302232023026081e-02
-1.555384666109501865e-02
-5.456921442722855592e-02
4.726475995755364395e-02
1.766873355543612314e-02
2.040466531710183589e-03
2.089410728008148643e-01
-1.097009191091537911e-01
-7.886731586207690325e-02
6.896974284185160287e-02
-6.103159915998262325e-02
7.660050466963121141e-02
5.223044319903458882e-02
8.457764290228717355e-03
4.334137913046665069e-02
-3.247856231140443944e-02
-1.252032660977278333e-01
-7.225690496594576115e-03
5.442656756393378370e-02
-8.295955264449078603e-02
6.884962439558367508e-02
1.295420655791065800e-01
-4.951185988406380488e-03
-4.731452624338202545e-02
-2.306525658865119649e-02
-1.192503848847045744e-02
-6.404079677488995481e-02
1.066005968987537855e-01
8.980937039073312589e-02
-1.600573401506711832e-02
-3.405861517902595420e-02
-8.473994254626757150e-02
1.263753384841995175e-01
8.838269751371072291e-02
2.167172045887849063e-01
-1.307337965735964024e-02
-1.038597953990656048e-01
-7.360227070132459304e-02
-1.561998522826759661e-01
1.462286553542990197e-01
-3.392793894546648065e-02
-9.604197520413043643e-02
-5.976934428180648989e-02
-1.321748627490453454e-03
5.867018657090379563e-02
4.190634166027365493e-02
-5.574417652658233968e-02
1.138039138355713548e-01
5.790344625940607032e-02
-5.452422562158824176e-02
-8.973918766310816364e-02
5.115133175824244927e-02
8.120959062460247901e-02
6.876630726875498922e-02
-2.285711764618813535e-01
2.703527868701798287e-01
4.490605675965920335e-03
5.936519058797699172e-02
-8.746832315605963803e-02
-3.231487310376058436e-02
-2.292856801918309248e-02
-1.804752178490109660e-01
-1.102160100610916592e-02
-4.470888196283850369e-01
-1.485685812147887475e-01
-1.416644051234478285e-01
8.977458037464323970e-03
-8.287250024786817215e-02
-1.429160239563803843e-02
6.232940549831697498e-04
8.248851565176829048e-01
-7.083751269872780310e-02
-2.064293667671737373e-02
5.555799087980540368e-02
1.487936526210313463e-02
5.279894753823690355e-03
6.430144379911879871e-02
6.950608079523475091e-02
-1.180443261146416484e-01
5.819370103867668037e-02
-1.767901319302651181e-02
2.631603691705848569e-02
-8.717371002225850207e-02
5.555720963822953495e-02
-1.792969041056687723e-02
4.603640628624518921e-02
-6.332094025435779094e-02
-8.657031999745110409e-03
-1.750874892139906228e-02
-2.664694234754191524e-02
6.918185064484566604e-02
5.779008571765020287e-03
-1.191238622581437638e-02
9.598773782695553883e-03
-1.983452350480605780e-02
-1.518526219277157273e-02
2.302175447897304023e-02
3.360624072572614141e-02
-4.409423308326281682e-02
-3.346855612071249902e-02
8.985957306061144456e-02
5.272232115336546870e-02
-1.064618380219293642e-01
-1.320877001525449790e-01
-1.588153838258539730e-01
9.015585694825201113e-02
-9.310027274382763271e-03
5.651463353616849317e-02
3.559738050519124092e-02
2.623165045297433384e-02
9.171358981019638035e-02
-1.918015337889236449e-01
-1.459246588872039341e-01
-1.079089316498551138e-01
-3.995095572212349622e-02
1.141058037504800587e-01
1.112127214291158961e-01
1.063197726430483853e-01
1.539477822254625983e-01
9.310424746117038075e-02
-3.540768765743515512e-02
-1.047479828820364195e-01
-6.030916505882306239e-02
-4.119884428623208847e-03
3.997619663974977949e-02
3.793265531423721526e-02
3.357162061175936185e-02
7.990869233696282214e-02
1.416389486477355186e-01
7.222828251670049271e-02
2.793055112032140352e-02
-1.018334659600043414e-02
-7.566769405798950965e-02
-1.144640857970835590e-01
-1.213913481706475339e-01
1.101634732246135617e-01
2.702205259579898433e-02
2.721436024415346822e-02
-7.769115234995319086e-02
6.221627101259204901e-02
-7.863386389688480083e-02
1.840679649727375213e-03
-7.213182048004636304e-02
-1.702584099847895271e-01
-1.249720776142799333e-01
1.037290660049001306e-01
9.867063931859076931e-02
6.806089943010835974e-02
-8.425484522947529475e-03
4.635854574450259946e-03
2.855951279396573908e-02
-3.047226400501452589e-02
2.536970649528392380e-02
-4.108231665348394124e-02
9.334620473203613517e-03
-4.392373608699143284e-02
2.999201183082359293e-02
4.125063803758562131e-02
9.531339908593340973e-03
2.236393301854347482e-01
2.512918960286848052e-02
-2.775049240667741210e-02
-9.894682925482176095e-02
-4.072113258860831503e-02
-1.346378857305139190e-02
1.035021559236423173e-02
-7.823649255751077836e-02
1.609432792021923964e-02
2.449710838144343768e-03
-2.691228872062065292e-03
-2.250415200316502329e-02
2.843472852593210282e-02
-5.029296343119632473e-02
-4.428096203062103359e-02
7.279053905274912584e-02
-8.793451245739965227e-02
8.179578394135952890e-03
-3.186125709705733139e-02
7.040903660409950082e-03
3.493393777993489963e-02
6.196537376349981613e-02
-2.216730681354278990e-02
2.984328277001849217e-02
-1.167413215572764978e-01
-5.819629007031476564e-02
1.301481674907808798e-02
1.339283567639962258e-01
-6.730768827595488835e-02
-1.301987227551755777e-01
1.096285959298393814e-01
1.158722532158092400e-01
4.432571848262413169e-03
-3.808054842419512920e-02
-5.191678455445798007e-02
-3.283742454884718692e-02
-2.033874185569527898e-02
5.759536272884859670e-03
1.465764115508380074e-02
1.183237501069641096e-01
-1.169215997964844628e-01
3.706642788304922997e-02
7.340063620447893900e-02
4.711813107623551156e-03
2.624798374603040663e-02
-3.354132555510240532e-02
2.934475855396396701e-02
-2.030869414356052324e-02
1.730938047200067387e-01
2.290505380261367158e-02
4.653867178511536182e-03
2.887712129604422945e-02
-1.002755322527993653e-01
-2.723850390767003360e-02
-1.296872007241870461e-01
2.767138988748077399e-02
-1.236659204550620006e-01
-1.589074256875801575e-02
1.553744549978881666e-02
1.805841617364634943e-01
4.945158047043303473e-02
-9.826279575874198591e-02
4.762297352452883603e-02
-5.537670244865457864e-02
7.855287224042510619e-02
-1.040374662562427478e-02
-1.833776585086923511e-02
3.563098095144989329e-03
-3.558178593833456749e-02
-2.524412857801643095e-02
1.634352278136241496e-02
-8.892066124088398096e-03
-5.572634342100135640e-02
7.116732356136450111e-02
6.125640751018598257e-02
4.218930235579646665e-02
1.833553318742068075e-02
-1.130095044749456282e-02
-8.375768163811361799e-02
-4.216359110815798977e-02
4.498525541103146064e-02
-1.566362427627785714e-01
-8.386412015971071721e-02
-7.236938267293081817e-02
4.502018791018019828e-02
1.620898499757844891e-01
1.176836669035871419e-01
-5.690921460516223246e-02
-3.846978410033820295e-02
1.357849555347019899e-01
-3.267222133678135410e-02
-1.832745922162547225e-02
1.679440808418176251e-02
4.147813838404149078e-02
-2.588846167748759530e-02
-7.869957566669413818e-02
5.434765172121571591e-02
-1.366101813084688414e-02
7.958249152608922600e-03
-2.685613556272092861e-02
-1.714042534093627654e-02
3.520083825243539716e-02
-1.187815676675339598e-02
-2.797100332500260939e-02
6.096378247720637272e-02
3.736198130253653993e-02
3.360931731600757394e-02
-5.848001117237706936e-02
-1.515731461168879843e-02
-7.253358570384204826e-03
-1.192435778555283807e-02
-3.912003895574749784e-02
-5.646383687975950472e-02
-1.943367403006894534e-02
-1.963278696095635545e-02
-1.661861518688959038e-02
-1.482852514179767989e-02
-1.502346302721842275e-02
3.728999237125780325e-02
1.047109088554326189e-01
-3.722669212669453553e-02
4.583659769114527618e-03
-1.074849316258471577e-01
2.868683104924386884e-02
2.040142223452798970e-02
1.974446621319202178e-02
-1.693716892944159428e-03
7.298896137940708018e-02
-7.479018636784054430e-02
-4.174221894672827671e-03
-3.357170584938903163e-02
-3.148429279712168516e-02
-1.162935810777409873e-01
1.067597715320988370e-02
1.586232389257745123e-01
9.101477190778121951e-02
2.499323358241288887e-02
-9.646693637700141932e-02
-8.704968352571121337e-02
-7.438520088753539788e-03
-6.173236886220358210e-02
-9.629592492116827510e-03
9.069358748116526647e-02
1.466302802822080364e-01
-1.768328554633516181e-01
-9.391750373163616772e-02
-2.684703234601044930e-02
-3.900507577164463030e-02
1.299933796910341943e-01
1.353201509719336726e-01
2.889880427472414637e-02
4.239013237495325992e-02
1.395657194734062634e-01
2.118242151778723659e-02
5.313137368642926323e-02
-6.497319207783473771e-02
-5.904518789974416010e-02
-8.893760517872854876e-02
-2.493878697959859420e-02
2.401525745828305899e-02
5.513422835496770147e-02
7.625997015159814707e-02
7.204769308687816731e-02
-4.650890265694276014e-03
7.607186060252617288e-02
-7.374279076316780923e-02
-1.083786452195358158e-01
-9.274142594757231461e-02
1.507803917020877627e-01
4.248179121177057815e-02
2.212024130402630989e-02
-7.165846142109316697e-02
-9.964874590856601100e-02
2.128592931195710802e-02
-1.096285035821018862e-02
-5.439829584197437840e-02
-7.754178414285582688e-02
7.514245236941054229e-02
4.670858463774717195e-02
-1.920974478025196347e-04
-2.164049686983995913e-02
2.399870047691427758e-03
1.039773242190043454e-02
-3.527426101625034949e-02
9.361140073859441912e-02
-2.177427882361258893e-02
-1.287093354484302593e-02
7.932353428059370215e-02
-5.800186031274324333e-02
-1.205301195276776288e-01
3.512866036718861190e-02
5.113596822501148553e-03
-8.068548825761473475e-02
9.156118286391067007e-02
9.756132187506180720e-02
1.463286493097656384e-02
-7.431688496472418914e-02
6.260220354266150811e-02
1.619718281302414895e-02
-1.275523828032986695e-01
3.929163391517678794e-02
9.583932677472289940e-02
1.919353979147179513e-03
9.630913172778136910e-02
-8.388382809623796607e-03
6.939798685202400175e-02
-1.329296151521449920e-01
-1.614394352870838212e-01
8.430684031453022920e-02
9.604038421089217126e-02
-2.347889939095501588e-02
4.386326515466427295e-02
4.831555014563957209e-03
-1.097093911039359430e-02
2.672379468743842686e-03
-1.972645856620438842e-01
-1.585217105633318635e-02
1.364506548465094504e-01
3.532902600247412456e-02
-1.974875679458706554e-02
1.349782841522031204e-03
-4.068738029771825498e-02
-7.120149415438856155e-02
-2.563966138747848095e-02
0.000000000000000000e+00
0.000000000000000000e+00
0.000000000000000000e+00
0.000000000000000000e+00
0.000000000000000000e+00
0.000000000000000000e+00
0.000000000000000000e+00
0.000000000000000000e+00
7.579749475077589282e-02
4.678474532902120869e-02
-1.391098327527677189e-02
1.370956962078955510e-01
-5.390575431948553542e-02
-1.119419808607183542e-01
-1.899576936026236076e-02
-6.092344847194847146e-02
-8.665672009225434957e-02
-1.627605860759400447e-01
-1.115412184900480136e-01
-1.080415151978022931e-01
1.559573353895365722e-01
1.280505114076696538e-01
1.255324359496004238e-01
5.945975710923843971e-02
3.634533693931492337e-02
6.876454315147359497e-02
9.839678483993107017e-02
3.444588965933711999e-02
-8.853679185513256555e-02
5.419292280563216269e-02
-1.366990513681501651e-01
-6.690963417240537725e-02
1.143585599122278612e-01
1.102043667965350304e-01
2.688118741084958782e-02
4.867824195097906342e-02
-1.287015311681701801e-01
-1.337015318677249043e-01
-5.539761867795815059e-03
-3.217953116690221160e-02
-6.735863227061639202e-02
8.623690742212543336e-02
4.902545726874084700e-03
-1.923244962262342372e-02
-3.955538161613208039e-04
3.789751092605214700e-02
3.101144305616369140e-02
-7.306177142181358164e-02
-5.923387490321609279e-03
1.792507382580194389e-02
-3.574788307903354473e-02
-2.786556133596389609e-02
-5.286599254497265782e-02
2.102938884859673757e-02
1.134578903894198215e-01
-3.000952861352708043e-02
6.613404559210531164e-02
2.041386501493373529e-01
-6.754950992667113630e-02
-6.808131781978972452e-02
-7.602228061573015894e-02
2.370842137564920307e-02
-5.058508899705770057e-02
-3.174291975784297032e-02
-7.792988336904607682e-02
-4.774918911337513311e-02
7.180592804017323083e-02
-1.850831695142962641e-02
8.443428168995009697e-02
1.794196877337045082e-01
2.081337044558533370e-02
-2.122858784755621009e-01
-6.514932772339331046e-02
-5.672219428651704282e-02
-8.463029624560951258e-02
-4.175457075429761869e-03
8.361692383055983196e-03
2.976061896024134561e-03
7.729067131345837907e-03
1.916104539205236712e-01
4.280229653463670653e-02
-1.430182127191135556e-02
-1.194936148110039599e-02
-6.816072412270392580e-03
-4.292915016906206915e-03
-3.488060657923681539e-03
-1.043895162289375060e-03
-9.101705322353203457e-04
-6.521016809228172284e-02
-9.433769593789086139e-02
9.073657476538127264e-03
1.304659539896091403e-01
1.125880020796342640e-01
-5.683680507256505532e-02
3.171465795821646260e-04
-3.606009102262550114e-02
3.283017520015480816e-03
-3.159972422046007667e-04
-6.519278380295455422e-02
3.952415294581910349e-02
4.948834673975800735e-02
-9.621296752101386740e-02
1.238349516844364923e-02
5.704273619213744845e-02
-9.045584800679742910e-02
-1.412102428355805905e-01
-2.403546688617568330e-02
9.217702596571482679e-03
-8.646840120805539265e-02
2.329301436323352181e-01
-2.059534830179388792e-02
1.206174610094966626e-01
2.230681207855550463e-02
4.433941311093451965e-02
4.787576125877322092e-02
6.336006277234895734e-02
-1.855940557630375229e-02
-4.183710268782185604e-02
-5.438275407441344605e-02
-6.310278688207311693e-02
7.422622785736029440e-03
-4.396413713651197569e-02
-2.095901169937392991e-03
-5.048364418942932752e-02
6.616069199729955608e-02
-3.844844374463248643e-02
6.073990556393969037e-02
6.689058935359653993e-04
4.278059801638563892e-02
-8.236100736723918347e-02
6.399560878238136179e-03
4.542220479035074393e-02
6.180058342291360612e-02
9.608095208525523762e-03
-1.553071991531506657e-01
7.165716420397658104e-02
1.184062908447274937e-01
-8.509155887789087921e-03
-5.009374919865757815e-03
-5.014506339980164679e-02
-1.604786673315281020e-02
-5.134419367369286863e-02
7.856692355616871903e-02
-6.591755978659415149e-02
-2.979231019847274758e-02
1.161072180462762761e-02
2.748973629309421282e-02
8.329100445979276818e-03
-2.219096600499385896e-02
-1.579405980265027876e-02
3.719039393893069229e-02
-1.684261647651493984e-02
-5.539038664409284135e-02
1.589370705454302979e-02
-3.183628003992000632e-02
3.473893880280376489e-02
1.010745199991797960e-01
-2.233659102399026056e-02
-1.633971090680470112e-02
-2.580419724171886114e-02
1.058835089575725814e-02
1.646320875667307707e-03
3.337354420041855740e-03
-2.624439806432946054e-02
3.366379986801915775e-02
-3.993833126272944983e-02
1.683874259866388612e-02
1.081606689093811673e-04
-9.932323876923972172e-02
-3.209825464244753235e-02
8.283807250398160515e-02
3.881908092417792749e-02
5.276374875052353836e-02
-2.815277614662586511e-02
-5.958668692284679880e-02
4.474005430247617737e-02
1.608668973580494946e-02
4.896572817757444823e-02
4.204113108435261759e-02
1.805976012720230880e-02
2.374646524138676693e-03
3.273935167797535628e-02
-5.118961257112676633e-02
-1.090776947559216892e-01
2.873771156251088144e-01
7.845269343329346057e-02
-2.990956881355933891e-02
-4.255658467013881396e-02
-8.830283867281681076e-02
-2.258020438655806983e-02
-9.188325379934531023e-02
-9.059735871598402490e-02
1.435460600827651728e-02
4.856943863920158005e-02
-1.294195795354426970e-01
-3.770835468925283485e-02
-3.953027413255453745e-03
1.495638084450087550e-02
3.514014649487828823e-02
5.806038965109504291e-02
5.032805555788594926e-02
-1.789845299703379800e-02
-3.581726130171778572e-02
-8.394421238234223148e-02
1.238161534404387115e-01
-1.176881321791924118e-01
6.741985225852384356e-02
1.378399760343829855e-02
-1.314899977878180026e-01
-6.972591556275645197e-02
-1.389874355584536959e-02
-3.780728031068522621e-02
4.591019521350549887e-02
-1.258336331198157271e-02
1.239121104650392075e-01
9.568299485054440612e-02
6.896828480456571042e-02
4.202481854215402851e-02
-1.156428849185934041e-02
-2.493206954239127887e-02
8.454542422217872430e-03
1.784290559929322187e-02
-4.352535570791039865e-02
-5.726883762606994194e-02
-1.292780579814597763e-01
-5.563779993452540318e-02
-2.109067796273307246e-02
1.248259936436384165e-01
1.264422534789719776e-01
-1.184709899930390109e-01
-4.937934667769575126e-02
1.225886254268429981e-01
3.104929084539356093e-02
1.754486464808977242e-01
-5.004334866805198317e-02
8.917546826851605046e-02
-1.614410213003005246e-01
-6.111386324012275245e-02
3.683359730738750004e-02
-5.990876969372124772e-02
7.327187788381311906e-02
3.430780646732044248e-02
8.065412045751129549e-03
9.805917957046406466e-03
-2.314842054151942247e-02
6.643313754765768631e-02
-9.482299738471794415e-02
-7.391273397535069734e-02
7.811542046040503839e-02
8.978344396323960364e-02
1.665999325611592086e-01
-3.937945689061945337e-02
-1.396472383509675397e-01
-1.171508955624915235e-02
-6.736979624554759183e-02
-7.638721594142239280e-02
5.126173389735846214e-02
6.693798727918594260e-03
6.102200932474852874e-02
3.927480379024175100e-02
5.832008802143507503e-02
-9.789448963460524455e-02
1.761783856643848664e-02
-1.362957826935357886e-01
-1.319876761845229785e-01
-2.850370773866011120e-01
5.202973040080722394e-02
-1.067708042541330171e-01
1.664392186055135836e-01
1.336031686623651016e-01
1.398730778273690224e-03
1.703247093782972177e-01
-1.069352780038584916e-03
-2.518700668324866040e-02
1.848909356520175018e-01
-5.407186364005196755e-02
-3.840055862928708208e-02
-2.357814301652370187e-02
-1.917128013817078966e-02
-2.341273076469671879e-02
3.387546208333511166e-02
3.510620698081777513e-02
-1.832514478950555623e-02
-1.156997825374646641e-02
-1.126014583726836493e-02
-8.715608099175996965e-03
-6.563936276129532683e-03
-1.254685580832698780e-02
-1.001122147377192934e-01
-1.412016243249118452e-01
9.828301381369973500e-02
5.196500164746026273e-02
2.875988970958026289e-02
1.024211548949526332e-02
2.054544751967866956e-02
3.151837088271713938e-02
2.312587100089522063e-01
1.967727242275084942e-01
-8.861576847342854391e-02
2.916304402709481852e-02
-1.128127015173781000e-01
-5.208394171365620523e-02
1.716567258943322780e-02
-2.208477391485263452e-01
1.751296800191648462e-01
1.115984280876984591e-01
5.123856172267007153e-02
-7.578020782853822634e-02
-6.764362236935678174e-02
-2.230631671655385409e-02
-9.818441714874986959e-02
-7.405210576633453057e-02
2.021635563281364567e-01
1.295912310894770658e-01
6.992621782040729650e-02
4.857544845961105084e-02
8.158820372178671176e-02
-3.485287733699843349e-02
-2.021701445889955984e-01
-2.948216354934278804e-01
-2.298434365324515671e-02
-1.021512260767684088e-01
-7.064795082657970848e-02
-1.013428592550946333e-01
-7.112984352745652106e-02
9.531153105483183494e-03
2.733967917567578509e-02
3.313853910579856454e-01
-6.871236546481881979e-02
-8.251391037151058205e-02
2.367312302634291127e-02
1.832535159673154557e-01
1.172212179805065535e-02
-3.848660557302011065e-02
1.469829597772671914e-02
-4.363417536008622200e-02
4.144211686117647842e-02
-1.405813206947624516e-01
-5.043731454984306389e-02
-1.273534673159183034e-02
-1.025948020323409760e-01
5.124799654881854322e-02
5.185669995325217774e-02
1.618019706452908102e-01
-2.426166709958628431e-02
6.216920059311541180e-02
-1.800316079346720236e-02
-1.011957085798452852e-02
-4.311872136246251708e-03
-2.384291483982579028e-03
-1.444335709737436290e-03
-1.644302512111090776e-03
-1.707309101796567613e-02
1.298441196807895159e-01
-9.663272012066999317e-02
5.397228473895711309e-02
1.554830160348947277e-01
-7.198040122227751525e-02
-4.623065535120745445e-02
-1.073825527425208148e-01
1.697998998523299052e-01
-4.493727181936047269e-03
6.127123366188320236e-02
-6.514543945659506674e-02
-9.633891034129156428e-02
1.995049152874681792e-02
-3.002503441136358808e-02
-5.501851365177336944e-02
-4.014838023054906335e-02
-7.346582359504037762e-02
-5.385878887017180039e-02
1.169180529210277347e-01
2.193219388227207398e-02
-2.175618335579249107e-02
7.351845054414755942e-02
-2.313952129589365303e-02
-1.379279806730599744e-01
1.115413831882686446e-01
1.210887348718566459e-01
3.777066810156482629e-02
1.162368005056672003e-02
-4.439335403473201880e-02
6.059742739141634089e-03
-1.057628742436066555e-01
2.773778342384103923e-01
-8.072009833006514590e-02
-1.261248510739903239e-01
-6.202897601176731585e-02
5.630498577397915344e-02
4.966054797183484110e-02
-1.502385226451049410e-02
-9.944559030389098220e-02
4.415519157894097491e-02
7.341119742084055433e-02
-3.806625177142649447e-02
3.932814393991324736e-02
-1.619492004312367631e-02
-1.955892268395546113e-02
-1.923734903083631695e-02
-6.383708941035395878e-02
1.446515782752337553e-01
6.394770541077196557e-02
-8.306048506263104259e-03
-4.806904078749466708e-02
-6.046797480690122711e-02
-1.782717795611050635e-02
4.352608501251577461e-05
-7.397256771424748356e-02
-1.287945034348490780e-01
-1.175783589444966970e-01
4.683828484316270718e-02
4.439302693555137458e-02
2.755934715889067632e-02
3.754968117482283124e-02
-9.712621142358802973e-03
9.974514340927721767e-02
-2.895885292773718936e-02
-7.764211171930306132e-02
-1.228680630490758957e-02
-2.644880562155113232e-02
-2.391370114526353979e-02
3.620935258452793321e-02
2.939356100854561421e-02
1.036473641256886596e-01
0.000000000000000000e+00
0.000000000000000000e+00
0.000000000000000000e+00
0.000000000000000000e+00
0.000000000000000000e+00
0.000000000000000000e+00
0.000000000000000000e+00
0.000000000000000000e+00
6.882838084194191353e-02
4.414453271435618553e-02
-4.015808319010277794e-02
-5.290391393096895850e-02
4.720255685925377198e-02
-4.241748597766365619e-02
-6.556024357629205686e-04
-2.404038488105313814e-02
-9.779051360764279971e-03
-9.652144941912750575e-03
-1.072197925063263398e-02
-1.330354171872597836e-02
-1.634109042282678656e-02
-1.051545802149311988e-02
3.270750904164503037e-02
3.760575667471051375e-02
7.900317857453068027e-02
4.202778459195915389e-02
1.568363121614275990e-02
4.215342317500486019e-02
6.429939177630018821e-02
2.326429486337322841e-02
-1.292319060000913511e-01
-1.371997981972212510e-01
1.431238214818598420e-01
4.435948185922557185e-02
7.075826025457854218e-02
4.159475841489089498e-03
-9.384937514705390948e-02
-7.786255487864351954e-02
-1.326937252672283629e-01
4.200461585577339174e-02
-1.351275715012065486e-03
9.626827816597812934e-03
-4.754067059889157537e-02
2.959024682734675768e-02
-5.568383128683149740e-03
1.576763423020964214e-02
-4.635422837260350093e-02
4.582984894103645651e-02
-2.962706837433226603e-02
-1.316044190352606280e-01
-1.300735288279686874e-01
1.557953723386952018e-02
1.895244872266270419e-02
-5.412582188893972496e-02
1.787193864467947479e-01
1.321794657231743775e-01
-9.682337477687764926e-02
9.982710162311576180e-03
8.675384986305639812e-02
4.267663739255081294e-03
1.434672486455202192e-02
6.720341928467686576e-02
-2.492121421855633331e-02
-6.080977891841704563e-02
-6.261841873775327028e-02
-2.647326727321207621e-02
-5.090675271941206767e-03
-6.674871786936013504e-03
-2.088719092205284372e-02
3.158162206340656142e-02
4.471096870024546255e-02
4.545183322824291466e-02
2.973115291324181231e-02
3.333525480010748193e-02
-4.504821704872593452e-02
5.229166590639038915e-03
6.184081396605865116e-02
1.650242176668159991e-02
-1.266748493332193193e-01
2.508425634521803393e-02
-4.756027925767182529e-02
2.570691440951504425e-02
-7.088623706210081532e-02
6.237111283440569670e-02
3.765943535544242354e-02
4.884595441567814861e-02
-1.142118954530192132e-01
5.807499475775158848e-02
5.128292395939119952e-02
-1.122476360726635813e-01
1.417224057705032680e-01
-1.202571680353371752e-01
3.959711716074798549e-02
-4.310607981801395372e-02
2.044344667679104388e-01
-1.614260297325373628e-01
-9.580747566152220118e-02
4.734306714623355561e-02
4.156124288945919204e-02
1.544365238632274678e-02
-2.436468233279351706e-02
2.624207928173404383e-02
-6.635376640685408385e-05
-1.035152994302775825e-02
5.078014953245015700e-02
6.013843034508931790e-02
-1.517690978206468790e-02
-2.527976346754860770e-02
-3.022937250312935156e-02
5.416180832889616603e-02
-3.090086643261096000e-02
-6.349347602108164346e-02
5.656224389643810940e-02
7.559846029137333445e-03
-3.804603309520408760e-02
-4.539381519601540932e-03
-2.485795534240023766e-02
-6.305780894300919148e-02
3.802880618031516391e-02
2.835028279432541196e-02
-1.413407512020894152e-01
-2.452845140438403293e-01
-1.006817221020774172e-01
-7.589921862450417500e-02
1.631432489559447863e-02
2.469536003925926204e-01
9.043493441734688776e-02
2.095033462669776414e-01
-3.634155742382880888e-02
1.990638985083595658e-01
7.102008159633842188e-02
3.739724805077097175e-02
2.243555256962672870e-02
-1.555960444640770157e-01
-1.763281993623365060e-02
-1.203463589009557549e-01
2.448518743563982969e-01
3.140069811778933850e-02
6.031514275477650039e-02
-5.867701920883674777e-04
-1.069723407605989995e-01
-8.795459134057469208e-02
1.424699980592149945e-02
-1.553010127416229180e-01
-4.362997085486193527e-02
3.117567992376719336e-03
-3.025906160366178405e-02
-3.655294187542468265e-02
-4.717712663274620244e-02
9.800626440036869572e-03
-9.409842472220342549e-03
1.541107490064999863e-01
7.783670562687862449e-02
3.079637115484350207e-02
-1.386677524522790875e-02
4.275562246754713996e-02
-6.502181427427383698e-02
-6.436099243896917232e-02
-1.250161670105524592e-01
1.168770497197544056e-01
-2.396844823600104493e-02
-1.089460491937647851e-01
-9.201197962590625112e-02
-5.630892642813913052e-02
4.041019640184423389e-02
1.128603158976600324e-01
9.352258863615570128e-02
3.444230254815264930e-02
-5.458307263031875189e-02
9.863526965913792244e-02
7.732513270242716286e-02
-6.144452473399082681e-02
1.104403389743256921e-02
-5.017832417679720519e-02
-2.468579252668835072e-02
3.887277808796316125e-03
-3.354079188327075550e-02
1.794175835689575949e-01
4.675819202718031753e-02
-3.276534051942760206e-03
2.333665815926345283e-02
-5.220493239055470219e-02
-1.606827628285568410e-01
1.925873989236556966e-04
-1.032075866885734383e-01
-3.595068819831857831e-02
4.975544155328922614e-03
3.565514107545173644e-02
1.195394460225311650e-02
1.880110485617941113e-02
7.903030927443172038e-02
-1.125776907675380724e-02
-4.982814533833076175e-03
-1.005432255614588932e-01
-3.957774088993991704e-03
-8.036923979054635611e-03
-4.995023001356696350e-03
1.255802068016280762e-02
9.930470846214459191e-02
1.065303202239050416e-02
4.385176641704812556e-02
9.643673043769533312e-03
3.039129242626896488e-02
3.695318371741729280e-02
-1.147101702278407846e-02
6.095330547758083528e-02
-6.145709577146663688e-02
-1.088651082878352438e-01
-5.270149087548968089e-03
1.163473168965229940e-02
1.889671888118158241e-02
6.618100462418508023e-02
-8.676632089892492850e-03
-5.884148205744466759e-02
4.242883813248393005e-02
-6.635303009261701856e-02
1.315876533433713719e-02
-6.223395596142038827e-02
2.522454837128473848e-02
-5.208422226582241910e-02
8.471590826561313514e-02
-8.122829940757955725e-03
-6.522545760104771218e-02
6.456724379781320078e-02
7.541356112249121557e-02
6.754707769318540889e-02
-4.554852974354370483e-03
-3.668506500077943489e-02
-6.952591744951457098e-02
-5.181718044262501044e-02
-2.367354554163940070e-02
4.329592259323596787e-02
1.384020999530972407e-01
-4.669250090575738539e-03
-3.911196463012318880e-02
-1.376882762848418706e-01
-3.329059042203466601e-02
-1.164977069490058114e-04
2.414516674087808026e-02
5.232931244055057801e-02
-7.666052205332825331e-02
-2.199468864547734354e-02
-5.162020325470990934e-02
-3.013936653359685844e-02
3.313796899433467738e-03
1.089652314639233260e-01
3.128941197273066299e-02
3.684634015102660615e-02
-9.205697403170169657e-02
4.774005617360720793e-02
2.593090932755964806e-01
7.939207561007879943e-02
6.645665578682001876e-03
-7.674773438311213725e-02
-8.037914712201930933e-02
-1.439030351011318654e-01
-7.526887358342736027e-03
-4.111916843399392174e-02
-5.518856616015427319e-02
8.250527998022472165e-02
-1.058429261943720848e-02
4.751506418301570944e-02
2.514674625752369441e-02
-4.074817584883562438e-02
2.127308428485246913e-03
-2.928328466230204971e-02
-1.786675973075772805e-02
-8.333134178773963369e-03
1.659136299172237622e-02
3.829232305899641503e-02
-9.584394300023394569e-03
8.056578392653111417e-03
-2.710302477246748915e-02
4.169493868865515457e-02
-3.291545339142414039e-02
1.716721872850545186e-02
-2.722621455896198986e-02
2.151097669661319878e-02
1.088940359246302371e-02
-4.017844983383647532e-03
-9.221115094993023731e-02
1.742103652437414218e-02
2.929128436932576518e-02
-8.453983382168016314e-02
5.336272539752935640e-02
1.101248961371335995e-02
2.504442389094763306e-03
6.315900647757277664e-02
1.242298124825727962e-01
5.856965346681970719e-02
-3.375223993597652877e-02
-3.666092884745791869e-02
-1.281803109335156489e-02
-2.121565542869559631e-02
-3.988195461365375005e-02
-3.847065603025612984e-02
1.403351790727045689e-01
5.066016245044400144e-03
1.294442894525503762e-01
2.727213320502404337e-02
-4.170231303610212603e-02
-5.794488039649169780e-02
-7.088223689209791067e-02
-1.315881876506318493e-01
1.221956124056126046e-02
1.369930793548695680e-01
-5.324587827128027251e-02
-6.431850633565559805e-02
-1.234116950480503849e-01
1.038829022045746446e-02
1.903163657047061627e-02
6.234351226862725609e-02
-1.266796336002595502e-01
5.885065997675744537e-02
1.079258804788631315e-01
4.547523787776681231e-02
5.932594891442351248e-02
-4.348200087816478376e-02
-4.063451529065758433e-02
-6.078157747872773436e-02
-2.772627020216907878e-01
-2.386232369809793141e-01
-2.355929390728883632e-01
-1.286186458497143581e-01
-7.312549780578488090e-02
1.741564664384553096e-01
1.488612167681292731e-01
6.302053385244703598e-01
-1.156139596858833316e-02
1.214656197128572701e-01
1.329263260006460501e-01
2.882968784278104601e-02
3.923824461133987133e-03
-1.172667767171504394e-01
1.024289020361750409e-02
-1.685601755352963971e-01
1.051423113822035349e-01
5.976744667629394631e-02
-1.442265250943142001e-03
4.408659583438766238e-02
9.735101821433540456e-03
2.457402134926029921e-02
2.009251336798935708e-02
-2.619557251806264864e-01
-1.832259964097385230e-02
1.644384104055712781e-02
5.979062795129604785e-03
-2.741426543690523524e-03
1.180739707507571512e-01
2.351541086243415148e-04
-6.391042782120115451e-02
-5.575757468920290727e-02
2.418299352542278152e-02
-1.655501730535511098e-02
-5.063261848045978036e-02
-5.885627003568584537e-02
6.629188681608341217e-03
1.038178940001165985e-02
9.821987505461847456e-02
-1.336994084016071907e-02
-3.605034076064258641e-03
-1.238341029522709441e-01
2.656287176714147019e-03
3.088275295456461428e-02
1.533893141165122431e-01
2.340776427569160253e-02
4.694838627643873295e-03
-8.759182012279102814e-02
9.896525388057851591e-02
1.247793935816347011e-01
1.469728011423942493e-01
1.200105383976017293e-01
-2.441875267057973531e-01
2.581698774403236654e-02
-2.083817764097991854e-01
-6.397567163064558915e-02
-3.512714738884423898e-02
-3.162641705984258617e-02
2.238274150793726630e-02
2.988902685053083236e-02
-1.292568706127673710e-02
-8.112037974034480570e-03
-5.213009168520583124e-03
4.073253029405051601e-02
4.223967604394023023e-03
3.939659892019743703e-02
6.895106307271334049e-03
4.120576407456219559e-02
6.088103250480815867e-03
-1.546301183301505844e-02
-8.610245011593328779e-02
3.755921792042793937e-03
-1.252807696911625024e-01
6.916589783627802301e-02
1.159572679100529941e-01
-4.748816912410171870e-02
6.441362994808350062e-02
-6.394595058284238687e-02
-3.724466500404579380e-03
-9.097439795903701151e-03
-2.114342851346008301e-01
-2.499475516761004712e-01
-2.063344100347908605e-01
-8.166352616718751400e-02
1.247033779750300261e-02
1.227062168123063263e-01
1.260195478386147983e-01
4.881836705642557672e-01
1.943638343786928679e-01
-1.863739470795960224e-02
-1.096974445904529416e-01
1.370756468182549315e-01
-4.416795186230448866e-02
-7.903864784898659290e-02
-7.838065229006981743e-03
-7.205997695823655735e-02
-6.817940031805061474e-02
1.479383631288134215e-01
8.346660971410817254e-02
-7.930448807526251087e-02
7.555011264081425149e-02
-4.674598835072770603e-02
-3.608678252340571935e-02
-7.663842621628941254e-02
-7.678273313413938594e-02
8.761793132768401493e-02
6.465412143205441498e-02
4.483700530687513564e-02
-2.144618187311833971e-02
-4.892137184636664166e-02
1.294851551939826470e-02
-6.290728673238757396e-02
1.455522871840451704e-01
6.450516530907397794e-02
6.332649594806856463e-02
-1.151336671387028082e-01
-1.508032431157916853e-01
8.343236827186496785e-02
-4.328639301427317926e-02
-4.759301344428372438e-02
-6.604482484959668664e-02
1.846571880599680859e-01
6.188621836361441093e-03
-7.704551643733269228e-02
2.572671613652645697e-02
-8.144229161852717391e-02
3.800132785604869168e-02
-3.004122098344768135e-02
1.601867680898822963e-02
-5.076299425648628239e-02
1.433672308877093592e-02
9.882471145186855210e-02
-3.154004571561188491e-02
-2.689035110165937520e-02
-1.758843733040736310e-02
-2.398282945462762179e-03
-5.960793017317615045e-02
5.239918331531291662e-03
-1.293117085184009724e-02
-6.913168050691860522e-02
8.539949904353104360e-03
-1.231662812494283346e-02
3.166778282634750974e-02
1.085397585946454024e-01
2.651315959322873561e-01
1.357261161330806376e-01
1.202290957863559051e-01
-4.777848922053584690e-02
-1.120270026836390764e-01
-7.156617188175803945e-02
-8.360333349416614046e-02
-2.061118105716235327e-01
-2.128622705314299826e-02
1.732441291609563006e-01
-5.107345724664530406e-02
-4.584394297097226650e-02
-6.767273066708513751e-02
8.434146065832559894e-03
-1.086079092380878991e-01
1.128059919491433555e-01
-1.116889383344170927e-01
-3.159442687219437412e-02
1.653598932726809551e-02
-5.080621973517330560e-03
2.144526805062238126e-02
-1.514349388125930604e-03
3.454533008755614892e-02
7.735174910280809280e-02
-7.138344261507081900e-02
-8.149366059742804702e-02
-2.346779600809449640e-02
1.659613263766449298e-01
6.790074578522778403e-02
-1.278391654258618226e-01
2.480255980026581028e-02
4.551943268431672684e-02
-1.052587346889225922e-01
-5.170308871119306399e-02
3.555396105301673881e-02
9.698820723925757892e-02
4.248393274908012635e-02
1.527382438216642706e-02
2.722139701880100376e-02
-6.055949904220543634e-02
1.055237615981462901e-01
-3.586204546802922860e-02
-3.018875916665880038e-02
-1.174877385883040110e-01
1.273701047272575264e-02
1.418696968123314694e-02
6.692605400113869896e-03
4.439819607077449826e-02
-1.374651352123606729e-01
-1.076662310206550066e-01
-4.307429111922334714e-02
-9.496364404241165041e-03
4.950060786611516772e-02
8.472994951028378630e-02
7.247016469523462345e-02
9.100129968484552134e-02
1.841318835473870485e-01
-7.939448697677565017e-03
1.463622375466215771e-02
6.975536969371248786e-02
-9.459617159597334679e-02
5.272116173097380482e-02
2.474729303569860039e-02
-2.434563114687844643e-01
-1.828004939219047068e-02
-3.828036233288569651e-02
8.912434729640095416e-04
6.182791052578412959e-03
3.296067323336290822e-02
-8.615938980109616452e-02
4.978727882163042073e-02
5.289781494563697978e-02
4.032379188641548040e-02
1.243940467297100644e-01
-1.057203153395043504e-02
-3.239036512362269971e-02
8.179987589363067746e-02
-5.675969929406153580e-02
-1.180702887740377738e-01
-2.872532978408362178e-02
-8.234484095974727025e-02
1.424002140482348230e-02
7.884948135703560845e-02
3.275005991710876196e-02
5.118680296297294097e-02
-4.305134047372820988e-02
3.950923513792893582e-02
-9.113941934639413489e-02
-5.975580029436523832e-02
2.109638555398467563e-01
1.951191608964280566e-01
-1.202081767299869181e-01
-6.951778119934620692e-02
3.312066689702053424e-02
-5.930359591745571618e-02
-1.304183291921412469e-01
1.541328839492108194e-01
-8.113878524636132517e-02
-7.248598364125896643e-02
2.535976781041294689e-02
-2.067293441763838960e-02
4.117192944089865733e-03
2.318137855915063800e-02
-3.249351995760708933e-02
-1.811985701347061661e-02
-3.765921178178479461e-02
-7.403855958746030034e-04
7.911260776484033141e-02
7.411312368699384152e-03
-2.628402094003499598e-02
3.137954010439029245e-02
-3.509998490676501104e-02
1.194574988129148696e-01
7.708035279300617937e-02
2.236266835719950830e-02
-3.841934815638024109e-02
2.280680004262550589e-02
-4.003755971816441023e-02
-5.718623584656003928e-02
-1.060641762846404046e-01
1.604378390186262937e-01
8.004908961703821602e-02
-7.698926864214648662e-03
3.685205122832693747e-02
3.292062633230767588e-02
-6.158753445484573680e-02
-9.366989269018226316e-02
-1.473032521870561995e-01
1.251887447402536546e-01
9.204508215329280929e-02
1.626408937499091434e-01
1.179463151026122029e-02
9.030878663001308537e-02
-5.424764949164459157e-03
-1.265973326777081187e-01
-3.499560411568568563e-01
2.359586883246254929e-01
8.875694885277152224e-02
-2.277965066448517026e-02
2.233961458528930730e-02
-5.897779316893963023e-03
-5.655033251127389998e-02
-5.646963055226954242e-02
-2.053578587177640746e-01
-2.356494342981527990e-01
-1.497193922105373720e-01
-1.829716847275143499e-01
-9.033662817178519933e-02
-1.254234103202606365e-01
-9.310360433305454875e-02
1.212518153377152158e-01
7.559523387235902447e-01
-1.867857259750256849e-01
-1.403347207344523007e-01
-1.495861177542389953e-01
-1.245456700106706144e-01
-8.847096381742669546e-02
9.371606922061748992e-04
3.764151444585550621e-01
3.123708931410509315e-01
-1.754511873503862285e-01
-1.165880946156981485e-01
7.909965903111595975e-02
6.858227800617591741e-02
9.330830589840969280e-04
2.454648776141895861e-01
-7.571900458862847183e-02
-2.632161115575288798e-02
1.205687513375812009e-01
1.083794555915497809e-01
2.118996025894645807e-01
-6.196380456766712591e-02
-7.517785319169644626e-03
-6.181504307776449630e-02
-2.365505457657107735e-02
-2.858961219774238671e-01
1.376581409155843705e-01
9.038554524527409040e-02
-4.387125305927132117e-03
-8.782331352013268699e-02
2.157739049169209167e-03
3.871151423866743546e-02
1.748076609037994139e-02
-1.941832667130155288e-01
-7.995350322803952692e-02
-2.832927716295013942e-02
6.043783689756763999e-02
7.242966481530131728e-02
6.304072533810782530e-02
-9.412902133615172473e-02
7.332490931768047282e-02
-6.682133464151625291e-02
-1.397794180080926818e-01
-2.176765679890722838e-01
-5.835152245185262071e-02
3.366898407893900713e-01
2.495832607095747890e-01
-1.445117826609854939e-01
-1.753545581766850769e-01
1.494007477877252743e-01
1.798091784179627062e-01
1.102052553865946471e-01
9.325488745224437548e-02
-1.004215479250974291e-02
-1.001101926540897136e-01
-1.397096797483888542e-01
4.162890197116665691e-02
-1.750361960329811228e-01
2.995659373048393040e-02
-4.281124181103078408e-02
-8.535086452181294900e-03
-6.386878917744087669e-03
1.713857826188327008e-02
8.848582491496682911e-02
-7.281414878424161130e-02
-5.033640942135937657e-03
7.654508326637235460e-02
1.652084667749772195e-01
-5.217701160529525373e-02
1.811709168781462653e-03
-6.856704582536971015e-02
7.424896738761600778e-02
-4.755473089848553242e-02
-1.495154382685962013e-01
8.141589511516801603e-02
1.843379983096248287e-01
-3.545719828535467966e-02
3.194795908571932547e-02
-4.031124972575286791e-02
-5.763877246936711940e-02
-5.331801423295910725e-02
-1.109766177970791107e-01
-2.644294228890561316e-01
-2.872621613150264097e-01
-3.059819344235576999e-01
1.493585115826884593e-02
2.092798696514428652e-02
7.890143314256921336e-02
1.584941919768612373e-01
5.844140553847979591e-01
-1.346889494369607754e-01
-7.110302232023026081e-02
-1.555384666109501865e-02
-5.456921442722855592e-02
4.726475995755364395e-02
1.766873355543612314e-02
2.040466531710183589e-03
2.089410728008148643e-01
-1.037768033991457763e-02
-4.676906121962921131e-02
-1.386832966213034576e-02
-9.985068008416018992e-02
2.383675591910822122e-02
8.038321934566017291e-02
6.804445121307543809e-02
-1.398675172008973303e-03
-3.247856231140443944e-02
-1.252032660977278333e-01
-7.225690496594576115e-03
5.442656756393378370e-02
-8.295955264449078603e-02
6.884962439558367508e-02
1.295420655791065800e-01
-4.951185988406380488e-03
-4.731452624338202545e-02
-2.306525658865119649e-02
-1.192503848847045744e-02
-6.404079677488995481e-02
1.066005968987537855e-01
8.980937039073312589e-02
-1.600573401506711832e-02
-3.405861517902595420e-02
-1.465023235662930023e-01
8.323350653565875223e-02
2.623485662795244436e-02
3.106323036725545661e-01
-1.773507742993822925e-02
-1.604411659379839997e-02
-1.655814855011847331e-01
-7.423766374495167908e-02
1.462286553542990197e-01
-3.392793894546648065e-02
-9.604197520413043643e-02
-5.976934428180648989e-02
-1.321748627490453454e-03
5.867018657090379563e-02
4.190634166027365493e-02
-5.574417652658233968e-02
-1.483344934248354285e-01
8.209388727131039509e-02
-1.555615687017568825e-02
-2.482878348622593462e-02
1.712748868016343226e-02
6.716074739559228790e-02
1.210918662548457064e-01
-9.875455582067456384e-02
1.044201668793350857e-01
-3.937664504531604437e-02
-3.159533232144422915e-02
-4.348367053420682665e-02
6.350198656311091538e-02
-3.556877671485964704e-02
-3.916921138323323920e-02
2.127148255661365922e-02
2.703527868701798287e-01
4.490605675965920335e-03
5.936519058797699172e-02
-8.746832315605963803e-02
-3.231487310376058436e-02
-2.292856801918309248e-02
-1.804752178490109660e-01
-1.102160100610916592e-02
-4.470888196283850369e-01
-1.485685812147887475e-01
-1.416644051234478285e-01
8.977458037464323970e-03
-8.287250024786817215e-02
-1.429160239563803843e-02
6.232940549831697498e-04
8.248851565176829048e-01
-7.083751269872780310e-02
-2.064293667671737373e-02
5.555799087980540368e-02
1.487936526210313463e-02
5.279894753823690355e-03
6.430144379911879871e-02
6.950608079523475091e-02
-1.180443261146416484e-01
6.176238102002577085e-02
4.314183194853964814e-02
6.214784088575726201e-02
-9.391509908376990956e-02
4.661697772578754680e-03
-8.781567880526759684e-02
9.197921479986000126e-02
-8.196218853772249680e-02
5.819370103867668037e-02
-1.767901319302651181e-02
2.631603691705848569e-02
-8.717371002225850207e-02
5.555720963822953495e-02
-1.792969041056687723e-02
4.603640628624518921e-02
-6.332094025435779094e-02
-8.657031999745110409e-03
-1.750874892139906228e-02
-2.664694234754191524e-02
6.918185064484566604e-02
5.779008571765020287e-03
-1.191238622581437638e-02
9.598773782695553883e-03
-1.983452350480605780e-02
-1.518526219277157273e-02
2.302175447897304023e-02
3.360624072572614141e-02
-4.409423308326281682e-02
-3.346855612071249902e-02
8.985957306061144456e-02
5.272232115336546870e-02
-1.064618380219293642e-01
-1.320877001525449790e-01
-1.588153838258539730e-01
9.015585694825201113e-02
-9.310027274382763271e-03
5.651463353616849317e-02
3.559738050519124092e-02
2.623165045297433384e-02
9.171358981019638035e-02
-1.918015337889236449e-01
-1.459246588872039341e-01
-1.079089316498551138e-01
-3.995095572212349622e-02
1.141058037504800587e-01
1.112127214291158961e-01
1.063197726430483853e-01
1.539477822254625983e-01
9.310424746117038075e-02
-3.540768765743515512e-02
-1.047479828820364195e-01
-6.030916505882306239e-02
-4.119884428623208847e-03
3.997619663974977949e-02
3.793265531423721526e-02
3.357162061175936185e-02
1.165600747242261370e-01
8.743133947413567197e-02
1.347398914290204586e-01
-3.869342712119503563e-03
-1.394417749669893958e-01
1.866476539759474862e-02
-1.622844604160312565e-01
-5.180049292983786302e-02
7.990869233696282214e-02
1.416389486477355186e-01
7.222828251670049271e-02
2.793055112032140352e-02
-1.018334659600043414e-02
-7.566769405798950965e-02
-1.144640857970835590e-01
-1.213913481706475339e-01
1.101634732246135617e-01
2.702205259579898433e-02
2.721436024415346822e-02
-7.769115234995319086e-02
6.221627101259204901e-02
-7.863386389688480083e-02
1.840679649727375213e-03
-7.213182048004636304e-02
-1.167413215572764978e-01
-5.819629007031476564e-02
1.301481674907808798e-02
1.339283567639962258e-01
-6.730768827595488835e-02
-1.301987227551755777e-01
1.096285959298393814e-01
1.158722532158092400e-01
-3.047226400501452589e-02
2.536970649528392380e-02
-4.108231665348394124e-02
9.334620473203613517e-03
-4.392373608699143284e-02
2.999201183082359293e-02
4.125063803758562131e-02
9.531339908593340973e-03
2.236393301854347482e-01
2.512918960286848052e-02
-2.775049240667741210e-02
-9.894682925482176095e-02
-4.072113258860831503e-02
-1.346378857305139190e-02
1.035021559236423173e-02
-7.823649255751077836e-02
1.609432792021923964e-02
2.449710838144343768e-03
-2.691228872062065292e-03
-2.250415200316502329e-02
2.843472852593210282e-02
-5.029296343119632473e-02
-4.428096203062103359e-02
7.279053905274912584e-02
-2.364361133923834069e-01
-8.334941078018921756e-02
7.948342440839842662e-03
7.421027920905086395e-02
8.410653821137779873e-02
-3.980361907300632163e-02
8.801044776009654680e-02
1.053135356242131393e-01
1.418639336956662722e-01
1.254636287552425844e-01
1.018198220620414041e-01
3.324210435595707086e-02
-1.521970793137778499e-01
1.259579596296951653e-01
-1.991820742820915868e-01
-1.769682949027336083e-01
4.432571848262413169e-03
-3.808054842419512920e-02
-5.191678455445798007e-02
-3.283742454884718692e-02
-2.033874185569527898e-02
5.759536272884859670e-03
1.465764115508380074e-02
1.183237501069641096e-01
1.195145135958982641e-01
1.204158386632385447e-01
6.545229376363900786e-02
-6.949846610142688952e-02
-5.785855446534738517e-02
6.262293517904333508e-03
-5.866568920613258326e-02
-1.256222297677728750e-01
1.730938047200067387e-01
2.290505380261367158e-02
4.653867178511536182e-03
2.887712129604422945e-02
-1.002755322527993653e-01
-2.723850390767003360e-02
-1.296872007241870461e-01
2.767138988748077399e-02
1.086531992907446426e-01
6.240766635549430813e-02
-2.126270419615838847e-01
-4.291392236612336791e-02
1.304829555920267690e-02
-9.585351399630423486e-02
2.033345517937692679e-02
1.469518619391928238e-01
-1.236659204550620006e-01
-1.589074256875801575e-02
1.553744549978881666e-02
1.805841617364634943e-01
4.945158047043303473e-02
-9.826279575874198591e-02
4.762297352452883603e-02
-5.537670244865457864e-02
7.855287224042510619e-02
-1.040374662562427478e-02
-1.833776585086923511e-02
3.563098095144989329e-03
-3.558178593833456749e-02
-2.524412857801643095e-02
1.634352278136241496e-02
-8.892066124088398096e-03
-5.572634342100135640e-02
7.116732356136450111e-02
6.125640751018598257e-02
4.218930235579646665e-02
1.833553318742068075e-02
-1.130095044749456282e-02
-8.375768163811361799e-02
-4.216359110815798977e-02
4.498525541103146064e-02
-1.566362427627785714e-01
-8.386412015971071721e-02
-7.236938267293081817e-02
4.502018791018019828e-02
1.620898499757844891e-01
1.176836669035871419e-01
-5.690921460516223246e-02
4.775810106185453263e-02
5.016262086242372076e-02
5.320411304119952028e-02
-7.447654741246959031e-02
2.569738114572339346e-02
-8.266705295325114944e-02
-4.057895261955455496e-02
2.090033687407600801e-02
7.656077663535940103e-02
-1.943336301050836018e-02
-7.837704927689428946e-02
9.738221283101630710e-02
3.087541105677512124e-02
-2.474862808858679930e-02
-2.545026093248744029e-02
-5.680909921467257317e-02
5.434765172121571591e-02
-1.366101813084688414e-02
7.958249152608922600e-03
-2.685613556272092861e-02
-1.714042534093627654e-02
3.520083825243539716e-02
-1.187815676675339598e-02
-2.797100332500260939e-02
-2.624399661416664253e-01
-1.452553460605171542e-01
-2.959778109328474807e-02
7.547009612748777074e-02
1.467949016423165109e-01
9.693321481190231292e-02
1.402572883437096796e-01
-2.216240762994748856e-02
-5.386697848760332169e-02
-2.010537464288150375e-02
1.613846344333244240e-02
-3.021449694006490133e-03
1.215114705416490276e-01
-3.672843619084291064e-03
-5.653291452135914691e-02
-4.503730200476949554e-04
1.447749322809751271e-01
5.256809827588326822e-02
3.759556551003694763e-02
-7.181660663011694978e-02
-2.087385313744438003e-02
2.092862120399083606e-02
-1.261975262410583998e-01
-3.697923126226679985e-02
-8.381114980376865031e-02
-1.520611697334683411e-02
-3.986248194029307773e-03
1.333659545774032971e-02
5.716538525755650996e-03
-2.818197977437542426e-02
1.142731684555060162e-01
-2.140807693480810750e-03
-3.094967520318671686e-02
1.515169388251083327e-01
4.075385792277295277e-02
9.347683888644478523e-02
-2.082411373452690631e-02
-6.183481116349524159e-02
-2.287233545728858952e-02
-1.492667000758284013e-01
-5.646383687975950472e-02
-1.943367403006894534e-02
-1.963278696095635545e-02
-1.661861518688959038e-02
-1.482852514179767989e-02
-1.502346302721842275e-02
3.728999237125780325e-02
1.047109088554326189e-01
2.499323358241288887e-02
-9.646693637700141932e-02
-8.704968352571121337e-02
-7.438520088753539788e-03
-6.173236886220358210e-02
-9.629592492116827510e-03
9.069358748116526647e-02
1.466302802822080364e-01
-1.768328554633516181e-01
-9.391750373163616772e-02
-2.684703234601044930e-02
-3.900507577164463030e-02
1.299933796910341943e-01
1.353201509719336726e-01
2.889880427472414637e-02
4.239013237495325992e-02
1.395657194734062634e-01
2.118242151778723659e-02
5.313137368642926323e-02
-6.497319207783473771e-02
-5.904518789974416010e-02
-8.893760517872854876e-02
-2.493878697959859420e-02
2.401525745828305899e-02
-4.848166049285738272e-02
-1.126189819531647242e-02
-1.060637537675684500e-01
-8.739730356703603875e-02
7.276665964877827852e-02
6.442281459868871851e-02
8.151518509511715416e-02
3.449995668019302519e-02
1.507803917020877627e-01
4.248179121177057815e-02
2.212024130402630989e-02
-7.165846142109316697e-02
-9.964874590856601100e-02
2.128592931195710802e-02
-1.096285035821018862e-02
-5.439829584197437840e-02
-1.702584099847895271e-01
-1.249720776142799333e-01
1.037290660049001306e-01
9.867063931859076931e-02
6.806089943010835974e-02
-8.425484522947529475e-03
4.635854574450259946e-03
2.855951279396573908e-02
-7.754178414285582688e-02
7.514245236941054229e-02
4.670858463774717195e-02
-1.920974478025196347e-04
-2.164049686983995913e-02
2.399870047691427758e-03
1.039773242190043454e-02
-3.527426101625034949e-02
5.655669523597967041e-02
-6.808679149757532190e-02
6.181835531158973163e-02
9.520861392641379040e-02
-1.439809263063599777e-03
-9.024651030313796118e-02
5.202039359336631946e-03
-5.901259276954395894e-02
-8.622788516219244415e-02
8.562233467227887973e-02
-8.587633437797997926e-02
5.614908819084389602e-02
-8.902973061541738509e-03
1.241451913372937504e-01
1.469049094206742630e-02
-9.959991254076988598e-02
-8.793451245739965227e-02
8.179578394135952890e-03
-3.186125709705733139e-02
7.040903660409950082e-03
3.493393777993489963e-02
6.196537376349981613e-02
-2.216730681354278990e-02
2.984328277001849217e-02
2.006031616663593239e-02
-1.598622679943224878e-02
8.997314222242087933e-02
1.232259080345617097e-01
-8.063574913327287152e-02
-1.253700928906542333e-01
-1.191489930074621229e-02
6.476017004883869495e-04
-4.973581305442710543e-02
-5.995575596119689238e-02
5.680746395228926382e-02
-7.884397395546940968e-02
-5.349277123019685609e-02
1.244370147061569509e-01
3.906951827031287378e-02
2.171431727253116464e-02
7.355108457195770610e-02
-5.788052024180511887e-03
-1.028440757672637318e-01
-4.390237375396721653e-02
2.263388882053003412e-02
4.839973362975490828e-03
4.704355966793476174e-02
4.465995122012910573e-03
1.577182403810729605e-01
1.518620403341175429e-02
-7.372736429967895883e-03
-2.142673364267623504e-02
-2.947814348503252288e-02
4.961761994387052510e-02
-1.315634760285908610e-02
-1.510881031978180411e-01
1.410370350542165252e-01
1.183218226967168024e-01
1.565751376451398058e-01
5.543105081244381616e-02
-1.655520247682584767e-01
8.514777597945022425e-02
-2.396935950640360358e-01
-1.512672023556673184e-01
1.438825683887255402e-01
1.456259496821778743e-01
2.953924167979946405e-02
-1.672986436432806825e-02
-9.601714647741167036e-03
-1.151225143433961817e-01
-1.701746554554323942e-01
-7.419010939804558148e-03
-5.256219223623530279e-02
5.023560773792600659e-02
7.643317567636977172e-02
-3.454149027941706002e-02
-2.801241954496264466e-02
-8.779767146102081254e-02
6.337334420315568484e-02
1.287164590418496575e-02
-3.848179589392469735e-02
-9.425163266873018419e-02
-5.579350062441565394e-02
-1.061802125683882214e-01
-3.883339216249894615e-02
-4.764919214356919813e-02
1.221941196203018935e-02
3.689703140994962660e-01
3.700810588589260042e-01
2.072246316664097185e-02
-1.128430295032191027e-01
-8.062808685038951040e-02
-7.023314477494366215e-02
-4.027793783200805250e-02
-2.854581484134525310e-02
-5.827550822366241168e-02
-1.197662783864013730e-01
-1.104446509128915593e-01
-4.277209160489638118e-02
-6.606200759860673954e-02
-8.048932177376842689e-02
-4.546941533570624666e-02
1.482385731863145734e-02
4.501799082936392971e-01
-1.261020872159331063e-01
-1.151942413094734774e-01
-2.085513750089491580e-01
-3.383581537311600856e-02
6.911861156314826060e-02
3.810030778139195107e-02
1.985866491886748297e-01
1.778779503742594637e-01
3.929163391517678794e-02
9.583932677472289940e-02
1.919353979147179513e-03
9.630913172778136910e-02
-8.388382809623796607e-03
6.939798685202400175e-02
-1.329296151521449920e-01
-1.614394352870838212e-01
2.312587100089522063e-01
1.967727242275084942e-01
-8.861576847342854391e-02
2.916304402709481852e-02
-1.128127015173781000e-01
-5.208394171365620523e-02
1.716567258943322780e-02
-2.208477391485263452e-01
3.283017520015480816e-03
-3.159972422046007667e-04
-6.519278380295455422e-02
3.952415294581910349e-02
4.948834673975800735e-02
-9.621296752101386740e-02
1.238349516844364923e-02
5.704273619213744845e-02
-5.923387490321609279e-03
1.792507382580194389e-02
-3.574788307903354473e-02
-2.786556133596389609e-02
-5.286599254497265782e-02
2.102938884859673757e-02
1.134578903894198215e-01
-3.000952861352708043e-02
-9.221115094993023731e-02
1.742103652437414218e-02
2.929128436932576518e-02
-8.453983382168016314e-02
5.336272539752935640e-02
1.101248961371335995e-02
2.504442389094763306e-03
6.315900647757277664e-02
4.432571848262413169e-03
-3.808054842419512920e-02
-5.191678455445798007e-02
-3.283742454884718692e-02
-2.033874185569527898e-02
5.759536272884859670e-03
1.465764115508380074e-02
1.183237501069641096e-01
5.126173389735846214e-02
6.693798727918594260e-03
6.102200932474852874e-02
3.927480379024175100e-02
5.832008802143507503e-02
-9.789448963460524455e-02
1.761783856643848664e-02
-1.362957826935357886e-01
-1.346889494369607754e-01
-7.110302232023026081e-02
-1.555384666109501865e-02
-5.456921442722855592e-02
4.726475995755364395e-02
1.766873355543612314e-02
2.040466531710183589e-03
2.089410728008148643e-01
-7.526887358342736027e-03
-4.111916843399392174e-02
-5.518856616015427319e-02
8.250527998022472165e-02
-1.058429261943720848e-02
4.751506418301570944e-02
2.514674625752369441e-02
-4.074817584883562438e-02
6.176238102002577085e-02
4.314183194853964814e-02
6.214784088575726201e-02
-9.391509908376990956e-02
4.661697772578754680e-03
-8.781567880526759684e-02
9.197921479986000126e-02
-8.196218853772249680e-02
-1.465023235662930023e-01
8.323350653565875223e-02
2.623485662795244436e-02
3.106323036725545661e-01
-1.773507742993822925e-02
-1.604411659379839997e-02
-1.655814855011847331e-01
-7.423766374495167908e-02
-8.657031999745110409e-03
-1.750874892139906228e-02
-2.664694234754191524e-02
6.918185064484566604e-02
5.779008571765020287e-03
-1.191238622581437638e-02
9.598773782695553883e-03
-1.983452350480605780e-02
-5.960793017317615045e-02
5.239918331531291662e-03
-1.293117085184009724e-02
-6.913168050691860522e-02
8.539949904353104360e-03
-1.231662812494283346e-02
3.166778282634750974e-02
1.085397585946454024e-01
-1.518526219277157273e-02
2.302175447897304023e-02
3.360624072572614141e-02
-4.409423308326281682e-02
-3.346855612071249902e-02
8.985957306061144456e-02
5.272232115336546870e-02
-1.064618380219293642e-01
6.613404559210531164e-02
2.041386501493373529e-01
-6.754950992667113630e-02
-6.808131781978972452e-02
-7.602228061573015894e-02
2.370842137564920307e-02
-5.058508899705770057e-02
-3.174291975784297032e-02
1.435460600827651728e-02
4.856943863920158005e-02
-1.294195795354426970e-01
-3.770835468925283485e-02
-3.953027413255453745e-03
1.495638084450087550e-02
3.514014649487828823e-02
5.806038965109504291e-02
-4.470888196283850369e-01
-1.485685812147887475e-01
-1.416644051234478285e-01
8.977458037464323970e-03
-8.287250024786817215e-02
-1.429160239563803843e-02
6.232940549831697498e-04
8.248851565176829048e-01
9.896525388057851591e-02
1.247793935816347011e-01
1.469728011423942493e-01
1.200105383976017293e-01
-2.441875267057973531e-01
2.581698774403236654e-02
-2.083817764097991854e-01
-6.397567163064558915e-02
-1.707309101796567613e-02
1.298441196807895159e-01
-9.663272012066999317e-02
5.397228473895711309e-02
1.554830160348947277e-01
-7.198040122227751525e-02
-4.623065535120745445e-02
-1.073825527425208148e-01
4.032379188641548040e-02
1.243940467297100644e-01
-1.057203153395043504e-02
-3.239036512362269971e-02
8.179987589363067746e-02
-5.675969929406153580e-02
-1.180702887740377738e-01
-2.872532978408362178e-02
-8.234484095974727025e-02
1.424002140482348230e-02
7.884948135703560845e-02
3.275005991710876196e-02
5.118680296297294097e-02
-4.305134047372820988e-02
3.950923513792893582e-02
-9.113941934639413489e-02
2.230681207855550463e-02
4.433941311093451965e-02
4.787576125877322092e-02
6.336006277234895734e-02
-1.855940557630375229e-02
-4.183710268782185604e-02
-5.438275407441344605e-02
-6.310278688207311693e-02
-1.832259964097385230e-02
1.644384104055712781e-02
5.979062795129604785e-03
-2.741426543690523524e-03
1.180739707507571512e-01
2.351541086243415148e-04
-6.391042782120115451e-02
-5.575757468920290727e-02
1.315876533433713719e-02
-6.223395596142038827e-02
2.522454837128473848e-02
-5.208422226582241910e-02
8.471590826561313514e-02
-8.122829940757955725e-03
-6.522545760104771218e-02
6.456724379781320078e-02
-3.512714738884423898e-02
-3.162641705984258617e-02
2.238274150793726630e-02
2.988902685053083236e-02
-1.292568706127673710e-02
-8.112037974034480570e-03
-5.213009168520583124e-03
4.073253029405051601e-02
-6.817940031805061474e-02
1.479383631288134215e-01
8.346660971410817254e-02
-7.930448807526251087e-02
7.555011264081425149e-02
-4.674598835072770603e-02
-3.608678252340571935e-02
-7.663842621628941254e-02
4.278059801638563892e-02
-8.236100736723918347e-02
6.399560878238136179e-03
4.542220479035074393e-02
6.180058342291360612e-02
9.608095208525523762e-03
-1.553071991531506657e-01
7.165716420397658104e-02
2.773778342384103923e-01
-8.072009833006514590e-02
-1.261248510739903239e-01
-6.202897601176731585e-02
5.630498577397915344e-02
4.966054797183484110e-02
-1.502385226451049410e-02
-9.944559030389098220e-02
-1.918015337889236449e-01
-1.459246588872039341e-01
-1.079089316498551138e-01
-3.995095572212349622e-02
1.141058037504800587e-01
1.112127214291158961e-01
1.063197726430483853e-01
1.539477822254625983e-01
1.455522871840451704e-01
6.450516530907397794e-02
6.332649594806856463e-02
-1.151336671387028082e-01
-1.508032431157916853e-01
8.343236827186496785e-02
-4.328639301427317926e-02
-4.759301344428372438e-02
1.184062908447274937e-01
-8.509155887789087921e-03
-5.009374919865757815e-03
-5.014506339980164679e-02
-1.604786673315281020e-02
-5.134419367369286863e-02
7.856692355616871903e-02
-6.591755978659415149e-02
4.385176641704812556e-02
9.643673043769533312e-03
3.039129242626896488e-02
3.695318371741729280e-02
-1.147101702278407846e-02
6.095330547758083528e-02
-6.145709577146663688e-02
-1.088651082878352438e-01
-3.848179589392469735e-02
-9.425163266873018419e-02
-5.579350062441565394e-02
-1.061802125683882214e-01
-3.883339216249894615e-02
-4.764919214356919813e-02
1.221941196203018935e-02
3.689703140994962660e-01
0.000000000000000000e+00
0.000000000000000000e+00
0.000000000000000000e+00
0.000000000000000000e+00
0.000000000000000000e+00
0.000000000000000000e+00
0.000000000000000000e+00
0.000000000000000000e+00
2.448518743563982969e-01
3.140069811778933850e-02
6.031514275477650039e-02
-5.867701920883674777e-04
-1.069723407605989995e-01
-8.795459134057469208e-02
1.424699980592149945e-02
-1.553010127416229180e-01
1.058835089575725814e-02
1.646320875667307707e-03
3.337354420041855740e-03
-2.624439806432946054e-02
3.366379986801915775e-02
-3.993833126272944983e-02
1.683874259866388612e-02
1.081606689093811673e-04
-2.128622705314299826e-02
1.732441291609563006e-01
-5.107345724664530406e-02
-4.584394297097226650e-02
-6.767273066708513751e-02
8.434146065832559894e-03
-1.086079092380878991e-01
1.128059919491433555e-01
-1.413407512020894152e-01
-2.452845140438403293e-01
-1.006817221020774172e-01
-7.589921862450417500e-02
1.631432489559447863e-02
2.469536003925926204e-01
9.043493441734688776e-02
2.095033462669776414e-01
-1.811985701347061661e-02
-3.765921178178479461e-02
-7.403855958746030034e-04
7.911260776484033141e-02
7.411312368699384152e-03
-2.628402094003499598e-02
3.137954010439029245e-02
-3.509998490676501104e-02
-1.252807696911625024e-01
6.916589783627802301e-02
1.159572679100529941e-01
-4.748816912410171870e-02
6.441362994808350062e-02
-6.394595058284238687e-02
-3.724466500404579380e-03
-9.097439795903701151e-03
1.943638343786928679e-01
-1.863739470795960224e-02
-1.096974445904529416e-01
1.370756468182549315e-01
-4.416795186230448866e-02
-7.903864784898659290e-02
-7.838065229006981743e-03
-7.205997695823655735e-02
2.499323358241288887e-02
-9.646693637700141932e-02
-8.704968352571121337e-02
-7.438520088753539788e-03
-6.173236886220358210e-02
-9.629592492116827510e-03
9.069358748116526647e-02
1.466302802822080364e-01
-1.314899977878180026e-01
-6.972591556275645197e-02
-1.389874355584536959e-02
-3.780728031068522621e-02
4.591019521350549887e-02
-1.258336331198157271e-02
1.239121104650392075e-01
9.568299485054440612e-02
7.541356112249121557e-02
6.754707769318540889e-02
-4.554852974354370483e-03
-3.668506500077943489e-02
-6.952591744951457098e-02
-5.181718044262501044e-02
