3.823657638883803250e-02
1.392239791936312476e-01
9.658586625805649917e-02
-9.607564945706545054e-03
-8.348287460176286034e-02
-1.273845496961455159e-01
-1.510285313398167517e-01
9.745709874290606201e-02
-9.367547291200173723e-03
-1.066256266031580940e-02
-6.404740915495649688e-03
-3.309487055290651677e-03
-2.240421558126236019e-03
-1.904269404447410125e-03
-1.612776009779480621e-03
3.550180489465541017e-02
-4.203994095376574654e-03
2.059862233634860221e-02
8.295524661013683326e-03
-2.586805053395668059e-04
-5.340882528357599780e-03
-8.034812075988613522e-03
-1.112465611358694033e-02
6.887832128698772379e-05
1.495224162971646280e-02
1.672518087846905713e-02
1.673245614322609563e-03
-6.105854774319689066e-03
-8.733191756025328670e-03
-8.838676902928836038e-03
-1.091318031593904898e-02
1.240235626704768498e-03
-1.354806421695751821e-02
9.924071331122011341e-03
1.591566855348568871e-02
4.268741085685087006e-03
-7.027105944188929802e-03
-1.469509813927783945e-02
-1.620127222467367123e-02
2.136305955480516036e-02
2.344669749014535037e-03
5.108033766681032567e-03
1.603442572208694378e-02
7.781454191988627402e-03
-1.149678453820911911e-02
-1.454336044801708000e-02
-1.903460498585709745e-02
1.380616654231216038e-02
3.675280608949942074e-02
5.504941220754802633e-02
3.230963583289035018e-02
-1.667977533278980004e-02
-4.258614774616038129e-02
-6.097180193763707123e-02
-6.828980637598366932e-02
6.441567726263314198e-02
3.776186843893355430e-04
2.407841913950178967e-03
2.445438083102556819e-03
9.133508233787014305e-05
-1.890618600670033187e-03
-7.382774060031940290e-04
-2.017006284539067228e-03
-6.763314725676445888e-04
2.441004213265261444e-03
1.215275527204382616e-02
1.604072219639034874e-02
2.072306500017275736e-03
-5.658755758980483185e-03
-9.688489330748164749e-03
-1.239851063206581956e-02
-4.961032459922256298e-03
3.644098460357260145e-04
6.230900300667495178e-04
4.001393565153242462e-04
4.699701435103386510e-04
-2.978026652792399066e-04
-4.322169567816228119e-04
-3.116367159590171794e-04
-8.159530381082588570e-04
2.056059841507080002e-02
7.047707268877034630e-03
4.841092829341260887e-04
-4.928330786233418512e-03
-6.878347010934425174e-03
-1.137566762767875522e-02
-1.264163499447048915e-02
7.731565452435125961e-03
4.049029081957954308e-04
1.947543739455251085e-03
2.097794893517189972e-03
-9.829888909656483065e-05
-1.755832245850285364e-03
-5.818586811873444715e-04
-1.812337096599657546e-03
-2.019146284343855085e-04
-9.536828090973316352e-04
1.261424670531799495e-03
4.792793130190735958e-04
-1.264196165004857972e-05
6.795880456633806145e-05
1.925766940155935775e-04
-1.564314120654391777e-04
-8.784832993199866548e-04
-5.090916904835765874e-05
1.066183890580733136e-03
-3.937229823851360710e-04
1.472679324531234947e-05
-1.808757663467873715e-04
7.314356573974598529e-05
2.387161277309642700e-04
-7.672624595164738090e-04
-1.550898372072704451e-03
7.294464132294151181e-04
2.464688428232700095e-04
7.181523640958767168e-04
5.507720015062997961e-04
6.622271120544696941e-04
-7.749583919286482433e-04
-5.812099697079780442e-04
4.349143537251443938e-04
4.468426019324362700e-04
-5.941378719530533876e-04
4.546296763724361548e-04
-4.990799726528935944e-04
-2.019534015781921635e-04
-9.117438318151842389e-04
8.705284459693074604e-04
-2.728422380645983701e-05
4.602981744949249010e-04
3.476431895853668470e-04
1.896339714344351499e-04
-1.347863548197481747e-04
-1.564187248158501538e-04
-2.046691879394102790e-04
-4.744168441332588092e-04
-3.595857432293826541e-04
6.104440070273285061e-04
5.475937031095361694e-04
-5.052114117872723428e-04
5.949141963041570556e-04
-5.450285109768461490e-04
9.821871601113750318e-06
-3.529481120486349741e-04
1.645914602858482918e-04
-6.815201251524279384e-04
2.634245187408802247e-04
4.580201566130402539e-04
4.911543527051793470e-04
-1.870717246013172059e-04
-7.486105396630745668e-04
2.400119010718712684e-04
6.131818318585519545e-04
7.105904616749068392e-04
4.403487231644634989e-05
-1.655489449065404713e-04
-1.422528342910285072e-04
-2.980299072557827640e-04
4.964873352487513834e-07
-7.624719667318014069e-04
-1.734448289868625691e-05
9.135280099457589913e-05
8.518386362404680915e-06
4.670170627377562110e-05
1.819574588026194378e-04
-1.655109655728435024e-04
-9.739065243654325201e-07
-1.447009974374804768e-04
-4.332803670556150950e-04
3.661887542417110748e-03
4.572909291123261784e-03
-4.787819659629071785e-05
-3.841408610168489017e-04
-1.583942048801761319e-03
-3.246180767336686798e-03
-2.539374592733162524e-03
4.393394087498215389e-03
8.435846469870106681e-03
1.382277157896312676e-02
7.484142934811319550e-04
-5.154627784100077569e-03
-9.786121695284854052e-03
-9.503508516030483022e-03
-2.956168434397175252e-03
8.998556057974130436e-05
4.857510316657162103e-05
3.689143411348740098e-04
-1.102336002558273835e-04
-8.487607369202618713e-05
-7.250497270281668527e-05
-6.589862091647672078e-05
-1.739617373140401821e-04
1.632563563810066792e-04
1.116438674999421570e-03
2.733890542527380113e-04
2.061191988770192328e-04
-2.832608676366582881e-04
-3.290435956324852832e-04
-2.424150535191334633e-04
-9.044837677219107631e-04
4.030984725231973910e-04
8.018709475430915072e-04
7.348881040614780235e-04
-3.249375952414982585e-04
-2.584378074844203448e-04
-2.344273320558409369e-04
-4.110044660155558129e-04
-7.110503233304512434e-04
5.013267102131311074e-04
6.792712432056583665e-04
4.825298304581032596e-04
-1.743526357163241667e-05
3.756073077224958380e-05
-2.968351975256342088e-04
-8.011602961416462330e-04
-5.852577574102287711e-04
-7.911307403608017685e-05
-1.810376826128933967e-04
9.047295568541758660e-05
4.928146972319914906e-04
2.657483584825984482e-05
-9.533656399064363964e-05
-5.557961191866593816e-06
-2.488172069341850379e-04
-3.616615431780033818e-04
2.310969285939218441e-03
8.724306593713658780e-05
4.726959343738432987e-04
-5.893413118882752507e-04
-8.503985622466276586e-04
-1.096567982804248255e-03
2.706111386695839077e-05
-8.459693553043143299e-03
1.164943468220345189e-02
1.046885410285793190e-02
-3.772618317523719275e-03
-8.991475452755639045e-03
-1.172364563601851518e-02
-1.223353426710623720e-02
2.306267844138582684e-02
4.632602613276275128e-04
4.491702344616661032e-04
3.231781957356353024e-04
-1.711269861658636928e-04
-2.793958732419167014e-04
-7.905345296789798937e-05
-2.042913767093952854e-04
-5.017410024398552765e-04
-3.374599155908087185e-05
3.920892659219185248e-04
1.950426236785031365e-04
4.251188470825141498e-04
-4.809911614553301199e-05
-1.855806984681531563e-04
-6.683401790238201428e-05
-6.779909126077866008e-04
8.047509080356421386e-04
1.305905966994221241e-03
7.305444688225849921e-04
-2.420556952679269299e-05
-2.036501856720079233e-04
-3.972681711409153417e-04
-4.568074041486339305e-04
-1.759270013364096132e-03
2.249084988855117040e-02
2.039442704749425475e-02
2.872351910896226053e-03
-2.863759862095202093e-03
-1.595220146245993759e-02
-2.352772116957177126e-02
-2.940740731115668027e-02
2.599346095834190878e-02
1.212529184403327367e-02
1.080575508113495488e-02
-3.398465075488557390e-04
-5.642665798399917193e-03
-7.327502381749789392e-03
-7.080359523126460164e-03
-7.791380462821901991e-03
5.250707748478693378e-03
-1.938628058054522120e-05
3.129213077343411236e-04
9.574236676564020323e-05
2.595539832180859276e-04
6.628703918562467521e-04
-2.985818856714755439e-05
-5.639339561197914902e-04
-7.179096243068302727e-04
8.122933513298518315e-05
5.375476210281906163e-03
6.892883541799488777e-03
8.344267493115667704e-04
-6.953895681856737607e-03
-7.291016983559803037e-03
-1.123613141080370519e-02
1.229702823969429717e-02
-4.422233064661443432e-04
8.753852885088102753e-04
4.051657102320551621e-04
-5.600851240559588938e-05
-6.557443084792880005e-04
-2.260706932910240996e-04
-9.509324502764108112e-04
1.050428272177598337e-03
2.313968371436138209e-04
4.004420069462133816e-03
-2.459229775720513382e-04
-1.449450694543665766e-03
-1.072497836390369020e-03
-1.155950013499223213e-03
-1.834162396004304510e-03
1.522167011403863582e-03
-3.929394685492225599e-03
6.722887494736882845e-03
3.506222385600501860e-03
-8.258637525654694998e-04
-2.440990989044133138e-03
-3.842850624731205655e-03
-5.388100830409468453e-03
6.198091001905121217e-03
6.831641709062211349e-04
1.497296744209653061e-03
7.041961727948881306e-04
-3.368741287696374502e-04
-2.632055725997656422e-04
-8.414487878302146515e-04
-8.286960567727186559e-04
-6.144325419384254932e-04
-2.970068177262254975e-03
6.907352250569755983e-04
5.264585187090511931e-03
-8.392406457469485295e-04
-7.495628063304297841e-04
-2.404141325894122065e-04
-2.183340272488624740e-03
1.027305622270188127e-03
1.335193582869401217e-04
-6.151175162524847846e-05
-5.201266907006472805e-07
4.756835842715672501e-05
3.615754119823805902e-05
6.517737614456557097e-05
-6.934719347722976006e-05
-1.510435622637215679e-04
-7.523175504023760880e-04
1.676467170727976306e-03
-7.149759422310931339e-05
2.551965330837928348e-04
-1.464068015679314356e-04
-1.085819076057786554e-04
-3.894862799018057034e-04
-4.633735701107681072e-04
1.050410168415227613e-03
1.799375113137430173e-03
-4.753327021626765626e-05
-1.026483844937670304e-03
4.046955812627022675e-06
-5.791418341309130264e-04
-9.517215626741830619e-04
-2.489517254062502275e-04
4.350539768425677419e-04
-3.167348507242087369e-04
2.742306337150534398e-03
1.572726550457358553e-04
-4.464522500608816293e-04
-5.946928741439307066e-04
-6.700551918528519857e-04
-1.306697802256964963e-03
-7.379550208818998246e-04
1.532487096644451902e-02
1.624668470943620852e-02
-5.803407805075395248e-03
-8.240111249171271773e-03
-1.146507079421282133e-02
-1.180643735168767326e-02
6.481426545148345937e-03
-7.076368004532042474e-04
2.256817599475532954e-03
1.178026267867633009e-03
-2.648979588190854295e-04
-6.470730092528925769e-04
-7.862677592121590682e-04
-1.011711675134246025e-03
-1.725666447157770428e-05
2.899006359802484660e-03
6.329722425287800285e-04
2.237635826765841957e-03
6.883414381379471215e-04
-2.524012570839093833e-03
-2.879696710155243804e-03
-2.200792451562644074e-03
1.146545865321926642e-03
-3.876868709299994067e-03
6.743840143701863854e-03
2.532613981951564730e-03
-3.754250442281834846e-04
-1.677078452523784319e-03
-2.362327259552841462e-03
-1.348259088381318195e-03
3.635044283326934866e-04
-4.425160854962689760e-04
2.090023758214044815e-03
4.905541048434496022e-04
4.116005649913014410e-04
-1.522487722461965517e-04
-5.960927646560977696e-04
-1.079432942806259023e-03
-7.218878628439719938e-04
-9.492313573577642900e-04
2.515365003047258935e-03
3.693972835308712943e-04
-7.488686453510414592e-04
-1.411700947626816751e-03
-2.346612531267806313e-03
-1.738623108221236564e-03
4.310274303246539214e-03
-1.418757774141769714e-04
2.719312588309396412e-04
2.110262319264285917e-04
-1.218973185190092251e-04
1.308195651943499626e-04
-8.064620072689322326e-05
-7.320038603412098728e-05
-1.961573732575176937e-04
-9.000573839895287915e-05
1.645648772929484023e-04
1.810077850699618764e-04
8.472106625536393815e-05
-3.407484973520421705e-05
-9.419528557555424068e-05
-1.073131512748457695e-05
-2.012865397810783251e-04
-4.653841025852070950e-04
1.593476337088861952e-03
2.285820854323114895e-03
1.082145900780621820e-03
-4.961482101180896692e-04
-6.675319782313748809e-04
-1.646475718440134316e-03
-1.685903082817790267e-03
5.572927515971760198e-04
1.638616594603452053e-03
1.324959004979338459e-03
-8.321786570713009474e-04
-6.924060561990161549e-04
-8.905818348469141642e-05
-4.956984890052602583e-04
-1.411526965419696630e-03
2.263440413881548634e-03
-2.674424436008728369e-04
9.141542180287452399e-03
6.947027442677059655e-03
-4.542888856352378900e-03
-7.252343464457263952e-03
-7.798473575053385329e-03
1.509138302617859520e-03
-4.620017709090866996e-04
1.502629076097848626e-03
3.056589025969089907e-04
-4.182683334997258965e-04
2.686353473922239066e-04
-4.604015897899099295e-04
-6.029064297492750697e-04
-1.333452021389830607e-04
-6.778038089997568761e-04
9.395891072949120017e-04
1.939151416773147963e-03
5.993558365320592637e-05
1.841024443546855139e-04
-6.129544600589115124e-04
-3.424187790432981198e-04
-1.489601503973986578e-03
6.377477050671843560e-04
-4.009955089534126367e-04
3.970008430043989265e-04
2.381129898461329969e-04
-2.604628296349090991e-04
-2.617544441469559229e-04
-4.935600865588460123e-04
1.439113313764071476e-04
8.431301466106032013e-04
1.264705586265893337e-03
8.681882922640113756e-04
-3.828238622464788239e-04
5.455289648929326825e-04
-6.874146181923313252e-04
-9.296756721919569684e-04
-1.521638837402674183e-03
1.125015688643170742e-03
1.805946837572465491e-03
2.487170535021781897e-04
-9.064534254807842754e-05
-5.722010968842390269e-05
-4.862500475934060243e-04
-7.379280551570536204e-04
-1.807636024730849798e-03
-6.878646874340323646e-03
-1.957290296474159010e-03
1.005940105685119057e-04
5.554167660864367181e-03
-3.778044092014297157e-03
-9.191565790253018037e-03
-7.656970388306058237e-03
2.380775576995497467e-02
-4.841301132569539875e-06
-3.901970917434537133e-04
2.048876910700973928e-04
1.742870781300474283e-04
-2.430300791650000041e-04
1.327740299203418386e-04
1.694643438130433860e-04
-4.334467089250676128e-05
1.503145507695031091e-04
-2.593112419875829577e-05
-4.669264620035382585e-05
-1.679604372410662544e-04
1.883963027453074645e-04
1.401690247278350877e-04
-7.016808733706732986e-05
-1.681275832654000198e-04
-9.054327063313061480e-05
1.513728065915962893e-04
5.180609406135750187e-06
4.836281715931430134e-04
6.221045502962719350e-05
2.244441357941273207e-04
-3.277981320866653033e-04
-5.084947756948336294e-04
-1.896166358863622756e-03
4.615346490219776436e-03
1.225720598053748256e-03
1.670869015805139706e-03
-3.556444459732757365e-04
-1.642048651670783427e-03
-1.856892162422507696e-03
-1.761184485148478088e-03
0.000000000000000000e+00
0.000000000000000000e+00
0.000000000000000000e+00
0.000000000000000000e+00
0.000000000000000000e+00
0.000000000000000000e+00
0.000000000000000000e+00
0.000000000000000000e+00
3.644098460357260145e-04
6.230900300667495178e-04
4.001393565153242462e-04
4.699701435103386510e-04
-2.978026652792399066e-04
-4.322169567816228119e-04
-3.116367159590171794e-04
-8.159530381082588570e-04
6.001832521287479025e-04
1.065583886221942340e-03
2.411571737401139656e-03
1.684922294697043996e-04
-9.084959933262071446e-04
2.652316788785742148e-05
-1.334810757313235636e-03
-2.029047522469946616e-03
-1.952803439329527427e-04
8.819598532333101535e-04
-3.137768438839478409e-04
-2.667911185662693251e-04
-8.473362525240780031e-04
-6.083818490752019269e-04
-4.775263392864218556e-04
1.827132894035561920e-03
-9.536828090973316352e-04
1.261424670531799495e-03
4.792793130190735958e-04
-1.264196165004857972e-05
6.795880456633806145e-05
1.925766940155935775e-04
-1.564314120654391777e-04
-8.784832993199866548e-04
-3.576439220481365095e-04
-4.098964707180045939e-04
-4.750496038628395181e-05
4.544089554711489270e-04
3.331692366813112901e-04
-7.327935835829143358e-05
-5.196121110671696603e-05
1.527077304649729600e-04
-5.090916904835765874e-05
1.066183890580733136e-03
-3.937229823851360710e-04
1.472679324531234947e-05
-1.808757663467873715e-04
7.314356573974598529e-05
2.387161277309642700e-04
-7.672624595164738090e-04
-2.588609867905049657e-04
1.642185333634398319e-03
1.906441594846145469e-04
-1.524752768033451440e-04
-2.736620259285900956e-04
-1.215409427254714902e-04
-3.816728762945508120e-04
-6.446173845765507246e-04
-9.985193618322961255e-04
-4.877513827205937416e-04
1.161593811889566715e-04
4.248024068315380247e-04
4.975133225067057945e-04
8.622819626229517344e-04
-3.366626472204676461e-04
-7.782368137679422399e-05
6.412589859823294655e-05
-1.509106696638491977e-05
-1.282973746401747568e-05
-8.583721403465172182e-06
-6.248531753127012447e-06
-5.234549484719597647e-06
-4.661657306913259604e-06
-1.147663421960549820e-05
7.108981753895560239e-04
1.571002556828390417e-03
-7.847162284481203651e-05
4.040984855888366976e-04
-2.657254818500050133e-04
-9.704509663107554595e-04
-8.310722415542653877e-04
-5.402789052469471115e-04
-2.759838216644119554e-04
-1.124159954895955068e-03
-5.156662491082409988e-04
5.053119078359943005e-05
-2.333544908028891232e-04
7.684975647325626184e-04
-8.067159026091925782e-05
1.410807351216254463e-03
-2.728422380645983701e-05
4.602981744949249010e-04
3.476431895853668470e-04
1.896339714344351499e-04
-1.347863548197481747e-04
-1.564187248158501538e-04
-2.046691879394102790e-04
-4.744168441332588092e-04
-3.595857432293826541e-04
6.104440070273285061e-04
5.475937031095361694e-04
-5.052114117872723428e-04
5.949141963041570556e-04
-5.450285109768461490e-04
9.821871601113750318e-06
-3.529481120486349741e-04
1.645914602858482918e-04
-6.815201251524279384e-04
2.634245187408802247e-04
4.580201566130402539e-04
4.911543527051793470e-04
-1.870717246013172059e-04
-7.486105396630745668e-04
2.400119010718712684e-04
6.131818318585519545e-04
7.105904616749068392e-04
4.403487231644634989e-05
-1.655489449065404713e-04
-1.422528342910285072e-04
-2.980299072557827640e-04
4.964873352487513834e-07
-7.624719667318014069e-04
-2.834577048834675605e-05
8.686945035118112256e-05
-4.724540742038181389e-05
6.388488510792087556e-05
1.587927284540418453e-04
-5.684599811231673693e-05
-5.174098983471971878e-05
-1.253688980573788110e-04
1.184794080027890707e-05
-4.286960836379918264e-05
-9.191462041326320135e-06
-3.364536540034969463e-05
6.791481209702129017e-05
-7.000859671508417566e-05
1.116525092565710976e-05
6.478702869760218465e-05
-8.466532106184015745e-07
4.735295900719401342e-05
6.495525582411279292e-05
1.646218656620443340e-05
-4.475008174844375189e-05
-3.865637074544252879e-05
3.960183238469716210e-05
-8.411912807770371492e-05
-9.891488808749322650e-04
3.016930480705113000e-03
3.721461629639190305e-03
1.611365009180407268e-04
-1.646528534760541005e-05
-8.160901342329778159e-04
-2.007870237040260825e-03
-3.069954073766567246e-03
1.340235360084332528e-03
1.816948738573286818e-03
2.855066023070078579e-04
-2.952318522979355351e-04
-5.803808395026839725e-04
-5.332846044128007048e-04
-7.394515953125393006e-04
-1.294341809438666118e-03
-1.426275166101319183e-03
-2.434289123856066533e-03
-3.974830549153502237e-04
3.062308822185339581e-04
6.613787253414471793e-04
-1.125768227268502709e-03
-2.159120389099765478e-04
4.632118003491231782e-03
4.131345608940027985e-04
2.622121244109548374e-03
2.011552640696055456e-03
1.752282111638343398e-04
-5.142993232113014356e-04
-1.201196254705068312e-03
-1.619780460069012969e-03
-1.886760618878058956e-03
-7.262622828594290014e-04
-1.117445329720848394e-03
-2.889994635810654781e-04
6.973197266681573515e-04
7.619867391768901394e-04
-5.665220227312983648e-04
-4.131842350057248208e-04
1.653106868053319869e-03
-1.753815207408178671e-03
3.567925820636462433e-03
2.698510250899753982e-03
9.015875021603451250e-04
-1.221462818886545143e-03
-1.432948514097553451e-03
-1.405067781345125180e-03
-1.354729251959164733e-03
8.534609424433185071e-03
5.766478716868035648e-03
6.442997752039207604e-03
-1.274565032056340945e-03
-4.253151455869259162e-03
-4.951934699678567538e-03
-5.203550647134522547e-03
-5.060884058601743118e-03
-5.561771444333743025e-05
-8.359816366900862505e-05
3.297127440474976329e-03
-1.418412011834731463e-04
-9.862383860007243978e-04
-5.028056090603098306e-04
-7.034573246334826363e-04
-8.235690414846406080e-04
1.938371346892710017e-04
7.554118055501070827e-05
2.773434704797338298e-04
1.191977512093779913e-04
1.282732418139764048e-04
-2.071960976366795434e-04
-3.583987741183224969e-05
-5.511568036988583530e-04
3.368693008951492945e-05
-3.096105532911939434e-06
3.913676919241687807e-04
-9.315318776876122680e-05
-7.136277914375722877e-05
-6.095312911780500034e-05
-5.542608112941836983e-05
-1.410633393210299611e-04
5.629863049022642234e-05
5.167120869948349694e-05
-2.245335078929490313e-05
-1.708041248706615672e-05
-1.351329454826892278e-05
-1.155184358501164089e-05
-1.047253978705833570e-05
-3.289839799301003120e-05
-2.129220532088656908e-04
1.007642670841608446e-04
5.301599933866677286e-04
8.823616739350175647e-05
-4.427810459365586490e-05
-1.631495830290135153e-04
-1.872763179641416705e-04
-1.115343690686538864e-04
3.761784095898725597e-04
1.015674407915261946e-03
-2.567709391339299341e-04
1.178830314835173137e-04
-2.389827630430025045e-04
-1.658940126034716325e-04
-5.513873555499190809e-05
-7.929493986532567141e-04
4.030984725231973910e-04
8.018709475430915072e-04
7.348881040614780235e-04
-3.249375952414982585e-04
-2.584378074844203448e-04
-2.344273320558409369e-04
-4.110044660155558129e-04
-7.110503233304512434e-04
5.013267102131311074e-04
6.792712432056583665e-04
4.825298304581032596e-04
-1.743526357163241667e-05
3.756073077224958380e-05
-2.968351975256342088e-04
-8.011602961416462330e-04
-5.852577574102287711e-04
-7.911307403608017685e-05
-1.810376826128933967e-04
9.047295568541758660e-05
4.928146972319914906e-04
2.657483584825984482e-05
-9.533656399064363964e-05
-5.557961191866593816e-06
-2.488172069341850379e-04
-2.381459382347916073e-04
1.403314637107968069e-03
2.786869293992884269e-04
3.327631373988549062e-04
-8.311798351499094387e-04
-6.097166404472689500e-04
-8.765014994868047978e-04
5.407792094126625789e-04
-2.310826822349589028e-05
1.111953102647608184e-04
-2.705695217260698215e-05
-1.532366353374931339e-05
-1.063668288167313052e-05
-8.840110602892228500e-06
-8.035322435586606026e-06
-1.819431041475661504e-05
-1.004073367197158605e-04
7.964593385664877918e-04
-1.643869112895447553e-04
1.552564605087375805e-04
2.524752061433065782e-04
-2.318418111964674932e-04
-2.120311608818570206e-04
-4.955237851309476612e-04
4.632602613276275128e-04
4.491702344616661032e-04
3.231781957356353024e-04
-1.711269861658636928e-04
-2.793958732419167014e-04
-7.905345296789798937e-05
-2.042913767093952854e-04
-5.017410024398552765e-04
-3.374599155908087185e-05
3.920892659219185248e-04
1.950426236785031365e-04
4.251188470825141498e-04
-4.809911614553301199e-05
-1.855806984681531563e-04
-6.683401790238201428e-05
-6.779909126077866008e-04
-5.479607933093883464e-04
1.361591291273768880e-03
9.923720218412313433e-04
1.872580372029928448e-04
-1.824838357107448769e-04
-3.500210917072232517e-04
-2.828530606902496572e-04
-1.177902568900386854e-03
1.352711701345030593e-03
-5.568532427954729928e-05
-2.618275530186462969e-04
-2.114636067297855581e-04
-2.116634996126296855e-05
-4.724707943369210359e-05
-1.739543434583845172e-04
-5.813674444637117718e-04
1.808944618703515550e-03
7.728532441466465577e-03
3.177754563315801748e-04
-3.010056986313983606e-04
-1.693046169460666987e-03
-1.880839759841945692e-03
-2.060835230562214297e-03
-3.919525658005330870e-03
6.539966526210022092e-03
3.693250587661283703e-03
-2.520157121937873618e-04
-2.503202371756694383e-03
-2.416664333211753987e-03
-1.786189028269078577e-03
-1.981748432577360840e-03
-1.293397235862628423e-03
4.153607010385635193e-03
-2.319104856402803925e-03
-9.348830952571528198e-04
-2.109812458630619132e-03
-2.846212103255289175e-03
-2.157369950840548785e-03
-2.466978923751536948e-03
8.680754377752319603e-03
0.000000000000000000e+00
0.000000000000000000e+00
0.000000000000000000e+00
0.000000000000000000e+00
0.000000000000000000e+00
0.000000000000000000e+00
0.000000000000000000e+00
0.000000000000000000e+00
-3.772263112658969918e-04
1.703076908410014944e-03
5.292768435705035631e-04
-7.286452693811996256e-04
-3.715797758220834709e-04
-1.255960784174888628e-03
-1.281817875930787521e-03
1.782876264594337621e-03
-1.938628058054522120e-05
3.129213077343411236e-04
9.574236676564020323e-05
2.595539832180859276e-04
6.628703918562467521e-04
-2.985818856714755439e-05
-5.639339561197914902e-04
-7.179096243068302727e-04
3.592744935795313889e-04
-5.707906461352779334e-04
7.709102560752217675e-05
-3.015997473439202526e-04
-5.448709383071720109e-04
-4.279066438803424141e-04
-5.467245733149871242e-04
1.955527029794645790e-03
7.674136203309092456e-04
4.713213961313409903e-03
1.300089578347422186e-03
6.755293224147942066e-04
-2.590549635050951212e-03
-2.072145048917329885e-03
-3.253545960584823104e-03
4.599941621465614507e-04
-3.627326082880005863e-04
-1.010609220905486381e-03
-5.325357286748015921e-04
3.280684124583193743e-05
-5.957670795174299433e-04
-1.063687749864972642e-03
2.021589719644919082e-04
3.330366574040367292e-03
-1.025518281616891051e-03
1.113691937922809067e-03
2.373648630618446255e-03
-3.943678230868208280e-04
-1.138124760560041068e-03
-8.018487496584055267e-04
-7.728420296345636133e-04
6.453610760154685540e-04
2.159329828236832612e-03
8.707551648872952988e-04
-1.174224911513138377e-03
-5.997422857760016093e-04
-4.933422815550189038e-04
-1.283023844587099799e-03
-2.210094520581201965e-03
2.730342850888333069e-03
-1.323734572165876982e-03
1.691297716151538271e-03
4.065559053363122788e-03
7.898527387652275536e-04
-9.031475809375807875e-04
-1.693880939130648503e-03
-3.730351471543834601e-03
1.104405055498054646e-03
2.815513128841671446e-04
7.707316130620768839e-05
2.092441701456151172e-05
1.405263775244094959e-04
-6.527770791873713154e-05
3.824689916271201639e-04
-3.832286489549979183e-04
-4.540379034827305414e-04
-8.019859556475298192e-04
-1.322600239257998289e-04
2.233880091592206196e-04
3.254012717391207990e-04
-1.163103337970140190e-05
2.070650750298231582e-04
-4.523906282359562824e-05
2.352617198484619626e-04
5.433583624803563564e-04
-1.378496748898517957e-03
-6.385655773081956154e-04
3.779608090058248621e-05
-5.601193490008994505e-04
-6.006204209286486592e-04
1.198398363731223730e-04
2.476807816382201131e-03
-3.727823820410128622e-04
-1.170222764151187915e-03
-2.968151802559591560e-05
-7.443675281666868018e-05
-3.648308202029972106e-05
7.449611310715418969e-04
-6.221767317129888657e-05
1.000863041154521470e-03
-6.409301632250872594e-04
1.558517668751035600e-03
1.096999751390502313e-04
1.173566965927016993e-04
-2.256463288950702980e-05
-5.788172909638715112e-04
-3.391824694280306195e-04
-2.040797839762924627e-04
-2.147274229060287245e-04
5.262025088559331128e-04
1.068697959884149613e-04
-1.336720028809314318e-04
-3.278111000340441544e-04
-1.899648035055646954e-04
-4.562484591978864480e-04
6.893514836801074071e-04
4.400474435631015151e-05
8.077871108968714617e-04
-7.191569427873418925e-06
1.258360882280860167e-04
-3.823914103763149529e-04
-4.304041774343660360e-04
-5.652633276106883457e-04
4.076225413679756301e-04
1.469972677613655887e-03
-1.255681705804810675e-03
-1.222903912423582880e-03
-4.723925569375567548e-04
9.391457159126246278e-05
5.875181402287329036e-04
-2.160128442160399748e-05
8.211740701539013872e-04
-1.282580584826352671e-03
4.452314664370069994e-03
9.841725042794046471e-04
-1.102894225834195408e-03
-7.840209976053154860e-04
-1.313063976293588021e-03
-1.247297783972011300e-03
2.933703998819861308e-04
-3.369897278827797826e-03
2.075525540761926063e-03
1.886067986527288631e-03
7.008046446131303104e-04
-8.896144087848412878e-05
-8.016213605082291461e-04
-8.265667079008349972e-04
4.246486162129985598e-04
2.693946808297663733e-04
1.408145543288840534e-03
-1.210215835800522487e-03
-1.216596095998916625e-03
-6.816233528891503177e-04
-1.693350512863879337e-03
-2.059139036576991197e-03
5.183384610010850942e-03
-8.288920874941979947e-04
3.239216410686111911e-03
2.830370234873738101e-03
-3.100723011796829680e-04
-1.670406195276496076e-03
-1.347878751359099557e-03
-2.502395085931639115e-03
5.900577756812710106e-04
9.292367461809756830e-05
1.417166060666093979e-04
1.609243437939688042e-04
2.945922660549888999e-04
3.223592779307079024e-05
-2.607806464199351106e-04
-3.085112515893714211e-05
-4.307610467478635466e-04
2.660261124907112892e-04
-5.301910587323005507e-04
-9.487688854890227979e-05
-2.102819798986017559e-04
2.256176285282635930e-04
-5.480507137510579171e-05
-2.326618917791497122e-04
6.311731493150853165e-04
3.242143837974117353e-04
1.885771196875345515e-03
6.381487175498213758e-04
-4.211844149260248111e-04
-5.210591289211001812e-04
-5.258630700351743861e-04
-5.651830398346327977e-04
-8.148446445056478594e-04
7.814488947067688672e-04
5.542292042002370644e-04
1.375764263469803940e-03
-1.123590828768017587e-03
-5.158144417796284688e-04
-5.883883712401286091e-04
-6.936543267860111571e-04
2.100056061969767093e-04
-3.031324585968115347e-03
7.034858104142609854e-04
2.128968445277899368e-03
-2.946181074751991137e-04
-3.199906259518444794e-04
5.079408674059102471e-04
-1.091861120115035066e-03
1.397399316412124273e-03
-5.104881761242102906e-04
1.321573339234707043e-04
1.820637921908613635e-03
8.381862207741207335e-05
-1.353782866474912425e-04
-3.331679503480938298e-04
-3.567133373243256290e-04
-7.008661274653779551e-04
-2.097043098766995599e-04
-6.991371234809906892e-04
-6.078544356581213384e-05
4.951496684188557047e-04
2.216205480485347319e-04
1.732013215928999311e-04
-4.111148826325528689e-05
1.207668271264674445e-04
1.335193582869401217e-04
-6.151175162524847846e-05
-5.201266907006472805e-07
4.756835842715672501e-05
3.615754119823805902e-05
6.517737614456557097e-05
-6.934719347722976006e-05
-1.510435622637215679e-04
-7.523175504023760880e-04
1.676467170727976306e-03
-7.149759422310931339e-05
2.551965330837928348e-04
-1.464068015679314356e-04
-1.085819076057786554e-04
-3.894862799018057034e-04
-4.633735701107681072e-04
-1.303222686864967340e-04
4.517635900967021789e-04
3.072688165589994801e-04
-2.337830455495789955e-04
1.703220823991985348e-04
-4.901034518441841590e-05
-1.571641055749386855e-04
-3.590747240594680065e-04
1.180732437101724699e-03
1.347611523040726260e-03
-3.548020867752669128e-04
-7.927007993880920943e-04
-1.662751265865715909e-04
-5.301314889464942785e-04
-7.945574570992439698e-04
1.101229986532177655e-04
4.350539768425677419e-04
-3.167348507242087369e-04
2.742306337150534398e-03
1.572726550457358553e-04
-4.464522500608816293e-04
-5.946928741439307066e-04
-6.700551918528519857e-04
-1.306697802256964963e-03
-1.357783453953378353e-03
-5.876663584397573073e-05
1.038347607484146331e-03
2.649349910373716144e-04
2.138722779464046495e-04
-2.476449485688256356e-04
-4.005746176016623610e-04
5.476147794999190179e-04
-7.610024703784256793e-05
5.394222406921310616e-04
-1.324043557678732791e-04
-7.004127851629391973e-05
-2.946153003789963318e-04
-4.178409077805766313e-05
-1.408013986594928372e-04
2.163244304464255442e-04
7.262469005380166060e-04
1.776161994627378348e-03
2.720830161513603093e-04
-4.597916713401636120e-04
-5.663299868203013282e-04
-4.968387198652759931e-04
-4.703356588730912336e-04
-7.811958744179222291e-04
-7.269717890666475011e-04
-9.504865763916460616e-04
-8.670311208690423006e-04
-5.263848281532223974e-04
-3.977603859791322143e-04
3.648933426961792185e-05
6.523159308531366145e-05
3.366913773104759922e-03
-2.396124434578810348e-03
3.174500712665277290e-03
2.489722773695526685e-03
-2.420949292129643486e-04
-6.873825735085633930e-04
-1.471580107777025262e-03
-6.415657624519058386e-04
-2.254756788315359509e-04
-7.537724856545347006e-04
4.519826007428228397e-03
9.099223291250790446e-04
3.930547131380035053e-04
-5.919354930360903920e-04
-9.272364860454336208e-04
-7.719249190147254355e-04
-2.777933665940528207e-03
-3.378687094806696466e-04
3.964002540327061250e-05
2.403907246604124811e-04
1.485266228975027909e-04
3.658140859903187114e-04
-3.259252102837561138e-05
-3.417795352371292032e-04
-8.213069320532999915e-05
7.518759670005272801e-05
4.332908832684390413e-04
2.164767819994711242e-04
-3.717707181341527433e-05
-6.620433854971428578e-06
-7.688890565124067370e-05
-3.389071121338569953e-05
-5.703781394349497717e-04
1.473035431576557465e-05
-1.808990059639835563e-04
5.993855374399116608e-05
1.149031309771877214e-04
3.037623154205835964e-04
2.355888012769357883e-05
-4.002781467700721211e-05
-2.959664139442307182e-04
-1.870880432314441085e-04
1.342186177783696822e-03
1.729712635972292193e-03
8.062631692357197189e-04
-1.139500926501393506e-03
-5.647542842930666209e-04
-1.215434787802625915e-03
-7.713839411631792349e-04
-3.034530088891162732e-05
-4.074174340256275643e-05
3.930215794694864905e-05
4.963004948362661892e-05
-1.960325117262625837e-05
-1.685514738638571629e-05
-1.534286950998690638e-05
3.395610492989797988e-05
-4.425160854962689760e-04
2.090023758214044815e-03
4.905541048434496022e-04
4.116005649913014410e-04
-1.522487722461965517e-04
-5.960927646560977696e-04
-1.079432942806259023e-03
-7.218878628439719938e-04
-2.687901601929030843e-04
3.652767395114353468e-03
1.373842196901646365e-03
-2.344332007913292658e-04
-1.124311442654297132e-03
-2.284121291608343443e-03
-1.714502394214373945e-03
5.995488974452433230e-04
-6.804411971648608804e-04
-1.137402392067098870e-03
-1.004444913370773499e-03
-5.144354445597123290e-04
-2.873895049725204323e-04
-6.249123965946426615e-05
-2.412071400686156245e-05
3.710725405801290362e-03
-1.418757774141769714e-04
2.719312588309396412e-04
2.110262319264285917e-04
-1.218973185190092251e-04
1.308195651943499626e-04
-8.064620072689322326e-05
-7.320038603412098728e-05
-1.961573732575176937e-04
-9.000573839895287915e-05
1.645648772929484023e-04
1.810077850699618764e-04
8.472106625536393815e-05
-3.407484973520421705e-05
-9.419528557555424068e-05
-1.073131512748457695e-05
-2.012865397810783251e-04
5.451572980846885498e-04
1.178041561775376332e-03
1.222670433157177798e-03
-8.011832409605405998e-04
-6.766399207522769783e-04
1.113081815039411481e-04
-4.666837447908238129e-04
-1.112670568017543873e-03
-3.795741288895157408e-05
5.187996754491225413e-04
6.273594605618505336e-05
-1.815672852472621627e-04
3.841310120357144920e-05
-1.551494043841302004e-04
1.144671697820655025e-05
-2.567213371667413689e-04
5.009286640143918642e-05
-5.822464262104665731e-05
3.955262576597476712e-05
1.505718691365017881e-04
-5.417923665031099849e-05
-4.521696060450218117e-05
-4.046146119264390712e-05
-4.213506023541213304e-05
-5.961229657298331612e-04
-8.789173134658986386e-04
-6.370196520837912140e-04
-3.727016880607459336e-04
-1.022613372580386914e-04
-2.158606484646975851e-04
4.829321690071911938e-05
2.754590388162286938e-03
1.266936311613188568e-03
9.428206949305268899e-04
1.250258821968651315e-03
-3.306567826050071392e-04
-6.386624281779734562e-04
-5.342579479146730833e-04
-5.944056799735700702e-04
-1.362032989841144162e-03
-3.490165352221498104e-04
-2.157728938083423691e-05
-2.984480840744680222e-04
1.700950736100859258e-04
-4.505927408398928619e-05
-2.462743346054675609e-05
-2.792217249004052344e-04
8.478552675123079930e-04
-4.867284830425054284e-04
-3.984349197259072777e-04
-1.642098698015212401e-04
1.891149485494192871e-04
-2.867413729196429447e-04
-3.382154072060880221e-04
-7.545989982675963337e-06
1.492761094128921455e-03
-1.127667925168910181e-03
-7.949074869901515171e-04
4.992477690913850593e-04
2.368348955333172533e-03
-3.220003750512954338e-04
-1.470273291649349225e-03
-7.501924976554603551e-04
1.597444852090603535e-03
1.377438012384540802e-03
9.438379290808680084e-04
1.473798922945763123e-03
7.959015834171856646e-04
-1.599544898513443171e-03
-7.433849895432026239e-04
-2.794004975819653919e-03
5.459584160479412493e-04
-1.879794566137527869e-03
-3.278554307227092194e-05
2.101655224309214448e-03
2.468148459147123837e-03
1.850120643890735238e-04
-6.213144076846140217e-04
-4.298543118010181860e-04
-1.791066919149981182e-03
3.740940087078213454e-03
1.326304479000378796e-03
1.753629165889360230e-03
-1.639210529500197046e-03
-1.166354643520343655e-03
-1.532735740228400407e-03
-1.584889772083444186e-03
-8.976830466355687019e-04
-9.791768788353857628e-04
-4.943662255449542305e-04
1.068890581979780197e-03
1.688263491304261340e-03
1.417583006726478244e-04
-5.745503803439558268e-04
-7.596165058340488682e-04
-9.120238339834616415e-05
1.557060480186191892e-03
-1.937941751460077586e-04
1.767347475989110598e-03
1.002565027888451064e-03
-8.658795787016554521e-04
-3.269269185262436246e-04
-6.120236979091525122e-04
-2.328348613780695155e-03
-2.604271232442716458e-04
-6.656225932866251683e-04
3.263918240739662781e-04
6.071589035933048920e-04
1.568446868122759746e-04
-8.701962994355011893e-04
-3.501163599467784176e-05
7.408622374815280499e-04
-4.620017709090866996e-04
1.502629076097848626e-03
3.056589025969089907e-04
-4.182683334997258965e-04
2.686353473922239066e-04
-4.604015897899099295e-04
-6.029064297492750697e-04
-1.333452021389830607e-04
-6.778038089997568761e-04
9.395891072949120017e-04
1.939151416773147963e-03
5.993558365320592637e-05
1.841024443546855139e-04
-6.129544600589115124e-04
-3.424187790432981198e-04
-1.489601503973986578e-03
-6.986963225707212800e-04
-1.101875252505710992e-04
4.355789730705755553e-04
-5.333339136811840811e-04
-3.231130087158177078e-04
-5.457597696393057680e-05
-2.299818498898351907e-04
1.514309624001483872e-03
1.356119365196965364e-03
-2.435337368837696209e-04
-7.934695768554108123e-05
6.238179663491577381e-04
4.556179075386668957e-05
-1.585185088422702288e-04
-2.947894935855949216e-04
-1.249310425302812937e-03
-1.967533755905960305e-05
-4.727424681907205895e-05
4.076882761936462859e-05
1.476289371781597194e-04
1.708838832704213931e-05
-4.865995834075528663e-05
3.121125691658424231e-05
-1.210878673222638284e-04
8.431301466106032013e-04
1.264705586265893337e-03
8.681882922640113756e-04
-3.828238622464788239e-04
5.455289648929326825e-04
-6.874146181923313252e-04
-9.296756721919569684e-04
-1.521638837402674183e-03
1.125015688643170742e-03
1.805946837572465491e-03
2.487170535021781897e-04
-9.064534254807842754e-05
-5.722010968842390269e-05
-4.862500475934060243e-04
-7.379280551570536204e-04
-1.807636024730849798e-03
-4.480149156844866741e-04
4.506203420219941601e-04
2.132286129259667803e-03
2.361833330411792955e-04
7.033295756697982223e-04
-2.952589717673555604e-04
-7.191153907745949630e-04
-2.060030101766204859e-03
2.040658110048262919e-03
2.976350276186919691e-03
3.898685516230984108e-04
1.456323838724019742e-03
-1.078587807654561494e-03
-1.664864562481216176e-03
-1.228270442711154251e-03
-2.891477963735369656e-03
-8.561003393930155829e-04
-1.044365152487428290e-03
-9.724343783305028788e-04
-5.931805231462849819e-04
-5.838862563214317850e-04
-5.077843005290061428e-04
-9.609076027150799057e-05
4.653841710479176066e-03
-4.046132184575279025e-04
-4.346855932289509644e-04
2.092723146622253239e-04
3.695647661278616864e-04
-1.298951555829986216e-04
4.337209233273291056e-04
-3.346522272218369477e-04
2.912881903738986185e-04
3.839134912021074128e-04
1.389688969628265734e-03
2.240906445407519435e-03
-5.768823057087315740e-04
-7.134925501310905626e-04
-8.955299615317374208e-04
-6.155209590427206069e-04
-1.213083129823609978e-03
-1.397188690512791640e-03
-1.336115980049007142e-03
-5.777691902702241679e-04
6.732110114970666151e-03
1.592618725894074088e-03
-1.535496583780488920e-03
-2.363922423531959575e-03
-1.114235972720268360e-03
-1.705136377426777873e-03
-2.558988447561148620e-03
-1.636439468142619454e-03
2.187462588279345853e-04
-3.727059857173433376e-04
-7.146639165958639179e-04
-7.164935511813311936e-05
6.840837291733951886e-03
4.782167730758325741e-04
2.023218367411011142e-03
1.596104096524374313e-03
-6.187399754949322677e-05
-1.052274951740988932e-03
-1.321171184081795487e-03
-4.580165253170441508e-04
-1.204202578321894850e-03
-1.719015697638489411e-04
9.137181827518881623e-04
7.777976372238050743e-04
7.583506786855411181e-04
-2.227555796112734641e-04
-2.933729016019776155e-04
-1.199930123025160682e-03
-5.619063246589714022e-04
-1.003986912695171508e-03
2.476080243813091539e-03
-5.873947694984909488e-04
2.133676171596394252e-04
-7.773400078824260024e-04
-9.109353574399121738e-04
-7.657426319818065423e-04
1.355951818525076699e-03
-2.442766366448667929e-04
-3.345487884565459254e-04
-2.058570521561061122e-04
-2.045063508746276890e-04
-1.624572727427672206e-05
-7.289747789635905883e-05
-6.582385683461996204e-05
1.144155890137402371e-03
-2.406649172518825468e-03
-4.823744974370878721e-03
-5.810805331445432565e-04
-1.829492255287831944e-03
-1.325690671409182836e-04
-1.271257493239187370e-03
-1.211854806191529389e-03
1.225664830189372376e-02
-4.841301132569539875e-06
-3.901970917434537133e-04
2.048876910700973928e-04
1.742870781300474283e-04
-2.430300791650000041e-04
1.327740299203418386e-04
1.694643438130433860e-04
-4.334467089250676128e-05
1.503145507695031091e-04
-2.593112419875829577e-05
-4.669264620035382585e-05
-1.679604372410662544e-04
1.883963027453074645e-04
1.401690247278350877e-04
-7.016808733706732986e-05
-1.681275832654000198e-04
-8.450284937762397863e-04
3.192766006373094420e-03
2.120639836918358518e-03
1.451471898870348130e-03
-1.522252846071203746e-03
-3.246051707706609259e-03
-2.542108186379512039e-03
1.390563491771766363e-03
3.192091761328588913e-03
-1.095797536573191828e-03
-2.288737036500999595e-03
-9.853212321475103563e-04
-1.073879116256310157e-03
-9.463945524294088913e-04
-1.141947747422334888e-03
4.339985460001171032e-03
9.601045386014942992e-03
4.899827376214450914e-03
-1.801952157908406947e-03
-2.635085963679692587e-03
-7.495541765735797999e-04
-3.451295773838095222e-03
-4.754291122867449620e-03
-1.108693567362169403e-03
1.021728565668347799e-02
3.657197692544644622e-04
1.226710947085101313e-03
-2.376539940643285480e-03
-2.072925529784446115e-03
-2.326778283153875179e-03
-2.942455008551807336e-03
-2.091017610889640225e-03
-6.721470807408247254e-04
-8.889649225806334253e-04
-9.281672041491908576e-04
-4.601693232165614982e-04
-5.853411314003779562e-04
-4.208047317252335646e-04
-3.726445210580984612e-04
4.328238914870920218e-03
-1.087969299540457371e-03
-1.345127146400655106e-04
1.207125601772695775e-03
7.433670290150665941e-04
-4.715650589171885808e-04
-2.455944737687976512e-04
-3.385339275138537726e-04
3.276828435926014654e-04
1.553204851012961250e-04
7.086692908289258163e-04
9.484892957165684795e-04
-6.660532544317872717e-04
-4.028291519313180599e-04
-7.387481050567458636e-04
-5.496544806774223508e-04
5.448059204504838299e-04
-1.118389016716129581e-03
-2.088681616541386305e-03
-8.041673304343968046e-04
9.705350632753433158e-04
-1.979287636549163136e-04
-2.923572682752449345e-04
-3.920411385745574645e-04
3.923030070921285431e-03
-1.198450615194264013e-03
1.627513175233986963e-03
2.710315670500375741e-03
-3.998898954887029444e-04
-8.900565557438961783e-04
-2.922170693589181832e-04
-8.004516568201509863e-04
-7.567630531284290970e-04
-5.597197121955335307e-04
-1.497664797139390633e-03
1.011963904088070739e-03
1.355000920135240113e-04
3.100509805138557920e-04
7.287149052609412305e-05
-8.081849821691880877e-05
6.078165404102961120e-04
-2.059987661246234520e-03
-2.052878447458011350e-03
-7.816436436121424738e-04
-7.735946993924158960e-05
9.747601743752852326e-04
4.667949644347794101e-04
-9.348192211802537816e-05
3.623796005563590696e-03
1.421799016090830557e-03
-1.674405425424138529e-03
-2.524999965905338779e-03
-1.545755193586432477e-03
-1.011261303304146182e-03
-4.022644244521704558e-04
-8.435108442350322576e-04
6.580398140816425684e-03
-4.828186090652011007e-03
1.392078328613531937e-02
5.422307403624281909e-03
-1.288043119199457163e-03
-2.856093138322873641e-03
-3.895605025873644708e-03
-4.047380872782320102e-03
-2.427782442929296396e-03
9.917172062857400414e-04
2.421064729908317930e-03
3.080906788464888007e-03
-1.385754608498007950e-03
-1.030846273949676071e-03
-2.598649860679252879e-03
-1.374036817412472699e-03
-1.044011641195339950e-04
-1.547171254823007059e-03
-1.597774753302533789e-03
1.380716281440748676e-03
7.754512132045136407e-04
1.432289572393802279e-04
-5.011089367772661105e-04
-1.158069653108601856e-04
1.462465458329024288e-03
-9.318971607256958806e-04
-9.526223694641733136e-04
-1.067581035859647455e-03
-1.120797679281336213e-04
-5.028910620663358966e-04
-2.159635235845709688e-05
7.038224611204599020e-05
3.518285502290397545e-03
4.945203552078886525e-03
1.251322998912869546e-03
1.272978900175432101e-04
-1.135393552019334706e-03
-1.042770843016555590e-03
-1.124427858537057094e-03
-8.087664771003142674e-04
-2.212465710336036784e-03
5.007855718164387192e-04
-2.885462813470797601e-05
7.026185620273332159e-04
-3.215266639974845840e-04
-4.280721217212660862e-04
-1.011333706158009131e-03
-1.170520159099981217e-03
1.756903145267675256e-03
-1.982484588377774089e-03
1.546527740049540923e-04
2.670941590039105709e-04
1.381154885401354715e-04
-1.124081483449400630e-04
-1.920260743558818380e-04
-8.131133013756666836e-04
2.540169690905262796e-03
-1.288614286638957137e-03
-1.757444499239460035e-03
-1.157675138362265809e-03
1.069647332505877391e-03
-6.912730069000206550e-04
-9.509232185009827178e-04
-5.115594777520736326e-05
4.827438764911017206e-03
3.730658922272453264e-03
-2.933295997897380873e-03
-4.272877080852062470e-03
-1.171280820751592362e-03
-1.649731414238866283e-03
-1.324637480175366736e-03
-2.036369660719964964e-03
9.657533532362774786e-03
-2.268720917916651220e-03
3.105819562681883406e-03
2.489415019683297123e-03
2.986365515703509079e-05
-6.121959050779596841e-04
-1.928924537297030698e-03
-1.926440749932417998e-03
1.111183872701843912e-03
5.479777501292224656e-03
-1.929878504357877508e-04
-7.857932437126720219e-04
-6.775588926741606989e-05
-1.457867165780002416e-03
-1.174322657591932292e-03
-1.690148968704279810e-03
-1.109017258001317749e-04
-7.071765897740077411e-04
2.768420336968077308e-03
4.521755482855818395e-03
1.592975898795391792e-03
-8.100011110015827888e-04
-1.659818106379510206e-03
-1.222061145155125530e-03
-4.484094766309063181e-03
1.040780375027789730e-02
2.475625004907712218e-03
4.790916331786941254e-05
-2.396906078090026767e-04
-2.364867780128098937e-03
-2.537708664154690943e-03
-2.885885657581693450e-03
-4.903185208829996707e-03
-1.259586312210610702e-03
-2.518824232257006832e-03
-6.970299815489975140e-04
6.338915584821598571e-04
5.758547002008352397e-04
3.124933487315347566e-04
-1.308936941901958249e-03
4.262137860504045667e-03
2.001518407787559670e-03
-2.616200716529713550e-03
-1.152283968921422519e-03
-6.026902550600987110e-04
-2.388287641980991268e-04
4.077386265776751528e-04
-2.995385457337232577e-04
2.500285216077823697e-03
1.167252224892439440e-03
9.068698026190789158e-03
-5.414515129806571694e-04
-3.376583394526684601e-03
-1.666723336015131680e-03
-4.038996236420178999e-03
-4.607944158303288983e-03
3.995748387162718039e-03
2.831386750274927228e-04
-6.149276623466302634e-05
-2.926890404040263932e-05
-6.329561511262717100e-05
-4.618892048749040786e-05
3.567230878742953847e-05
-3.655649355929286226e-05
-8.200828438044622561e-05
3.011681951450116820e-04
1.522449727923922249e-03
2.112536906995748833e-03
-1.213399935036965811e-03
-1.256405955090621760e-03
-1.948416693987777308e-03
-2.523029349565674134e-03
3.005097103616353321e-03
-7.682544005806302514e-05
-9.448003850878680676e-05
-8.498108427448633386e-05
-6.619078376442442946e-05
-5.476293161749502326e-05
-4.931744128405197232e-05
2.899471872802701161e-05
3.975630007792805318e-04
-1.721184481135018931e-03
7.073350019878434786e-03
1.878565124146838869e-03
9.646821596364617279e-04
-1.758297849252035911e-03
-3.127071680559136320e-03
-4.554549487526496354e-03
1.244506194810955603e-03
1.012520917263891378e-04
3.012288590051995663e-03
3.859676234242330538e-04
5.616392977120776000e-04
-6.663493569844927689e-03
-7.829815767822016423e-03
-7.398444502984060332e-03
1.783060623773631559e-02
-6.731419160790659420e-04
-1.133600855275631149e-03
2.257535348174229107e-04
-1.759477458758858226e-04
-1.849490707938963169e-03
-1.544231432203163308e-03
-8.309066361935989577e-04
5.981565758748885221e-03
-2.785696174623984375e-03
7.974503242078224844e-04
2.546490788105015488e-03
-3.205407984486318817e-04
8.394040041977427142e-04
-2.148189266744237214e-04
-1.187640541745961899e-03
3.253513249824190501e-04
3.803125109965783523e-03
1.725817226668036161e-04
1.393662159932533302e-03
-1.986770338444204635e-03
-1.679542084863428581e-03
-1.849667078861145847e-03
-1.555993516783986570e-03
1.702604026387642862e-03
5.996316218723263258e-03
9.766876006990945006e-03
5.509698885899102713e-03
-3.311495545733086129e-03
-3.036424883640872954e-03
-5.742015338073228753e-03
-6.348337553280260920e-03
-2.834617790885849645e-03
7.612815128305915145e-04
1.632917266656175878e-03
1.158293538287911983e-03
-7.622586352153804369e-04
-1.205000832409391324e-03
-5.252098699461665420e-04
-8.824531571556339408e-04
-1.775698230481083796e-04
-6.036025549714622331e-03
4.973219626236075226e-03
5.573159058834613669e-03
-6.384874947075943078e-04
-1.746261908620950869e-03
-1.548585598144631157e-03
-1.301778000112913114e-03
7.247598662300253763e-04
5.159097703117954126e-03
-3.296051239855372905e-04
-2.021644291935082837e-03
1.228260087306527358e-03
-1.161639594034789141e-03
-2.644943041402991572e-03
-1.305558273049429487e-03
1.076032533983343857e-03
-2.260091343315470767e-03
9.625773665143205716e-04
4.259280118700924794e-03
-5.399186491685812120e-04
-1.362372976804305993e-03
-2.347536687522551587e-04
-8.952341785132131779e-04
7.051333133858275824e-05
-9.054327063313061480e-05
1.513728065915962893e-04
5.180609406135750187e-06
4.836281715931430134e-04
6.221045502962719350e-05
2.244441357941273207e-04
-3.277981320866653033e-04
-5.084947756948336294e-04
-1.652120222777447725e-03
5.029904924431834873e-03
1.450275590559854709e-03
1.833292433466391508e-03
-1.814331826942228371e-04
-1.494941942149946449e-03
-1.795439787383670219e-03
-3.189537813452790471e-03
-1.213644322694236373e-04
1.207624601351566277e-04
-8.099391181021541400e-05
-4.059056181235283386e-05
1.431354204834652404e-05
-3.854415632573202457e-05
-1.034793368891688000e-04
2.498963969233893869e-04
0.000000000000000000e+00
0.000000000000000000e+00
0.000000000000000000e+00
0.000000000000000000e+00
0.000000000000000000e+00
0.000000000000000000e+00
0.000000000000000000e+00
0.000000000000000000e+00
3.644098460357260145e-04
6.230900300667495178e-04
4.001393565153242462e-04
4.699701435103386510e-04
-2.978026652792399066e-04
-4.322169567816228119e-04
-3.116367159590171794e-04
-8.159530381082588570e-04
-5.387225461897137335e-04
-1.241074170212160986e-03
-6.519131120336149740e-04
-4.831464296913991598e-04
3.982698295936398553e-04
3.594390741910327919e-04
2.287834361822884300e-04
1.928363918159926773e-03
6.001832521287479025e-04
1.065583886221942340e-03
2.411571737401139656e-03
1.684922294697043996e-04
-9.084959933262071446e-04
2.652316788785742148e-05
-1.334810757313235636e-03
-2.029047522469946616e-03
3.434422022567607739e-04
2.123034023445470164e-03
3.381362681496670789e-04
2.163553111251298618e-04
-1.245606082117717804e-03
-9.678209232662346104e-04
-7.063097754687106379e-04
-1.012310241243659641e-04
-9.536828090973316352e-04
1.261424670531799495e-03
4.792793130190735958e-04
-1.264196165004857972e-05
6.795880456633806145e-05
1.925766940155935775e-04
-1.564314120654391777e-04
-8.784832993199866548e-04
-5.090916904835765874e-05
1.066183890580733136e-03
-3.937229823851360710e-04
1.472679324531234947e-05
-1.808757663467873715e-04
7.314356573974598529e-05
2.387161277309642700e-04
-7.672624595164738090e-04
-2.588609867905049657e-04
1.642185333634398319e-03
1.906441594846145469e-04
-1.524752768033451440e-04
-2.736620259285900956e-04
-1.215409427254714902e-04
-3.816728762945508120e-04
-6.446173845765507246e-04
-3.818945454596279587e-04
-5.193131511971499402e-04
-1.339385540637219086e-04
-8.768034559813484106e-05
1.549950638932207406e-04
5.669066811741006826e-04
1.347152282339191638e-04
2.662096230173945088e-04
-6.166248163726680042e-04
3.156176847655623927e-05
2.500979352526786479e-04
5.124827524296723643e-04
3.425182586134848913e-04
2.953752814488508349e-04
-4.713778754543869725e-04
-3.440333043941887193e-04
6.412589859823294655e-05
-1.509106696638491977e-05
-1.282973746401747568e-05
-8.583721403465172182e-06
-6.248531753127012447e-06
-5.234549484719597647e-06
-4.661657306913259604e-06
-1.147663421960549820e-05
-3.576439220481365095e-04
-4.098964707180045939e-04
-4.750496038628395181e-05
4.544089554711489270e-04
3.331692366813112901e-04
-7.327935835829143358e-05
-5.196121110671696603e-05
1.527077304649729600e-04
7.108981753895560239e-04
1.571002556828390417e-03
-7.847162284481203651e-05
4.040984855888366976e-04
-2.657254818500050133e-04
-9.704509663107554595e-04
-8.310722415542653877e-04
-5.402789052469471115e-04
-2.759838216644119554e-04
-1.124159954895955068e-03
-5.156662491082409988e-04
5.053119078359943005e-05
-2.333544908028891232e-04
7.684975647325626184e-04
-8.067159026091925782e-05
1.410807351216254463e-03
-2.728422380645983701e-05
4.602981744949249010e-04
3.476431895853668470e-04
1.896339714344351499e-04
-1.347863548197481747e-04
-1.564187248158501538e-04
-2.046691879394102790e-04
-4.744168441332588092e-04
-3.595857432293826541e-04
6.104440070273285061e-04
5.475937031095361694e-04
-5.052114117872723428e-04
5.949141963041570556e-04
-5.450285109768461490e-04
9.821871601113750318e-06
-3.529481120486349741e-04
1.645914602858482918e-04
-6.815201251524279384e-04
2.634245187408802247e-04
4.580201566130402539e-04
4.911543527051793470e-04
-1.870717246013172059e-04
-7.486105396630745668e-04
2.400119010718712684e-04
6.131818318585519545e-04
7.105904616749068392e-04
4.403487231644634989e-05
-1.655489449065404713e-04
-1.422528342910285072e-04
-2.980299072557827640e-04
4.964873352487513834e-07
-7.624719667318014069e-04
-8.466532106184015745e-07
4.735295900719401342e-05
6.495525582411279292e-05
1.646218656620443340e-05
-4.475008174844375189e-05
-3.865637074544252879e-05
3.960183238469716210e-05
-8.411912807770371492e-05
-2.834577048834675605e-05
8.686945035118112256e-05
-4.724540742038181389e-05
6.388488510792087556e-05
1.587927284540418453e-04
-5.684599811231673693e-05
-5.174098983471971878e-05
-1.253688980573788110e-04
1.184794080027890707e-05
-4.286960836379918264e-05
-9.191462041326320135e-06
-3.364536540034969463e-05
6.791481209702129017e-05
-7.000859671508417566e-05
1.116525092565710976e-05
6.478702869760218465e-05
-7.843668462650143277e-04
-1.171991676861289721e-03
5.659410591770608562e-04
8.621715478360396172e-05
2.127052638334408162e-04
-2.345673101559832318e-04
-4.988589349838881909e-04
1.824921290472069973e-03
-9.891488808749322650e-04
3.016930480705113000e-03
3.721461629639190305e-03
1.611365009180407268e-04
-1.646528534760541005e-05
-8.160901342329778159e-04
-2.007870237040260825e-03
-3.069954073766567246e-03
1.340235360084332528e-03
1.816948738573286818e-03
2.855066023070078579e-04
-2.952318522979355351e-04
-5.803808395026839725e-04
-5.332846044128007048e-04
-7.394515953125393006e-04
-1.294341809438666118e-03
3.908716357775148496e-03
4.597221695214521878e-04
-1.542397694512435665e-03
-4.311656006818297528e-04
-9.332571322055342256e-04
-1.519560241945145870e-03
-1.188127278687778126e-03
1.246069420736123498e-03
3.508740529242534555e-03
1.828109434263521047e-03
1.431970766755274582e-03
-8.624952178624018537e-04
-8.218430780561623893e-04
-1.886110914105746045e-03
-1.405075327540631540e-03
-1.793296192696385103e-03
-1.426275166101319183e-03
-2.434289123856066533e-03
-3.974830549153502237e-04
3.062308822185339581e-04
6.613787253414471793e-04
-1.125768227268502709e-03
-2.159120389099765478e-04
4.632118003491231782e-03
4.131345608940027985e-04
2.622121244109548374e-03
2.011552640696055456e-03
1.752282111638343398e-04
-5.142993232113014356e-04
-1.201196254705068312e-03
-1.619780460069012969e-03
-1.886760618878058956e-03
-7.262622828594290014e-04
-1.117445329720848394e-03
-2.889994635810654781e-04
6.973197266681573515e-04
7.619867391768901394e-04
-5.665220227312983648e-04
-4.131842350057248208e-04
1.653106868053319869e-03
-1.368508100847147741e-03
4.520491595056011155e-03
1.681420271782504798e-03
1.006490375104556649e-03
-1.712301591974879980e-03
-1.567212043761854936e-03
-1.176833535420720089e-03
-1.383546969938470291e-03
1.377438012384540802e-03
9.438379290808680084e-04
1.473798922945763123e-03
7.959015834171856646e-04
-1.599544898513443171e-03
-7.433849895432026239e-04
-2.794004975819653919e-03
5.459584160479412493e-04
-5.561771444333743025e-05
-8.359816366900862505e-05
3.297127440474976329e-03
-1.418412011834731463e-04
-9.862383860007243978e-04
-5.028056090603098306e-04
-7.034573246334826363e-04
-8.235690414846406080e-04
1.938371346892710017e-04
7.554118055501070827e-05
2.773434704797338298e-04
1.191977512093779913e-04
1.282732418139764048e-04
-2.071960976366795434e-04
-3.583987741183224969e-05
-5.511568036988583530e-04
-3.853071065610312010e-04
-9.525657744195447111e-04
1.017089979117250052e-03
-1.049028729442121071e-04
4.908387730883353789e-04
1.342635296642999941e-04
-2.282342459244044949e-04
2.881771797930636454e-05
3.368693008951492945e-05
-3.096105532911939434e-06
3.913676919241687807e-04
-9.315318776876122680e-05
-7.136277914375722877e-05
-6.095312911780500034e-05
-5.542608112941836983e-05
-1.410633393210299611e-04
5.629863049022642234e-05
5.167120869948349694e-05
-2.245335078929490313e-05
-1.708041248706615672e-05
-1.351329454826892278e-05
-1.155184358501164089e-05
-1.047253978705833570e-05
-3.289839799301003120e-05
-2.129220532088656908e-04
1.007642670841608446e-04
5.301599933866677286e-04
8.823616739350175647e-05
-4.427810459365586490e-05
-1.631495830290135153e-04
-1.872763179641416705e-04
-1.115343690686538864e-04
3.761784095898725597e-04
1.015674407915261946e-03
-2.567709391339299341e-04
1.178830314835173137e-04
-2.389827630430025045e-04
-1.658940126034716325e-04
-5.513873555499190809e-05
-7.929493986532567141e-04
4.030984725231973910e-04
8.018709475430915072e-04
7.348881040614780235e-04
-3.249375952414982585e-04
-2.584378074844203448e-04
-2.344273320558409369e-04
-4.110044660155558129e-04
-7.110503233304512434e-04
5.857133319378749403e-04
1.058079109541736323e-03
6.842690722080555519e-04
1.504263433355562197e-04
1.589376996037788797e-04
-2.697735081327808679e-04
-7.818651144927831701e-04
-1.585786934001436575e-03
-8.438662172474409035e-05
-3.788078663360775226e-04
-2.017392417499527801e-04
-1.678616069071885923e-04
-1.213769688315292417e-04
-2.706168939285344931e-05
-1.929518164886339493e-05
1.000529176591208888e-03
-7.911307403608017685e-05
-1.810376826128933967e-04
9.047295568541758660e-05
4.928146972319914906e-04
2.657483584825984482e-05
-9.533656399064363964e-05
-5.557961191866593816e-06
-2.488172069341850379e-04
-2.381459382347916073e-04
1.403314637107968069e-03
2.786869293992884269e-04
3.327631373988549062e-04
-8.311798351499094387e-04
-6.097166404472689500e-04
-8.765014994868047978e-04
5.407792094126625789e-04
-2.310826822349589028e-05
1.111953102647608184e-04
-2.705695217260698215e-05
-1.532366353374931339e-05
-1.063668288167313052e-05
-8.840110602892228500e-06
-8.035322435586606026e-06
-1.819431041475661504e-05
-1.004073367197158605e-04
7.964593385664877918e-04
-1.643869112895447553e-04
1.552564605087375805e-04
2.524752061433065782e-04
-2.318418111964674932e-04
-2.120311608818570206e-04
-4.955237851309476612e-04
4.632602613276275128e-04
4.491702344616661032e-04
3.231781957356353024e-04
-1.711269861658636928e-04
-2.793958732419167014e-04
-7.905345296789798937e-05
-2.042913767093952854e-04
-5.017410024398552765e-04
-3.374599155908087185e-05
3.920892659219185248e-04
1.950426236785031365e-04
4.251188470825141498e-04
-4.809911614553301199e-05
-1.855806984681531563e-04
-6.683401790238201428e-05
-6.779909126077866008e-04
-5.479607933093883464e-04
1.361591291273768880e-03
9.923720218412313433e-04
1.872580372029928448e-04
-1.824838357107448769e-04
-3.500210917072232517e-04
-2.828530606902496572e-04
-1.177902568900386854e-03
1.352711701345030593e-03
-5.568532427954729928e-05
-2.618275530186462969e-04
-2.114636067297855581e-04
-2.116634996126296855e-05
-4.724707943369210359e-05
-1.739543434583845172e-04
-5.813674444637117718e-04
1.808944618703515550e-03
7.728532441466465577e-03
3.177754563315801748e-04
-3.010056986313983606e-04
-1.693046169460666987e-03
-1.880839759841945692e-03
-2.060835230562214297e-03
-3.919525658005330870e-03
6.539966526210022092e-03
3.693250587661283703e-03
-2.520157121937873618e-04
-2.503202371756694383e-03
-2.416664333211753987e-03
-1.786189028269078577e-03
-1.981748432577360840e-03
-1.293397235862628423e-03
-2.487767653013174128e-04
-3.604961048669829619e-04
-5.026741128380074301e-05
5.120295227012041918e-05
2.469038932526632674e-05
4.451202835613920393e-05
-2.117455031311432336e-05
5.603094618136896573e-04
4.153607010385635193e-03
-2.319104856402803925e-03
-9.348830952571528198e-04
-2.109812458630619132e-03
-2.846212103255289175e-03
-2.157369950840548785e-03
-2.466978923751536948e-03
8.680754377752319603e-03
0.000000000000000000e+00
0.000000000000000000e+00
0.000000000000000000e+00
0.000000000000000000e+00
0.000000000000000000e+00
0.000000000000000000e+00
0.000000000000000000e+00
0.000000000000000000e+00
-1.284495459645795790e-04
2.063573013276997527e-03
5.795442548543043061e-04
-7.798482216513199974e-04
-3.962701651473501127e-04
-1.300472812531027486e-03
-1.260643325617672459e-03
1.222566802780647530e-03
-4.975210257880073318e-05
-6.923380198666394725e-05
-6.142368671913354158e-05
-4.266397948760184056e-05
-3.316914125340649389e-05
-2.853538554347647484e-05
4.880494583079313082e-05
2.359731517382899005e-04
3.036582199825545438e-05
3.821551097210047591e-04
1.571660534847739074e-04
3.022179627056878156e-04
6.960395331096529614e-04
-1.322803023670970287e-06
-6.127389019505834894e-04
-9.538827760451197395e-04
3.592744935795313889e-04
-5.707906461352779334e-04
7.709102560752217675e-05
-3.015997473439202526e-04
-5.448709383071720109e-04
-4.279066438803424141e-04
-5.467245733149871242e-04
1.955527029794645790e-03
7.674136203309092456e-04
4.713213961313409903e-03
1.300089578347422186e-03
6.755293224147942066e-04
-2.590549635050951212e-03
-2.072145048917329885e-03
-3.253545960584823104e-03
4.599941621465614507e-04
-3.627326082880005863e-04
-1.010609220905486381e-03
-5.325357286748015921e-04
3.280684124583193743e-05
-5.957670795174299433e-04
-1.063687749864972642e-03
2.021589719644919082e-04
3.330366574040367292e-03
-5.157268646605158097e-04
1.600908565721700277e-06
1.177509045185333751e-03
1.282239729283451838e-04
-5.106531562920430466e-05
6.256234675069674751e-05
-6.161039517033141443e-04
-1.870001414370622492e-04
-1.025518281616891051e-03
1.113691937922809067e-03
2.373648630618446255e-03
-3.943678230868208280e-04
-1.138124760560041068e-03
-8.018487496584055267e-04
-7.728420296345636133e-04
6.453610760154685540e-04
2.159329828236832612e-03
8.707551648872952988e-04
-1.174224911513138377e-03
-5.997422857760016093e-04
-4.933422815550189038e-04
-1.283023844587099799e-03
-2.210094520581201965e-03
2.730342850888333069e-03
-1.342650035408525641e-03
2.288881571528231414e-03
2.569013155358162732e-03
1.187409988625262331e-03
-9.168709282885228410e-04
-1.476962271353697608e-03
-4.038792877333496033e-03
1.729971396872584128e-03
1.891546324264864159e-05
-5.975838553766939015e-04
1.496545898004959406e-03
-3.975572498600344522e-04
1.372334735094149956e-05
-2.169186677769508679e-04
3.084414057896600224e-04
-6.255663413745295902e-04
-8.019859556475298192e-04
-1.322600239257998289e-04
2.233880091592206196e-04
3.254012717391207990e-04
-1.163103337970140190e-05
2.070650750298231582e-04
-4.523906282359562824e-05
2.352617198484619626e-04
2.815513128841671446e-04
7.707316130620768839e-05
2.092441701456151172e-05
1.405263775244094959e-04
-6.527770791873713154e-05
3.824689916271201639e-04
-3.832286489549979183e-04
-4.540379034827305414e-04
5.433583624803563564e-04
-1.378496748898517957e-03
-6.385655773081956154e-04
3.779608090058248621e-05
-5.601193490008994505e-04
-6.006204209286486592e-04
1.198398363731223730e-04
2.476807816382201131e-03
-3.727823820410128622e-04
-1.170222764151187915e-03
-2.968151802559591560e-05
-7.443675281666868018e-05
-3.648308202029972106e-05
7.449611310715418969e-04
-6.221767317129888657e-05
1.000863041154521470e-03
-6.409301632250872594e-04
1.558517668751035600e-03
1.096999751390502313e-04
1.173566965927016993e-04
-2.256463288950702980e-05
-5.788172909638715112e-04
-3.391824694280306195e-04
-2.040797839762924627e-04
7.862166617059845571e-04
-3.911212494697036683e-05
2.182774571301861460e-04
3.474354669930267240e-05
-2.688854935354383319e-04
-2.022497298931303050e-04
-9.328384847919588712e-05
-4.357064686807381052e-04
-2.147274229060287245e-04
5.262025088559331128e-04
1.068697959884149613e-04
-1.336720028809314318e-04
-3.278111000340441544e-04
-1.899648035055646954e-04
-4.562484591978864480e-04
6.893514836801074071e-04
4.400474435631015151e-05
8.077871108968714617e-04
-7.191569427873418925e-06
1.258360882280860167e-04
-3.823914103763149529e-04
-4.304041774343660360e-04
-5.652633276106883457e-04
4.076225413679756301e-04
1.469972677613655887e-03
-1.255681705804810675e-03
-1.222903912423582880e-03
-4.723925569375567548e-04
9.391457159126246278e-05
5.875181402287329036e-04
-2.160128442160399748e-05
8.211740701539013872e-04
-1.282580584826352671e-03
4.452314664370069994e-03
9.841725042794046471e-04
-1.102894225834195408e-03
-7.840209976053154860e-04
-1.313063976293588021e-03
-1.247297783972011300e-03
2.933703998819861308e-04
-1.345537004971733910e-03
3.610549663790994616e-03
3.490682838233741042e-04
-6.010306329096165448e-04
-3.664319190865264106e-04
-7.922538023696982764e-04
-1.161494026780276459e-03
3.071294385034836934e-04
-3.369897278827797826e-03
2.075525540761926063e-03
1.886067986527288631e-03
7.008046446131303104e-04
-8.896144087848412878e-05
-8.016213605082291461e-04
-8.265667079008349972e-04
4.246486162129985598e-04
1.614931685801500446e-03
-2.202404120502154949e-03
-1.559284119623896700e-03
-6.155654630893010563e-04
-3.151914338026252081e-04
-9.010967104941800844e-04
-8.976450097967134372e-04
4.876255171507367682e-03
-5.228342877262315280e-04
3.880873288892409522e-03
3.208736735506967624e-03
-4.261105637029854787e-05
-1.555260373726644399e-03
-1.189110647132409241e-03
-2.430914333999429841e-03
-1.348879325444365994e-03
9.292367461809756830e-05
1.417166060666093979e-04
1.609243437939688042e-04
2.945922660549888999e-04
3.223592779307079024e-05
-2.607806464199351106e-04
-3.085112515893714211e-05
-4.307610467478635466e-04
2.660261124907112892e-04
-5.301910587323005507e-04
-9.487688854890227979e-05
-2.102819798986017559e-04
2.256176285282635930e-04
-5.480507137510579171e-05
-2.326618917791497122e-04
6.311731493150853165e-04
3.242143837974117353e-04
1.885771196875345515e-03
6.381487175498213758e-04
-4.211844149260248111e-04
-5.210591289211001812e-04
-5.258630700351743861e-04
-5.651830398346327977e-04
-8.148446445056478594e-04
7.814488947067688672e-04
5.542292042002370644e-04
1.375764263469803940e-03
-1.123590828768017587e-03
-5.158144417796284688e-04
-5.883883712401286091e-04
-6.936543267860111571e-04
2.100056061969767093e-04
-3.031324585968115347e-03
7.034858104142609854e-04
2.128968445277899368e-03
-2.946181074751991137e-04
-3.199906259518444794e-04
5.079408674059102471e-04
-1.091861120115035066e-03
1.397399316412124273e-03
-5.104881761242102906e-04
1.321573339234707043e-04
1.820637921908613635e-03
8.381862207741207335e-05
-1.353782866474912425e-04
-3.331679503480938298e-04
-3.567133373243256290e-04
-7.008661274653779551e-04
-2.097043098766995599e-04
-6.991371234809906892e-04
-6.078544356581213384e-05
4.951496684188557047e-04
2.216205480485347319e-04
1.732013215928999311e-04
-4.111148826325528689e-05
1.207668271264674445e-04
1.335193582869401217e-04
-6.151175162524847846e-05
-5.201266907006472805e-07
4.756835842715672501e-05
3.615754119823805902e-05
6.517737614456557097e-05
-6.934719347722976006e-05
-1.510435622637215679e-04
-6.309531181329525997e-04
1.555704710592820681e-03
9.496317587106176835e-06
2.957870948961456212e-04
-1.607203436162775955e-04
-7.003775128004660372e-05
-2.860069430126373235e-04
-7.132699670341577109e-04
-1.303222686864967340e-04
4.517635900967021789e-04
3.072688165589994801e-04
-2.337830455495789955e-04
1.703220823991985348e-04
-4.901034518441841590e-05
-1.571641055749386855e-04
-3.590747240594680065e-04
1.180732437101724699e-03
1.347611523040726260e-03
-3.548020867752669128e-04
-7.927007993880920943e-04
-1.662751265865715909e-04
-5.301314889464942785e-04
-7.945574570992439698e-04
1.101229986532177655e-04
4.350539768425677419e-04
-3.167348507242087369e-04
2.742306337150534398e-03
1.572726550457358553e-04
-4.464522500608816293e-04
-5.946928741439307066e-04
-6.700551918528519857e-04
-1.306697802256964963e-03
-7.610024703784256793e-05
5.394222406921310616e-04
-1.324043557678732791e-04
-7.004127851629391973e-05
-2.946153003789963318e-04
-4.178409077805766313e-05
-1.408013986594928372e-04
2.163244304464255442e-04
-1.357783453953378353e-03
-5.876663584397573073e-05
1.038347607484146331e-03
2.649349910373716144e-04
2.138722779464046495e-04
-2.476449485688256356e-04
-4.005746176016623610e-04
5.476147794999190179e-04
-7.269717890666475011e-04
-9.504865763916460616e-04
-8.670311208690423006e-04
-5.263848281532223974e-04
-3.977603859791322143e-04
3.648933426961792185e-05
6.523159308531366145e-05
3.366913773104759922e-03
-2.396124434578810348e-03
3.174500712665277290e-03
2.489722773695526685e-03
-2.420949292129643486e-04
-6.873825735085633930e-04
-1.471580107777025262e-03
-6.415657624519058386e-04
-2.254756788315359509e-04
-7.537724856545347006e-04
4.519826007428228397e-03
9.099223291250790446e-04
3.930547131380035053e-04
-5.919354930360903920e-04
-9.272364860454336208e-04
-7.719249190147254355e-04
-2.777933665940528207e-03
-3.378687094806696466e-04
3.964002540327061250e-05
2.403907246604124811e-04
1.485266228975027909e-04
3.658140859903187114e-04
-3.259252102837561138e-05
-3.417795352371292032e-04
-8.213069320532999915e-05
7.518759670005272801e-05
4.332908832684390413e-04
2.164767819994711242e-04
-3.717707181341527433e-05
-6.620433854971428578e-06
-7.688890565124067370e-05
-3.389071121338569953e-05
-5.703781394349497717e-04
1.473035431576557465e-05
-1.808990059639835563e-04
5.993855374399116608e-05
1.149031309771877214e-04
3.037623154205835964e-04
2.355888012769357883e-05
-4.002781467700721211e-05
-2.959664139442307182e-04
-1.870880432314441085e-04
1.342186177783696822e-03
1.729712635972292193e-03
8.062631692357197189e-04
-1.139500926501393506e-03
-5.647542842930666209e-04
-1.215434787802625915e-03
-7.713839411631792349e-04
-3.034530088891162732e-05
-4.074174340256275643e-05
3.930215794694864905e-05
4.963004948362661892e-05
-1.960325117262625837e-05
-1.685514738638571629e-05
-1.534286950998690638e-05
3.395610492989797988e-05
-4.425160854962689760e-04
2.090023758214044815e-03
4.905541048434496022e-04
4.116005649913014410e-04
-1.522487722461965517e-04
-5.960927646560977696e-04
-1.079432942806259023e-03
-7.218878628439719938e-04
1.365147847872858172e-04
8.758357620572245535e-04
2.442447177629758601e-04
-6.817965522047392127e-04
-3.377720551568811963e-04
-1.348561822584169040e-03
-9.136193381940690581e-04
2.025154503532368942e-03
-6.804411971648608804e-04
-1.137402392067098870e-03
-1.004444913370773499e-03
-5.144354445597123290e-04
-2.873895049725204323e-04
-6.249123965946426615e-05
-2.412071400686156245e-05
3.710725405801290362e-03
-4.053049449801888202e-04
2.776931633057131733e-03
1.129597479138670993e-03
4.473633514134097572e-04
-7.865393874974156100e-04
-9.355594690241763548e-04
-8.008830560203058623e-04
-1.425605606087126378e-03
-1.418757774141769714e-04
2.719312588309396412e-04
2.110262319264285917e-04
-1.218973185190092251e-04
1.308195651943499626e-04
-8.064620072689322326e-05
-7.320038603412098728e-05
-1.961573732575176937e-04
-9.000573839895287915e-05
1.645648772929484023e-04
1.810077850699618764e-04
8.472106625536393815e-05
-3.407484973520421705e-05
-9.419528557555424068e-05
-1.073131512748457695e-05
-2.012865397810783251e-04
5.451572980846885498e-04
1.178041561775376332e-03
1.222670433157177798e-03
-8.011832409605405998e-04
-6.766399207522769783e-04
1.113081815039411481e-04
-4.666837447908238129e-04
-1.112670568017543873e-03
-3.795741288895157408e-05
5.187996754491225413e-04
6.273594605618505336e-05
-1.815672852472621627e-04
3.841310120357144920e-05
-1.551494043841302004e-04
1.144671697820655025e-05
-2.567213371667413689e-04
5.009286640143918642e-05
-5.822464262104665731e-05
3.955262576597476712e-05
1.505718691365017881e-04
-5.417923665031099849e-05
-4.521696060450218117e-05
-4.046146119264390712e-05
-4.213506023541213304e-05
-5.961229657298331612e-04
-8.789173134658986386e-04
-6.370196520837912140e-04
-3.727016880607459336e-04
-1.022613372580386914e-04
-2.158606484646975851e-04
4.829321690071911938e-05
2.754590388162286938e-03
1.266936311613188568e-03
9.428206949305268899e-04
1.250258821968651315e-03
-3.306567826050071392e-04
-6.386624281779734562e-04
-5.342579479146730833e-04
-5.944056799735700702e-04
-1.362032989841144162e-03
-3.490165352221498104e-04
-2.157728938083423691e-05
-2.984480840744680222e-04
1.700950736100859258e-04
-4.505927408398928619e-05
-2.462743346054675609e-05
-2.792217249004052344e-04
8.478552675123079930e-04
-4.867284830425054284e-04
-3.984349197259072777e-04
-1.642098698015212401e-04
1.891149485494192871e-04
-2.867413729196429447e-04
-3.382154072060880221e-04
-7.545989982675963337e-06
1.492761094128921455e-03
-1.127667925168910181e-03
-7.949074869901515171e-04
4.992477690913850593e-04
2.368348955333172533e-03
-3.220003750512954338e-04
-1.470273291649349225e-03
-7.501924976554603551e-04
1.597444852090603535e-03
-1.879794566137527869e-03
-3.278554307227092194e-05
2.101655224309214448e-03
2.468148459147123837e-03
1.850120643890735238e-04
-6.213144076846140217e-04
-4.298543118010181860e-04
-1.791066919149981182e-03
3.740940087078213454e-03
1.326304479000378796e-03
1.753629165889360230e-03
-1.639210529500197046e-03
-1.166354643520343655e-03
-1.532735740228400407e-03
-1.584889772083444186e-03
-8.976830466355687019e-04
-9.791768788353857628e-04
-4.943662255449542305e-04
1.068890581979780197e-03
1.688263491304261340e-03
1.417583006726478244e-04
-5.745503803439558268e-04
-7.596165058340488682e-04
-9.120238339834616415e-05
1.557060480186191892e-03
-1.937941751460077586e-04
1.767347475989110598e-03
1.002565027888451064e-03
-8.658795787016554521e-04
-3.269269185262436246e-04
-6.120236979091525122e-04
-2.328348613780695155e-03
-2.604271232442716458e-04
-6.656225932866251683e-04
3.263918240739662781e-04
6.071589035933048920e-04
1.568446868122759746e-04
-8.701962994355011893e-04
-3.501163599467784176e-05
7.408622374815280499e-04
-4.620017709090866996e-04
1.502629076097848626e-03
3.056589025969089907e-04
-4.182683334997258965e-04
2.686353473922239066e-04
-4.604015897899099295e-04
-6.029064297492750697e-04
-1.333452021389830607e-04
-6.778038089997568761e-04
9.395891072949120017e-04
1.939151416773147963e-03
5.993558365320592637e-05
1.841024443546855139e-04
-6.129544600589115124e-04
-3.424187790432981198e-04
-1.489601503973986578e-03
-6.986963225707212800e-04
-1.101875252505710992e-04
4.355789730705755553e-04
-5.333339136811840811e-04
-3.231130087158177078e-04
-5.457597696393057680e-05
-2.299818498898351907e-04
1.514309624001483872e-03
1.356119365196965364e-03
-2.435337368837696209e-04
-7.934695768554108123e-05
6.238179663491577381e-04
4.556179075386668957e-05
-1.585185088422702288e-04
-2.947894935855949216e-04
-1.249310425302812937e-03
-1.967533755905960305e-05
-4.727424681907205895e-05
4.076882761936462859e-05
1.476289371781597194e-04
1.708838832704213931e-05
-4.865995834075528663e-05
3.121125691658424231e-05
-1.210878673222638284e-04
8.431301466106032013e-04
1.264705586265893337e-03
8.681882922640113756e-04
-3.828238622464788239e-04
5.455289648929326825e-04
-6.874146181923313252e-04
-9.296756721919569684e-04
-1.521638837402674183e-03
1.125015688643170742e-03
1.805946837572465491e-03
2.487170535021781897e-04
-9.064534254807842754e-05
-5.722010968842390269e-05
-4.862500475934060243e-04
-7.379280551570536204e-04
-1.807636024730849798e-03
-4.480149156844866741e-04
4.506203420219941601e-04
2.132286129259667803e-03
2.361833330411792955e-04
7.033295756697982223e-04
-2.952589717673555604e-04
-7.191153907745949630e-04
-2.060030101766204859e-03
2.040658110048262919e-03
2.976350276186919691e-03
3.898685516230984108e-04
1.456323838724019742e-03
-1.078587807654561494e-03
-1.664864562481216176e-03
-1.228270442711154251e-03
-2.891477963735369656e-03
-8.561003393930155829e-04
-1.044365152487428290e-03
-9.724343783305028788e-04
-5.931805231462849819e-04
-5.838862563214317850e-04
-5.077843005290061428e-04
-9.609076027150799057e-05
4.653841710479176066e-03
-1.927934261834230801e-03
-2.826509418994657165e-03
-2.118724713412628666e-03
-1.078326359321902855e-03
-7.815340406874160713e-04
-3.766213127914404789e-04
9.747601787321208714e-04
8.134889928310158960e-03
-4.046132184575279025e-04
-4.346855932289509644e-04
2.092723146622253239e-04
3.695647661278616864e-04
-1.298951555829986216e-04
4.337209233273291056e-04
-3.346522272218369477e-04
2.912881903738986185e-04
3.839134912021074128e-04
1.389688969628265734e-03
2.240906445407519435e-03
-5.768823057087315740e-04
-7.134925501310905626e-04
-8.955299615317374208e-04
-6.155209590427206069e-04
-1.213083129823609978e-03
-3.002162618253404478e-04
1.456097865281535389e-03
7.571239005792172738e-04
7.263444838306323207e-04
-6.770875130320927102e-05
-4.385705506961366383e-04
-8.574944260654954794e-04
-1.275576259801204475e-03
-5.467590226980750421e-04
-6.233825460761138141e-04
-6.852723332284288806e-05
4.535440760673171653e-04
-5.080506531378555429e-05
-4.344071509949499316e-04
-6.384000943307146939e-05
1.334176951771521040e-03
-1.288567157826024613e-03
-3.177233902561272475e-03
-1.252800066715039620e-03
5.896953774937934052e-03
1.782894903783193829e-03
-1.154614275976311019e-03
-1.353278158365755482e-03
5.466448827232712072e-04
4.782167730758325741e-04
2.023218367411011142e-03
1.596104096524374313e-03
-6.187399754949322677e-05
-1.052274951740988932e-03
-1.321171184081795487e-03
-4.580165253170441508e-04
-1.204202578321894850e-03
-1.719015697638489411e-04
9.137181827518881623e-04
7.777976372238050743e-04
7.583506786855411181e-04
-2.227555796112734641e-04
-2.933729016019776155e-04
-1.199930123025160682e-03
-5.619063246589714022e-04
1.915947291385737734e-04
3.850200572307251197e-04
-8.209302413440229616e-05
1.088118562020968507e-04
-1.225674265859097922e-04
5.768824289195995011e-05
-1.531498391007072863e-04
-3.853045956423359602e-04
-1.003986912695171508e-03
2.476080243813091539e-03
-5.873947694984909488e-04
2.133676171596394252e-04
-7.773400078824260024e-04
-9.109353574399121738e-04
-7.657426319818065423e-04
1.355951818525076699e-03
-1.158377354728702940e-03
-1.935605901485034155e-03
-1.567912234819778070e-03
-2.347978172393823089e-04
-3.219009204035580747e-04
-2.802567656009128478e-04
-7.809345685061612697e-06
5.506660339962432364e-03
-2.442766366448667929e-04
-3.345487884565459254e-04
-2.058570521561061122e-04
-2.045063508746276890e-04
-1.624572727427672206e-05
-7.289747789635905883e-05
-6.582385683461996204e-05
1.144155890137402371e-03
-1.622282326253809189e-03
-3.651753297509587916e-03
-1.147021592321604330e-03
-1.915709410071435390e-03
-3.452743309743590999e-04
-1.036690183083204897e-03
-7.129958712076404394e-04
1.043172701142164489e-02
-4.841301132569539875e-06
-3.901970917434537133e-04
2.048876910700973928e-04
1.742870781300474283e-04
-2.430300791650000041e-04
1.327740299203418386e-04
1.694643438130433860e-04
-4.334467089250676128e-05
1.503145507695031091e-04
-2.593112419875829577e-05
-4.669264620035382585e-05
-1.679604372410662544e-04
1.883963027453074645e-04
1.401690247278350877e-04
-7.016808733706732986e-05
-1.681275832654000198e-04
-1.596299763014262692e-03
-1.795756618190102322e-03
-1.135000998620674158e-03
1.163969190796955216e-03
-2.992756894581698060e-04
-3.569349779277845359e-04
-5.888482875338504592e-04
4.608147143947892606e-03
3.192091761328588913e-03
-1.095797536573191828e-03
-2.288737036500999595e-03
-9.853212321475103563e-04
-1.073879116256310157e-03
-9.463945524294088913e-04
-1.141947747422334888e-03
4.339985460001171032e-03
-2.619098770129613118e-03
3.981243626966697938e-03
1.534971052146439719e-03
-3.884335798611638995e-04
-5.465159046957043321e-04
-8.389742200407178862e-04
-7.222223575868105426e-04
-4.009698467991256008e-04
1.040946996033789533e-02
-1.187085727460263952e-03
-4.392418059303866869e-03
-2.124038250093578627e-03
4.688870931525891835e-04
-2.006141584515846229e-03
-2.481216212920792172e-03
1.312542780803863281e-03
1.021728565668347799e-02
3.657197692544644622e-04
1.226710947085101313e-03
-2.376539940643285480e-03
-2.072925529784446115e-03
-2.326778283153875179e-03
-2.942455008551807336e-03
-2.091017610889640225e-03
-6.721470807408247254e-04
-8.889649225806334253e-04
-9.281672041491908576e-04
-4.601693232165614982e-04
-5.853411314003779562e-04
-4.208047317252335646e-04
-3.726445210580984612e-04
4.328238914870920218e-03
-1.087969299540457371e-03
-1.345127146400655106e-04
1.207125601772695775e-03
7.433670290150665941e-04
-4.715650589171885808e-04
-2.455944737687976512e-04
-3.385339275138537726e-04
3.276828435926014654e-04
7.512712692380219296e-04
4.988522624563194140e-03
3.255640835539032243e-03
2.875027080733941610e-04
-1.222977156613032747e-03
-2.889116729778824343e-03
-1.953259898845662555e-03
-3.217583652176122990e-03
1.553204851012961250e-04
7.086692908289258163e-04
9.484892957165684795e-04
-6.660532544317872717e-04
-4.028291519313180599e-04
-7.387481050567458636e-04
-5.496544806774223508e-04
5.448059204504838299e-04
-1.118389016716129581e-03
-2.088681616541386305e-03
-8.041673304343968046e-04
9.705350632753433158e-04
-1.979287636549163136e-04
-2.923572682752449345e-04
-3.920411385745574645e-04
3.923030070921285431e-03
-1.198450615194264013e-03
1.627513175233986963e-03
2.710315670500375741e-03
-3.998898954887029444e-04
-8.900565557438961783e-04
-2.922170693589181832e-04
-8.004516568201509863e-04
-7.567630531284290970e-04
-5.597197121955335307e-04
-1.497664797139390633e-03
1.011963904088070739e-03
1.355000920135240113e-04
3.100509805138557920e-04
7.287149052609412305e-05
-8.081849821691880877e-05
6.078165404102961120e-04
-2.059987661246234520e-03
-2.052878447458011350e-03
-7.816436436121424738e-04
-7.735946993924158960e-05
9.747601743752852326e-04
4.667949644347794101e-04
-9.348192211802537816e-05
3.623796005563590696e-03
1.421799016090830557e-03
-1.674405425424138529e-03
-2.524999965905338779e-03
-1.545755193586432477e-03
-1.011261303304146182e-03
-4.022644244521704558e-04
-8.435108442350322576e-04
6.580398140816425684e-03
-4.863721234990835162e-04
3.369742970953425090e-03
2.990410126025875703e-03
-6.227394532815187398e-04
-2.039945569848290122e-03
-1.177260510162900058e-03
-2.088252723007523286e-03
5.441728282001782310e-05
-4.828186090652011007e-03
1.392078328613531937e-02
5.422307403624281909e-03
-1.288043119199457163e-03
-2.856093138322873641e-03
-3.895605025873644708e-03
-4.047380872782320102e-03
-2.427782442929296396e-03
9.917172062857400414e-04
2.421064729908317930e-03
3.080906788464888007e-03
-1.385754608498007950e-03
-1.030846273949676071e-03
-2.598649860679252879e-03
-1.374036817412472699e-03
-1.044011641195339950e-04
-1.288614286638957137e-03
-1.757444499239460035e-03
-1.157675138362265809e-03
1.069647332505877391e-03
-6.912730069000206550e-04
-9.509232185009827178e-04
-5.115594777520736326e-05
4.827438764911017206e-03
-9.318971607256958806e-04
-9.526223694641733136e-04
-1.067581035859647455e-03
-1.120797679281336213e-04
-5.028910620663358966e-04
-2.159635235845709688e-05
7.038224611204599020e-05
3.518285502290397545e-03
4.945203552078886525e-03
1.251322998912869546e-03
1.272978900175432101e-04
-1.135393552019334706e-03
-1.042770843016555590e-03
-1.124427858537057094e-03
-8.087664771003142674e-04
-2.212465710336036784e-03
5.007855718164387192e-04
-2.885462813470797601e-05
7.026185620273332159e-04
-3.215266639974845840e-04
-4.280721217212660862e-04
-1.011333706158009131e-03
-1.170520159099981217e-03
1.756903145267675256e-03
-1.865097644069358416e-03
-1.043093469544146982e-03
4.920067132794512556e-04
8.021254300797159764e-04
5.272601792281426253e-04
-3.046507222668578185e-04
2.596138452998962782e-04
1.131835667993156972e-03
-1.000369554183765152e-03
4.283168577343132027e-03
2.891898806740415308e-03
4.090923641279268727e-04
-1.525268719271185344e-03
-5.812873644687618045e-04
-1.663485393506512235e-03
-2.813748716781252438e-03
3.730658922272453264e-03
-2.933295997897380873e-03
-4.272877080852062470e-03
-1.171280820751592362e-03
-1.649731414238866283e-03
-1.324637480175366736e-03
-2.036369660719964964e-03
9.657533532362774786e-03
-4.036232738472932927e-04
4.148913032226034074e-03
1.997408306403846735e-03
-7.722617749226817936e-04
-1.139456084306101876e-03
-1.624273815030171687e-03
-2.186054595232314168e-03
-2.065179529131491262e-05
5.479777501292224656e-03
-1.929878504357877508e-04
-7.857932437126720219e-04
-6.775588926741606989e-05
-1.457867165780002416e-03
-1.174322657591932292e-03
-1.690148968704279810e-03
-1.109017258001317749e-04
5.960342638866908795e-04
1.721648666061559524e-03
-9.843389180351851640e-04
-3.639034890055276960e-04
-4.233428888216009549e-04
-8.796220521755936409e-04
-6.794182151588073213e-04
1.012942633248466217e-03
-7.071765897740077411e-04
2.768420336968077308e-03
4.521755482855818395e-03
1.592975898795391792e-03
-8.100011110015827888e-04
-1.659818106379510206e-03
-1.222061145155125530e-03
-4.484094766309063181e-03
1.040780375027789730e-02
2.475625004907712218e-03
4.790916331786941254e-05
-2.396906078090026767e-04
-2.364867780128098937e-03
-2.537708664154690943e-03
-2.885885657581693450e-03
-4.903185208829996707e-03
-1.259586312210610702e-03
-2.518824232257006832e-03
-6.970299815489975140e-04
6.338915584821598571e-04
5.758547002008352397e-04
3.124933487315347566e-04
-1.308936941901958249e-03
4.262137860504045667e-03
2.001518407787559670e-03
-2.616200716529713550e-03
-1.152283968921422519e-03
-6.026902550600987110e-04
-2.388287641980991268e-04
4.077386265776751528e-04
-2.995385457337232577e-04
2.500285216077823697e-03
1.939622056713817023e-03
8.353895489360186125e-03
-1.778710202848407746e-04
-4.121448907599902130e-03
-1.909634227251140329e-03
-4.562124969638078897e-03
-4.408319225495511973e-03
4.885880804195471931e-03
3.953705885847121418e-03
-4.762386686014629479e-05
-2.826241912988763320e-03
2.357678132075674820e-03
-1.847096315188007315e-03
-2.192418687972160374e-03
-2.443616640389211295e-03
3.045613405475489522e-03
2.831386750274927228e-04
-6.149276623466302634e-05
-2.926890404040263932e-05
-6.329561511262717100e-05
-4.618892048749040786e-05
3.567230878742953847e-05
-3.655649355929286226e-05
-8.200828438044622561e-05
-1.830846621522626456e-03
1.981958382863448220e-03
-1.275060838438484717e-04
1.951325101923507676e-03
7.049906094178564134e-04
-1.070189118220643163e-03
-1.786878549360169975e-03
1.771462787424721525e-04
4.435423784627216142e-04
-6.648268373018607468e-04
1.292396525599847680e-04
-1.233180958603236456e-03
-1.523807438944453554e-03
-3.396593005927976260e-03
-3.562788827337399003e-03
9.808415037092220803e-03
7.644478535178014875e-04
2.468181141765816381e-03
3.132736723241142870e-03
-1.015161303138253750e-03
-1.083537413409182623e-03
-1.601635224965838617e-03
-2.655412890607521115e-03
-9.618886403964420963e-06
-4.632796583727898055e-04
-9.457314138418949998e-04
-1.020199816245391218e-03
-1.982386318987127392e-04
-1.728685416814405460e-04
-3.467814690219390701e-04
1.323835410418480654e-04
3.014715990020321208e-03
-2.636659463105038115e-04
-1.126132157758283716e-04
-1.526988708706937493e-04
6.649157727544730402e-05
-9.115497335951942446e-05
-6.447106529487756402e-05
2.254051398036939182e-05
5.955719803556062996e-04
-7.682544005806302514e-05
-9.448003850878680676e-05
-8.498108427448633386e-05
-6.619078376442442946e-05
-5.476293161749502326e-05
-4.931744128405197232e-05
2.899471872802701161e-05
3.975630007792805318e-04
-6.731419160790659420e-04
-1.133600855275631149e-03
2.257535348174229107e-04
-1.759477458758858226e-04
-1.849490707938963169e-03
-1.544231432203163308e-03
-8.309066361935989577e-04
5.981565758748885221e-03
-2.785696174623984375e-03
7.974503242078224844e-04
2.546490788105015488e-03
-3.205407984486318817e-04
8.394040041977427142e-04
-2.148189266744237214e-04
-1.187640541745961899e-03
3.253513249824190501e-04
3.803125109965783523e-03
1.725817226668036161e-04
1.393662159932533302e-03
-1.986770338444204635e-03
-1.679542084863428581e-03
-1.849667078861145847e-03
-1.555993516783986570e-03
1.702604026387642862e-03
1.059812797471334231e-03
2.808890215748189798e-03
1.119692871376305786e-03
-1.916814472396964186e-03
-4.413746742806274465e-04
-1.666076725303362134e-03
-1.841909545655189082e-03
8.777795330403197552e-04
7.612815128305915145e-04
1.632917266656175878e-03
1.158293538287911983e-03
-7.622586352153804369e-04
-1.205000832409391324e-03
-5.252098699461665420e-04
-8.824531571556339408e-04
-1.775698230481083796e-04
-1.547171254823007059e-03
-1.597774753302533789e-03
1.380716281440748676e-03
7.754512132045136407e-04
1.432289572393802279e-04
-5.011089367772661105e-04
-1.158069653108601856e-04
1.462465458329024288e-03
-6.036025549714622331e-03
4.973219626236075226e-03
5.573159058834613669e-03
-6.384874947075943078e-04
-1.746261908620950869e-03
-1.548585598144631157e-03
-1.301778000112913114e-03
7.247598662300253763e-04
6.990701934780023776e-04
1.637261296746697761e-05
2.771019667873054603e-03
8.147098270783501928e-04
-1.974595181822214236e-04
-1.359149444595636599e-03
-1.133013353090898089e-03
-1.611549985528119280e-03
-7.723698318213797522e-04
7.148025368305980457e-04
-3.635804926958161238e-04
7.448655130732177460e-04
2.429108912360102479e-04
5.231287332178952360e-04
-1.996249328077765491e-04
-8.901324170327500973e-04
-1.982484588377774089e-03
1.546527740049540923e-04
2.670941590039105709e-04
1.381154885401354715e-04
-1.124081483449400630e-04
-1.920260743558818380e-04
-8.131133013756666836e-04
2.540169690905262796e-03
1.203529085482175865e-03
-1.924817570357228568e-03
4.657782413536769512e-05
1.669872635934172705e-03
-2.541394718094380496e-04
-8.349876831555605840e-04
-4.298054578384919540e-04
5.237706376090022799e-04
-1.996425397004967118e-03
1.075190582290147696e-03
4.411978989571615183e-03
-6.064102264440290446e-04
-1.271218003444785864e-03
-1.702826034573776896e-04
-9.177746924935822241e-04
-5.250586490170234058e-04
3.955568617635778043e-03
1.595212446371689977e-03
-2.068222116070449895e-03
-4.416125486276432336e-04
-9.075001222253513628e-04
-1.809955358247429579e-03
-8.757528152109399179e-04
5.522618963743415772e-04
1.810674195806668586e-03
2.105669476708018229e-03
1.055494849249023672e-03
-1.226141337249510093e-04
-6.719253650304649224e-04
-6.061799692815332758e-04
-1.550852552359847881e-03
-2.020266501366911691e-03
3.309358757095213653e-04
3.517759238030030659e-03
6.335147222666187745e-03
-1.564776021141240351e-05
-2.229165752072127197e-03
-1.344013813734540059e-03
-2.517064192426911925e-03
-4.077950817960747203e-03
4.753160092434441375e-03
6.940012269709562587e-03
4.414773014644111752e-04
-2.337614873342818648e-03
-2.346525375548818952e-03
-2.779351514924928435e-03
-2.757310702830861014e-03
-1.913847196960990257e-03
-1.367692356565458796e-03
2.268080135865529340e-03
2.309795790525222443e-03
1.063761194336130367e-04
-9.857870557538684405e-04
-1.282895396661679240e-03
-7.033138204830568282e-04
-3.445634163603016921e-04
-3.060577997679662498e-04
-6.416568782063011888e-04
-3.783665006332332086e-04
-2.674612448093846031e-04
-1.151458215498516499e-04
-1.587681042266897739e-04
-7.148075193221066958e-05
1.938937101125636246e-03
7.262469005380166060e-04
1.776161994627378348e-03
2.720830161513603093e-04
-4.597916713401636120e-04
-5.663299868203013282e-04
-4.968387198652759931e-04
-4.703356588730912336e-04
-7.811958744179222291e-04
-2.440461360861741907e-04
-4.145584342120533410e-04
-2.245549925061076193e-04
-1.624234176612518021e-04
-1.742112632790524386e-04
-1.471067095208372492e-04
-6.145237503883749024e-05
1.428353328304314118e-03
1.030108327418277885e-03
-6.958844626973377302e-06
-2.721824997339173345e-03
-8.282297534999927486e-04
-2.296481458565392971e-04
-1.816807941372482063e-03
-1.057424094443054456e-03
5.630785449719941105e-03
-9.054327063313061480e-05
1.513728065915962893e-04
5.180609406135750187e-06
4.836281715931430134e-04
6.221045502962719350e-05
2.244441357941273207e-04
-3.277981320866653033e-04
-5.084947756948336294e-04
3.761784095898725597e-04
1.015674407915261946e-03
-2.567709391339299341e-04
1.178830314835173137e-04
-2.389827630430025045e-04
-1.658940126034716325e-04
-5.513873555499190809e-05
-7.929493986532567141e-04
7.108981753895560239e-04
1.571002556828390417e-03
-7.847162284481203651e-05
4.040984855888366976e-04
-2.657254818500050133e-04
-9.704509663107554595e-04
-8.310722415542653877e-04
-5.402789052469471115e-04
-5.090916904835765874e-05
1.066183890580733136e-03
-3.937229823851360710e-04
1.472679324531234947e-05
-1.808757663467873715e-04
7.314356573974598529e-05
2.387161277309642700e-04
-7.672624595164738090e-04
-1.303222686864967340e-04
4.517635900967021789e-04
3.072688165589994801e-04
-2.337830455495789955e-04
1.703220823991985348e-04
-4.901034518441841590e-05
-1.571641055749386855e-04
-3.590747240594680065e-04
3.730658922272453264e-03
-2.933295997897380873e-03
-4.272877080852062470e-03
-1.171280820751592362e-03
-1.649731414238866283e-03
-1.324637480175366736e-03
-2.036369660719964964e-03
9.657533532362774786e-03
1.938371346892710017e-04
7.554118055501070827e-05
2.773434704797338298e-04
1.191977512093779913e-04
1.282732418139764048e-04
-2.071960976366795434e-04
-3.583987741183224969e-05
-5.511568036988583530e-04
-2.442766366448667929e-04
-3.345487884565459254e-04
-2.058570521561061122e-04
-2.045063508746276890e-04
-1.624572727427672206e-05
-7.289747789635905883e-05
-6.582385683461996204e-05
1.144155890137402371e-03
-2.097043098766995599e-04
-6.991371234809906892e-04
-6.078544356581213384e-05
4.951496684188557047e-04
2.216205480485347319e-04
1.732013215928999311e-04
-4.111148826325528689e-05
1.207668271264674445e-04
7.512712692380219296e-04
4.988522624563194140e-03
3.255640835539032243e-03
2.875027080733941610e-04
-1.222977156613032747e-03
-2.889116729778824343e-03
-1.953259898845662555e-03
-3.217583652176122990e-03
-1.596299763014262692e-03
-1.795756618190102322e-03
-1.135000998620674158e-03
1.163969190796955216e-03
-2.992756894581698060e-04
-3.569349779277845359e-04
-5.888482875338504592e-04
4.608147143947892606e-03
-1.118389016716129581e-03
-2.088681616541386305e-03
-8.041673304343968046e-04
9.705350632753433158e-04
-1.979287636549163136e-04
-2.923572682752449345e-04
-3.920411385745574645e-04
3.923030070921285431e-03
-5.961229657298331612e-04
-8.789173134658986386e-04
-6.370196520837912140e-04
-3.727016880607459336e-04
-1.022613372580386914e-04
-2.158606484646975851e-04
4.829321690071911938e-05
2.754590388162286938e-03
-1.198450615194264013e-03
1.627513175233986963e-03
2.710315670500375741e-03
-3.998898954887029444e-04
-8.900565557438961783e-04
-2.922170693589181832e-04
-8.004516568201509863e-04
-7.567630531284290970e-04
-2.588609867905049657e-04
1.642185333634398319e-03
1.906441594846145469e-04
-1.524752768033451440e-04
-2.736620259285900956e-04
-1.215409427254714902e-04
-3.816728762945508120e-04
-6.446173845765507246e-04
3.908716357775148496e-03
4.597221695214521878e-04
-1.542397694512435665e-03
-4.311656006818297528e-04
-9.332571322055342256e-04
-1.519560241945145870e-03
-1.188127278687778126e-03
1.246069420736123498e-03
-6.721470807408247254e-04
-8.889649225806334253e-04
-9.281672041491908576e-04
-4.601693232165614982e-04
-5.853411314003779562e-04
-4.208047317252335646e-04
-3.726445210580984612e-04
4.328238914870920218e-03
-1.870880432314441085e-04
1.342186177783696822e-03
1.729712635972292193e-03
8.062631692357197189e-04
-1.139500926501393506e-03
-5.647542842930666209e-04
-1.215434787802625915e-03
-7.713839411631792349e-04
-1.004073367197158605e-04
7.964593385664877918e-04
-1.643869112895447553e-04
1.552564605087375805e-04
2.524752061433065782e-04
-2.318418111964674932e-04
-2.120311608818570206e-04
-4.955237851309476612e-04
-4.620017709090866996e-04
1.502629076097848626e-03
3.056589025969089907e-04
-4.182683334997258965e-04
2.686353473922239066e-04
-4.604015897899099295e-04
-6.029064297492750697e-04
-1.333452021389830607e-04
-6.778038089997568761e-04
9.395891072949120017e-04
1.939151416773147963e-03
5.993558365320592637e-05
1.841024443546855139e-04
-6.129544600589115124e-04
-3.424187790432981198e-04
-1.489601503973986578e-03
-2.728422380645983701e-05
4.602981744949249010e-04
3.476431895853668470e-04
1.896339714344351499e-04
-1.347863548197481747e-04
-1.564187248158501538e-04
-2.046691879394102790e-04
-4.744168441332588092e-04
-3.378687094806696466e-04
3.964002540327061250e-05
2.403907246604124811e-04
1.485266228975027909e-04
3.658140859903187114e-04
-3.259252102837561138e-05
-3.417795352371292032e-04
-8.213069320532999915e-05
2.660261124907112892e-04
-5.301910587323005507e-04
-9.487688854890227979e-05
-2.102819798986017559e-04
2.256176285282635930e-04
-5.480507137510579171e-05
-2.326618917791497122e-04
6.311731493150853165e-04
-3.034530088891162732e-05
-4.074174340256275643e-05
3.930215794694864905e-05
4.963004948362661892e-05
-1.960325117262625837e-05
-1.685514738638571629e-05
-1.534286950998690638e-05
3.395610492989797988e-05
-1.418757774141769714e-04
2.719312588309396412e-04
2.110262319264285917e-04
-1.218973185190092251e-04
1.308195651943499626e-04
-8.064620072689322326e-05
-7.320038603412098728e-05
-1.961573732575176937e-04
1.645914602858482918e-04
-6.815201251524279384e-04
2.634245187408802247e-04
4.580201566130402539e-04
4.911543527051793470e-04
-1.870717246013172059e-04
-7.486105396630745668e-04
2.400119010718712684e-04
1.352711701345030593e-03
-5.568532427954729928e-05
-2.618275530186462969e-04
-2.114636067297855581e-04
-2.116634996126296855e-05
-4.724707943369210359e-05
-1.739543434583845172e-04
-5.813674444637117718e-04
-2.059987661246234520e-03
-2.052878447458011350e-03
-7.816436436121424738e-04
-7.735946993924158960e-05
9.747601743752852326e-04
4.667949644347794101e-04
-9.348192211802537816e-05
3.623796005563590696e-03
5.451572980846885498e-04
1.178041561775376332e-03
1.222670433157177798e-03
-8.011832409605405998e-04
-6.766399207522769783e-04
1.113081815039411481e-04
-4.666837447908238129e-04
-1.112670568017543873e-03
6.131818318585519545e-04
7.105904616749068392e-04
4.403487231644634989e-05
-1.655489449065404713e-04
-1.422528342910285072e-04
-2.980299072557827640e-04
4.964873352487513834e-07
-7.624719667318014069e-04
-5.228342877262315280e-04
3.880873288892409522e-03
3.208736735506967624e-03
-4.261105637029854787e-05
-1.555260373726644399e-03
-1.189110647132409241e-03
-2.430914333999429841e-03
-1.348879325444365994e-03
-3.060577997679662498e-04
-6.416568782063011888e-04
-3.783665006332332086e-04
-2.674612448093846031e-04
-1.151458215498516499e-04
-1.587681042266897739e-04
-7.148075193221066958e-05
1.938937101125636246e-03
0.000000000000000000e+00
0.000000000000000000e+00
0.000000000000000000e+00
0.000000000000000000e+00
0.000000000000000000e+00
0.000000000000000000e+00
0.000000000000000000e+00
0.000000000000000000e+00
7.862166617059845571e-04
-3.911212494697036683e-05
2.182774571301861460e-04
3.474354669930267240e-05
-2.688854935354383319e-04
-2.022497298931303050e-04
-9.328384847919588712e-05
-4.357064686807381052e-04
1.184794080027890707e-05
-4.286960836379918264e-05
-9.191462041326320135e-06
-3.364536540034969463e-05
6.791481209702129017e-05
-7.000859671508417566e-05
1.116525092565710976e-05
6.478702869760218465e-05
-3.490165352221498104e-04
-2.157728938083423691e-05
-2.984480840744680222e-04
1.700950736100859258e-04
-4.505927408398928619e-05
-2.462743346054675609e-05
-2.792217249004052344e-04
8.478552675123079930e-04
-3.727823820410128622e-04
-1.170222764151187915e-03
-2.968151802559591560e-05
-7.443675281666868018e-05
-3.648308202029972106e-05
7.449611310715418969e-04
-6.221767317129888657e-05
1.000863041154521470e-03
-1.967533755905960305e-05
-4.727424681907205895e-05
4.076882761936462859e-05
1.476289371781597194e-04
1.708838832704213931e-05
-4.865995834075528663e-05
3.121125691658424231e-05
-1.210878673222638284e-04
1.365147847872858172e-04
8.758357620572245535e-04
2.442447177629758601e-04
-6.817965522047392127e-04
-3.377720551568811963e-04
-1.348561822584169040e-03
-9.136193381940690581e-04
2.025154503532368942e-03
-4.053049449801888202e-04
2.776931633057131733e-03
1.129597479138670993e-03
4.473633514134097572e-04
-7.865393874974156100e-04
-9.355594690241763548e-04
-8.008830560203058623e-04
-1.425605606087126378e-03
-6.731419160790659420e-04
-1.133600855275631149e-03
2.257535348174229107e-04
-1.759477458758858226e-04
-1.849490707938963169e-03
-1.544231432203163308e-03
-8.309066361935989577e-04
5.981565758748885221e-03
-1.426275166101319183e-03
